{
	"epoch": 9,
	"learning_rate": 0.01,
	"batch_size": 500,
	"to_shuffle": true,
	"loss": 0.03251238262746483,
	"accuracy": 0.9892666666666666,
	"fc_weights": [
		[
			-0.02059817872941494, -0.030760379508137703, 0.014478780329227448,
			0.020629066973924637, 0.007840283215045929, -0.03221319615840912,
			-0.03196938708424568, -0.02197674848139286, 0.01087917760014534,
			-0.0013948343694210052, 0.012507535517215729, 0.01862698793411255,
			0.18166698515415192, 0.1802883744239807, 0.1696663647890091, 0.009536027908325195,
			-0.03111414611339569, 0.008369892835617065, -0.0028305724263191223,
			0.019395601004362106, -0.0038348473608493805, 0.0034714974462985992,
			0.00780579075217247, -0.014264354482293129, -0.022002676501870155,
			-0.025086667388677597, 0.011910412460565567, 0.01745506376028061, 0.02933913841843605,
			-0.0018730051815509796, -0.005746129900217056, 0.03369573876261711,
			0.0338599868118763, 0.13798142969608307, 0.25943320989608765, 0.18621280789375305,
			0.1041167825460434, 0.0707504153251648, 0.21810658276081085, 0.32781437039375305,
			0.2507423460483551, 0.18958112597465515, -0.10264783352613449, 0.05869629606604576,
			0.5914663076400757, 0.5419967770576477, 0.16465917229652405, 0.1775970458984375,
			0.2754804491996765, 0.17895850539207458, 0.20062771439552307, 0.23012925684452057,
			-0.03517628833651543, 0.0008318834006786346, -0.02419213391840458,
			0.019516441971063614, 0.025787536054849625, 0.0006451644003391266,
			0.23295541107654572, -0.36743372678756714, -0.03385279327630997, 0.07653676718473434,
			0.21564257144927979, 0.4099080264568329, 0.6263700723648071, 1.2377492189407349,
			0.9333441257476807, 0.7532680034637451, 0.5957815647125244, 0.1521814614534378,
			0.416049063205719, 0.4240913987159729, 0.13664980232715607, 0.04854010418057442,
			0.12368986755609512, -0.11427722871303558, 0.24682565033435822, 0.5323367118835449,
			0.4423179626464844, 0.4125954210758209, 0.35250431299209595, 0.19643637537956238,
			0.016562342643737793, 0.014039549976587296, 0.02034042775630951, 0.03055233135819435,
			0.06382998079061508, -0.3461547791957855, -0.029223933815956116, -0.14364176988601685,
			0.24196192622184753, 0.02527143806219101, -0.08875978738069534, 0.3844125270843506,
			0.0627586841583252, 0.343209445476532, 0.1373281329870224, 0.23815202713012695,
			0.12664639949798584, 0.03605152666568756, -0.025602053850889206, -0.09910087287425995,
			0.15245458483695984, 0.26754626631736755, -0.4186742305755615, 0.0893668457865715,
			-0.11642429977655411, -0.024843592196702957, 0.21985265612602234,
			-0.05488969013094902, 0.2093314826488495, 0.0010887272655963898, 0.000567067414522171,
			-0.06350700557231903, -0.06493468582630157, -0.8662359714508057, -0.27757567167282104,
			0.36969658732414246, 0.6375291347503662, 0.2499622404575348, 0.34481748938560486,
			0.4602409899234772, 0.32388895750045776, -0.11010205745697021, -0.06920595467090607,
			0.09108264744281769, 0.06942705810070038, -0.1324795037508011, -0.13067026436328888,
			-0.08993729948997498, -0.19477900862693787, -0.13402056694030762, -0.1611972153186798,
			-0.3659316897392273, -0.582207202911377, -0.5029040575027466, -0.4333798885345459,
			0.05684983357787132, 0.133468896150589, 0.41842973232269287, -0.003851410001516342,
			0.005369603633880615, 0.1903664916753769, -0.3964877128601074, 0.07331523299217224,
			-0.150680273771286, 0.12751470506191254, -0.017198432236909866, 0.0399455726146698,
			-0.0323248915374279, 0.1221393421292305, -0.1358247846364975, -0.07782961428165436,
			-0.040703605860471725, 0.11280319839715958, -0.034792229533195496,
			-0.04780203849077225, 0.057362839579582214, -0.1043458878993988, -0.19388113915920258,
			-0.07034525275230408, -0.16840901970863342, -0.4871225953102112, -0.27127087116241455,
			-0.16932812333106995, 0.2340490221977234, 0.4679783880710602, 0.4540548324584961,
			0.00904776155948639, -0.0017113089561462402, 0.2097388505935669, 0.5627091526985168,
			0.36093923449516296, -0.1637934446334839, 0.07965908199548721, -0.26247745752334595,
			-0.17796580493450165, -0.0962524265050888, 0.03257324546575546, 0.17088136076927185,
			0.007653919979929924, -0.09040360152721405, 0.048409219831228256,
			-0.06617829203605652, -0.10707476735115051, -0.21458745002746582, -0.3255977928638458,
			-0.5064763426780701, -0.6283337473869324, -0.41121283173561096, -0.18828651309013367,
			-0.185352623462677, -0.015353470109403133, 0.3794277608394623, 0.2729797959327698,
			0.38069555163383484, -0.02258383482694626, -0.07179263234138489, 0.6399015784263611,
			0.3371083438396454, 0.2832045257091522, -0.5956645011901855, -0.4243936240673065,
			-0.3236302435398102, -0.07276657968759537, -0.05812070146203041, 0.15417543053627014,
			0.3292597830295563, 0.07656122744083405, -0.074691541492939, -0.026995157822966576,
			-0.15007250010967255, -0.08645183593034744, -0.20287036895751953, -0.2130170315504074,
			-0.5376992225646973, -0.6738877892494202, -0.5181983113288879, -0.6132898330688477,
			-0.5994630455970764, 0.06272196024656296, 0.28771692514419556, 0.3212035596370697,
			0.2926666736602783, 0.3564434051513672, 0.06377894431352615, 0.20754805207252502,
			-0.11687597632408142, 0.2871963083744049, -0.5256333351135254, -0.15425866842269897,
			-0.0997498407959938, -0.08445708453655243, 0.3088023364543915, 0.34644827246665955,
			0.15052326023578644, 0.02567749284207821, -0.11900848895311356, -0.10301435738801956,
			-0.16411998867988586, -0.21451543271541595, -0.004275964573025703,
			-0.2752924859523773, -0.2356243133544922, -0.2801970839500427, -0.49867546558380127,
			-0.6228768825531006, -0.6191432476043701, -0.7709898948669434, -0.5758990049362183,
			-0.26204487681388855, -0.09563692659139633, 0.031124290078878403, 0.40303418040275574,
			-0.12069204449653625, 0.2754308879375458, -0.19052818417549133, -0.24316301941871643,
			-0.16462263464927673, 0.026316625997424126, -0.03389441594481468, 0.20153938233852386,
			0.09670279175043106, -0.152980774641037, -0.08261767774820328, -0.2554425001144409,
			-0.09783051162958145, -0.04732334613800049, -0.13965068757534027,
			-0.15988625586032867, -0.24968907237052917, -0.041032906621694565,
			-0.07762578874826431, -0.18025754392147064, -0.09310157597064972, -0.5939160585403442,
			-0.044056590646505356, -1.0452378988265991, -0.8377475142478943, -0.6153125762939453,
			-0.0175740048289299, 0.4283977150917053, 0.2990916967391968, 0.030862657353281975,
			-0.043869633227586746, 0.4143415093421936, 0.427891343832016, -0.11873745173215866,
			-0.3474196493625641, -0.05546317994594574, -0.10685427486896515, -0.14671307802200317,
			-0.24076735973358154, -0.3638584315776825, -0.17392069101333618,
			-0.0036769898142665625, 0.02171519212424755, 0.016287291422486305,
			-0.11628127843141556, -0.18914645910263062, -0.007890386506915092,
			0.10337120294570923, -0.14951825141906738, -0.13696351647377014, 0.3812984526157379,
			-0.6882062554359436, -0.35203805565834045, -0.7081387042999268, -0.011167436838150024,
			1.104416012763977, -0.07442821562290192, -0.21449273824691772, -0.19874373078346252,
			-0.03789879381656647, -0.03494390472769737, -0.6251711845397949, -0.4170096516609192,
			0.06236628070473671, -0.028739310801029205, -0.1278393566608429, -0.4107794165611267,
			-0.4116978049278259, -0.19959904253482819, -0.20760759711265564, 0.002080255653709173,
			-0.14832325279712677, -0.1020754799246788, 0.0973796471953392, 0.08343032747507095,
			0.14623883366584778, 0.0012249500723555684, 0.01915513537824154, 0.2695353031158447,
			0.2906702160835266, -0.48324060440063477, -0.9380583167076111, -0.0014051906764507294,
			0.05481854826211929, 0.39926013350486755, 0.1833629161119461, -0.1793847382068634,
			-0.5223920941352844, -0.7145537734031677, -0.6279866695404053, 0.0021075131371617317,
			0.268686443567276, 0.16489623486995697, 0.19762252271175385, -0.15538649260997772,
			-0.15886253118515015, -0.05909335985779762, -0.3513159453868866, -0.09212300926446915,
			-0.09878939390182495, -0.1725781261920929, -0.1724788248538971, -0.0775907039642334,
			0.10985042154788971, 0.2855558693408966, -0.15683020651340485, 0.4167936146259308,
			0.20575706660747528, -0.5777627825737, -0.8753959536552429, -0.027005409821867943,
			0.05964508652687073, -0.017447054386138916, 0.3294947147369385, -0.10922074317932129,
			-0.30993375182151794, -0.3372715711593628, -0.28581419587135315, 0.2436407208442688,
			-0.1735721379518509, -0.15928016602993011, 0.0074996682815253735,
			0.028265831992030144, 0.33212417364120483, 0.03567550331354141, -0.08649356663227081,
			-0.3115624487400055, -0.18557238578796387, -0.1899554431438446, -0.24935093522071838,
			-0.16245710849761963, -0.03828785941004753, -0.024819253012537956,
			0.09311651438474655, 0.36620885133743286, 0.2369784563779831, 0.24041905999183655,
			0.40944480895996094, 0.11616417020559311, -0.16180425882339478, -0.13707546889781952,
			0.3998716473579407, -0.5063905119895935, -0.2507503628730774, -0.24911649525165558,
			0.05300736054778099, 0.2388027310371399, 0.005153395235538483, -0.05293935909867287,
			0.1642322689294815, -0.004491446074098349, 0.061373520642519, 0.11705612391233444,
			-0.01433881651610136, -0.16329750418663025, -0.3319242298603058, -0.20505620539188385,
			-0.35250547528266907, -0.018882909789681435, -0.009134441614151001,
			0.046193476766347885, 0.07575473189353943, 0.49471354484558105, 0.5850661396980286,
			0.5966195464134216, 0.22455571591854095, 0.16157133877277374, -0.0784299373626709,
			-0.03171492740511894, 0.3610660433769226, -0.8225336074829102, -0.1631297469139099,
			-0.1623212695121765, 0.07467751950025558, 0.24993251264095306, 0.2590091824531555,
			0.24298423528671265, 0.4212377965450287, 0.11531035602092743, 0.32619309425354004,
			0.18605166673660278, -0.023779435083270073, 0.03151345252990723, -0.19933345913887024,
			-0.25589683651924133, -0.048775482922792435, 0.0407634861767292, 0.23674920201301575,
			0.10893796384334564, -0.1509048044681549, 0.18572495877742767, 0.7311984896659851,
			0.3169246017932892, 0.5687780380249023, -0.02634086087346077, -0.19021302461624146,
			-0.02843354642391205, 0.06708799302577972, -0.4988558888435364, 0.004374044016003609,
			0.06915712356567383, 0.22682619094848633, 0.10812295973300934, 0.03331581503152847,
			0.2223646193742752, 0.45810094475746155, 0.25008657574653625, 0.08945958316326141,
			0.40513211488723755, 0.19389818608760834, 0.23426805436611176, 0.14800390601158142,
			-0.013483485206961632, 0.13687612116336823, 0.056147657334804535, 0.5585856437683105,
			0.24835439026355743, 0.30418920516967773, 0.3191772997379303, 1.105246901512146,
			0.7099753022193909, 0.5633407235145569, 0.0024836547672748566, -0.32159513235092163,
			-0.009842101484537125, 0.057025156915187836, -0.16307559609413147,
			-0.02848801761865616, 0.20470350980758667, 0.10752704739570618, 0.13187384605407715,
			0.09101586043834686, 0.18075232207775116, 0.1330706626176834, 0.13723789155483246,
			0.30117663741111755, 0.28816187381744385, 0.011311618611216545, 0.06369840353727341,
			0.04932388290762901, 0.26322507858276367, 0.12708403170108795, 0.2276730090379715,
			0.5626898407936096, 0.45799899101257324, 0.11111750453710556, -0.024539798498153687,
			0.9648116230964661, -0.29213815927505493, -0.07815506309270859, 0.032330967485904694,
			-0.29822173714637756, -0.12568821012973785, 0.1847873479127884, -0.005516641307622194,
			0.00526772765442729, 0.08665823191404343, 0.18321561813354492, 0.17223697900772095,
			0.21329863369464874, 0.09872398525476456, -0.09616968780755997, 0.153476744890213,
			0.14446532726287842, 0.2803429365158081, 0.24112318456172943, 0.1533210128545761,
			0.19338886439800262, 0.19448423385620117, 0.04946102946996689, 0.1437084972858429,
			0.2700293958187103, 0.12725859880447388, 0.19363589584827423, 0.075655497610569,
			1.091884970664978, -0.5804714560508728, 0.595125675201416, 0.21670077741146088,
			0.6123178005218506, -0.26367422938346863, -0.10585222393274307, -0.10575399547815323,
			-0.09041938930749893, -0.03287331014871597, 0.37165939807891846, 0.0961313247680664,
			0.15668518841266632, 0.10915195941925049, 0.18275292217731476, -0.06962019205093384,
			-0.08283410966396332, 0.13800166547298431, 0.4905504286289215, 0.4482528865337372,
			0.4587676525115967, 0.3176316022872925, 0.2604483366012573, 0.36136123538017273,
			0.19270439445972443, 0.368010550737381, 0.413159042596817, -0.3112024664878845,
			0.6948841214179993, 0.5052337050437927, 0.339728981256485, -0.015098243951797485,
			0.5807257294654846, 0.34703966975212097, 0.23574402928352356, -0.029219016432762146,
			0.08448635041713715, -0.05623503774404526, 0.09371022135019302, -0.030084669589996338,
			0.07512179017066956, 0.16194455325603485, 0.26844659447669983, 0.030035270377993584,
			-0.2273637056350708, 0.027483494952321053, 0.3128993809223175, 0.3997020423412323,
			0.37863120436668396, 0.5657762885093689, 0.48534148931503296, 0.4658084213733673,
			0.4935470223426819, 0.38361606001853943, 0.49577048420906067, -0.19955264031887054,
			0.35881274938583374, 0.38158950209617615, 0.1820133775472641, 0.010283458977937698,
			-0.0021926509216427803, 0.33126235008239746, 0.17906053364276886,
			-0.005339151248335838, 0.04004839062690735, -0.04255986213684082, 0.2268276959657669,
			0.25909292697906494, 0.33368560671806335, 0.3273983299732208, -0.034941524267196655,
			-0.06662694364786148, -0.07342004776000977, -0.05892815813422203,
			-0.09102640300989151, -0.07464934140443802, 0.15945923328399658, 0.14766983687877655,
			0.09531140327453613, 0.4192330539226532, 0.38067659735679626, 0.5237862467765808,
			0.47711652517318726, 0.03415659815073013, 0.49418604373931885, 0.9387511014938354,
			0.08154843747615814, 0.027818653732538223, -0.029664620757102966, 0.49349069595336914,
			0.23890042304992676, -0.05745574086904526, 0.29283004999160767, 0.16751867532730103,
			0.15666252374649048, 0.23949430882930756, 0.21809794008731842, 0.2681225836277008,
			0.0463830940425396, -0.26026496291160583, -0.1316833198070526, -0.3199305832386017,
			-0.43746674060821533, -0.5864660739898682, -0.6943256258964539, -0.3029954433441162,
			-0.020931754261255264, 0.13807323575019836, 0.2822599709033966, 0.09370861947536469,
			0.1004117876291275, -0.41966792941093445, -0.22600966691970825, -0.3490786850452423,
			0.11792220920324326, 0.01883416622877121, -0.026667166501283646, 0.2287764847278595,
			-0.4231172502040863, -0.6705433130264282, -0.5604231953620911, -0.5511645078659058,
			-0.38495782017707825, -0.18720458447933197, -0.12729009985923767, -0.0837256908416748,
			-0.1211327537894249, -0.0554904080927372, -0.34041690826416016, -0.3877779245376587,
			-0.466835081577301, -0.8209812045097351, -0.9643301367759705, -0.46151643991470337,
			-0.2178533524274826, -0.1148708239197731, -0.3217846155166626, -0.13194116950035095,
			-0.31056076288223267, -0.8075141310691833, -0.30701738595962524, -0.20621778070926666,
			0.003437340259552002, 0.02409689500927925, -0.011611845344305038, -0.128311425447464,
			-0.6328545212745667, -0.8170316815376282, -0.8017920255661011, -0.4941946566104889,
			-0.2942448556423187, -0.18581992387771606, -0.26871001720428467, -0.13834695518016815,
			-0.41545310616493225, -0.9246537685394287, -0.9237292408943176, -0.9072026610374451,
			-0.8203869462013245, -0.7104148268699646, -0.817452609539032, -0.9566252827644348,
			-1.5711305141448975, -1.547648549079895, -1.3843863010406494, -0.46912702918052673,
			-0.9179108738899231, -0.41663867235183716, 0.2964537441730499, 0.21674518287181854,
			0.006694428622722626, 0.00856287032365799, 0.0005574151873588562,
			0.009975068271160126, -0.09237313270568848, -0.13858328759670258,
			-0.37243011593818665, -0.26097971200942993, -0.4149487316608429, -0.8382905125617981,
			-0.9839519262313843, -0.7007439136505127, -0.5333298444747925, -0.35444194078445435,
			-0.553620457649231, -0.7350291609764099, -0.47600802779197693, -0.4499896466732025,
			-0.5915220379829407, -1.1948641538619995, -1.4429206848144531, -1.2793217897415161,
			-1.0835201740264893, -0.48249050974845886, -0.4165663719177246, -0.4412001073360443,
			0.1468593329191208, 0.15985780954360962, 0.002518601715564728, -0.021901467815041542,
			-0.001780003309249878, 0.02295609936118126, -0.0006484910845756531,
			-0.08471504598855972, -0.12174756824970245, -0.15233847498893738, -0.2254982590675354,
			-0.18250206112861633, -0.5914374589920044, -0.5466113090515137, -0.5427964925765991,
			-0.08445043116807938, -0.1729104071855545, -0.1869494467973709, -0.5320042967796326,
			-0.602756679058075, -0.3825221657752991, -0.4960562586784363, -0.5057118535041809,
			-0.6454018354415894, -0.630738377571106, -0.04731016233563423, 0.20212337374687195,
			0.04019691050052643, 0.016824305057525635, 0.010495729744434357, 0.011196918785572052,
			-0.009388519451022148, -0.005737615749239922, -0.012133624404668808,
			0.024081740528345108, 0.022029567509889603, -0.02196192741394043,
			-0.06437993794679642, -0.034102484583854675, -0.05902648717164993,
			-0.05440916121006012, -0.5183055996894836, -0.263778418302536, -0.05787333473563194,
			-0.06981372833251953, -0.09947653859853745, -0.12416943907737732,
			-0.04481818154454231, -0.04651555418968201, 0.0040360488928854465,
			-0.06260259449481964, -0.00807267427444458, -0.08215893059968948,
			-0.04388067126274109, 0.013027306646108627, -0.02211742475628853,
			-0.005133612081408501, -0.005243480205535889, -0.013226931914687157
		],
		[
			0.014939840883016586, -0.01708335615694523, -0.03202161192893982,
			0.007916107773780823, -0.004971593618392944, 0.03439966216683388,
			-0.005294237285852432, -0.003063622862100601, -0.002803657203912735,
			0.024305064231157303, 0.009181197732686996, -0.025783782824873924,
			0.22969205677509308, 0.2964324355125427, 0.11580228805541992, 0.036034565418958664,
			0.01473323255777359, -0.019432205706834793, 0.02540937066078186,
			-0.0031947828829288483, 0.006384450942277908, 0.02747483178973198,
			0.007080942392349243, -0.03227873146533966, 0.003856237977743149, 0.01843196153640747,
			0.03047635778784752, -0.011419832706451416, -0.00984874926507473,
			-0.030711278319358826, 0.021839994937181473, -0.014955073595046997,
			-0.007905137725174427, 0.03147391602396965, 0.2317655384540558, 0.19838905334472656,
			0.24431869387626648, 0.3890153169631958, 0.33479973673820496, 0.10681527107954025,
			0.1577422171831131, 0.24945396184921265, 0.1228778287768364, 0.7823460698127747,
			0.28558528423309326, 0.40988990664482117, 0.7116768956184387, 0.3711562156677246,
			0.414761483669281, 0.26799461245536804, 0.22224074602127075, 0.24849672615528107,
			-0.034298740327358246, 0.017905663698911667, 0.029734861105680466,
			-0.01524873822927475, -0.01914902776479721, 0.03152469918131828, 0.0886530876159668,
			0.049370259046554565, 0.18088750541210175, 0.0351487398147583, 0.1731480211019516,
			0.31256839632987976, 0.019896410405635834, -0.3202242851257324, 0.1149977296590805,
			0.6186412572860718, -0.12113459408283234, 0.721200168132782, 0.22033683955669403,
			0.7406843304634094, 1.0087735652923584, 0.936284601688385, 0.7505972981452942,
			0.8457217216491699, 0.5541124939918518, 0.2943837642669678, 0.4060681164264679,
			0.36032918095588684, -0.09984206408262253, -0.016843074932694435,
			0.0010922253131866455, 0.01235823705792427, 0.02200319990515709, 0.010595019906759262,
			0.6360547542572021, 0.1060592532157898, 0.04074634611606598, -0.045168571174144745,
			0.09216666221618652, -0.18928758800029755, -0.05588917061686516, 0.16342538595199585,
			0.293536901473999, 0.11972397565841675, 0.26328155398368835, 0.1045103669166565,
			-0.03105498105287552, 0.2724118232727051, 0.13902677595615387, 0.14969566464424133,
			0.10170695930719376, -0.05058908462524414, -0.2860729992389679, 0.09560415893793106,
			0.5211596488952637, 1.1419504880905151, 0.31019914150238037, -0.5120080709457397,
			-0.32131850719451904, -0.032594628632068634, -0.0036510229110717773,
			-0.0600159652531147, 0.5494246482849121, -0.08120141178369522, -0.229410320520401,
			-0.13076117634773254, -0.46354925632476807, -0.5668514370918274, 0.12776969373226166,
			0.43247270584106445, 0.699393630027771, 0.46481236815452576, 0.330928236246109,
			0.11882113665342331, 0.3320394456386566, 0.20482395589351654, 0.17687876522541046,
			0.029163112863898277, -0.12044880539178848, 0.08040966838598251, 0.0705290213227272,
			0.08542302250862122, 0.08019033819437027, 0.21551895141601562, 0.14138878881931305,
			0.13779345154762268, 0.2076142430305481, 0.17712315917015076, -0.006948202848434448,
			-0.014529453590512276, 0.3633851408958435, -0.26096391677856445,
			-0.057058580219745636, -0.129137322306633, -0.3039533197879791, -0.28044530749320984,
			-0.06102961674332619, 0.06238102540373802, 0.10596966743469238, -0.03826287016272545,
			0.2068694680929184, 0.12063935399055481, 0.2866111695766449, 0.13529203832149506,
			-0.02940092794597149, 0.11358720064163208, -0.15120762586593628, 0.059885479509830475,
			0.103239044547081, 0.4359494149684906, 0.30244648456573486, 0.13779081404209137,
			0.39283132553100586, 0.16035698354244232, 0.6536893248558044, 0.024285515770316124,
			-0.004546914249658585, 0.03351714834570885, -0.17477037012577057,
			-0.24042601883411407, 0.04503023624420166, -0.18750976026058197, -0.3878411650657654,
			-0.25101152062416077, -0.1716172993183136, -0.013931693509221077, -0.1094101071357727,
			-0.06314555555582047, 0.12674814462661743, -0.046635158360004425,
			0.057793937623500824, 0.00436087790876627, -0.19231899082660675, -0.3010702431201935,
			-0.2879238426685333, -0.13969817757606506, -0.21540068089962006, -0.16510486602783203,
			0.1729430854320526, 0.4016178548336029, 0.3705390989780426, 0.5517539978027344,
			-0.0052145859226584435, 0.5345084071159363, 0.0016554634785279632,
			-0.16249147057533264, -0.3810928165912628, -0.33390966057777405, -0.1460915058851242,
			-0.4881063401699066, -0.4855826497077942, 0.006519837770611048, -0.017546052113175392,
			0.0171978697180748, 0.06981512159109116, -0.03724901005625725, 0.11867015063762665,
			-0.13970766961574554, -0.1506388634443283, -0.22817392647266388, -0.39046338200569153,
			-0.4420334994792938, -0.32456809282302856, -0.34599968791007996, -0.34379085898399353,
			-0.19305752217769623, 0.05643909424543381, 0.11103417724370956, -0.04056975618004799,
			0.33190399408340454, 0.2336972951889038, 0.2806275188922882, -0.039882685989141464,
			-0.05730823427438736, -0.14257483184337616, -0.031918734312057495,
			-0.19437721371650696, -0.31212854385375977, -0.17439308762550354, 0.23997008800506592,
			0.03642318397760391, 0.14370010793209076, 0.08693790435791016, 0.08114384114742279,
			-0.010291985236108303, 0.06248248741030693, -0.22064270079135895,
			-0.43972674012184143, -0.5236222743988037, -0.3296399414539337, -0.3014813959598541,
			-0.3035806119441986, -0.2459878921508789, -0.24995894730091095, -0.13562904298305511,
			0.2381267249584198, 0.2149568796157837, 0.06936314702033997, 0.5053333640098572,
			0.25188004970550537, -0.06859449297189713, -0.34562963247299194, -0.379048228263855,
			0.06455405056476593, -0.23788192868232727, -0.21605481207370758, 0.04448128119111061,
			0.10461970418691635, 0.29264912009239197, 0.23473124206066132, 0.019230617210268974,
			0.12214677780866623, -0.08468302339315414, -0.03719265013933182, -0.1450631320476532,
			-0.36113619804382324, -0.4344378113746643, -0.4047853648662567, -0.22008496522903442,
			-0.05704342573881149, -0.12307973951101303, -0.09392248094081879, 0.1903449445962906,
			0.3743906319141388, 0.30666759610176086, 0.42055803537368774, 0.4744971692562103,
			-0.42375025153160095, -0.07080533355474472, -0.11893950402736664,
			-0.41309717297554016, -0.2597009539604187, 0.15204943716526031, 0.035611592233181,
			0.1579294204711914, 0.12518610060214996, 0.21391615271568298, 0.19172871112823486,
			0.2352719008922577, 0.23970887064933777, 0.28062179684638977, 0.12651850283145905,
			0.0991746261715889, -0.13064172863960266, -0.48118889331817627, -0.4363115429878235,
			-0.0732666477560997, 0.031856827437877655, 0.06911709159612656, 0.0353262722492218,
			0.08668219298124313, 0.32652390003204346, 0.2092590481042862, -0.024321667850017548,
			0.5115607976913452, -0.18624158203601837, -0.034942567348480225, -0.170934796333313,
			-0.10313292592763901, 0.0806092768907547, 0.362832248210907, 0.35031354427337646,
			0.32843679189682007, 0.15215356647968292, 0.08847080171108246, 0.18184056878089905,
			0.005128743126988411, 0.0326804555952549, 0.10739719122648239, 0.2791294753551483,
			0.3674790561199188, -0.1483461856842041, -0.5190387964248657, -0.6059064269065857,
			-0.18797996640205383, 0.051982469856739044, 0.010628553107380867,
			-0.08335014432668686, 0.08290842175483704, 0.2374972701072693, 0.34683141112327576,
			0.6250049471855164, 1.0275133848190308, 0.019249802455306053, -0.02769594080746174,
			-0.07756925374269485, -0.23212069272994995, 0.5354672074317932, -0.04251654073596001,
			0.17365087568759918, 0.21216972172260284, 0.23248395323753357, 0.09828542172908783,
			0.12740355730056763, -0.11753660440444946, 0.056583330035209656, 0.2521514594554901,
			0.4741554856300354, 0.2108045220375061, -0.1771286278963089, -0.3045330047607422,
			-0.30012258887290955, -0.3324512541294098, -0.08989038318395615, -0.07717696577310562,
			-0.04679687321186066, 0.013560197316110134, -0.22002050280570984, 0.14798255264759064,
			0.2190459817647934, 0.264387845993042, -0.34037286043167114, 0.25923821330070496,
			-0.12468481063842773, -0.17082151770591736, 0.500747561454773, -0.5999166965484619,
			-0.06946422904729843, -0.020384838804602623, 0.011343886144459248,
			0.12346122413873672, -0.06394090503454208, -0.34392833709716797, 0.14258821308612823,
			0.39676618576049805, 0.4176338315010071, 0.11469008773565292, 0.13465040922164917,
			0.08796162158250809, -0.16004188358783722, -0.2402186244726181, 0.0903850719332695,
			0.24607440829277039, -0.034795865416526794, -0.13948214054107666,
			-0.46107688546180725, -0.5533493161201477, 0.07397037744522095, 0.4513273537158966,
			0.535940945148468, 0.12974244356155396, -0.15047523379325867, -0.028040720149874687,
			0.08257940411567688, -0.7171233892440796, -0.2299494743347168, -0.019685136154294014,
			-0.045162640511989594, -0.08110444247722626, -0.10427785664796829,
			-0.05122729018330574, 0.2527220547199249, 0.30425891280174255, 0.25782662630081177,
			0.2775856554508209, 0.20923209190368652, 0.305319219827652, 0.05550609156489372,
			-0.07472848147153854, 0.004672403447329998, -0.07393982261419296,
			-0.015954816713929176, -0.2286621630191803, -0.5895312428474426, -0.7458721995353699,
			0.03612791374325752, 0.5291408896446228, 0.15222033858299255, 0.17078357934951782,
			-0.14180700480937958, 0.19917014241218567, -0.10323777794837952, -0.539386510848999,
			-0.17936311662197113, 0.05451682582497597, 0.017737537622451782, 0.0708717405796051,
			0.00904125813394785, 0.14991654455661774, 0.44462713599205017, 0.35763978958129883,
			0.45857977867126465, 0.4458533823490143, 0.1821800321340561, 0.37089529633522034,
			0.09411165863275528, 0.12852902710437775, 0.012346738018095493, -0.1822529286146164,
			-0.19547976553440094, -0.23234742879867554, -0.5080410242080688, -0.49793553352355957,
			0.5838682055473328, -0.19942548871040344, -0.09372254461050034, -0.052331630140542984,
			0.021293880417943, 0.10353711247444153, 0.14898060262203217, -0.21916429698467255,
			-0.344542920589447, -0.09581603109836578, -0.2327539026737213, -0.07476498186588287,
			0.07764482498168945, 0.47292256355285645, 0.42744624614715576, 0.37326347827911377,
			0.28483450412750244, 0.3484073579311371, 0.20750153064727783, 0.26670533418655396,
			0.05917339771986008, 0.17576244473457336, -0.08749350905418396, -0.2596811056137085,
			-0.08006183803081512, -0.2808243930339813, 0.020121853798627853, 0.14251293241977692,
			0.7110521197319031, 0.18208454549312592, -0.09130928665399551, 0.027462493628263474,
			-0.07034917920827866, 0.027189113199710846, 0.16977538168430328, -0.11624281853437424,
			-0.09742186963558197, -0.056057363748550415, -0.2973957657814026,
			-0.10684914141893387, -0.02759348414838314, 0.2876492142677307, 0.1979217380285263,
			0.07246740907430649, 0.09174972772598267, 0.09443004429340363, -0.09984488040208817,
			0.01507240068167448, 0.06876422464847565, 0.021998489275574684, -0.08491504937410355,
			-0.02199152112007141, 0.20797239243984222, 0.042488206177949905, 0.06690813601016998,
			0.3005511164665222, -0.15029653906822205, -0.17402291297912598,
			-0.0046485718339681625, -0.30169057846069336, -0.04303032159805298,
			-0.08470258116722107, 0.10859239846467972, 0.18113847076892853, 0.12738411128520966,
			0.06527078151702881, -0.16696293652057648, -0.1936682015657425, 0.06519751250743866,
			0.22510778903961182, -0.19756457209587097, -0.25052863359451294, -0.2400921881198883,
			-0.23791663348674774, -0.2848837673664093, -0.19144770503044128,
			-0.007798589300364256, -0.15376366674900055, -0.18207842111587524, 0.3211071193218231,
			0.14270013570785522, -0.02965288609266281, 0.20416094362735748, 0.4344331622123718,
			0.6444080471992493, -0.6934049725532532, -0.06308344006538391, 0.19723375141620636,
			-0.1992689073085785, -0.053786616772413254, -0.3037969768047333, 0.03958816081285477,
			-0.04813243821263313, 0.20146659016609192, 0.016591114923357964, 0.1621168553829193,
			0.2977842390537262, 0.11907839775085449, -0.2651675343513489, -0.5690128803253174,
			-0.2520073354244232, -0.2545360326766968, -0.1723622828722, -0.08536721020936966,
			0.12427464127540588, -0.008014720864593983, 0.06303422152996063, 0.225937157869339,
			0.18251042068004608, 0.3224981129169464, 0.6416228413581848, 0.3273933231830597,
			0.848166286945343, -0.08780909329652786, -0.13345924019813538, 0.0027681514620780945,
			-0.20703260600566864, 0.0554904006421566, -0.242263525724411, 0.28352802991867065,
			-0.22834472358226776, 0.13532812893390656, 0.12840032577514648, 0.18027926981449127,
			0.31503692269325256, 0.07366213202476501, -0.20946015417575836, -0.21904756128787994,
			-0.19775880873203278, -0.13419194519519806, -0.026493407785892487,
			-0.17007867991924286, -0.04272293299436569, 0.20225059986114502, 0.25029000639915466,
			0.44005343317985535, 0.39747703075408936, 0.39932990074157715, 0.531305730342865,
			0.07964561134576797, 0.2666900157928467, 0.3235117495059967, 0.0675794929265976,
			0.1914299726486206, -0.09752997756004333, -0.0692065879702568, 0.011991740204393864,
			0.3247288763523102, -0.05911156162619591, 0.10180970281362534, 0.09355723112821579,
			0.22581136226654053, 0.30488184094429016, 0.05710761994123459, -0.1545664519071579,
			-0.18084771931171417, -0.04769783094525337, 0.0962202399969101, -0.0421125628054142,
			-0.24726448953151703, 0.12110020965337753, 0.33014342188835144, 0.3646640181541443,
			0.3591531217098236, 0.2404956966638565, 0.15196461975574493, 0.4212818145751953,
			0.14309965074062347, 0.224599689245224, -0.1190878376364708, -0.17339791357517242,
			0.1331479251384735, -0.018328426405787468, -0.05369953811168671, 0.06313099712133408,
			0.3016437590122223, 0.17658546566963196, 0.026138029992580414, -0.02486572600901127,
			0.0046626790426671505, 0.1488848179578781, 0.05013586953282356, -0.11036761105060577,
			-0.14361543953418732, -0.13699863851070404, -0.15292584896087646,
			-0.13476935029029846, -0.1504678875207901, 0.08458314836025238, 0.08542072027921677,
			0.08888279646635056, 0.1293695718050003, 0.057559799402952194, -0.17813970148563385,
			0.30954310297966003, 0.09497501701116562, 0.016745038330554962, 0.19138318300247192,
			-0.1784052848815918, 0.024382784962654114, 0.022600695490837097, 0.34731632471084595,
			-0.09315193444490433, 0.48191210627555847, 0.1841629445552826, -0.08975090086460114,
			-0.1856718510389328, -0.008117609657347202, 0.17060025036334991, -0.08485133200883865,
			-0.16033793985843658, 0.06631582230329514, -0.011773859150707722,
			-0.18494850397109985, -0.12376090884208679, 0.11229676008224487, 0.007075671572238207,
			-0.1041928231716156, 0.17152468860149384, 0.167999729514122, -0.341619074344635,
			-0.05473262071609497, 0.23365986347198486, -0.47689077258110046, 0.003126538824290037,
			0.5563108921051025, 0.03234129026532173, 0.009742368012666702, -0.003474924713373184,
			0.00018587753584142774, -0.3862493932247162, -0.6036111116409302, -0.2753230333328247,
			0.027354096993803978, -0.07289420813322067, 0.02304442599415779, 0.07852309942245483,
			-0.06370783597230911, 0.17795687913894653, 0.09857825934886932, -0.25999271869659424,
			-0.28291216492652893, -0.41838058829307556, 0.02135576121509075, -0.12594252824783325,
			-0.07910264283418655, 0.19344328343868256, -0.19339370727539062, -0.6695881485939026,
			-0.49546733498573303, -0.13989458978176117, 0.1273750513792038, 0.07841306924819946,
			0.11178892850875854, -0.0032278932631015778, -0.02528495527803898,
			0.009878188371658325, 0.08670619130134583, -0.2765386700630188, -0.691992461681366,
			-0.8414630889892578, -0.014340425841510296, -0.045930832624435425,
			-0.18998397886753082, -0.16623400151729584, 0.0007687614997848868, 0.013313053175807,
			0.014015577733516693, -0.04708333685994148, -0.08019053936004639, 0.23636674880981445,
			0.16089129447937012, 0.08662886172533035, -0.10849440097808838, 0.032807834446430206,
			-0.1757366955280304, -0.2401946783065796, -0.001457025296986103, 0.4868567883968353,
			0.5607393383979797, -0.10120604932308197, 0.0034310617484152317,
			-0.0031749680638313293, 0.01997240260243416, 0.014790520071983337,
			-0.010593201965093613, -0.07701092213392258, -0.186712846159935, -0.8885098695755005,
			-0.8563449382781982, -0.47427141666412354, -0.0536038763821125, -0.1585538536310196,
			-0.25930434465408325, -0.15183651447296143, -0.35489022731781006, -0.4849095046520233,
			-0.4539009630680084, 0.06618218868970871, -0.12329857051372528, -0.08052162081003189,
			-0.07278776913881302, -0.08346790820360184, -0.1943734586238861, -0.35974761843681335,
			-0.5769620537757874, -0.5603212118148804, -0.7335440516471863, -0.05543419346213341,
			0.01778416335582733, -0.015588335692882538, -0.023186612874269485,
			0.019476071000099182, 0.022674642503261566, 0.0014583095908164978,
			-0.07363450527191162, -0.08795291930437088, -0.49104130268096924, -0.3498227894306183,
			-0.3474464416503906, -0.19853554666042328, -0.07293892651796341, -0.10370249301195145,
			0.025745783001184464, -0.05825281888246536, -0.3742544651031494, -0.24791072309017181,
			-0.07490416616201401, -0.4886493384838104, -0.6902249455451965, -0.6113066673278809,
			-0.17950482666492462, -0.16444240510463715, -0.24577365815639496,
			-0.09526084363460541, -0.02273862436413765, 0.00794479250907898, 0.007272645831108093,
			0.0007647573947906494
		],
		[
			-0.017258044332265854, 0.025716889649629593, -0.02747262455523014,
			-0.0038058683276176453, -0.017987383529543877, 0.013966917991638184,
			0.0106583870947361, 0.03512114658951759, -0.003792542964220047, -0.008572591468691826,
			0.0006642937660217285, 0.005620501935482025, -0.17117656767368317, -0.177697092294693,
			-0.09093016386032104, -0.039606042206287384, 0.03248818591237068,
			0.020023398101329803, 0.007094103842973709, -0.020585622638463974,
			0.027564745396375656, -0.0040805526077747345, 0.02290167659521103,
			0.020167618989944458, -0.006535900756716728, 0.021087080240249634,
			0.011914212256669998, 0.008051015436649323, 0.010722354054450989,
			-0.02940060943365097, 0.01339123398065567, 0.002614162862300873,
			-0.043277107179164886, -0.15474195778369904, -0.3037814199924469, -0.2267295867204666,
			-0.22129322588443756, -0.24756835401058197, -0.13562215864658356,
			-0.11729661375284195, -0.1420709490776062, -0.3435188829898834, -0.13259665668010712,
			-0.40640518069267273, -0.2313022017478943, -0.49245017766952515, -0.23246152698993683,
			-0.3100798726081848, -0.3155079782009125, -0.22080953419208527, -0.2540513575077057,
			-0.28320083022117615, -0.0007057748734951019, -0.03014291822910309,
			-0.011254753917455673, 0.007065281271934509, -0.025878719985485077,
			-0.030988400802016258, -0.23985573649406433, -0.1764627993106842,
			-0.44206440448760986, -0.0849347710609436, -0.24084855616092682, -0.33379030227661133,
			-0.5135488510131836, -0.7550119161605835, -0.5864502191543579, -0.5952929258346558,
			-0.0581510029733181, 0.07160796970129013, -0.41210365295410156, -0.5478295683860779,
			-0.22805793583393097, -0.1602563112974167, -0.35204142332077026, -0.29420581459999084,
			-0.45604467391967773, -0.5273311734199524, -0.32158219814300537, -0.4113460183143616,
			-0.2304474115371704, -0.13667643070220947, -0.01766006462275982,
			-0.0033734850585460663, -0.018460040912032127, 0.01630624383687973,
			-0.0502987802028656, -0.16803976893424988, -0.10046923160552979, -0.16019366681575775,
			-0.5868195295333862, -0.547524094581604, -0.633391797542572, -0.7412510514259338,
			-0.6016378402709961, -0.46095675230026245, -0.3379831612110138, -0.49946489930152893,
			-0.5496370196342468, -0.26054996252059937, -0.310139536857605, -0.2712273597717285,
			-0.47881782054901123, -0.4514048993587494, 0.13244877755641937, -0.19458094239234924,
			-0.5411485433578491, -0.588370144367218, -0.2960173189640045, -0.24901822209358215,
			-0.207177996635437, -0.022897759452462196, -0.006670096889138222,
			0.035119716078042984, 0.33225372433662415, 0.6368967890739441, 0.24701198935508728,
			-0.49338045716285706, -0.616558313369751, -0.5668095350265503, -0.8634905815124512,
			-0.6423748135566711, -0.37205472588539124, -0.19881393015384674, -0.18125230073928833,
			-0.2979532778263092, -0.26377058029174805, -0.13433511555194855, 0.00516677787527442,
			0.07766073197126389, 0.05333876237273216, -0.01460314355790615, 0.11118020117282867,
			0.31102946400642395, 0.18210037052631378, -0.4482231140136719, 0.25263354182243347,
			-0.17365185916423798, -0.08578548580408096, -0.17909538745880127,
			-0.014655109494924545, -0.031430911272764206, -0.050707828253507614,
			0.383855938911438, -0.23953445255756378, -0.4864799678325653, -0.42069482803344727,
			-0.27062785625457764, -0.3782092034816742, -0.0920942947268486, 0.09427265077829361,
			0.15970095992088318, 0.06827116012573242, -0.04226929321885109, 0.03139727562665939,
			-0.05599462613463402, -0.058056894689798355, 0.018623193725943565,
			-0.15552778542041779, 0.09219571948051453, 0.02860025130212307, -0.1283966600894928,
			-0.15782545506954193, -0.6260336637496948, -0.3310927748680115, -0.3119710683822632,
			-0.21578146517276764, -0.07984798401594162, -0.01565464213490486, 0.22191578149795532,
			0.08449887484312057, -0.2803916037082672, -0.19212552905082703, -0.04993385821580887,
			0.018952742218971252, -0.051876526325941086, -0.07460049539804459,
			0.11056356132030487, 0.11455278098583221, 0.06637585908174515, -0.048534851521253586,
			0.08940260857343674, -0.07779832929372787, -0.07471584528684616, -0.00448504276573658,
			0.2041984349489212, -0.06407787650823593, -0.16279596090316772, 0.04552781581878662,
			0.2339017242193222, -0.03823156654834747, -0.001511562499217689, -0.09893058240413666,
			-0.6808997392654419, -0.08552532643079758, -0.2885541021823883, 0.0016719030681997538,
			0.004440430086106062, 0.18348358571529388, -0.012118612416088581,
			-0.08177278190851212, -0.00812479481101036, -0.057517606765031815,
			-0.18202683329582214, -0.01763003319501877, 0.18314102292060852, 0.07789219170808792,
			0.0005602281889878213, -0.08805951476097107, -0.13219641149044037,
			-0.2780534029006958, -0.1207108348608017, -0.06826899945735931, 0.10059180110692978,
			0.018358001485466957, 0.156643345952034, -0.17549623548984528, -0.25364044308662415,
			-0.48669514060020447, 0.0919974148273468, 0.10980460792779922, -0.4321720004081726,
			-0.2699517607688904, -0.33580854535102844, 0.6108481287956238, -0.18902385234832764,
			0.5150071978569031, 0.438896507024765, -0.19046205282211304, -0.26568418741226196,
			0.05962171405553818, -0.13573412597179413, -0.06445722281932831, 0.008924929425120354,
			-0.14284156262874603, -0.08210466802120209, 0.0431237518787384, 0.04319562390446663,
			-0.03361497074365616, -0.006730868946760893, 0.16884607076644897, 0.1188458651304245,
			0.3054008483886719, 0.09687302261590958, -0.02506871707737446, 0.012611985206604004,
			-0.18746323883533478, -0.4806360900402069, -0.08675950765609741, 0.09478317946195602,
			-0.09580005705356598, 0.00429275818169117, -0.029895545914769173, 0.03647473454475403,
			0.32767146825790405, 0.30892413854599, -0.24519401788711548, -0.2628868818283081,
			0.12903936207294464, -0.0638185515999794, 0.029229935258626938, -0.11342576891183853,
			-0.183575838804245, 0.03659839183092117, 0.20951269567012787, 0.2893092632293701,
			0.1531679630279541, 0.2204618602991104, 0.5279787182807922, 0.514376163482666,
			0.3319578766822815, 0.10207154601812363, 0.11886338889598846, 0.03400655463337898,
			-0.3085334300994873, -0.22055882215499878, -0.5661039352416992, -0.2284432202577591,
			-0.2513445317745209, -0.3500848710536957, -0.06513507664203644, -0.03544525429606438,
			-0.09362750500440598, 0.3002443015575409, -0.11449012905359268, -0.15163221955299377,
			-0.10457762330770493, 0.11279972642660141, 0.04877852275967598, -0.18754184246063232,
			-0.11021433770656586, 0.05053498223423958, 0.12278786301612854, 0.15236225724220276,
			0.2094719558954239, 0.22401495277881622, 0.4332123398780823, 0.48728087544441223,
			0.03594096004962921, -0.06687141954898834, -0.004593931138515472,
			-0.20620688796043396, 0.011970093473792076, -0.19405435025691986, -0.5261200666427612,
			-0.4925093650817871, -0.7124281525611877, -0.31751319766044617, -0.05207947641611099,
			-0.04951376095414162, -0.38715288043022156, 0.14495360851287842,
			-0.009003257378935814, -0.12564679980278015, -0.12147961556911469,
			-0.024565687403082848, 0.056473568081855774, -0.07711852341890335,
			-0.09219524264335632, -0.09051080048084259, 0.1428437978029251, 0.022995054721832275,
			-0.0390126034617424, 0.02672652155160904, 0.3686654567718506, 0.310945063829422,
			0.011515814810991287, -0.1287340521812439, -0.020454805344343185,
			-0.062099818140268326, -0.10188678652048111, -0.47502005100250244, -0.526314377784729,
			-0.8072635531425476, -0.14864280819892883, -0.4287814795970917, -0.08203796297311783,
			-0.1792156994342804, -0.25848495960235596, 0.10871437937021255, -0.08739486336708069,
			0.09678460657596588, 0.1208275556564331, 0.11227309703826904, -0.19589555263519287,
			-0.2156493216753006, -0.061793338507413864, 0.044490404427051544, 0.17049823701381683,
			0.2629581093788147, 0.01891842670738697, 0.08023399114608765, 0.14911191165447235,
			0.06115700677037239, -0.07460517436265945, -0.07261420041322708, 0.2844178080558777,
			0.18021807074546814, -0.0793071761727333, -0.04801448807120323, -0.147058367729187,
			-0.6798544526100159, -0.522133469581604, -0.491707444190979, -0.11100480705499649,
			-0.11686429381370544, -0.4106772840023041, 0.027526533231139183, 0.14624573290348053,
			-0.057949408888816833, -0.04808463156223297, 0.2930681109428406, 0.024598389863967896,
			0.048740360885858536, 0.014960570260882378, 0.14485576748847961, 0.3637164533138275,
			0.20958398282527924, 0.0034215538762509823, 0.04937319457530975,
			-0.058825865387916565, -0.06425303220748901, -0.018688395619392395,
			-0.05567855015397072, -0.03878820315003395, 0.03389614447951317,
			-0.012565202079713345, -0.07784755527973175, -0.22203350067138672,
			-0.07420032471418381, -0.5799298286437988, -0.30065101385116577, -0.15281882882118225,
			0.03749232366681099, -0.40231144428253174, -0.29722511768341064, -0.20829547941684723,
			-0.05898835510015488, -0.13248050212860107, 0.03300405666232109, 0.24459435045719147,
			0.18794812262058258, -0.08265276998281479, 0.18311719596385956, 0.5118037462234497,
			0.10029204189777374, -0.13123247027397156, -0.05896788090467453, -0.09979314357042313,
			0.11505623161792755, 0.008476190268993378, -0.05735113099217415, -0.09497654438018799,
			0.10074222832918167, 0.09897144883871078, -0.09574399888515472, 0.06059177592396736,
			0.0201344545930624, -0.6623596549034119, -0.1820879578590393, -0.21264037489891052,
			0.1423145979642868, -0.12174218893051147, 0.01579415611922741, -0.07491213828325272,
			-0.18838587403297424, -0.13909608125686646, -0.09442295134067535, 0.243811696767807,
			0.09621680527925491, 0.05826294422149658, 0.21134670078754425, 0.15526598691940308,
			-0.20620806515216827, -0.08368735015392303, 0.05644311010837555, 0.11586149781942368,
			0.11461283266544342, -0.15556806325912476, -0.17520566284656525, 0.13249781727790833,
			0.21881255507469177, 0.35791242122650146, 0.21861830353736877, 0.11724652349948883,
			-0.07291696220636368, 0.09852012246847153, -0.5414483547210693, -0.2267921417951584,
			0.15858179330825806, 0.018584109842777252, 0.06924097239971161, -0.034281957894563675,
			-0.2663610577583313, -0.11200058460235596, -0.19676320254802704, 0.20827557146549225,
			0.12109168618917465, 0.11686021834611893, 0.148159921169281, 0.10767430812120438,
			-0.052578214555978775, -0.21837496757507324, 0.11142236739397049, 0.15574544668197632,
			0.08429636061191559, 0.05088181421160698, -0.004079178906977177, 0.18414288759231567,
			-0.017639392986893654, -0.062296606600284576, 0.14997516572475433,
			0.030505452305078506, -0.4336549639701843, -0.259468138217926, -0.3548930287361145,
			0.0013775341212749481, 0.057566456496715546, 0.17221468687057495, 0.2041471004486084,
			-0.062404319643974304, -0.286257266998291, -0.19683292508125305, -0.06264366954565048,
			0.07182873040437698, 0.1750592291355133, -0.02392367273569107, 0.04814407601952553,
			0.05050622299313545, 0.04660051316022873, -0.12940506637096405, 0.060606662184000015,
			0.2597271203994751, 0.3244435787200928, 0.199161097407341, 0.09542723745107651,
			-0.10462367534637451, 0.042137306183576584, 0.11296398192644119, 0.22168484330177307,
			-0.16721096634864807, -0.7292542457580566, 0.10921183973550797, 0.5117791295051575,
			-0.4411923885345459, 0.19140759110450745, 0.03866473212838173, 0.08380919694900513,
			-0.23641206324100494, -0.2661929726600647, -0.28152406215667725, -0.07815015316009521,
			0.005701582413166761, -0.08483513444662094, -0.11778557300567627, 0.21277792751789093,
			0.12469593435525894, 0.023235611617565155, -0.06760671734809875, 0.04007573425769806,
			0.14557722210884094, 0.015161174349486828, 0.08176686614751816, 0.06002970412373543,
			-0.005041936412453651, 0.020797323435544968, -0.042509786784648895,
			-0.38363486528396606, -0.5846242904663086, -0.9665271639823914, 0.007403513416647911,
			-0.43509340286254883, -0.04670051857829094, -0.23357626795768738,
			-0.018107948824763298, 0.21432270109653473, -0.35313883423805237, -0.1482536941766739,
			-0.3263178765773773, -0.3438820540904999, -0.12401372194290161, -0.3461344242095947,
			-0.25060343742370605, -0.16289840638637543, -0.013424648903310299,
			-0.18950241804122925, -0.21197353303432465, -0.1051957756280899, 0.049678925424814224,
			0.07113457471132278, 0.13951806724071503, 0.11861341446638107, 0.08506659418344498,
			0.020217392593622208, -0.3975217938423157, -0.8713080286979675, -0.6201224327087402,
			-0.5615572333335876, -0.2817208170890808, -0.37794387340545654, -0.00997704267501831,
			0.8436506986618042, 0.041527412831783295, 0.0023787720128893852, -0.06547103822231293,
			-0.053272828459739685, -0.22159111499786377, -0.2748527526855469, -0.1741129755973816,
			-0.4992428719997406, -0.4718630313873291, -0.4095675051212311, -0.3621387183666229,
			-0.2435583770275116, -0.16340425610542297, -0.08101986348628998, 0.27181053161621094,
			0.34882813692092896, 0.16009683907032013, 0.2044432908296585, 0.210931658744812,
			-0.03214672952890396, -0.32919061183929443, -0.8185871839523315, -0.3038231134414673,
			-0.19240744411945343, -0.18699319660663605, -0.06851083040237427,
			-0.21943247318267822, 0.08384082466363907, 0.3251037001609802, 0.17132531106472015,
			0.1943844109773636, 0.17209632694721222, 0.044044047594070435, -0.08990652114152908,
			-0.12418902665376663, -0.486585408449173, -0.5153804421424866, -0.36334100365638733,
			-0.3840700387954712, -0.35122552514076233, -0.2791135907173157, 0.0027079132851213217,
			0.06803533434867859, 0.13106198608875275, 0.05002439022064209, 0.018151232972741127,
			-0.036722276359796524, -0.059523943811655045, -0.1553889513015747,
			-0.5621326565742493, -0.3549949526786804, -0.2003239095211029, -0.27175217866897583,
			0.10126220434904099, -0.16203586757183075, 0.03825775906443596, 0.16675855219364166,
			0.3667135536670685, 0.2317594736814499, 0.31388792395591736, 0.06404875218868256,
			-0.14852796494960785, -0.13683082163333893, -0.27371639013290405, -0.3455831706523895,
			-0.09478912502527237, -0.056477297097444534, -0.023891031742095947,
			0.05189661309123039, 0.04443606361746788, 0.06742864102125168, 0.22872132062911987,
			0.20362357795238495, 0.10177037119865417, -0.21515905857086182, -0.04396549612283707,
			0.3922805190086365, -0.10634379833936691, -0.3387377858161926, -0.11262429505586624,
			0.19357778131961823, 0.17826642096042633, 0.02201327309012413, 0.029832731932401657,
			0.12046019732952118, 0.506319522857666, 0.06925436854362488, 0.13833515346050262,
			0.09620266407728195, 0.2894302308559418, 0.23353229463100433, -0.02261984720826149,
			0.04434814676642418, 0.08374113589525223, -0.05691806226968765, 0.19473032653331757,
			0.21927636861801147, 0.1233087033033371, 0.09920673817396164, 0.25435519218444824,
			0.40726345777511597, -0.06933575123548508, -0.3629329800605774, -0.11847356706857681,
			-0.11441471427679062, 0.011089672334492207, -0.43798398971557617,
			-0.21233093738555908, -0.07706698775291443, -0.022736482322216034,
			-0.0034889914095401764, 0.024656664580106735, 0.21211709082126617, 0.6229573488235474,
			0.5429182052612305, 0.5273662805557251, 0.5211138725280762, 0.8108328580856323,
			0.5170290470123291, 0.3479386270046234, 0.26315200328826904, 0.26890695095062256,
			0.23472587764263153, 0.4617781639099121, 0.198257714509964, 0.06531808525323868,
			0.34413832426071167, -0.04080967605113983, 0.028749961405992508, -0.27797776460647583,
			-0.14057323336601257, -0.29014259576797485, -0.010807308368384838,
			0.46374639868736267, -0.7729611992835999, -0.36247822642326355, -0.1866203397512436,
			-0.0011581405997276306, 0.028988104313611984, 0.011841174215078354,
			0.17472165822982788, -0.24972058832645416, -0.005662175826728344, 0.3395940363407135,
			-0.03704959154129028, 0.13372397422790527, 0.25092071294784546, 0.31316840648651123,
			0.5396162867546082, 0.14643456041812897, -0.08631221204996109, 0.2539607286453247,
			-0.13875141739845276, -0.2990373373031616, -0.05357712507247925, -0.2868359386920929,
			-0.29199135303497314, -0.37945863604545593, -0.6185871958732605, -0.3125365376472473,
			-0.28173914551734924, -0.15915443003177643, -0.7030264139175415, -0.08670468628406525,
			-0.09172752499580383, -0.024058496579527855, 0.011367473751306534,
			-0.02374674752354622, 0.01607494428753853, 0.09782926738262177, 0.8198262453079224,
			0.7352924346923828, 0.45201730728149414, 0.02443600259721279, -0.09220396727323532,
			-0.19969850778579712, -0.06812933087348938, 0.0955553874373436, 0.11617428064346313,
			-0.24776098132133484, -0.10524540394544601, -0.282832533121109, -0.1699882298707962,
			0.014854691922664642, -0.09909763932228088, -0.5788446664810181, -0.20927979052066803,
			-0.06564638018608093, -0.29054754972457886, 0.1643550992012024, 0.7349671125411987,
			-0.08852840960025787, 0.006222296506166458, 0.002498384565114975,
			-0.015872398391366005, -0.011734776198863983, 0.02864995226264, -0.023823684081435204,
			-0.26907381415367126, -0.2944178581237793, -0.2940543293952942, -0.16694329679012299,
			-0.20325283706188202, 0.06512931734323502, -0.3994196951389313, -0.034385401755571365,
			-0.055413614958524704, -0.21415647864341736, -0.30936822295188904,
			-0.0003328187740407884, -0.25313600897789, -0.3114694654941559, -0.07219940423965454,
			0.007077394984662533, 0.03178151696920395, -0.10794771462678909, -0.11012822389602661,
			-0.3065522611141205, 0.03305185213685036, -0.013135956600308418,
			-0.006611641496419907, 0.011799249798059464
		],
		[
			-0.03398188203573227, 0.01673758402466774, 0.02674117311835289, 0.010859332978725433,
			-0.024617426097393036, -0.001666240394115448, 0.016790159046649933,
			0.02343667671084404, 0.0038403943181037903, 0.007509142160415649,
			-0.00719989649951458, 0.0014637112617492676, 0.08426354825496674, 0.11530478298664093,
			0.09568314254283905, 0.024951161816716194, -0.0005921982228755951,
			0.026909571141004562, 0.031247016042470932, -0.029662959277629852,
			-0.02076769433915615, 0.03264519199728966, -0.0035786107182502747,
			0.012409061193466187, -0.012370595708489418, -0.010173290967941284,
			-0.010937878862023354, 0.0120168998837471, 0.0015689432621002197, 0.00313723087310791,
			-0.001872725784778595, 0.003004699945449829, -0.03246672824025154,
			-0.023788010701537132, -0.024768535047769547, -0.09513876587152481,
			-0.02449961006641388, -0.06553543359041214, -0.051946982741355896,
			-0.029712608084082603, -0.003755732672289014, -0.005550908390432596,
			0.1445111334323883, 0.06106860563158989, 0.24080827832221985, 0.0890827476978302,
			-0.11530832946300507, -0.11023322492837906, -0.08758766949176788,
			-0.08494985848665237, -0.08801618963479996, -0.018034812062978745,
			-0.0029492266476154327, 0.014622829854488373, 0.02731318399310112,
			0.007953975349664688, 0.01331494003534317, 0.007193777710199356, 0.01765989139676094,
			0.06536540389060974, -0.03521284461021423, -0.0965503677725792, -0.13308824598789215,
			-0.06967129558324814, 0.00550929456949234, -0.04553065821528435, -0.09153459966182709,
			-0.23753075301647186, 0.007492201868444681, -0.049322403967380524,
			-0.07662885636091232, 0.07206129282712936, -0.04654896259307861, -0.18588688969612122,
			-0.15432237088680267, -0.4253098666667938, -0.34342634677886963, -0.24629876017570496,
			-0.2529867887496948, -0.14449015259742737, 0.022770283743739128, 0.12259811162948608,
			-0.015153549611568451, 0.01587807759642601, -0.015250910073518753,
			0.007600933313369751, 0.6174777746200562, 0.6051172018051147, -0.07295981794595718,
			0.020560238510370255, 0.11027549207210541, 0.17449632287025452, 0.3769950270652771,
			0.3784950077533722, 0.2625439167022705, 0.258034348487854, 0.40839138627052307,
			0.3126533329486847, -0.38564684987068176, -0.6172055006027222, -0.42078274488449097,
			-0.25472432374954224, -0.2840288579463959, -0.024210436269640923,
			-0.28924188017845154, -0.5557152032852173, -0.31231528520584106, -0.19351620972156525,
			-0.14043059945106506, 0.00289157684892416, -0.1472349613904953, -0.012486189603805542,
			0.011758796870708466, 0.0097622936591506, 0.7766764760017395, 0.3310878574848175,
			0.005616575013846159, 0.17910699546337128, 0.5347257256507874, 0.7301729917526245,
			0.6099077463150024, 0.6997947096824646, 0.8629469871520996, 0.7427772879600525,
			0.5622590780258179, 0.39635321497917175, 0.06704310327768326, -0.09333355724811554,
			0.07133501768112183, -0.06300651282072067, 0.12098930031061172, 0.12082123756408691,
			0.14199447631835938, -0.09330975264310837, -0.05392571538686752, -0.22578686475753784,
			-0.6401317715644836, -0.28600868582725525, -0.12688589096069336, -0.34635376930236816,
			0.025732893496751785, -0.012744056060910225, 0.5238368511199951, 0.2664085030555725,
			0.27674806118011475, -0.1607884019613266, 0.2385168969631195, 0.45552366971969604,
			0.0015410090563818812, -0.00838890578597784, 0.32744184136390686, 0.15061603486537933,
			0.055795781314373016, 0.09758274257183075, 0.1001359298825264, 0.08435431122779846,
			0.19177614152431488, -0.044362183660268784, -0.1374347060918808, -0.11181256920099258,
			-0.25184622406959534, 0.2709912061691284, 0.37340816855430603, 0.04732523113489151,
			-0.31385740637779236, -0.18121173977851868, -0.5113234519958496, -0.4901861250400543,
			0.006055556237697601, 0.313141405582428, -0.3387959599494934, -0.09887006878852844,
			0.05559038743376732, -0.3984389901161194, -0.15292255580425262, -0.0417582243680954,
			-0.254148930311203, -0.18555106222629547, 0.08240494132041931, 0.03505663573741913,
			-0.09103374183177948, 0.016779569908976555, 0.15866254270076752, 0.034709617495536804,
			0.03890356793999672, -0.18137291073799133, -0.12178705632686615, -0.13559141755104065,
			-0.16019712388515472, 0.13166368007659912, -0.008906123228371143, 0.27448901534080505,
			-0.44191306829452515, -0.2924487590789795, -0.398196816444397, -0.3858448266983032,
			0.010719235055148602, 0.5057071447372437, -0.23004378378391266, -0.017384393140673637,
			0.10639188438653946, -0.23893167078495026, -0.09326206892728806, 0.03829563036561012,
			-0.24142654240131378, -0.3410989046096802, -0.1477273553609848, -0.1852930635213852,
			-0.11229526996612549, 0.2401673048734665, 0.3510148227214813, 0.0991564467549324,
			0.010507847182452679, -0.010867972858250141, -0.13203619420528412,
			-0.08577810972929001, 0.012423641979694366, 0.19843623042106628, 0.3284705579280853,
			0.07313356548547745, -0.7021334767341614, -0.4484192430973053, 0.05162939056754112,
			-0.3542364537715912, 0.07296368479728699, 0.15093699097633362, -0.03744983673095703,
			0.26237043738365173, 0.2905939817428589, -0.21546253561973572, -0.19749753177165985,
			0.1674359142780304, -0.43003615736961365, -0.41189438104629517, -0.05450642108917236,
			-0.17963111400604248, 0.1368885189294815, 0.28127536177635193, 0.31586724519729614,
			0.1544697880744934, -0.12822596728801727, -0.005324747413396835, -0.0173661932349205,
			-0.09821400046348572, -0.03712843731045723, -0.07169238477945328, 0.41417527198791504,
			0.1600593775510788, -0.577823281288147, -0.20580805838108063, 0.25068801641464233,
			0.052081771194934845, 0.0024677764158695936, 0.2448461353778839, 0.13545429706573486,
			0.3027041256427765, 0.056844376027584076, 0.06586621701717377, 0.26943349838256836,
			0.14321306347846985, 0.06346671283245087, -0.0153695959597826, 0.09377936273813248,
			-0.081816665828228, 0.0844818577170372, 0.1262367069721222, 0.14671580493450165,
			-0.024317491799592972, -0.18702168762683868, -0.07677362114191055,
			-0.16670754551887512, -0.2610994875431061, -0.18659469485282898, -0.18396525084972382,
			0.22510434687137604, 0.6807265877723694, -0.09165524691343307, 0.20014087855815887,
			0.34297388792037964, 0.18415868282318115, 0.001954845618456602, 0.3811347484588623,
			-0.05054054409265518, 0.28988248109817505, 0.2697862684726715, 0.23473002016544342,
			0.4568035304546356, 0.2702628970146179, 0.3765511214733124, 0.06885664165019989,
			0.2725709080696106, 0.10413474589586258, -0.1759456992149353, -0.03911227732896805,
			-0.027290895581245422, -0.22275443375110626, -0.21518781781196594,
			-0.08830037713050842, 0.03501173481345177, -0.04966539889574051, -0.08338799327611923,
			-0.13340646028518677, 0.2412637621164322, 0.5604106187820435, -0.04458438605070114,
			0.11867582052946091, 0.20744068920612335, 0.26735183596611023, -0.07991007715463638,
			0.2357892394065857, 0.08068076521158218, 0.012853641994297504, 0.6819924116134644,
			0.4966765344142914, 0.502496063709259, 0.5113537907600403, 0.23949745297431946,
			-0.1463608294725418, -0.18561731278896332, -0.16047339141368866, -0.4450185000896454,
			-0.3134174942970276, 0.05282731354236603, -0.09602116793394089, -0.2807658910751343,
			-0.09345879405736923, 0.09620904177427292, 0.1866808831691742, 0.24035437405109406,
			0.20995961129665375, 0.2560437321662903, 0.2144610732793808, -0.077806755900383,
			0.09965759515762329, -0.07958164811134338, 0.7326169610023499, -0.0717855915427208,
			0.4450121819972992, -0.21117553114891052, -0.21190835535526276, 0.38752424716949463,
			0.08059092611074448, 0.02974735200405121, 0.0551532581448555, -0.10091013461351395,
			-0.36573490500450134, -0.6013132929801941, -0.8047159910202026, -0.5055321455001831,
			-0.3720702826976776, 0.07616660743951797, -0.15322774648666382, -0.2701014578342438,
			0.013321963138878345, 0.14966292679309845, 0.30528873205184937, 0.3135492503643036,
			0.5600560307502747, 0.05534933879971504, -0.03044547326862812, 0.1331721395254135,
			0.1090649887919426, 0.266832560300827, 0.5726916193962097, 0.22946001589298248,
			0.20655475556850433, -0.10412850975990295, -0.263121098279953, -0.18912020325660706,
			-0.367409348487854, -0.3382038176059723, -0.6008004546165466, -0.583142876625061,
			-0.5295524001121521, -0.7235603332519531, -0.6209133863449097, -0.3246578574180603,
			0.0722503513097763, 0.11786557734012604, -0.20016996562480927, -0.2919323146343231,
			-0.06740414351224899, 0.3597859740257263, 0.1854250729084015, 0.3717662990093231,
			0.50640469789505, -0.05776412412524223, -0.31710684299468994, -0.3393469452857971,
			-0.11186423897743225, 0.2946457266807556, 0.04864567145705223, -0.025659028440713882,
			-0.04237522557377815, 0.8406190872192383, -0.16899031400680542, -0.642397940158844,
			-1.0870070457458496, -0.5787978172302246, -0.9619435667991638, -0.94285649061203,
			-0.7366321086883545, -0.5654069781303406, -0.3014551103115082, 0.09992854297161102,
			0.35865557193756104, 0.3267157971858978, -0.1465221494436264, -0.39577892422676086,
			-0.07162272930145264, -0.04861028864979744, -0.1824067085981369, 0.1681421846151352,
			0.04550953209400177, -0.4265236258506775, -0.3448902368545532, -0.31109580397605896,
			0.014917014166712761, 0.29758358001708984, 0.2175046056509018, -0.08443265408277512,
			-0.04488172382116318, 0.7269319891929626, -0.3549883961677551, -0.6674268245697021,
			-0.8730344772338867, -0.619920551776886, -0.6175578236579895, -0.6856518983840942,
			-0.42203056812286377, -0.25303879380226135, -0.0007292095106095076,
			0.2554091513156891, 0.5872408747673035, 0.42383304238319397, -0.04931505769491196,
			-0.18534943461418152, -0.5231136083602905, -0.341598242521286, -0.5524126291275024,
			-0.5176953673362732, -0.4514855742454529, -0.750556230545044, -0.49921685457229614,
			-0.2829994857311249, -0.22308430075645447, 0.20653247833251953, 0.2591232359409332,
			0.10007981210947037, 0.08789931237697601, 0.336370050907135, -0.07126219570636749,
			-0.2741600275039673, -0.5918056964874268, -0.4571439325809479, -0.24690574407577515,
			-0.17565129697322845, -0.017379779368638992, 0.0341353714466095, 0.2153516411781311,
			0.143796905875206, 0.41644516587257385, 0.26524776220321655, -0.022716287523508072,
			-0.10361357778310776, -0.3691069483757019, -0.5344297885894775, -0.5331607460975647,
			-0.641340970993042, -0.5745200514793396, -0.6455383896827698, -0.5875739455223083,
			-0.25972965359687805, -0.181848406791687, 0.329166978597641, 0.17243292927742004,
			-0.02374618500471115, 0.017563337460160255, 0.1478065699338913, 0.1610194891691208,
			0.2594038248062134, 0.032182395458221436, -0.21662338078022003, -0.13220937550067902,
			0.10860183089971542, 0.061846498399972916, 0.034906692802906036, 0.040370531380176544,
			0.24059075117111206, 0.4871322810649872, 0.34583383798599243, -0.1754300445318222,
			0.024045497179031372, -0.18290682137012482, -0.44798019528388977,
			-0.30529338121414185, -0.5913292765617371, -0.6400299668312073, -0.5475754737854004,
			-0.4438157379627228, -0.20584729313850403, 0.23134058713912964, 0.3873291015625,
			0.21005502343177795, 0.02789509855210781, 0.15315265953540802, 0.030410747975111008,
			0.31780701875686646, 0.292328417301178, 0.2342192530632019, -0.07037584483623505,
			0.10068987309932709, 0.19696524739265442, 0.02838972955942154, 0.0418071486055851,
			-0.11713332682847977, 0.02223202958703041, 0.31015610694885254, 0.19627654552459717,
			-0.025967422872781754, 0.18539497256278992, 0.010011968202888966,
			-0.12269330769777298, -0.10918401926755905, -0.16856622695922852,
			-0.40674421191215515, -0.44883427023887634, -0.4470505714416504, -0.143536776304245,
			0.08873289823532104, 0.2559746503829956, 0.49468863010406494, 0.1920909881591797,
			0.247844398021698, -0.24697114527225494, 0.3294421434402466, 0.5506758689880371,
			0.19157828390598297, 0.021350190043449402, 0.28832605481147766, 0.3866409361362457,
			0.10745170712471008, -0.09668859094381332, -0.23371201753616333, -0.19905611872673035,
			0.37804460525512695, 0.09874047338962555, -0.05735273286700249, 0.2816978991031647,
			0.19456282258033752, 0.135553240776062, -0.10654618591070175, -0.12993627786636353,
			-0.37674376368522644, -0.5760381817817688, -0.24374336004257202, -0.17827923595905304,
			0.48970454931259155, 0.4499683380126953, 0.3418235778808594, -0.018326960504055023,
			0.11529052257537842, -0.0700119137763977, 0.6429545283317566, 0.692348301410675,
			0.09247924387454987, 0.13743853569030762, 0.31681689620018005, 0.3055003881454468,
			0.145289346575737, -0.038868848234415054, 0.07664996385574341, 0.011296923272311687,
			0.11810126900672913, -0.0491427481174469, 0.08027927577495575, 0.27775365114212036,
			0.3408537209033966, 0.4946137070655823, 0.11919402331113815, 0.08994504809379578,
			-0.03006652556359768, -0.19158992171287537, 0.09852483123540878, 0.17263337969779968,
			0.3691155016422272, 0.5209386348724365, -0.017662938684225082, 0.23915350437164307,
			0.29529470205307007, 0.7530786991119385, 1.1101717948913574, 0.5800066590309143,
			0.12426938116550446, 0.04520590975880623, 0.12976503372192383, -0.07060124725103378,
			-0.1627257615327835, 0.1270657628774643, 0.03101966716349125, 0.05604727938771248,
			0.16831721365451813, 0.15196771919727325, 0.27019309997558594, 0.13223771750926971,
			0.10490509867668152, 0.6380691528320312, 0.47620874643325806, 0.2909950315952301,
			0.30236223340034485, 0.3730572462081909, 0.45539119839668274, 0.4261223375797272,
			0.4506164789199829, 0.5433875918388367, 0.029646726325154305, 0.18156692385673523,
			0.12305406481027603, 0.4719840884208679, 0.09882718324661255, 0.3948448896408081,
			0.5813044309616089, 0.12067776918411255, 0.05241601541638374, -0.07367803901433945,
			-0.01650608517229557, -0.06560797244310379, 0.0486738495528698, -0.1060844287276268,
			0.10222336649894714, 0.19394013285636902, 0.11749093979597092, 0.07862716168165207,
			0.18662555515766144, 0.4306221008300781, 0.46742236614227295, 0.2744162976741791,
			0.26726606488227844, 0.35943546891212463, 0.4323892593383789, 0.4744453728199005,
			0.4620901048183441, 0.011560868471860886, 0.04344562068581581, 0.0169488787651062,
			-0.00883236899971962, 0.29199129343032837, -0.2725326716899872, -0.0658852681517601,
			0.0748191550374031, 0.26232513785362244, 0.1379602700471878, 0.056791968643665314,
			0.21043351292610168, 0.00716005451977253, 0.11583695560693741, 0.17433005571365356,
			0.29294297099113464, 0.1719791740179062, 0.40569525957107544, 0.6141691207885742,
			0.48643016815185547, 0.2594566345214844, 0.22766095399856567, 0.3339829742908478,
			0.10753554105758667, 0.3339376151561737, 0.49217724800109863, 0.36190563440322876,
			0.2805772125720978, 0.18842609226703644, 0.004297491163015366, 0.025177452713251114,
			0.01813848316669464, 0.07158786058425903, 0.1278819590806961, 0.023891417309641838,
			-0.030783237889409065, 0.1372305154800415, -0.36559736728668213, -0.04016542807221413,
			0.0950658917427063, -0.2839101254940033, -0.0008649635128676891, 0.08355245739221573,
			0.01438686903566122, 0.20782330632209778, -0.10267585515975952, 0.0670071467757225,
			0.17560644447803497, -0.12673573195934296, 0.28685224056243896, 0.288784921169281,
			0.10030252486467361, 0.08517033606767654, 0.10479443520307541, 0.5691247582435608,
			0.383292555809021, 0.19349588453769684, 0.026549454778432846, 0.030194181948900223,
			-0.020685294643044472, -0.10828778892755508, -0.15780843794345856, -0.574327290058136,
			-0.5515472292900085, 0.5491137504577637, 0.23352749645709991, 0.36491385102272034,
			0.22585910558700562, 0.0991341695189476, -0.1295456439256668, 0.008656175807118416,
			-0.09936273843050003, 0.20316621661186218, 0.17940755188465118, -0.0214860700070858,
			-0.06950780004262924, 0.05659495294094086, 0.12877875566482544, -0.06908866763114929,
			-0.47221580147743225, -0.9140986800193787, -0.4280046820640564, -0.17819198966026306,
			-0.08775662630796432, 0.06070307642221451, -0.027382170781493187,
			0.024578720331192017, -0.02064378559589386, -0.0027321912348270416,
			-0.18160083889961243, -0.52686607837677, -0.5386812686920166, -0.4043838381767273,
			0.25831881165504456, 0.323335200548172, -0.21240338683128357, 0.05826815962791443,
			-0.2859141230583191, -0.6412898898124695, -0.1417740136384964, -0.32919082045555115,
			-0.447223961353302, -0.734653890132904, -0.21019060909748077, 0.3778879940509796,
			-0.05494578182697296, -0.19274191558361053, -0.5823957920074463, -0.3452078402042389,
			0.2956017553806305, 0.03260880336165428, 0.056161992251873016, 0.015129435807466507,
			-0.02333356812596321, -0.022649969905614853, 0.02132239192724228,
			-0.019123997539281845, -0.015890130773186684, 0.5549523830413818, 0.5861920118331909,
			0.6219401359558105, 0.5224213600158691, 0.3180082142353058, 0.2085801661014557,
			0.3815765082836151, 0.23274508118629456, -0.13279372453689575, -0.19646546244621277,
			-0.009500655345618725, 0.3506990671157837, -0.09780026972293854, -0.19783012568950653,
			-0.14462503790855408, -0.5722752809524536, -0.2868814766407013, -0.5695105791091919,
			-0.42434510588645935, 0.034627024084329605, 0.025658894330263138,
			0.013697169721126556, -0.00710204616189003, 0.019070610404014587
		],
		[
			0.0035398826003074646, 5.968660116195679e-5, -0.01963435858488083,
			-0.013869278132915497, -0.02934185229241848, -0.011695848777890205,
			0.034078340977430344, -0.01750991679728031, -0.02086959220468998,
			-0.023527273908257484, 0.022747453302145004, -0.008670875802636147,
			-0.24496117234230042, -0.22604934871196747, 0.1837521642446518, 0.07494175434112549,
			-0.02319130301475525, -0.01863294467329979, -0.00313645601272583, 0.02160053327679634,
			0.02389298751950264, -0.016118284314870834, 0.027187708765268326,
			-0.01980958692729473, -0.015921125188469887, 0.032546546310186386,
			0.019170541316270828, -0.010387659072875977, 0.03565457835793495,
			-0.027182677760720253, 0.00786571204662323, -0.017526358366012573,
			-0.003846320789307356, -0.12962554395198822, -0.2930641770362854, -0.2848537564277649,
			-0.40348953008651733, -0.3340862989425659, -0.3215179145336151, -0.2764493525028229,
			-0.5323460698127747, -0.617292582988739, 0.18318834900856018, -0.3419211804866791,
			-0.41805315017700195, -0.3745995759963989, -0.3843202590942383, -0.4134148955345154,
			-0.5257441401481628, -0.3250332474708557, -0.27514955401420593, -0.2371905893087387,
			-0.0049237776547670364, 0.03328714147210121, 0.015633005648851395,
			0.02613195776939392, -0.011807924136519432, -0.015050586313009262,
			-0.12581396102905273, -0.5144884586334229, -0.6455507874488831, -0.08087199926376343,
			-0.19969825446605682, -0.3438592851161957, 0.06636608392000198, 0.48981550335884094,
			0.3574976921081543, -0.35526221990585327, -0.00544969504699111, -0.23464718461036682,
			-0.6294578313827515, -0.12149123847484589, 0.23525269329547882, 0.40312060713768005,
			-0.22797942161560059, -0.2775493860244751, -0.464166522026062, -0.46958252787590027,
			-0.3668086528778076, -0.40940460562705994, -0.08815377950668335, -0.15063799917697906,
			0.028646867722272873, 0.0006294548511505127, 0.03330737724900246, 0.0089220330119133,
			0.028546735644340515, -0.5321398973464966, -0.33678728342056274, 0.06716249883174896,
			-0.354592889547348, -0.22962506115436554, -0.0304093174636364, -0.432494193315506,
			-0.08565481752157211, -0.14831849932670593, -0.060576263815164566,
			-0.24433833360671997, 0.3143884539604187, 0.030937867239117622, -0.08645474910736084,
			0.1641368418931961, 0.3908098042011261, 0.08729756623506546, 0.0035760703030973673,
			0.052137088030576706, -0.3586079776287079, -0.6677149534225464, -0.21328753232955933,
			-0.2577030062675476, -0.0851927101612091, 0.0063875652849674225, -0.03235074505209923,
			0.0544624999165535, 0.1804863065481186, -0.49214687943458557, -0.4184733033180237,
			0.116538867354393, 0.48658639192581177, 0.526090145111084, 0.22191405296325684,
			-0.18106192350387573, 0.011610657908022404, -0.2103932946920395, -0.17608770728111267,
			-0.2596430778503418, -0.1927032321691513, -0.21020029485225677, -0.452747106552124,
			-0.5692781209945679, -0.21248748898506165, -0.24405218660831451, -0.19348473846912384,
			-0.5963969826698303, -0.8380606770515442, -0.4599968194961548, 0.025900697335600853,
			-0.04702020063996315, -0.1403953731060028, -0.16918368637561798, 0.011035226285457611,
			0.0029282383620738983, 0.04866016283631325, 0.1380946934223175, 0.19780348241329193,
			0.5590239763259888, 0.5378021597862244, 0.20198926329612732, 0.2397826611995697,
			0.2430257648229599, -0.06118028238415718, -0.3066869080066681, -0.27523884177207947,
			-0.2699904143810272, -0.3232499957084656, -0.06011026352643967, 0.2059614658355713,
			-0.0020396444015204906, -0.07329690456390381, -0.3297941982746124,
			-0.21819865703582764, -0.5511434674263, -0.47807273268699646, -0.2264283299446106,
			-0.04807246848940849, -0.07626213133335114, -0.3194560706615448, 0.013680864125490189,
			0.00028633326292037964, 0.20080353319644928, -0.339807391166687, 0.9154630303382874,
			0.3533097505569458, 0.10721895843744278, 0.10344839096069336, 0.28568655252456665,
			0.4068700671195984, 0.3896181285381317, -0.04643949866294861, -0.13130727410316467,
			-0.09749249368906021, 0.03253132849931717, -0.04134520888328552, -0.11078467220067978,
			-0.014801828190684319, -0.010245058685541153, 0.01871093362569809,
			0.00970807671546936, -0.10328257828950882, -0.17425794899463654, 0.06215400621294975,
			-0.365556925535202, -0.1125849187374115, -0.09343032538890839, 0.37397390604019165,
			-0.27489930391311646, -0.023765092715620995, 0.42137452960014343, 0.22611285746097565,
			0.747499942779541, -0.06712548434734344, 0.4113748073577881, 0.5574862360954285,
			0.5381600260734558, 0.2859831750392914, 0.13532015681266785, 0.09968900680541992,
			0.049465570598840714, 0.2684957981109619, 0.11391089856624603, 0.09088112413883209,
			-0.34212395548820496, -0.19075310230255127, -4.7805615395191126e-6,
			-0.11607464402914047, -0.13165345788002014, 0.12218350917100906, -0.13728180527687073,
			-0.12586502730846405, 0.0008773973677307367, 0.5291538834571838, 0.5335866212844849,
			0.43220409750938416, -0.12808167934417725, -0.3346787393093109, 0.5371745228767395,
			-0.5108608603477478, -0.23891274631023407, -0.26221323013305664, 0.3442239761352539,
			0.28050535917282104, 0.136491596698761, -0.05627833306789398, -0.17041967809200287,
			-0.08385065943002701, 0.09276953339576721, 0.04585077241063118, -0.05724095180630684,
			-0.21645982563495636, -0.26501208543777466, -0.19607967138290405,
			-0.044224709272384644, -0.14335785806179047, 0.04586334899067879, 0.17599937319755554,
			0.046053215861320496, 0.33205094933509827, 0.34166836738586426, 0.5619327425956726,
			0.5794491171836853, 0.06679581850767136, -0.11176393926143646, 0.09390716999769211,
			0.2683773934841156, -0.7271842360496521, -0.26665836572647095, -0.3822992742061615,
			-0.10458574444055557, -0.1685074120759964, 0.01207009144127369, -0.3525661826133728,
			-0.23005591332912445, -0.014269428327679634, -0.05016877129673958,
			-0.05396949499845505, -0.15572012960910797, 0.097255177795887, 0.009590367786586285,
			-0.2502158284187317, 0.0441533587872982, 0.06156676262617111, -0.0031090981792658567,
			0.035618387162685394, 0.12924565374851227, 0.14097654819488525, 0.061192482709884644,
			0.25776782631874084, -0.06330910325050354, 0.02358083985745907, 0.6067472696304321,
			0.034574300050735474, 0.14968463778495789, 0.06804770231246948, -0.15816903114318848,
			-0.7009369730949402, -0.3049972653388977, -0.3275608420372009, -0.4363815188407898,
			-0.4008069932460785, -0.5375205874443054, -0.24225051701068878, -0.11593105643987656,
			0.12435084581375122, 0.19821377098560333, -0.14363662898540497, -0.16347618401050568,
			-0.13176165521144867, -0.16746479272842407, -0.13419018685817719, 0.2510163187980652,
			0.024698840454220772, -0.05419926345348358, -0.1471749097108841, -0.15964576601982117,
			0.4919669032096863, 1.0770577192306519, 0.3740585148334503, 0.28883445262908936,
			0.02691185288131237, -0.807327389717102, 0.6645349264144897, -0.6462175846099854,
			-0.7581242918968201, -0.47896456718444824, -0.6749235391616821, -0.30916354060173035,
			-0.20757822692394257, -0.39338502287864685, -0.24181132018566132, 0.11783022433519363,
			0.11493513733148575, -0.11383387446403503, -0.41672828793525696, -0.31825676560401917,
			-0.21702507138252258, -0.12006618082523346, -0.05724630504846573, 0.32748499512672424,
			0.06317483633756638, -0.03682110086083412, -0.020400479435920715,
			-0.10788614302873611, -0.28653836250305176, 0.44205206632614136, -0.4533558189868927,
			0.27503302693367004, 0.06188257783651352, 0.17952775955200195, 0.3222164213657379,
			-0.5968743562698364, -0.559941291809082, -0.26198166608810425, -0.3769982159137726,
			-0.28159838914871216, 0.1699339747428894, -0.13891398906707764, 0.35999593138694763,
			0.2330048829317093, 0.2011244297027588, 0.1085241362452507, 0.16742879152297974,
			0.13422760367393494, 0.03962210938334465, -0.15010066330432892, 0.08253341913223267,
			0.2335178107023239, 0.06516414135694504, 0.15216509997844696, 0.19974665343761444,
			-0.39754435420036316, -0.6911805868148804, 0.2630477547645569, -0.10696259140968323,
			0.769584059715271, -0.1443563997745514, 0.058707885444164276, 0.566473126411438,
			-0.45784005522727966, -0.17552967369556427, -0.025427231565117836, 0.1784900575876236,
			0.022166727110743523, 0.3047911822795868, 0.20473545789718628, 0.5291888117790222,
			0.23965969681739807, 0.15727105736732483, 0.1754554659128189, 0.3908711373806,
			0.18790274858474731, 0.147160142660141, 0.19972363114356995, 0.002203021664172411,
			-0.19200506806373596, 0.4513622224330902, 0.6158132553100586, 0.09305860102176666,
			-0.42520394921302795, 0.16069848835468292, 0.03888074308633804, -0.011805563233792782,
			0.22208121418952942, -0.05382707715034485, 0.07435228675603867, 0.5678133964538574,
			0.4009658396244049, 0.6888609528541565, 0.21030108630657196, 0.462334543466568,
			0.34799104928970337, 0.48152753710746765, 0.4300810694694519, 0.3500855565071106,
			0.23641259968280792, 0.2814977169036865, 0.2193707972764969, 0.27870601415634155,
			0.32791709899902344, 0.3377281725406647, 0.2542889714241028, -0.027178622782230377,
			0.025663577020168304, 0.2557944655418396, 0.25279155373573303, -0.03668028861284256,
			0.20479315519332886, 0.22265160083770752, 0.02185048907995224, 0.4686756134033203,
			0.13775990903377533, -0.06104474887251854, -0.06474417448043823, 0.287174254655838,
			0.9350004196166992, 0.8814265131950378, 0.792449414730072, 0.4132934808731079,
			0.3361946940422058, 0.3435697853565216, 0.43253666162490845, 0.4986628592014313,
			0.3433685004711151, 0.36107394099235535, 0.07642193138599396, 0.16573894023895264,
			0.31504032015800476, 0.113149493932724, 0.27678704261779785, 0.33720946311950684,
			0.16226474940776825, 0.12384065985679626, 0.16524763405323029, 0.13439515233039856,
			0.22172532975673676, 0.14941228926181793, 0.11950177699327469, 1.0072660446166992,
			0.456993967294693, 0.19392433762550354, 0.07393234968185425, 0.015982791781425476,
			0.46580830216407776, 0.45403751730918884, 0.6498739123344421, -0.049992356449365616,
			0.32313409447669983, 0.32716554403305054, 0.2507776618003845, 0.1596761792898178,
			0.4035162031650543, 0.23704692721366882, 0.02471729926764965, 0.13302946090698242,
			0.30587315559387207, 0.1906249225139618, 0.24806302785873413, 0.4370103180408478,
			0.3457263708114624, 0.22886238992214203, 0.5837683081626892, 0.45082762837409973,
			0.3736659288406372, 0.03647259995341301, 0.12740597128868103, 0.7388473153114319,
			0.25233328342437744, 0.024196818470954895, 0.09462334215641022, 0.05376376584172249,
			0.15965799987316132, 0.48962050676345825, 0.34640878438949585, -0.04738423228263855,
			0.06609011441469193, 0.08390233665704727, -0.17605847120285034, 0.18557044863700867,
			0.18801532685756683, 0.009612456895411015, -0.021860631182789803,
			0.026951521635055542, 0.34510713815689087, 0.1826934963464737, 0.25891348719596863,
			0.684978187084198, 0.1637934148311615, 0.1963587999343872, 0.6568931341171265,
			0.3046284019947052, 0.34528273344039917, -0.4748942255973816, 0.33620408177375793,
			-0.0608520582318306, -0.5707751512527466, 0.7499977350234985, 0.15259990096092224,
			0.16646341979503632, 0.184025377035141, 0.2649141848087311, 0.028952600434422493,
			-0.2640722990036011, -0.409890741109848, -0.2009008228778839, 0.013332104310393333,
			-0.029248882085084915, -0.1616678684949875, -0.36420539021492004,
			-0.26072588562965393, -0.10110758244991302, 0.19820798933506012, 0.35022732615470886,
			0.3542492687702179, 0.3453204333782196, 0.24638402462005615, 0.09749344736337662,
			0.35568714141845703, -0.13468220829963684, 0.021715423092246056, 0.17016881704330444,
			0.5202680230140686, 0.17443853616714478, 0.6787292957305908, -0.016039807349443436,
			-0.1901099532842636, -0.004199044778943062, 0.2418866902589798, 0.12752793729305267,
			-0.24210378527641296, -0.3142561614513397, -0.34400510787963867, -0.513129711151123,
			-0.5060503482818604, -0.4350968301296234, -0.434451162815094, -0.8198827505111694,
			-0.6292349100112915, -0.24493864178657532, 0.13721875846385956, 0.3634721636772156,
			0.10298912227153778, 0.08780469745397568, -0.11871559917926788, -0.12042538076639175,
			-0.001846743281930685, -0.29487648606300354, -0.24300870299339294,
			0.14253202080726624, 0.2683345675468445, 0.3989697992801666, 0.4459351897239685,
			0.004926212131977081, -0.8545659184455872, -0.19129641354084015, 0.04095563665032387,
			-0.44072893261909485, -0.5209763646125793, -0.14405515789985657, -0.19598428905010223,
			-0.6441863179206848, -0.596801221370697, -0.5668503642082214, -0.46563851833343506,
			-0.6832854747772217, -0.39412447810173035, -0.2756750285625458, -0.26146623492240906,
			-0.07002870738506317, -0.0354204885661602, -0.05444669350981712, -0.37632912397384644,
			-0.3359090983867645, -0.2512872517108917, -0.3931139409542084, -0.3756992220878601,
			-0.0657043531537056, -0.1013939306139946, 0.15818026661872864, 0.07820110768079758,
			0.010166875086724758, 0.10215914249420166, 0.023593183606863022, -0.255440890789032,
			-0.4826231896877289, -0.42850956320762634, -0.20538780093193054, -0.12333174794912338,
			-0.19194263219833374, -0.4404250979423523, -0.44850876927375793, -0.23163345456123352,
			-0.05537451058626175, -0.022182762622833252, -0.37596458196640015,
			-0.3650525212287903, -0.07521273195743561, -0.18251143395900726, -0.22861823439598083,
			-0.25602492690086365, -0.46919891238212585, -0.4277554750442505, -0.6161722540855408,
			-0.4427247941493988, 0.02488236501812935, 0.07219064235687256, -0.5509146451950073,
			0.006940625607967377, -0.005095588508993387, 0.030199894681572914,
			0.13139812648296356, -0.03761491924524307, -0.5839051008224487, -0.36030200123786926,
			-0.191751629114151, -0.2128172218799591, -0.0862530916929245, -0.2760961651802063,
			-0.06544144451618195, 0.044994454830884933, 0.024930838495492935,
			-0.10626449435949326, -0.2554551959037781, -0.22405628859996796, -0.08489502221345901,
			-0.2420959770679474, -0.2940245568752289, -0.269754022359848, -0.2086097151041031,
			-0.5238525867462158, -0.25429511070251465, -0.3853040635585785, 0.1865241527557373,
			0.09380573779344559, -0.1845809668302536, -0.018432162702083588, 0.03023115172982216,
			0.0032660402357578278, -0.10863189399242401, 0.07756797969341278, -0.2692663371562958,
			-0.22084954380989075, 0.14766129851341248, 0.26075562834739685, -0.12048840522766113,
			-0.20153547823429108, 0.10863008350133896, 0.11874573677778244, 0.005323668941855431,
			-0.02599894255399704, 0.028840113431215286, -0.13262830674648285,
			-0.22647739946842194, -0.371769517660141, -0.2810901999473572, 0.057786181569099426,
			-0.17931333184242249, -0.18611018359661102, -0.36963850259780884,
			-0.23685285449028015, 0.41047054529190063, 0.06214795634150505, -0.01812897063791752,
			-0.0268283411860466, 0.023683492094278336, 0.006483796983957291, -0.2181880921125412,
			-0.3578934669494629, -0.30530837178230286, -0.05538061261177063, 0.3889968693256378,
			0.4882766306400299, 0.4905531406402588, 0.19458259642124176, 0.16600896418094635,
			-0.05250759795308113, -0.08562041819095612, -0.01872856169939041, 0.38405054807662964,
			-0.11352069675922394, -0.4791174530982971, 0.033566802740097046, 0.1444319188594818,
			0.42342686653137207, 0.31013044714927673, 0.5132843255996704, 0.33402204513549805,
			0.108679860830307, 0.2101602852344513, 0.38200926780700684, 0.24228428304195404,
			-0.019983965903520584, -0.02455996349453926, -0.035587459802627563,
			-0.16496260464191437, -0.0056562949903309345, 0.6165862679481506, 0.47141367197036743,
			0.2060423046350479, 0.05032956972718239, 0.05924196541309357, -0.22545930743217468,
			-0.43219637870788574, -0.06932268291711807, 0.042776186019182205, 0.18472735583782196,
			0.5124574899673462, 0.1182345524430275, 0.010584142059087753, 0.10956034809350967,
			-0.05008178949356079, -0.19831712543964386, 0.10803759098052979,
			-0.012358191423118114, 0.42291414737701416, 0.16682615876197815, 0.04423321783542633,
			0.1664646416902542, 0.1514727622270584, 0.02302272617816925, 0.0021228790283203125,
			0.003782089799642563, -0.02362576685845852, -0.03291649371385574, -0.5092822313308716,
			-0.3110845983028412, 0.5631605386734009, 0.14591744542121887, -0.11987315863370895,
			0.19812867045402527, 0.27901628613471985, -0.0896759107708931, -0.06685423105955124,
			-0.05095624551177025, 0.09813831001520157, 0.5950246453285217, 0.3454430401325226,
			-0.4711279571056366, -0.7837545275688171, -0.21206222474575043, -0.3105842173099518,
			-0.5385780334472656, -0.20860251784324646, -0.3596920073032379, 0.020698320120573044,
			0.046296004205942154, -0.01180797815322876, -0.018414443358778954,
			0.015551812946796417, -0.02246575802564621, 0.012930981814861298,
			0.023708101361989975, 0.206084206700325, 0.28934186697006226, 0.051742102950811386,
			-0.03605083376169205, -0.08710977435112, -0.5184340476989746, 0.02771063894033432,
			-0.20158933103084564, -0.017853867262601852, 0.04634745791554451,
			-0.43443939089775085, -0.048591408878564835, 0.3480837643146515, 0.3445209860801697,
			-0.042688459157943726, -0.859695315361023, -0.5390805006027222, 0.42934826016426086,
			0.20117412507534027, 0.07526080310344696, 0.029346730560064316, 0.013988051563501358,
			-0.012458406388759613, -0.021535415202379227
		],
		[
			-0.008287008851766586, -0.008296489715576172, 0.030540671199560165,
			0.009765692055225372, 0.022311773151159286, -0.016367444768548012,
			-0.008429348468780518, -0.0023242421448230743, -0.015543509274721146,
			-0.0011601373553276062, -0.016462672501802444, 0.020820867270231247,
			0.02912997081875801, 0.01392432302236557, -0.01982865296304226, 0.011868149042129517,
			0.02589099481701851, 0.034435223788022995, -0.018028834834694862,
			-0.028955431655049324, -0.00437290221452713, -0.00471603125333786,
			0.009302295744419098, 0.015510067343711853, 0.026351455599069595, -0.0166621096432209,
			-0.03058582730591297, 0.027262870222330093, -0.03473101183772087,
			0.027154702693223953, 0.033180590718984604, 0.013807080686092377,
			-0.006958821788430214, 0.0034380964934825897, 0.024868249893188477,
			-0.02183482050895691, 0.010455820709466934, -0.026281723752617836,
			-0.026661405339837074, -0.021622616797685623, -0.03130225092172623,
			-0.07619255781173706, -0.046161118894815445, 0.003960277885198593,
			0.020965129137039185, 0.022317856550216675, 0.026990476995706558,
			0.002892039716243744, 0.02976682409644127, -0.022959817200899124,
			0.019295617938041687, -0.009484406560659409, 0.008184555917978287,
			-0.026324734091758728, 0.0029894523322582245, -0.00932239182293415,
			0.014835182577371597, 0.024475913494825363, -0.027893509715795517,
			-0.009111566469073296, -0.0015541687607765198, 0.00806933268904686,
			-0.01940881833434105, -0.032956212759017944, -0.02631167136132717,
			-0.022508792579174042, 0.020327303558588028, -0.08720212429761887,
			-0.0673966109752655, -0.02583782561123371, -0.06163855642080307, -0.08725082874298096,
			-0.0478656142950058, -0.06707464158535004, -0.07825104892253876, -0.05930957943201065,
			-0.06473681330680847, -0.03608196601271629, 0.022567931562662125,
			0.025620654225349426, -0.0007574595510959625, -0.019089873880147934,
			-0.0064765941351652145, -0.004679398611187935, 0.03436853364109993,
			-0.004374854266643524, 0.029141191393136978, -0.025597915053367615,
			0.024782471358776093, -0.0001187548041343689, 0.011451546102762222,
			-0.004159171134233475, -0.029944293200969696, 0.02689674124121666,
			-0.07050185650587082, -0.07504722476005554, -0.04222414270043373,
			-0.03989924490451813, -0.07944097369909286, -0.03185364231467247,
			-0.08070238679647446, -0.0753755271434784, -0.03829289600253105, -0.06001332029700279,
			-0.09406907111406326, -0.04210078343749046, -0.05261138454079628,
			-0.002565436065196991, 0.012028668075799942, -0.0024386830627918243,
			0.02740449085831642, 0.017438381910324097, 0.03090030327439308, 0.003269188106060028,
			-0.014116236940026283, 0.0051663778722286224, -0.014807488769292831,
			0.02094949781894684, -0.03538176417350769, 0.0036666616797447205,
			-0.006512165069580078, -0.07192903757095337, -0.025368856266140938,
			-0.09315107762813568, -0.05382411554455757, -0.061913784593343735,
			-0.03804796561598778, -0.0789777934551239, -0.037375062704086304,
			-0.055313192307949066, -0.057958342134952545, -0.030754635110497475,
			-0.046038560569286346, -0.07202482968568802, -0.0460318848490715,
			-0.026418393477797508, -0.020989099517464638, -0.01278119906783104,
			-0.011963879689574242, -0.014783484861254692, -0.02873394824564457,
			-0.027142977342009544, -0.024595096707344055, 0.002887547016143799,
			0.03243217244744301, -0.008456336334347725, 0.025047319009900093,
			0.025715356692671776, 0.06185241788625717, -0.0882115513086319, -0.06261611729860306,
			-0.07692478597164154, -0.07447453588247299, -0.06773453205823898,
			-0.05320286750793457, -0.0933293029665947, -0.05951041728258133,
			-0.041481826454401016, -0.05846966430544853, -0.06370469182729721,
			-0.042648520320653915, -0.06191033497452736, -0.040163520723581314,
			-0.07518879324197769, 0.04785821959376335, 0.0527028813958168, -0.03130153566598892,
			-0.01361132226884365, 0.009247049689292908, -0.030934713780879974,
			0.0035764984786510468, 0.002667039632797241, 0.011849720031023026,
			-0.014096081256866455, -0.04261014983057976, 0.04363800585269928,
			-0.08962522447109222, -0.07118988037109375, -0.04897013679146767,
			-0.07309269905090332, -0.06291170418262482, -0.056733544915914536,
			-0.07675556093454361, -0.0610649436712265, -0.07751332968473434, -0.08624432235956192,
			-0.05698510259389877, -0.05443860590457916, -0.08609026670455933,
			-0.07617321610450745, -0.0469302274286747, -0.05876213684678078, -0.0947006344795227,
			-0.04212063550949097, 0.006706297397613525, -0.01760171167552471,
			-0.01219894178211689, -0.03227676823735237, 0.08461366593837738, 0.08246682584285736,
			0.06052140146493912, 0.062558613717556, -0.056247904896736145, -0.0655762106180191,
			-0.06945757567882538, -0.026924030855298042, -0.06268250942230225,
			-0.051612503826618195, -0.09392866492271423, -0.07039184868335724,
			-0.09559246152639389, -0.07615993916988373, -0.08685453981161118,
			-0.037406206130981445, -0.058353882282972336, -0.0696176066994667,
			-0.029343919828534126, -0.08655660599470139, -0.046623025089502335,
			-0.03134211525321007, -0.08484826236963272, -0.033451154828071594,
			-0.07842373847961426, -0.011484470218420029, 0.008422154933214188,
			-0.012660877779126167, 0.032715898007154465, 0.03283507004380226, 0.07581581175327301,
			0.02705770544707775, -0.07384708523750305, 0.05066556856036186, 0.03732207790017128,
			-0.06351219117641449, -0.09122823178768158, -0.05177595093846321,
			-0.07233244925737381, -0.037975795567035675, -0.07618562877178192,
			-0.09071902930736542, -0.07917813956737518, -0.024557551369071007,
			-0.07520362734794617, -0.08040203899145126, -0.06517022848129272,
			-0.07721316814422607, -0.04760367050766945, -0.04725143685936928,
			-0.05597580596804619, -0.0648888349533081, -0.029314158484339714,
			-0.01817091554403305, 0.02162184566259384, -0.024034300819039345,
			0.009919054806232452, 0.037106722593307495, -0.06269145756959915, 0.05921468138694763,
			0.06661833077669144, 0.09003235399723053, 0.09315886348485947, -0.09304448962211609,
			-0.08345835655927658, -0.08254770189523697, -0.08918562531471252,
			-0.02725094184279442, -0.0899796411395073, -0.03478394076228142, -0.09416188299655914,
			-0.09113781154155731, -0.039200302213430405, -0.07633005827665329,
			-0.03349946811795235, -0.09068096429109573, -0.07049886882305145,
			-0.08178165555000305, -0.04404298961162567, -0.08993040770292282,
			-0.09158463776111603, 0.00017408281564712524, 0.026679392904043198,
			-0.014763778075575829, 0.0028710663318634033, 0.03140919655561447,
			-0.06889256834983826, 0.025703193619847298, 0.049208637326955795, 0.0794091522693634,
			0.0914735272526741, -0.025693919509649277, -0.0360596664249897, -0.05471860617399216,
			-0.0731450617313385, -0.08361360430717468, -0.02762872539460659, -0.05633070319890976,
			-0.027695368975400925, -0.04505457356572151, -0.05560869351029396,
			-0.03612639009952545, -0.08921758085489273, -0.06681182235479355, 0.05393640324473381,
			-0.08750825375318527, -0.07561461627483368, -0.08479156345129013, 0.03374975547194481,
			0.021004214882850647, -0.014865977689623833, 0.01793244481086731,
			-0.01247127540409565, 0.07971789687871933, 0.02529008872807026, 0.06397148221731186,
			0.04952821508049965, 0.0762779712677002, -0.09510388970375061, -0.08957301080226898,
			-0.03571556508541107, -0.0802002027630806, -0.034096863120794296,
			-0.07567896693944931, -0.06473175436258316, -0.04686073213815689,
			-0.07935025542974472, -0.03230061009526253, -0.0521574467420578, -0.06693823635578156,
			-0.05936779826879501, -0.028665056452155113, -0.0694546177983284,
			0.059825897216796875, -0.07149495929479599, 0.09223343431949615, 0.019707348197698593,
			0.012946512550115585, -0.015159156173467636, -0.0034152939915657043,
			-0.008121447637677193, 0.0318475104868412, 0.036218512803316116, 0.09162753075361252,
			-0.07842261344194412, -0.03889848291873932, -0.053273968398571014,
			-0.055145855993032455, -0.09019920229911804, -0.08021239936351776, -0.071126289665699,
			-0.07630770653486252, -0.044288091361522675, -0.06862331926822662,
			-0.08828451484441757, -0.09560573101043701, -0.05682164803147316,
			-0.058891043066978455, -0.085650734603405, -0.06087324023246765,
			-0.046817321330308914, -0.07483614236116409, -0.07275914400815964,
			0.044615842401981354, 0.0013700015842914581, -0.015564600005745888,
			-0.010760439559817314, -0.014461973682045937, 0.011579252779483795,
			0.035149212926626205, -0.06260928511619568, -0.09551781415939331,
			-0.07475446164608002, -0.04471901059150696, -0.04313682019710541,
			-0.08117534965276718, -0.03011428192257881, -0.055998578667640686,
			-0.04749242588877678, -0.04391249641776085, -0.03408515453338623,
			-0.07655367255210876, -0.05714842304587364, -0.06124134361743927,
			-0.09427975863218307, -0.046934615820646286, -0.027850432321429253,
			-0.09052971750497818, -0.05728757008910179, -0.06284152716398239, -0.0838850811123848,
			0.015104785561561584, -0.029309669509530067, 0.024428587406873703,
			0.01879584789276123, -0.021580174565315247, -0.0012827888131141663,
			-0.0013982616364955902, 0.00014194101095199585, -0.06879223138093948,
			-0.03350672125816345, -0.04510553181171417, -0.08178839832544327,
			-0.040635913610458374, -0.04875824600458145, -0.032034553587436676,
			-0.025674544274806976, -0.09520657360553741, -0.07610831409692764,
			-0.09166929870843887, -0.042746126651763916, -0.07200314849615097,
			-0.09237240999937057, -0.06206739321351051, -0.03323492407798767,
			-0.04859307408332825, -0.05370236933231354, -0.07738332450389862,
			-0.06401701271533966, 0.027463022619485855, -0.03066706284880638,
			0.009204991161823273, -0.031149448826909065, -0.026524880900979042,
			0.007449530065059662, -0.016795624047517776, -0.03954160958528519,
			-0.09359610825777054, -0.08939380198717117, -0.04416336119174957,
			-0.07586763799190521, -0.038730062544345856, -0.059246573597192764,
			-0.033425211906433105, -0.0699615627527237, -0.0693948045372963, -0.0705263763666153,
			-0.06014149263501167, -0.07415959239006042, -0.09141890704631805,
			-0.05952624976634979, -0.043086081743240356, -0.044285234063863754,
			-0.03825446218252182, -0.03336814418435097, -0.027786772698163986,
			-0.0788491815328598, -0.0018114224076271057, -0.004633704200387001,
			0.02067216858267784, -0.027667663991451263, 0.0073200613260269165,
			-0.030353892594575882, -0.031795602291822433, -0.029311157763004303,
			-0.03490741178393364, -0.08916935324668884, -0.040240976959466934,
			-0.057062312960624695, -0.025832699611783028, -0.06199684366583824,
			-0.045426882803440094, -0.07207316905260086, -0.02992195077240467,
			-0.07560105621814728, -0.038339149206876755, -0.06866422295570374,
			-0.04036789759993553, -0.03954542055726051, -0.054462045431137085,
			-0.08713485300540924, -0.07041481137275696, -0.03233497589826584,
			-0.06438369303941727, -0.07575342804193497, -0.006417525932192802,
			0.031505417078733444, -0.006194869056344032, -0.0033841170370578766,
			0.03342180326581001, -0.009256230667233467, -0.07239122688770294,
			-0.05256161093711853, -0.05822765454649925, -0.09542271494865417,
			-0.052661001682281494, -0.08105504512786865, -0.08013595640659332,
			-0.052996981889009476, -0.07231035083532333, -0.08063097298145294,
			-0.07348824292421341, -0.0644119530916214, -0.03131454437971115,
			-0.051940515637397766, -0.038386568427085876, -0.08658885955810547,
			-0.048799652606248856, -0.028544632717967033, -0.08910006284713745,
			-0.055564068257808685, -0.07932458072900772, -0.04889983683824539,
			-0.05585318058729172, 0.025454867631196976, 0.01314084604382515, 0.004515279084444046,
			-0.02713116630911827, 0.015372537076473236, -0.02932674251496792,
			-0.06754536926746368, -0.06650415807962418, -0.07037592679262161,
			-0.07481343299150467, -0.07623441517353058, -0.05723618343472481, -0.0658523365855217,
			-0.0641532614827156, -0.09201579540967941, -0.08230999857187271, -0.05323833227157593,
			-0.05124323442578316, -0.04432162642478943, -0.046756889671087265,
			-0.08336392045021057, -0.04248221218585968, -0.03084017150104046,
			-0.05854359641671181, -0.0916706994175911, -0.08643127232789993,
			-0.027484208345413208, -0.042916495352983475, -0.02449083887040615,
			-0.021663323044776917, 0.01336071640253067, 0.0028035901486873627,
			-0.02667498216032982, -0.07345478981733322, -0.09161895513534546,
			-0.09541450440883636, -0.03206218034029007, -0.030942121520638466,
			-0.09004349261522293, -0.08964081108570099, -0.07279933243989944,
			-0.030680380761623383, -0.026710914447903633, -0.05678550526499748,
			-0.03708237037062645, -0.07292831689119339, -0.08655243366956711,
			-0.03746216744184494, -0.08422919362783432, -0.04249601438641548,
			-0.057145923376083374, -0.09396712481975555, -0.08252589404582977,
			-0.06650093197822571, -0.07400043308734894, -0.08131924271583557,
			0.025820434093475342, -0.026043973863124847, 0.019916046410799026,
			0.014589399099349976, -0.022830501198768616, -0.04544885829091072,
			-0.0258630458265543, -0.045058250427246094, -0.07150433212518692,
			-0.06092625483870506, -0.07584083080291748, -0.061951447278261185,
