{
	"epoch": 49,
	"learning_rate": 0.01,
	"batch_size": 1250,
	"to_shuffle": true,
	"loss": 0.0005547390871167105,
	"accuracy": 1.0,
	"fc_weights": [
		[
			0.017953425645828247, 0.01758352294564247, -0.018816135823726654,
			-0.012104665860533714, 0.015120439231395721, -0.03493891656398773,
			0.03295564278960228, 0.010952316224575043, -0.011933455243706703,
			-0.002477739006280899, 0.010357581079006195, 0.01951669156551361, 0.11562716215848923,
			0.08186528086662292, 0.03046243265271187, 0.007308393716812134, 0.0005030818283557892,
			-0.01931392028927803, -0.03410978987812996, 0.032379087060689926,
			0.013722941279411316, -0.019477078691124916, -0.02711855247616768,
			-0.0004876181483268738, 0.005774736404418945, 0.000246245414018631,
			-0.011924957856535912, 0.035603199154138565, -0.03253771737217903,
			-0.006790595129132271, 0.023183271288871765, 0.00587235763669014, 0.11060699820518494,
			0.34776151180267334, 0.1681937277317047, 0.14345614612102509, 0.1914471685886383,
			0.16294865310192108, 0.34105780720710754, 0.34981057047843933, 0.42319455742836,
			0.294242262840271, 0.03843177482485771, 0.8441359996795654, 0.5218687057495117,
			0.8030383586883545, 0.42453888058662415, 0.4905092716217041, 0.3944970667362213,
			0.09652169048786163, 0.23663601279258728, 0.25220003724098206, -0.023150989785790443,
			0.022381000220775604, 0.0069465674459934235, -0.028475409373641014,
			-0.026367805898189545, -0.015211714431643486, 0.1575697660446167, 0.6963079571723938,
			0.37525027990341187, 0.1591903418302536, 0.2989748418331146, 0.3119511008262634,
			-0.1536986529827118, -0.4908626675605774, -0.16780637204647064, 0.17493772506713867,
			0.21663396060466766, 0.9913253784179688, 0.2715276777744293, 0.8109416961669922,
			0.855134904384613, 0.6280691623687744, 0.4660078287124634, 1.0977481603622437,
			0.38783785700798035, -0.2690473794937134, -0.053604383021593094, 0.2596227526664734,
			-0.056491442024707794, -0.08383370190858841, -0.029389025643467903,
			0.011830989271402359, 0.030053865164518356, -0.004158880561590195,
			0.19602222740650177, 0.7544677257537842, 0.7842074036598206, 0.20968219637870789,
			0.2887265980243683, 0.02909056842327118, 0.06107131019234657, -0.44762668013572693,
			-0.1223989874124527, 0.010132030583918095, 0.07267151027917862, 0.5366062521934509,
			0.3900710344314575, 0.23776409029960632, 0.6938453316688538, 0.5549600720405579,
			0.016802942380309105, 0.11831872910261154, 0.11321745067834854, -0.4394071698188782,
			-0.47067293524742126, -0.36551526188850403, -0.10308618098497391, -0.6734825372695923,
			-1.0695664882659912, 0.020257193595170975, 0.006499923765659332, -0.0083843432366848,
			0.6598652005195618, 0.29786303639411926, 0.943530261516571, 0.2928932011127472,
			-0.6980785727500916, -0.4541855454444885, 0.7587551474571228, 0.19556571543216705,
			0.09555988758802414, -0.03285518288612366, -0.10420083999633789, 0.46414124965667725,
			0.09680038690567017, 0.48956796526908875, 0.1448071300983429, -0.08543064445257187,
			0.011157369241118431, -0.3758314847946167, -0.22112777829170227, 0.5729689598083496,
			0.5382071733474731, -0.3164011538028717, -1.1531165838241577, -0.5545842051506042,
			0.2837255001068115, -0.35854002833366394, -0.005820624530315399,
			0.0048773810267448425, 0.9835289716720581, 0.3605298697948456, 0.17320865392684937,
			0.09956251829862595, -0.5548545718193054, -0.07930825650691986, 0.3827918767929077,
			-0.06697596609592438, 0.07658996433019638, 0.07454930990934372, 0.22266338765621185,
			0.25033435225486755, 0.15766063332557678, 0.5559833645820618, 0.03879592567682266,
			-0.2700590193271637, -0.12320451438426971, -0.029616285115480423, -0.4306677579879761,
			-0.35552728176116943, -0.25200772285461426, 0.3430223762989044, -0.3314843475818634,
			-1.0650535821914673, 0.0022489093244075775, -0.26884475350379944,
			-0.010638909414410591, -0.007913139648735523, -0.3372611999511719,
			-0.4336739778518677, 0.43864595890045166, 0.20650331676006317, -0.702901303768158,
			-0.4286345839500427, -0.13459588587284088, -0.4489087164402008, -0.22222846746444702,
			-0.047093089669942856, 0.013752509839832783, 0.10090962797403336, 0.10298941284418106,
			0.05266379937529564, 0.006129442248493433, -0.26645395159721375, 0.17159125208854675,
			-0.3359617292881012, -0.30467745661735535, -0.06548234075307846, -0.17985063791275024,
			0.23664435744285583, 0.3415345251560211, 0.19608886539936066, -0.6094139218330383,
			-1.0750741958618164, 0.029406310990452766, 0.16143499314785004, -0.520336925983429,
			-0.7021764516830444, 0.25392311811447144, 0.6388468146324158, 0.02511443942785263,
			0.03280232846736908, -0.44065871834754944, 0.009466564282774925, 0.22532963752746582,
			0.17897240817546844, 0.09296491742134094, 0.09062246978282928, 0.235596165060997,
			-0.1364520937204361, -0.0697469562292099, -0.24520903825759888, 0.07512947916984558,
			-0.06789108365774155, -0.19817019999027252, 0.022922804579138756,
			-0.21819618344306946, -0.12439722567796707, 0.7591713666915894, 0.17475661635398865,
			-0.9543997645378113, -0.6863048076629639, 1.6205518245697021, 0.03195793554186821,
			0.4227883517742157, -0.13997778296470642, -0.25149548053741455, 0.13989149034023285,
			-0.4341375529766083, -0.3294261693954468, -0.056316077709198, 0.04736121743917465,
			0.2247111052274704, -0.05850745737552643, 0.17188622057437897, 0.2359003871679306,
			0.16007713973522186, 0.17102649807929993, -0.1109580248594284, -0.23844631016254425,
			-0.3679916560649872, -0.3120291829109192, -0.14037512242794037, 0.16469289362430573,
			-0.1237339973449707, -0.445351779460907, 0.49900051951408386, 0.28900209069252014,
			-0.5592647194862366, -0.12657430768013, 0.33732882142066956, 0.07038186490535736,
			0.3932931423187256, 1.0966328382492065, 0.5608234405517578, 0.2054663896560669,
			-0.13678722083568573, 0.09764610230922699, -0.1762586086988449, -0.06091354787349701,
			0.170216903090477, 0.36252787709236145, 0.4051356911659241, 0.7252731323242188,
			0.3835088014602661, -0.0062189907766878605, -0.6166314482688904, -0.30792832374572754,
			-0.43822604417800903, -0.42374828457832336, 0.053389716893434525, -0.0375831164419651,
			-0.30149155855178833, 0.15496423840522766, 0.5707371830940247, 0.49525830149650574,
			-0.432245671749115, 0.12841492891311646, 0.34487730264663696, 0.02389291115105152,
			-0.002322056330740452, -0.13190926611423492, -0.2119203358888626, -0.8272125720977783,
			-0.019443267956376076, 0.22437834739685059, -0.378196120262146, 0.10867008566856384,
			0.6064063906669617, 0.9193549156188965, 0.5369203090667725, 0.7984822988510132,
			-0.06415849924087524, -0.4210197925567627, -0.5013909339904785, -0.035951994359493256,
			-0.41420218348503113, -0.4732712507247925, -0.1102558970451355, -0.14952033758163452,
			-0.21689373254776, 0.11040209978818893, -0.10925896465778351, 0.04231730476021767,
			0.013042307458817959, -0.15242470800876617, 0.7086248993873596, 0.14351511001586914,
			-0.32911762595176697, 0.8260321021080017, -0.39433345198631287, -0.6742502450942993,
			0.08316322416067123, -0.3482634425163269, -0.014105437323451042, 0.42135632038116455,
			0.7033190727233887, 0.5003228187561035, 0.08715882897377014, 0.05844273790717125,
			-0.5163230895996094, -0.42509153485298157, -0.17474544048309326,
			-0.022546587511897087, 0.21481479704380035, -0.46015501022338867,
			-0.41741472482681274, -0.4447171986103058, -0.2584981620311737, 0.22490012645721436,
			0.07630401104688644, -0.649323582649231, -0.18711043894290924, 0.22271735966205597,
			0.5339131951332092, 0.12108968943357468, 0.25485825538635254, 0.4009471833705902,
			-0.8177764415740967, -0.2571828365325928, 0.34580740332603455, -0.13438786566257477,
			0.43787091970443726, 0.6184508204460144, 0.6027283072471619, 0.046546049416065216,
			-0.31176555156707764, -0.41332536935806274, -0.1988224983215332, -0.20721454918384552,
			-0.3595650792121887, -0.28249093890190125, -0.13874389231204987, -0.8097352981567383,
			-0.005243959371000528, -0.17812030017375946, 0.226779505610466, 0.41516217589378357,
			0.24921438097953796, -0.8252795338630676, -0.22415927052497864, 0.5057159066200256,
			0.0648532286286354, 0.22726169228553772, 0.6864376068115234, 0.42661052942276,
			-0.3205004036426544, -0.3978734612464905, 0.5443409085273743, 0.17811298370361328,
			0.6781094670295715, 0.4986063539981842, 0.2861364185810089, -0.22037723660469055,
			-0.2770654857158661, -0.3516201376914978, 0.13724248111248016, -0.10485032945871353,
			-0.10207852721214294, -0.047775812447071075, -0.45898160338401794,
			-0.24632853269577026, -0.26908519864082336, -0.05439106002449989, -0.1271504908800125,
			0.35476481914520264, 0.6936485767364502, 0.15186426043510437, -0.3751005530357361,
			-0.26315179467201233, 0.17169424891471863, 0.3720678389072418, 0.7616487741470337,
			-0.4299493134021759, -0.8803741335868835, -0.18690796196460724, 0.09402059763669968,
			0.07267972081899643, 0.4412362277507782, 0.3477229177951813, 0.12960775196552277,
			-0.41650697588920593, -0.07032134383916855, -0.23716309666633606,
			-0.16298983991146088, 0.06732133030891418, 0.02029297687113285, -0.3967958390712738,
			-0.5686511993408203, 0.009715919382870197, 0.16580554842948914, 0.14070110023021698,
			0.382551908493042, 0.7600539326667786, 0.8773075938224792, 0.21427412331104279,
			-0.5802659392356873, -0.2618899941444397, 0.14760369062423706, 0.018753517419099808,
			0.10869236290454865, -0.3077228367328644, -0.67844557762146, 0.09151983261108398,
			0.09259742498397827, 0.15642863512039185, -0.2090781182050705, -0.06432780623435974,
			-0.13337087631225586, -0.26270973682403564, -0.08338223397731781,
			-0.39035072922706604, -0.23115071654319763, 0.03524532914161682, -0.10322411358356476,
			-0.25414735078811646, -0.4698808193206787, -0.25621381402015686, 0.12121327221393585,
			0.2121225893497467, 0.38057878613471985, 0.6427945494651794, 0.4911435544490814,
			0.3456156551837921, -0.9027395844459534, -0.2062985748052597, 0.08879288285970688,
			0.3359322249889374, 0.18085655570030212, 0.7681351900100708, 0.11340703815221786,
			0.606269121170044, 0.08244602382183075, 0.223874032497406, 0.21900491416454315,
			0.09725598245859146, -0.08529466390609741, -0.3274695575237274, -0.3871818780899048,
			-0.23371030390262604, -0.06675271689891815, -0.13804203271865845, -0.3681654930114746,
			-0.419782817363739, -0.4781765043735504, -0.17829468846321106, -0.34101220965385437,
			-0.33799877762794495, 0.24561883509159088, 0.08336090296506882, 0.7000418305397034,
			-0.42322975397109985, -1.5561120510101318, -0.25700438022613525,
			-0.011717826128005981, 0.2812376320362091, 0.1938343197107315, 1.074402928352356,
			-0.302845299243927, 0.7380658388137817, 0.08044828474521637, 0.4587346017360687,
			0.27408072352409363, 0.005431300029158592, 0.0481611005961895, -0.27614521980285645,
			-0.260017991065979, -0.140022411942482, 0.041052162647247314, -0.23216156661510468,
			-0.3928593397140503, -0.16962291300296783, -0.15005654096603394, -0.19835339486598969,
			-0.1699322909116745, -0.13790811598300934, 0.48090672492980957, 0.4515511691570282,
			0.6252106428146362, -0.05521586909890175, -0.7952339053153992, -0.47064051032066345,
			-0.01811373233795166, 0.04550996050238609, 0.26071101427078247, 0.05845596268773079,
			-0.7382677793502808, 0.3313635289669037, -0.194827139377594, 0.1368754506111145,
			0.4117443263530731, 0.06715933978557587, 0.2923716604709625, 0.19235606491565704,
			0.014634080231189728, -0.2001834362745285, -0.06791693717241287, -0.20007601380348206,
			-0.21832403540611267, -0.032885801047086716, 0.06781061738729477, 0.2574652433395386,
			0.6001788377761841, 0.17314444482326508, 0.4304615259170532, 0.6434018015861511,
			0.45788756012916565, 0.30367931723594666, -0.9578733444213867, -0.6528141498565674,
			0.02342817559838295, 0.7089749574661255, 0.583917498588562, 0.05835512652993202,
			-0.37197741866111755, -0.4790433943271637, -0.013646977953612804, 0.10408900678157806,
			0.5068742036819458, 0.3022443950176239, 0.21959547698497772, 0.37437185645103455,
			0.13966035842895508, -0.3748050630092621, 0.12802967429161072, -0.02561572566628456,
			0.1681838184595108, 0.1721445918083191, 0.058923278003931046, 0.05326658487319946,
			0.26883214712142944, 0.017664769664406776, 0.30611613392829895, 0.47110018134117126,
			1.2104573249816895, 0.4742864966392517, -1.071502685546875, -0.3105134665966034,
			-0.016108760610222816, 0.046894390136003494, -0.4511670768260956,
			-0.30198854207992554, -0.6918681263923645, -0.5910943150520325, -0.1789163202047348,
			0.08671605587005615, 0.2713586688041687, 0.3850012719631195, -0.1998404711484909,
			-0.06920485943555832, 0.046547677367925644, -0.0033346759155392647,
			0.38274329900741577, 0.08341901749372482, 0.3268534243106842, 0.23908731341362,
			0.17924630641937256, 0.2557085454463959, -0.005211153067648411, 0.058084290474653244,
			0.3518633246421814, 0.21441297233104706, 0.7347756624221802, -0.038347288966178894,
			-0.6252867579460144, 0.152651846408844, 0.05656055361032486, 0.03356393426656723,
			-0.08277013897895813, -0.2802430987358093, -0.6957492232322693, -0.09743252396583557,
			-0.39184653759002686, -0.2813706398010254, 0.2907261252403259, -0.04503525048494339,
			-0.22357699275016785, -0.0025327305775135756, 0.2488900125026703,
			0.035940054804086685, 0.32282036542892456, 0.27289697527885437, 0.38986635208129883,
			-0.03428700938820839, 0.3776983320713043, 0.1431974470615387, 0.13165459036827087,
			0.1094704270362854, 0.05569782480597496, -0.0820707157254219, 0.14131252467632294,
			0.34785521030426025, 0.26022976636886597, 0.017377708107233047, 0.07202894985675812,
			0.0791880413889885, -0.7328007221221924, -0.737658679485321, -0.5127397179603577,
			-0.42482465505599976, -0.9703808426856995, -0.5630878210067749, 0.386595219373703,
			-0.1934933066368103, -0.33677831292152405, -0.12038534879684448, 0.3992376923561096,
			0.37832769751548767, 0.11302654445171356, 0.3193496763706207, -0.02836613915860653,
			-0.023704037070274353, 0.37883827090263367, -0.03917776793241501, 0.3996430039405823,
			0.6170459985733032, 0.4287498891353607, 0.28566181659698486, -0.21817944943904877,
			0.2740492820739746, 0.3974972665309906, 0.057747673243284225, -0.03444512188434601,
			-0.017131924629211426, -0.2124047875404358, -0.14382483065128326, -0.3987247347831726,
			-0.2620128095149994, -0.011691494844853878, -0.8229657411575317, -0.743411123752594,
			0.025967927649617195, -0.06125599145889282, -0.04380934685468674, 0.05593390390276909,
			0.06418301910161972, 0.1445930451154709, 0.05845577269792557, -0.026597600430250168,
			0.3885946273803711, 0.10382067412137985, 0.07620255649089813, 0.13412362337112427,
			0.2183191031217575, -0.5947518944740295, -0.6161182522773743, -0.3103245198726654,
			0.16142304241657257, 0.22649069130420685, 7.257610559463501e-5, 0.0220554880797863,
			-0.016855746507644653, 0.007524923421442509, -0.07493750005960464,
			0.25707152485847473, 0.1946696788072586, 0.35085606575012207, 0.0172368623316288,
			-0.39882782101631165, 0.18398846685886383, 0.6286515593528748, 0.09008755534887314,
			0.007908559404313564, 0.014429989270865917, -0.07003086805343628, 0.2108459621667862,
			0.15233515202999115, 1.1492573022842407, 0.4552474319934845, -0.1584630161523819,
			-0.2631075382232666, 0.2665584683418274, -0.33987027406692505, -0.47617730498313904,
			-0.04642516374588013, -0.061641450971364975, 0.3993111848831177, 0.02264111116528511,
			0.03476333990693092, -0.00858909823000431, -0.7142555117607117, 0.019525330513715744,
			0.45354151725769043, 1.4266644716262817, 0.3257603049278259, 0.5067884922027588,
			0.6539007425308228, 0.7060043215751648, 0.8834921717643738, 0.8105081915855408,
			0.9775790572166443, 0.4620584547519684, 0.18983009457588196, -0.08634644746780396,
			-0.030052214860916138, -0.20053768157958984, -0.037016093730926514,
			0.1117757111787796, 0.3854725956916809, 1.237541675567627, 0.5612273216247559,
			0.432573527097702, 0.6859915256500244, -0.16194811463356018, -0.18475106358528137,
			0.027049656957387924, -0.019146673381328583, 0.030261050909757614,
			-0.00941876508295536, 0.012135777622461319, -0.35889023542404175, 0.3765110969543457,
			0.7573838233947754, 0.21044762432575226, 0.34858080744743347, 0.3032696545124054,
			0.5681290626525879, 0.43729305267333984, -0.16950441896915436, -0.0958065465092659,
			0.3017584979534149, 0.8101464509963989, 0.5184821486473083, -0.8413394689559937,
			-0.0016221209662035108, 1.5554563999176025, 0.4400457739830017, 0.7316028475761414,
			1.0394866466522217, 0.8165817856788635, 0.030359787866473198, -0.01590544916689396,
			0.03242579475045204, 0.004940886050462723, 0.01491253450512886, 0.007090006023645401,
			-0.02622535079717636, 0.019148264080286026, 0.006700006313621998,
			0.060736317187547684, 0.12322293967008591, 0.3267015218734741, 0.25485309958457947,
			0.677607536315918, 1.2305175065994263, 1.3843821287155151, 1.622074007987976,
			0.6097946763038635, -0.2524352967739105, -0.4790615439414978, -0.8121473789215088,
			0.007621447090059519, -0.1286894828081131, 0.12983569502830505, 0.3882717192173004,
			0.5974327325820923, 1.0313544273376465, 0.7136245965957642, 0.02825010195374489,
			-0.01955854520201683, -0.02871057018637657, 0.001937728375196457
		],
		[
			-0.030422428622841835, -0.02435140311717987, -0.00490792840719223,
			0.0011896230280399323, 0.033739130944013596, -0.03395216539502144,
			-0.0011652633547782898, -0.027706563472747803, -0.021759703755378723,
			0.007135652005672455, -0.02655857801437378, 0.025689803063869476,
			-0.18378643691539764, -0.3153630495071411, -0.033958014100790024,
			0.001149243675172329, 0.024166904389858246, 0.024961505085229874, 0.02239234372973442,
			0.01930845156311989, -0.0062704309821128845, -0.018861686810851097,
			0.01501036062836647, 0.02101195976138115, 0.007282868027687073, -0.028437407687306404,
			0.01626995950937271, 0.02304869517683983, -0.003303755074739456,
			-0.003989432007074356, 0.0006818883121013641, 0.0026600025594234467,
			0.0015595443546772003, -0.01798221468925476, -0.030951352789998055,
			0.08690965920686722, 0.11979974061250687, 0.0779690071940422, -0.13467492163181305,
			0.6025241613388062, -0.024785086512565613, -0.8636142611503601, -0.7706874012947083,
			-0.3864026665687561, 0.3974456489086151, -0.24490748345851898, -0.06356443464756012,
			-0.7507398128509521, -1.2570816278457642, -0.5260065793991089, -0.1907387673854828,
			-0.1132875457406044, 0.021237459033727646, -0.01584240421652794, 0.01897813007235527,
			-0.031436607241630554, 0.03024856373667717, -0.008415453135967255,
			0.018339388072490692, -0.0351732075214386, -0.026792533695697784,
			-0.037001919001340866, 0.10004041343927383, 0.10023573040962219, 0.17113378643989563,
			0.16592861711978912, -0.42327451705932617, -0.7587205767631531, 1.1835066080093384,
			0.7691510915756226, 0.027346141636371613, 0.08145125210285187, 0.08204200863838196,
			0.16927041113376617, 0.2528746426105499, -0.23024293780326843, -0.3666630685329437,
			-0.5642842054367065, -0.46843990683555603, -0.3672715425491333, -0.00569642148911953,
			0.03380193933844566, 0.011971525847911835, -0.022169936448335648,
			0.011570606380701065, -0.01817302219569683, 0.03254631534218788, -0.03148068115115166,
			-0.47411292791366577, -0.3112573027610779, -0.21478785574436188, 0.28848281502723694,
			0.32315972447395325, -0.09038913995027542, -0.4647846817970276, 0.2261311262845993,
			1.1308716535568237, 1.0797736644744873, 0.7095836400985718, 0.23134712874889374,
			0.3594329357147217, -0.08995667099952698, 0.022939767688512802, -0.04681086912751198,
			-0.23774820566177368, -0.6633860468864441, -0.4896126687526703, -0.30943188071250916,
			-0.12054537981748581, -0.178840771317482, -0.1783979833126068, -0.006887469440698624,
			0.026273727416992188, 0.006041020154953003, -0.01832469552755356, -0.5273449420928955,
			0.09548097103834152, 0.22547557950019836, 0.49275660514831543, 0.36101582646369934,
			0.4661707878112793, 1.1732243299484253, 0.9239310622215271, 0.32015669345855713,
			0.7296018004417419, 0.4775770902633667, 0.4607277810573578, 0.7297027111053467,
			0.2589113414287567, -0.3262348175048828, -0.14639033377170563, -0.28147268295288086,
			-0.7110373377799988, -0.330276757478714, -0.22819490730762482, -0.2173069566488266,
			-0.35217079520225525, -0.5542507171630859, -0.2755252718925476, -0.19473999738693237,
			-0.026461530476808548, 0.02150285243988037, 0.048422910273075104,
			-0.09546446800231934, -0.14295421540737152, -0.004302558023482561,
			0.15930069983005524, -0.05453919991850853, -0.314889520406723, -0.2028128206729889,
			-0.03457603231072426, -0.19097568094730377, -0.15930506587028503,
			-0.09979469329118729, -0.09847237914800644, 0.100636787712574, 0.19069471955299377,
			-0.19346500933170319, -0.11214448511600494, -0.27232539653778076, -0.5437037348747253,
			-0.20279112458229065, -0.32884734869003296, -0.7442747354507446, -0.8213868141174316,
			-0.7334144115447998, -0.6104664206504822, -0.2417788952589035, 0.020235709846019745,
			-0.024260934442281723, 0.05087544396519661, -0.1321134865283966,
			-0.024660630151629448, -0.01071544922888279, 0.1774366945028305, -0.2738143503665924,
			-0.8869080543518066, -0.8229691386222839, -0.30135518312454224, -0.29424649477005005,
			-0.4168615937232971, -0.5411157011985779, -0.2560098469257355, -0.13358166813850403,
			0.12796692550182343, 0.04837040603160858, -0.11160821467638016, -0.5405207872390747,
			-0.3084093928337097, -0.36930280923843384, -0.0825299397110939, -0.2146426886320114,
			-0.2703564167022705, -0.8660068511962891, -0.5999528169631958, -0.5986839532852173,
			-0.0134632159024477, 0.024295415729284286, 0.05898076668381691, -0.23490391671657562,
			-0.04479145631194115, -0.14141486585140228, -0.009053248912096024,
			-0.30208998918533325, -0.6716045141220093, -0.29070377349853516, -0.2696760892868042,
			-0.3283471167087555, -0.41032278537750244, -0.5379075407981873, -0.4854191243648529,
			-0.17771372199058533, 0.08061031997203827, 0.1504451185464859, -0.1994234174489975,
			-0.536484956741333, -0.3939841687679291, -0.5269107222557068, -0.3383832573890686,
			-0.3158576488494873, -0.029199454933404922, -0.8738968372344971, -0.6450840830802917,
			-0.5943202972412109, 0.032312240451574326, -0.18643346428871155, -0.9360750317573547,
			-1.094567060470581, -0.553910493850708, -0.6215211153030396, -0.4039217531681061,
			-0.44684898853302, -0.38705870509147644, -0.14890620112419128, -0.06240692734718323,
			-0.4002186357975006, -0.550373911857605, -0.5905758142471313, -0.40662094950675964,
			-0.08125976473093033, 0.4439809024333954, 0.24500128626823425, -0.11094307899475098,
			-0.3755103051662445, -0.3537655770778656, -0.2165723592042923, -0.12432082742452621,
			-0.11258518695831299, 0.20559579133987427, -0.40044745802879333, -0.7394319772720337,
			0.9786607623100281, 0.06242771074175835, 0.06741252541542053, -0.7474704384803772,
			-0.2559358477592468, -0.5975182056427002, -0.9014155268669128, -0.8037793040275574,
			-0.32323235273361206, -0.23142258822917938, -0.3161781430244446, -0.192178875207901,
			-0.5782058835029602, -0.345964640378952, -0.30692538619041443, -0.6427148580551147,
			0.25018110871315, 0.6636328101158142, 0.341271311044693, 0.20865117013454437,
			-0.15093372762203217, -0.1590161770582199, -0.12060368806123734, 0.034109242260456085,
			0.16506098210811615, 0.7983343005180359, -0.8519291877746582, 0.9485942125320435,
			0.10613362491130829, 0.0507744736969471, 0.0710085853934288, 0.23979198932647705,
			0.02869071252644062, -0.6229587197303772, -0.6337474584579468, -0.257416307926178,
			0.41324716806411743, 0.09010238200426102, 0.0323767326772213, -0.23127509653568268,
			-0.016283031553030014, 0.08807165920734406, -0.3486335277557373, -0.46618831157684326,
			0.6164543032646179, 0.84992915391922, 0.24407099187374115, -0.0023662319872528315,
			-0.01739075593650341, -0.05854663625359535, -0.05421173572540283,
			-0.0028187804855406284, 0.41632843017578125, 0.9923156499862671, 0.35610997676849365,
			0.6222054362297058, 0.23911984264850616, 0.024911195039749146, -0.01224575936794281,
			0.5690774917602539, 0.9828550219535828, -0.1030302420258522, 0.9085025787353516,
			0.4193362295627594, -0.06251752376556396, -0.07200038433074951, -0.19455847144126892,
			-0.08475807309150696, 0.011351700872182846, -0.26048824191093445, -0.5462361574172974,
			-0.35397547483444214, 0.4576323926448822, 0.5230408310890198, 0.2864815592765808,
			-0.4127933979034424, -0.18941619992256165, -0.13793721795082092, -0.2118736058473587,
			-0.0022131986916065216, 0.36576032638549805, 0.5469886660575867, 0.8199396133422852,
			-0.5062427520751953, -0.35363999009132385, 0.011660444550216198, 0.11068202555179596,
			0.5310364365577698, 0.9071982502937317, -0.13442949950695038, -0.183418869972229,
			-0.1970483362674713, -0.1386532187461853, -0.3760586082935333, -0.2940722107887268,
			0.02513817325234413, -0.11390701681375504, 0.09360503405332565, -0.009993613697588444,
			0.04216784983873367, 0.05279267951846123, 0.48974350094795227, -0.14559975266456604,
			-0.0954146608710289, -0.5258650183677673, -0.4917484521865845, -0.01383713074028492,
			0.18093165755271912, -0.10569167137145996, -0.06428565084934235, 0.20903465151786804,
			0.8527059555053711, -0.3206060230731964, 0.026249311864376068, 0.44301632046699524,
			-0.1454009860754013, 1.1122256517410278, -0.49893033504486084, -0.6349973082542419,
			0.0823858231306076, 0.10317859798669815, -0.08882375806570053, -0.026015358045697212,
			0.18196672201156616, 0.02277199551463127, 0.20534083247184753, -0.017717165872454643,
			-0.35152626037597656, -0.11086258292198181, 0.06232491880655289, -0.12737533450126648,
			0.061965517699718475, -0.46392959356307983, -0.4011830687522888, 0.05600794777274132,
			-0.0720125138759613, -0.5091820359230042, -0.04653390869498253, -0.05361185595393181,
			1.5055017471313477, 0.05299203842878342, 0.023990418761968613, 0.29799023270606995,
			0.3424665629863739, 0.7777588367462158, -0.4513920247554779, 0.030246645212173462,
			0.4352250099182129, -0.03834956884384155, 0.41103625297546387, 0.5290259122848511,
			0.14934292435646057, 0.23344045877456665, 0.08193456381559372, -0.047357529401779175,
			-0.17107126116752625, 0.022025946527719498, -0.007174505852162838,
			-0.2477688491344452, -0.05192788317799568, -0.4504574239253998, -0.5098580121994019,
			-0.012349101714789867, 0.08887031674385071, 0.18106642365455627, 1.1142678260803223,
			0.2920599579811096, 1.270327091217041, 0.16453337669372559, 0.03097384050488472,
			0.04643448814749718, 0.6426491737365723, 0.2693839967250824, -0.669425904750824,
			0.14295238256454468, 0.23407351970672607, -0.0993611142039299, -0.013550274074077606,
			0.9171930551528931, 0.619767427444458, 0.38445422053337097, 0.21668939292430878,
			0.21617735922336578, -0.08570828288793564, -0.1361200213432312, 0.2959641218185425,
			-0.09527423977851868, 0.025797167792916298, 0.1373291313648224, -0.016677478328347206,
			0.061623189598321915, 0.26685383915901184, 0.6167886257171631, 0.5590351819992065,
			0.6295974850654602, 1.1642963886260986, 0.3028775155544281, -0.03440214693546295,
			0.023182975128293037, 0.19853255152702332, -0.8538628816604614, -0.5968299508094788,
			-0.08227629959583282, 3.399797606107313e-6, 0.126381978392601, -0.22265608608722687,
			0.7660036683082581, 0.4219696521759033, -0.24280785024166107, 0.04173709824681282,
			-0.05419548228383064, -0.1320836842060089, 0.24220120906829834, 0.2668192684650421,
			0.37633010745048523, 0.46964231133461, 0.21111708879470825, -0.011627189815044403,
			0.2409684807062149, 0.16773642599582672, 0.2584206461906433, -0.10692175477743149,
			0.34553414583206177, 0.7376251220703125, 1.265169620513916, -0.0345565527677536,
			0.008340318687260151, -0.017647692933678627, -0.6070402264595032, -0.4808560907840729,
			0.10537364333868027, 0.1667488068342209, -0.08569826185703278, -0.008463462814688683,
			0.3038055896759033, 0.13876260817050934, 0.07556571066379547, 0.23290635645389557,
			0.1313168704509735, 0.22000053524971008, 0.4179609715938568, 0.07600262761116028,
			0.15640488266944885, 0.0730491429567337, 0.1258038878440857, -0.02175997942686081,
			-0.11398208886384964, -0.24861472845077515, -0.25680914521217346,
			-0.03201613947749138, -0.02344544045627117, 0.6646502017974854, 2.1540167331695557,
			-1.538288950920105, 0.01130462996661663, -0.07617004960775375, -0.06906196475028992,
			-0.45635101199150085, 0.32860222458839417, 0.1804366111755371, -0.01725652441382408,
			0.5518354773521423, 0.5590844750404358, 0.040189921855926514, 0.06612850725650787,
			0.20707619190216064, -0.0007779899169690907, 0.0894833579659462, -0.17815589904785156,
			-0.48934751749038696, -0.10805968195199966, -0.0013212334597483277,
			0.1014041155576706, -0.03988059237599373, -0.3977627158164978, -0.6661179661750793,
			-0.7106603384017944, -0.1940310299396515, -0.25837042927742004, -0.2760430574417114,
			1.534204363822937, -0.006479989271610975, -0.5358155369758606, -0.09091412276029587,
			-0.04040747135877609, -0.1737087070941925, 0.1227150484919548, -0.1818302720785141,
			0.07196289300918579, 0.16272735595703125, 0.4797995686531067, -0.33328157663345337,
			-0.23251187801361084, -0.06395096331834793, -0.06597114354372025,
			-0.16255885362625122, -0.4631945788860321, -0.3186247944831848, -0.3354967534542084,
			-0.12099660187959671, -0.19270919263362885, -0.17970576882362366,
			-0.24102136492729187, -0.3609517812728882, -0.30569401383399963, -0.257267564535141,
			-0.4620639383792877, -0.3739439845085144, 0.12198973447084427, 0.005179297178983688,
			-0.7663382291793823, -0.23172973096370697, -0.104486383497715, -0.39625024795532227,
			-0.06952538341283798, -0.059634219855070114, -0.04682350531220436,
			-0.05943165719509125, 0.13752742111682892, -0.3308723270893097, -0.051931336522102356,
			0.1369338482618332, 0.1827671378850937, -0.9276310801506042, -0.15991100668907166,
			-0.08793753385543823, -0.1538505107164383, -0.0029239249415695667,
			-0.17080281674861908, -0.6111900210380554, -0.4876965582370758, -0.2102164775133133,
			-0.20878390967845917, -0.24104024469852448, -0.5116516947746277, -0.371046781539917,
			-0.03996343910694122, 0.04376748949289322, 0.04423150047659874, -0.21522042155265808,
			-0.08197622746229172, -0.12689466774463654, 0.03715408965945244, -0.0464932955801487,
			-0.15978863835334778, -0.43563589453697205, -0.08038846403360367,
			-0.14227408170700073, -0.2773684561252594, 0.12722554802894592, -0.07640928775072098,
			-0.2256631702184677, -0.1215059757232666, -0.047531504184007645,
			-0.026367327198386192, 0.1584424078464508, 0.18528622388839722, 0.5672972202301025,
			0.0265491995960474, -0.17521491646766663, -0.23034124076366425, -0.3519906997680664,
			0.0263984315097332, -0.1956503987312317, 0.002426404505968094, 0.019046807661652565,
			0.011311156675219536, -0.1438252180814743, -0.12557406723499298, -0.15596508979797363,
			-0.04938182234764099, -0.029138145968317986, -0.20735090970993042,
			-0.3279038667678833, -0.2980991303920746, -0.17177583277225494, -0.12802369892597198,
			-0.1887713372707367, -0.19733105599880219, -0.2564180791378021, -0.38115134835243225,
			-0.11041926592588425, -0.042172521352767944, 0.10773128271102905,
			-0.24793808162212372, 0.2442895919084549, 0.3965902030467987, 0.13042603433132172,
			-0.25243186950683594, -0.10906463116407394, 0.21723179519176483, -0.08977892994880676,
			0.02080358937382698, 0.012931112200021744, -0.019200559705495834, 0.02368401363492012,
			-0.08989264070987701, -0.06307924538850784, -0.08450131118297577,
			0.045938655734062195, 0.04119107872247696, -0.05371061712503433, -0.14946530759334564,
			-0.14928926527500153, -0.3653160333633423, -0.29522067308425903, -0.26269766688346863,
			-0.3995620310306549, -0.2038736194372177, -0.2607702910900116, 0.16406773030757904,
			0.288824200630188, -0.2554042935371399, -0.0694008469581604, 0.5387815237045288,
			0.5019697546958923, -0.02231280505657196, 0.4945479929447174, 0.8573634624481201,
			-0.048682890832424164, -0.024306561797857285, -0.015051374211907387,
			0.005159683525562286, -0.017038334161043167, -0.07907930016517639,
			-0.02796914428472519, -0.14831216633319855, -0.3305535614490509, -0.310602068901062,
			-0.35619989037513733, -0.16390828788280487, 0.013475839048624039,
			-0.17019973695278168, -0.14652906358242035, -0.32110291719436646, -0.5117700099945068,
			0.07240969687700272, -0.5013083219528198, 0.33358368277549744, 0.9394739866256714,
			-0.5577932596206665, -0.5279463529586792, -0.716630220413208, -0.42344024777412415,
			0.17930331826210022, 1.1807396411895752, 0.9549790620803833, 0.0938398689031601,
			0.010266385972499847, 0.03278305009007454, 0.008806422352790833, 0.025794997811317444,
			0.08739688247442245, 0.05175067484378815, -0.30488309264183044, -0.5428117513656616,
			-0.6920387744903564, -0.8557937741279602, 0.0885494127869606, -0.08864182233810425,
			-0.24895435571670532, -0.2791806757450104, -0.7561364769935608, -0.4991682469844818,
			0.4848116636276245, 0.1448017656803131, -0.3848930597305298, -1.3367098569869995,
			-0.8302629590034485, -0.4387196898460388, -0.2085026651620865, -0.044419530779123306,
			0.8479267954826355, 1.045817255973816, 0.1014656126499176, 0.08908044546842575,
			-0.02594109997153282, 0.030625198036432266, -0.03127377852797508, 0.03043539449572563,
			-0.021234389394521713, -0.115724116563797, -0.42003577947616577, -0.24562035501003265,
			-0.1190524622797966, 0.5940864682197571, 1.3469593524932861, 0.4078099727630615,
			0.011911261826753616, -0.49728962779045105, -0.433320552110672, 0.33843889832496643,
			-0.203283429145813, -0.3254130184650421, 0.33602580428123474, -0.030014267191290855,
			-0.7426332235336304, -0.59975266456604, -0.24748139083385468, -0.030248727649450302,
			-0.062466759234666824, -0.07987885922193527, -0.005305180326104164,
			-0.02766966074705124, 0.00933525338768959, 0.01374565064907074, 0.005870837718248367,
			-0.00016634538769721985, 0.008160524070262909, 0.03201526030898094,
			0.027885373681783676, 0.023522257804870605, 0.0651898980140686, 0.058741163462400436,
			0.0417855829000473, -0.32545268535614014, -0.24453268945217133, 0.05446243658661842,
			-0.2911829352378845, -0.928969144821167, 0.06537886708974838, 0.03499261662364006,
			-0.15691572427749634, 0.028654392808675766, -0.06766823679208755, -0.0360332652926445,
			0.020767942070961, 0.026380173861980438, 0.009689033031463623, 0.0004854239523410797,
			0.011730525642633438, -0.028952494263648987, 0.0246272049844265
		],
		[
			0.019767288118600845, -0.0231240913271904, 0.03186187520623207, 0.02576272189617157,
			0.012549195438623428, -0.0038606487214565277, -0.02401089295744896,
			0.0065859295427799225, -0.032551031559705734, -0.010263567790389061,
			-0.019304761663079262, -0.0015668682754039764, 0.003469503950327635,
			-0.027081705629825592, -0.04192882031202316, 0.016598807647824287,
			-0.01544918492436409, -0.02868073433637619, 0.014536991715431213, -0.0094471275806427,
			0.03530941531062126, 0.009153954684734344, -0.029068615287542343,
			-0.010740349069237709, -0.014242194592952728, 0.0020320340991020203,
			0.023957878351211548, -0.029478397220373154, 0.014617223292589188,
			0.032135140150785446, -0.008256746456027031, -0.035284560173749924,
			-0.03297914192080498, -0.00650991452857852, -0.0852324515581131, -0.18228022754192352,
			-0.2163173407316208, -0.03250483050942421, -0.032019078731536865,
			-0.00840106699615717, 0.028209546580910683, 0.1283397525548935, -0.23025768995285034,
			-0.8293837308883667, -1.089176893234253, -0.6442990303039551, -0.26326948404312134,
			-0.2438468486070633, -0.21027398109436035, -0.1395469605922699, -0.023085901513695717,
			-0.033531658351421356, 0.00340082123875618, 0.009108811616897583,
			0.0033245012164115906, -0.023440029472112656, 0.008968859910964966,
			-0.003338843584060669, -0.009314214810729027, -0.030254309996962547,
			0.02599225752055645, -0.013529924675822258, -0.15500150620937347, -0.2591108977794647,
			-0.4249769151210785, -0.9124627113342285, 0.9060863852500916, 0.7993535995483398,
			0.2869759202003479, -0.1778428554534912, -0.17978183925151825, -1.1967263221740723,
			-1.3569540977478027, -0.022408362478017807, -0.31626299023628235, -0.6017508506774902,
			-1.441899061203003, -1.5022320747375488, -0.8939110636711121, -0.7145125269889832,
			-0.18246807157993317, -0.032060787081718445, -0.021978221833705902,
			-0.018319373950362206, 0.022248342633247375, -0.026229053735733032,
			0.7608029842376709, 1.2561142444610596, 1.0425336360931396, -1.0562301874160767,
			-0.6507527232170105, -0.01954854093492031, -0.6153250932693481, -0.08943483978509903,
			0.5300100445747375, 1.0971653461456299, 0.4305553734302521, -1.5015535354614258,
			-1.9173288345336914, -0.7484533786773682, -0.6142261624336243, 0.19381754100322723,
			0.2900277078151703, 0.36269816756248474, -0.4061589241027832, -0.31586718559265137,
			-0.26913875341415405, -1.0539391040802002, -0.47328251600265503, -0.37370872497558594,
			0.0316297821700573, 0.027929004281759262, -0.024045825004577637,
			-0.010141445323824883, 0.5976596474647522, 1.2996189594268799, -0.3899157643318176,
			-0.4027513563632965, 0.49949878454208374, 0.7345996499061584, 0.79579758644104,
			0.03857547044754028, -0.07969653606414795, -0.24179834127426147, -0.2652032673358917,
			-1.2937449216842651, -1.2071646451950073, -0.09191729873418808, 0.7610993981361389,
			0.49239325523376465, 0.3253898322582245, 0.8092734217643738, 0.6956565976142883,
			0.8153001666069031, 0.1297244429588318, -1.0131701231002808, -1.2252519130706787,
			-0.1902688592672348, 0.21173132956027985, 7.122009992599487e-5, -0.029081886634230614,
			-0.01712496392428875, -0.3667832314968109, 1.146681308746338, -0.9210962653160095,
			0.27114370465278625, -0.060006819665431976, 0.5700250267982483, 0.6652465462684631,
			0.24292778968811035, -0.5030798316001892, -1.4374479055404663, -1.6034907102584839,
			-1.301724910736084, 0.0962553396821022, 0.1638370007276535, -0.03462069481611252,
			0.10781662166118622, -0.10303044319152832, -0.1294514387845993, -0.40217503905296326,
			-0.18807663023471832, 0.1360352784395218, -1.1658897399902344, -1.2301025390625,
			-0.0077967895194888115, 1.2179582118988037, 1.0330314636230469, 0.0006834305822849274,
			-0.024403054267168045, -0.8527625203132629, -1.1346310377120972, 0.16559948027133942,
			0.8020133376121521, 0.6472901105880737, 0.36457765102386475, 0.5570150017738342,
			-0.1274847835302353, -0.2502627968788147, -0.5711716413497925, -1.3231439590454102,
			-1.5273202657699585, -0.20925380289554596, 0.3898097276687622, 0.5396751165390015,
			0.046846285462379456, 0.3075545132160187, 0.010209447704255581, 0.6807835698127747,
			-0.3255588114261627, 0.2449829876422882, 0.18237975239753723, -0.4384472072124481,
			-0.07647304981946945, 0.6140906810760498, 1.356127381324768, -0.0003357368987053633,
			0.5830717086791992, -0.9786158204078674, 0.6226378083229065, 0.6178892850875854,
			1.346240758895874, 0.5165051817893982, 0.5982457399368286, 0.2410651594400406,
			0.46146076917648315, 0.1541340947151184, -0.6560757160186768, -1.1053708791732788,
			-1.2428315877914429, 0.0421857014298439, 0.6967456340789795, 0.9245771765708923,
			0.7238621115684509, 0.07666070014238358, 0.11765275150537491, 0.6811968684196472,
			0.0753445103764534, 0.077574722468853, -0.2933061122894287, 0.022399840876460075,
			-0.4894724488258362, -0.0633731260895729, 0.2722054123878479, 1.9480687379837036,
			0.6026179790496826, 0.45134711265563965, 0.558929443359375, 0.7979292273521423,
			0.8659064769744873, 0.8324317336082458, 0.6950855255126953, 0.12971358001232147,
			0.29135021567344666, -0.17188279330730438, -0.9116632342338562, -1.2564358711242676,
			-0.42843228578567505, -0.09657585620880127, 0.6515935063362122, 0.7187079191207886,
			0.6375519037246704, 0.1480153203010559, -0.33035844564437866, -0.45983317494392395,
			-0.03571608290076256, -0.702195942401886, -0.380870521068573, -0.05375552549958229,
			-0.6800132989883423, -0.17041513323783875, 0.05203554034233093, 0.053650736808776855,
			0.9215536713600159, 0.02993922121822834, 0.17343340814113617, 0.3044821619987488,
			0.30424565076828003, 0.23859697580337524, 0.6225892901420593, 0.7885037660598755,
			0.20050720870494843, 0.5675827860832214, -0.3505595624446869, -1.0320132970809937,
			-0.7766240239143372, -0.2194787710905075, 0.8689019680023193, 0.8878958821296692,
			0.22456496953964233, 0.06091989204287529, -0.6323471069335938, -0.1744404137134552,
			-0.34011176228523254, -1.1880816221237183, -0.08579076081514359, -0.8616054058074951,
			-0.24174834787845612, -0.3559795916080475, -0.07983951270580292, 0.04697492718696594,
			1.1061159372329712, 0.4239937663078308, -0.4606727659702301, 0.34775152802467346,
			0.5341723561286926, -0.2133627086877823, 0.2181527018547058, 0.6227912902832031,
			0.5751404166221619, 0.42046022415161133, -0.13980433344841003, -0.6667304635047913,
			-0.8834606409072876, -0.16572237014770508, 0.4242202937602997, 0.5238178968429565,
			0.14771521091461182, -0.17535246908664703, -0.5675528645515442, -0.5136773586273193,
			-0.9053366184234619, 0.009045918472111225, 0.25245627760887146, -0.5168125033378601,
			0.739163875579834, -0.006427687127143145, -0.04068204015493393, 0.23829786479473114,
			0.45711636543273926, 0.28774914145469666, -0.29951947927474976, 0.09002602100372314,
			0.5797577500343323, 0.443234920501709, -0.08237570524215698, 0.5890251398086548,
			0.6660175919532776, 0.4114641547203064, -0.10595420002937317, -0.41154491901397705,
			-0.7864857316017151, -0.41694509983062744, 0.40513530373573303, 0.5057085156440735,
			-0.22117546200752258, 0.18678028881549835, -0.5362218022346497, -0.41910097002983093,
			-0.8469717502593994, -1.0634818077087402, -0.49858713150024414, -1.2630765438079834,
			0.03492853417992592, -0.1900818943977356, -0.23486214876174927, 0.3307941257953644,
			0.7745401263237, 0.32408687472343445, 0.6372877359390259, -0.10026930272579193,
			0.508678674697876, 0.34517374634742737, -0.04601051285862923, -0.04594741761684418,
			0.2818165719509125, 0.6349196434020996, -0.17399795353412628, -0.1643892228603363,
			-0.3761592507362366, -0.6952292323112488, 0.024470608681440353, 0.14903776347637177,
			-0.1473425030708313, -0.26460781693458557, -0.07415250688791275, -0.07694234699010849,
			0.16570338606834412, -0.2904199957847595, -0.38373106718063354,
			-0.0019216240616515279, 1.189499855041504, -0.4572870433330536, -0.24490836262702942,
			0.739608108997345, 0.6455602049827576, 0.04569551721215248, 0.27668341994285583,
			0.33496516942977905, 0.20768731832504272, 0.46160921454429626, 0.1310296356678009,
			-0.05516337230801582, 0.013309035450220108, -0.2040504366159439, 0.23942981660366058,
			-0.09270545095205307, -0.28347113728523254, 0.10732154548168182,
			-0.011370773427188396, 0.037450943142175674, 0.12433099746704102,
			-0.31057479977607727, 0.05001743510365486, -0.07743187248706818, 0.7172759771347046,
			0.280288964509964, 0.10099482536315918, 0.07787787914276123, 0.3625046908855438,
			-0.4133586883544922, -0.0140791404992342, -0.027144089341163635, 0.5338670015335083,
			-0.39327776432037354, -0.46313366293907166, 0.03612469881772995, 0.28139206767082214,
			0.5455657243728638, 0.18721404671669006, 0.48675060272216797, 0.14063787460327148,
			-0.22958052158355713, -0.008729547262191772, -0.5042177438735962,
			0.005589635111391544, 0.32271552085876465, 0.08073697984218597, 0.24568776786327362,
			0.09713221341371536, 0.08034072071313858, 0.5230012536048889, -0.1446962207555771,
			0.0707562193274498, 0.4728609025478363, -0.14354337751865387, 0.8207976222038269,
			0.6073976755142212, 0.07930658012628555, -0.006539195775985718, -0.024414021521806717,
			0.4295513927936554, 1.1250578165054321, 0.21873190999031067, 0.46710389852523804,
			-0.21734698116779327, 0.0674232468008995, 0.5553463697433472, 0.2902330756187439,
			-0.13958947360515594, -0.3301331102848053, 0.2167029231786728, -0.10542707145214081,
			0.38451266288757324, 0.19309155642986298, 0.1055724024772644, 0.2827174663543701,
			-0.04053618758916855, -0.3723403811454773, 0.0018536720890551805, -0.2606671154499054,
			-0.2888965308666229, 0.3274434208869934, -0.055304139852523804, -0.3847450315952301,
			-0.687388002872467, 0.4674181640148163, 0.015627611428499222, -0.02783219888806343,
			0.032287873327732086, 0.21214523911476135, 0.45672205090522766, 1.2323118448257446,
			0.33565786480903625, 0.2582347095012665, 0.5883521437644958, 0.19778858125209808,
			-0.11580546200275421, -0.47866004705429077, -0.3450276255607605, 0.08713820576667786,
			0.3111365735530853, -0.0965089499950409, 0.17159706354141235, -0.06324515491724014,
			-0.1764473021030426, -0.0390012301504612, 0.34430554509162903, -0.16490590572357178,
			0.16563169658184052, -0.12059223651885986, -0.19961795210838318, 0.16281503438949585,
			0.9101272225379944, 0.7502668499946594, 0.009795740246772766, 0.005693219602108002,
			0.0873522087931633, 0.8848772048950195, 0.01895866170525551, 0.7393963932991028,
			0.566246747970581, 0.13106681406497955, 0.23593682050704956, -0.01935981772840023,
			-0.07806579023599625, -0.33917421102523804, -0.22187478840351105, -0.5027506351470947,
			-0.30027222633361816, -0.32355639338493347, -0.10373229533433914, 0.20029984414577484,
			-0.4042006731033325, -0.11873041838407516, -0.07193543016910553, -0.4342787563800812,
			-0.2120353728532791, 0.014917208813130856, -0.23011977970600128, -0.04761345311999321,
			0.6444934010505676, 0.1105843335390091, 0.17411193251609802, 0.010983478277921677,
			0.15283240377902985, 1.0801620483398438, 0.3473857641220093, 0.6102010011672974,
			-0.12204235047101974, -0.3418693542480469, -0.02504672482609749, -0.30967116355895996,
			-0.41279709339141846, -0.18546532094478607, -0.26525363326072693, -0.539353609085083,
			0.2913122773170471, -0.11626716703176498, -0.3693654239177704, -0.5787428021430969,
			-0.7719290852546692, -0.2748452425003052, -0.47413167357444763, -0.725063681602478,
			-0.3009587526321411, -0.38491618633270264, -0.26431211829185486, 0.5573397874832153,
			0.5124235153198242, -0.7362902164459229, 0.4428103268146515, 0.18600238859653473,
			0.3451133072376251, -0.056871458888053894, -0.7398278117179871, 0.47263452410697937,
			0.2735448479652405, -0.14833462238311768, 0.10992413014173508, 0.02563590556383133,
			0.28164735436439514, 0.025410005822777748, 0.22919096052646637, -0.23622478544712067,
			0.0660347118973732, -0.2714809775352478, -0.31714919209480286, -0.2029593288898468,
			-0.34190282225608826, -0.01149542536586523, -0.29930320382118225, -0.2284323126077652,
			0.1223420798778534, -0.4838216304779053, -0.3659766614437103, 0.524820864200592,
			0.8815054297447205, -0.9687411189079285, 0.4524608552455902, -0.0356934629380703,
			-0.04909316077828407, -0.15085577964782715, -0.6930227279663086, 0.307541161775589,
			0.026743199676275253, -0.34508007764816284, -0.6198442578315735, 0.12722845375537872,
			0.33453360199928284, 0.06834903359413147, 0.5239017009735107, 0.0591127909719944,
			-0.2930447459220886, -0.1768524944782257, 0.11081310361623764, 0.2519281208515167,
			0.06823279708623886, 0.5725270509719849, -0.3256252110004425, -0.48529160022735596,
			-0.15915921330451965, -0.32408395409584045, 0.3519688844680786, -0.23019272089004517,
			0.11333630979061127, -0.27356448769569397, 0.16269023716449738, 0.29163438081741333,
			-0.13638348877429962, -0.18599200248718262, 0.6559697389602661, -0.03569980710744858,
			-0.5651634335517883, -0.27143651247024536, -0.12460416555404663, 0.11340309679508209,
			0.23090760409832, -0.13926176726818085, 0.14316204190254211, -0.017475655302405357,
			-0.2130044549703598, 0.1256939023733139, 0.24808207154273987, -0.12557245790958405,
			-0.12888388335704803, 0.03392202779650688, -0.7684033513069153, -0.32730966806411743,
			-0.12581656873226166, -0.0061097526922822, 0.588515043258667, 0.3779420554637909,
			0.10888688266277313, 0.06615108996629715, 0.03224644437432289, 0.2713911235332489,
			0.08989425748586655, 0.07242006063461304, 0.6165494918823242, 0.5671592950820923,
			-0.3387622833251953, -0.05622006580233574, -0.0066965497098863125,
			-0.13368022441864014, -0.30401545763015747, -0.3568616807460785, -0.2074047476053238,
			-0.12243228405714035, 0.17811007797718048, 0.6938249468803406, 0.4243132472038269,
			-0.0053835706785321236, 0.03760424256324768, -0.05657701939344406,
			-0.21154433488845825, 0.019210578873753548, 0.7533159852027893, 0.7571461796760559,
			0.1520431786775589, 0.11605005711317062, 0.5325126051902771, 0.5252788662910461,
			-0.028903933241963387, 0.013358891010284424, 0.029403265565633774, 0.6103179454803467,
			0.330712229013443, 0.41263604164123535, 0.057587187737226486, 0.08773994445800781,
			0.6941924691200256, 0.5238012671470642, 0.3501918315887451, 0.0741167962551117,
			0.309523344039917, 0.2894863188266754, -0.2011011689901352, -0.25792500376701355,
			-0.042355380952358246, -0.17755554616451263, -0.10569757223129272,
			0.17479358613491058, 0.06395965814590454, 0.41097119450569153, 0.880892276763916,
			-0.1236133947968483, -0.002032908843830228, -0.43111950159072876,
			-0.07843529433012009, 0.4293217360973358, 0.01710367575287819, 0.005642533302307129,
			0.016700711101293564, -0.20906837284564972, 0.10823589563369751, -0.45624396204948425,
			-0.6849678754806519, -1.0372600555419922, -0.6077077388763428, -0.6221697330474854,
			0.14500005543231964, -1.0369096994400024, -0.04882081598043442, 0.04387328773736954,
			-0.37028127908706665, -0.3257881999015808, 0.25057879090309143, -0.40818312764167786,
			0.10378766804933548, 0.290922075510025, 0.15809589624404907, 0.3866914212703705,
			0.1018989235162735, -0.20014327764511108, -0.17868176102638245, 0.2798643708229065,
			0.3129129111766815, -0.008382972329854965, 0.014207147061824799,
			-0.008825387805700302, 0.0042806826531887054, -0.17995965480804443,
			0.3358916938304901, 0.06483098864555359, -0.5655975937843323, -0.08856672793626785,
			0.321305513381958, 0.6796128153800964, 0.6577691435813904, -1.0480093955993652,
			-0.45467114448547363, 0.23666466772556305, 0.47531017661094666, 0.5666913986206055,
			-0.1988297402858734, -0.5473325848579407, 0.517963707447052, 0.45750048756599426,
			-0.781430721282959, -0.19108697772026062, 0.19276659190654755, 0.418022096157074,
			0.8622221946716309, 0.9213761687278748, -1.1855037212371826, 0.004671778529882431,
			0.006782449781894684, 0.01464773714542389, 0.016864962875843048, 0.012708384543657303,
			-0.03037860244512558, 0.06632684916257858, -0.053769998252391815,
			-0.32420027256011963, -0.38853710889816284, 0.33834108710289, 0.028049340471625328,
			-0.495852530002594, -0.380473256111145, -1.0563716888427734, -0.613460898399353,
			-0.012958829291164875, 0.025015808641910553, -0.38575199246406555, 0.6019884347915649,
			0.2519433796405792, -0.5352895855903625, -0.5284202098846436, -0.8582122325897217,
			-1.4652061462402344, -1.939870834350586, -0.47570040822029114, 0.015452787280082703,
			-0.012870734557509422, 0.020063776522874832, -0.019912689924240112,
			0.01866081729531288, -0.020187566056847572, -0.02794722653925419,
			-0.018734034150838852, 0.050229430198669434, 0.021456092596054077,
			0.09166725724935532, 0.058608539402484894, -0.062222689390182495, 0.04100047051906586,
			-0.2877870500087738, -0.4583836495876312, -0.8163213729858398, -0.8778239488601685,
			-0.637182354927063, -0.6254841089248657, -0.6856272220611572, -0.769943118095398,
			-0.027553917840123177, 0.49746862053871155, -0.14487814903259277,
			-0.34435707330703735, -0.1272662729024887, -0.017350245267152786,
			-0.03469705209136009, 0.03323068842291832, -0.0018834583461284637
		],
		[
			0.0034399405121803284, 0.021741509437561035, 0.028296958655118942,
			-0.01098017580807209, -0.017070064321160316, -0.003683902323246002,
			-0.0009848736226558685, -0.021615173667669296, -0.028616731986403465,
			-0.009053545072674751, 0.019696559756994247, 0.031935010105371475,
			0.014191027730703354, 0.033641256392002106, 0.028269018977880478,
			0.022530198097229004, -0.009565329179167747, -0.02620931714773178,
			0.035215217620134354, -0.01821119897067547, -0.007825370877981186,
			-0.034662406891584396, 0.015023961663246155, -0.020583227276802063,
			-0.033956434577703476, 0.03059922531247139, -0.02310599759221077,
			0.012909509241580963, -0.005037397146224976, 0.00855175033211708,
			-0.0007293634116649628, -0.017922155559062958, 0.020174665376544,
			-0.0027737256605178118, -0.11539876461029053, -0.13209128379821777,
			-0.01991223730146885, 0.0013537579216063023, 0.08053478598594666,
			-0.39621400833129883, -0.450786828994751, -0.2976672351360321, 0.0038139279931783676,
			-0.20958039164543152, -0.6016634106636047, -0.34628310799598694, 0.3230673372745514,
			0.44643285870552063, 0.7488933801651001, 0.3230316638946533, 0.3546780049800873,
			0.13402654230594635, 0.014670781791210175, 0.00707612931728363, 0.024893030524253845,
			-0.010454118251800537, 0.03499317541718483, -0.0009555555880069733,
			0.009654813446104527, 0.3541637361049652, 0.024503733962774277, 0.09434878826141357,
			0.08404237776994705, 0.08971929550170898, 0.014570832252502441, -0.43168336153030396,
			-0.8147587776184082, -0.7736755609512329, -0.5367928147315979, -0.2333947718143463,
			0.016999248415231705, 0.32408377528190613, 0.33704128861427307, 0.5327140092849731,
			0.4820840358734131, 0.9969421625137329, 0.9305747747421265, 0.9863806962966919,
			0.8476390838623047, 0.9121312499046326, 0.5818793177604675, 0.3416494131088257,
			0.016043849289417267, 0.00594509020447731, 0.0003783665597438812,
			0.023011505603790283, 0.5036131739616394, 0.5176747441291809, 0.08145599812269211,
			0.18971113860607147, 0.27447476983070374, 0.555729866027832, -5.83040491619613e-5,
			-0.22190093994140625, 0.13250550627708435, -0.07861058413982391, -0.5107795000076294,
			-1.343065619468689, -0.6947567462921143, -0.5056324601173401, -0.41574984788894653,
			0.10344232618808746, -0.19619978964328766, 0.9537811279296875, 1.640120029449463,
			0.664547324180603, 0.4180418848991394, -0.13658303022384644, 0.5377205014228821,
			-0.6906853318214417, 0.12976263463497162, 0.006055302917957306, 0.0016373135149478912,
			0.030261436477303505, 0.4423329532146454, 0.7962998747825623, 0.4642808735370636,
			-0.19495722651481628, -0.12663571536540985, 0.02360353246331215, -0.6116376519203186,
			-1.2355914115905762, -1.0766420364379883, -0.09796137362718582, -0.021085141226649284,
			-0.0925002321600914, -0.5026289224624634, -0.3281620740890503, -0.4408751130104065,
			-0.6899487972259521, -0.6344982981681824, -0.38114070892333984, -0.21689513325691223,
			0.24452514946460724, -0.14444291591644287, -0.12338876724243164, 0.24427413940429688,
			-0.46339869499206543, -0.31641247868537903, 0.440898597240448, -0.023114018142223358,
			0.011517740786075592, 0.18799132108688354, 0.24650657176971436, -0.28862622380256653,
			0.6934888362884521, -0.7599790096282959, -0.5703302025794983, -0.04710525646805763,
			-1.0308713912963867, -0.8574478030204773, -0.37115007638931274, -0.15279904007911682,
			0.07588428258895874, 0.12536610662937164, 0.2291053682565689, 0.13968554139137268,
			-0.20604310929775238, 0.25796982645988464, -0.3818575441837311, -0.5985028147697449,
			-0.24589797854423523, -0.07430524379014969, 0.6579530835151672, 0.7798543572425842,
			0.3914940059185028, -0.008019515313208103, 0.5261763334274292, -0.014450035989284515,
			0.38764914870262146, -0.297001451253891, 0.20063963532447815, 0.25709086656570435,
			0.6646547317504883, 0.2765301764011383, -0.32880592346191406, -0.611840546131134,
			0.06756976991891861, -0.1955437809228897, -0.3932933807373047, -0.16455543041229248,
			0.06265787780284882, -0.054718341678380966, -0.3261643350124359, -0.37651410698890686,
			-0.3089720904827118, 0.024238089099526405, -0.36920371651649475, -0.6292142868041992,
			0.009881588630378246, 0.3521179258823395, -0.11849422752857208, 0.37785789370536804,
			0.08397375792264938, 0.7444262504577637, 0.8204376101493835, 0.022685980424284935,
			1.2308255434036255, 0.34388986229896545, 1.1471601724624634, 0.5626928210258484,
			-0.08788058906793594, 0.02207338996231556, 0.3638095259666443, -0.5465348362922668,
			0.3197958767414093, -0.31341975927352905, -0.50830078125, -0.37146782875061035,
			-0.02221537008881569, 0.2756691575050354, -0.2962169647216797, -0.16294194757938385,
			-0.07097678631544113, -0.13626377284526825, -0.30446821451187134, -0.3002006411552429,
			0.32664334774017334, 0.05169982835650444, -0.2115163654088974, -0.2979407012462616,
			-0.2796061635017395, -0.11174143105745316, 0.9330837726593018, -0.01611819863319397,
			0.9904104471206665, 0.3953357934951782, 0.9204164147377014, 0.8539144396781921,
			-0.20439697802066803, -0.13649265468120575, 0.121370829641819, -0.5131479501724243,
			-0.08082086592912674, -0.1612311750650406, -0.32594698667526245, -0.2159205973148346,
			-0.0033809151500463486, 0.30842337012290955, 0.24120280146598816,
			-0.13906514644622803, -0.19909806549549103, -0.45038464665412903,
			-0.37502455711364746, -0.5394698977470398, -0.20461364090442657, -0.5209769606590271,
			-0.9350383877754211, -0.4996737539768219, -0.44123604893684387, -0.502551794052124,
			-0.07187948375940323, 0.24699681997299194, 1.0763671398162842, 1.5892442464828491,
			-0.24889005720615387, 0.7691752910614014, -0.5428681373596191, -0.45485448837280273,
			-0.1286306530237198, -0.534460723400116, -0.26005762815475464, -0.433895468711853,
			-0.3474748432636261, -0.3166104555130005, 0.13929077982902527, 0.4840438961982727,
			0.6112289428710938, 0.15013621747493744, -0.24320374429225922, 0.08802327513694763,
			-0.05262703821063042, -0.5165780782699585, -0.26553821563720703, -0.7826237678527832,
			-0.217946857213974, -0.9122337698936462, -0.5359593033790588, 0.19272397458553314,
			0.5571093559265137, 0.25070706009864807, 0.36623990535736084, 1.2532525062561035,
			-0.4031105041503906, 0.8202768564224243, -0.08337920159101486, 0.23428335785865784,
			0.1933230459690094, -0.12371184676885605, -0.4551578760147095, -0.6836280822753906,
			-0.2753157615661621, -0.29154741764068604, 0.345329225063324, 0.6110048890113831,
			0.6689161062240601, 0.12129498273134232, -0.07135704159736633, 0.1193198561668396,
			-0.11957836896181107, -0.48318299651145935, -0.2402566820383072, -0.0862000584602356,
			-0.3302101790904999, -0.2833448648452759, -0.31643742322921753, 0.10715816915035248,
			0.8330127596855164, 0.2472437173128128, 0.14039458334445953, 0.1340354084968567,
			-0.488013356924057, 0.8024799227714539, 0.23086664080619812, 0.07612340152263641,
			0.21983131766319275, -0.0007348344079218805, -0.5393151640892029,
			-0.16911673545837402, -0.11911032348871231, 0.235747292637825, 0.6043146252632141,
			0.5390186309814453, 0.4805426299571991, -0.15906232595443726, -0.12824809551239014,
			-0.07231862097978592, 0.05443400889635086, 0.013042892329394817, 0.30491089820861816,
			0.2631623446941376, -0.45679646730422974, -1.7206823825836182, -2.172304153442383,
			-1.0373167991638184, 1.1031802892684937, 0.13599707186222076, -0.015546660870313644,
			0.38879409432411194, -0.5273057222366333, 0.24398012459278107, -0.22310303151607513,
			-0.6908471584320068, -0.5319018363952637, -0.2179129421710968, -0.7096695899963379,
			-0.10964422672986984, 0.2214716374874115, 1.1103854179382324, 0.9777182340621948,
			0.3886556625366211, 0.2541565001010895, -0.013791163451969624, -0.20300766825675964,
			0.0239887498319149, 0.1264689415693283, 0.3741935193538666, 0.3128988444805145,
			0.06280719488859177, -0.1809893101453781, -0.7960858345031738, 0.18458205461502075,
			-0.32457831501960754, 1.4423277378082275, 0.02581225149333477, -0.004969180561602116,
			1.0907012224197388, 0.050124939531087875, 0.5872862935066223, 0.15825851261615753,
			0.04755036532878876, -0.4960528016090393, -0.5479030609130859, -0.34317582845687866,
			0.2826875150203705, 0.6785191297531128, 0.8049169182777405, 0.3227356970310211,
			0.17748063802719116, -0.10489130020141602, 0.26489779353141785, 0.08096568286418915,
			0.2833600342273712, 0.2484416961669922, 0.3639715015888214, -0.18051841855049133,
			-0.6676720976829529, -0.28858646750450134, -0.2467854768037796, 0.11718927323818207,
			-0.6407595872879028, -0.15908539295196533, 0.041267335414886475,
			-0.000472926622023806, 0.725284218788147, 0.665710985660553, 1.2854465246200562,
			-0.10002586245536804, -0.4628220200538635, -0.8480875492095947, -0.34035319089889526,
			0.10429973900318146, 0.36832258105278015, 0.5146442651748657, 0.6059133410453796,
			0.17779576778411865, 0.23572726547718048, 0.023287693038582802, -0.04110816493630409,
			0.15553684532642365, 0.3964304029941559, 0.4800744354724884, 0.3136995732784271,
			0.1721593588590622, -0.25391602516174316, -0.490759938955307, -0.8020992279052734,
			-0.10334719717502594, -0.8200163841247559, -0.1728929877281189, 0.026802822947502136,
			0.14417998492717743, 0.17258957028388977, 0.09173072874546051, 0.46729761362075806,
			-0.49572333693504333, -0.6053224205970764, -0.26541265845298767, -0.19806404411792755,
			0.2131638079881668, 0.4806678295135498, 0.5796571373939514, 0.45890358090400696,
			0.08786904811859131, 0.0551961250603199, 0.05366559326648712, -0.006074078381061554,
			0.3668385148048401, 0.455911248922348, 0.2150195986032486, 0.060407623648643494,
			0.438476026058197, 0.3267687261104584, -0.11634324491024017, -0.5164129137992859,
			-0.523127555847168, -0.43042951822280884, -0.272695928812027, 0.12154024094343185,
			0.26440006494522095, -0.22553512454032898, -0.5067572593688965, 0.563058078289032,
			-0.2541436553001404, -0.5079804062843323, -0.07541194558143616, 0.09279131889343262,
			0.2529059648513794, 0.42487242817878723, 0.41928860545158386, 0.21042822301387787,
			0.2591308653354645, 0.0865980014204979, -0.19032487273216248, 0.15113677084445953,
			0.29353034496307373, 0.40957656502723694, 0.579604983329773, 0.16871057450771332,
			-0.17999233305454254, -0.07426075637340546, -0.3491971790790558, -1.0331835746765137,
			-1.4861476421356201, -1.3485963344573975, -0.9288005828857422, 0.008028585463762283,
			0.32231584191322327, -0.28470534086227417, -0.831218957901001, 0.2735917568206787,
			-0.5194264650344849, -0.47089046239852905, -0.3298929035663605, -0.3892079293727875,
			0.38865935802459717, 0.688406229019165, 0.28813236951828003, -0.03771665319800377,
			0.21293438971042633, 0.23522567749023438, -0.23607680201530457, 0.10834848135709763,
			0.1307535171508789, 0.2585805058479309, 0.24220150709152222, -0.00021801817638333887,
			-0.11764225363731384, -0.25404486060142517, -0.45780929923057556, -0.4210321605205536,
			-0.02054879628121853, 0.14137355983257294, -1.1228567361831665, -0.6523309350013733,
			0.11681007593870163, -0.098258838057518, -0.2349678874015808, 0.18759986758232117,
			-1.2512967586517334, -0.7255271673202515, -0.7127189636230469, -0.4978542923927307,
			-0.1926887333393097, -0.2759194076061249, -0.1901032030582428, 0.10772762447595596,
			0.34711670875549316, 0.03752715513110161, -0.1418762356042862, -0.21488836407661438,
			-0.14379669725894928, 0.07041394710540771, -0.43157121539115906, -0.6092434525489807,
			-0.4682384431362152, -0.4019949436187744, -0.6309109926223755, -0.35759255290031433,
			-0.14210878312587738, 0.9490849375724792, 0.08354198187589645, 0.08445283770561218,
			0.7700192928314209, 0.24298040568828583, 0.2990286350250244, 0.10038456320762634,
			-0.5093530416488647, -0.31971779465675354, -0.4484800100326538, -0.32438796758651733,
			-0.43088605999946594, -0.4151487350463867, -0.08070995658636093, 0.27818602323532104,
			0.30455127358436584, 0.09920979291200638, 0.048036329448223114, -0.0961359441280365,
			-0.3852485716342926, -0.260562002658844, -0.5045936107635498, -0.8488509654998779,
			-1.2757149934768677, -1.2766553163528442, -0.8050335049629211, -0.2638740837574005,
			0.025332441553473473, 0.35365453362464905, 0.3525404930114746, 0.02386585995554924,
			0.13899026811122894, -0.6595830321311951, -0.15882623195648193, -0.15970656275749207,
			0.02353523299098015, 0.1763923466205597, 0.020497171208262444, -0.6128913760185242,
			-0.3459937572479248, -0.33827707171440125, 0.06927711516618729, 0.16827526688575745,
			0.09393743425607681, 0.24467676877975464, 0.2437683492898941, 0.10897614061832428,
			-0.31944894790649414, -0.24801529943943024, -0.34714239835739136,
			-0.14966657757759094, -1.2948256731033325, -0.7738511562347412, -0.43976661562919617,
			0.2511957287788391, 0.3618648052215576, 0.3433140516281128, 0.16190318763256073,
			0.0445956215262413, -0.011678009293973446, -0.48059478402137756, -0.11731909215450287,
			-0.798642098903656, 0.3791327178478241, 0.09659858793020248, 0.009873204864561558,
			-0.16248290240764618, -0.20112700760364532, -0.22755314409732819, -0.3359244465827942,
			-0.044629648327827454, -0.19646649062633514, 0.18260541558265686,
			-0.06001458689570427, -0.009368829429149628, -0.46742576360702515,
			0.05318661034107208, -0.36192503571510315, 0.02407338097691536, -0.7018165588378906,
			-0.4792832136154175, -0.43105900287628174, 1.1259443759918213, -0.23071472346782684,
			-0.2458398938179016, 0.04191357642412186, 0.031000185757875443, 0.035265546292066574,
			-0.06189081072807312, -0.1745125949382782, 0.31773725152015686, -0.31331783533096313,
			-0.7216134667396545, 0.251801997423172, -0.1452547311782837, -0.27824389934539795,
			0.02187870256602764, -0.10818623006343842, -0.06783708930015564, -0.41120049357414246,
			-0.2883772552013397, -0.022446321323513985, 0.21698805689811707,
			-0.030991440638899803, 0.04282522574067116, 0.5710432529449463, 0.5331987738609314,
			0.21150819957256317, 0.18065744638442993, 0.38775718212127686, -0.13265275955200195,
			-0.18025851249694824, 0.45682045817375183, 0.03885551169514656, 0.028002891689538956,
			-0.010649167001247406, -0.14414823055267334, -0.18203061819076538,
			0.04678851738572121, -0.7346848845481873, -0.32284513115882874, -0.17878031730651855,
			-0.3442850410938263, 0.13248153030872345, -0.11354663968086243, 0.3074021339416504,
			0.22705212235450745, 0.1247626319527626, 0.007590333465486765, 0.16910769045352936,
			0.3628692924976349, 0.2138826549053192, -0.08378026634454727, 0.15028029680252075,
			0.2684597671031952, -0.18649667501449585, -0.8782986402511597, -0.7679066061973572,
			-0.240775465965271, 0.02945764549076557, 0.6646731495857239, 0.02186712995171547,
			0.022966496646404266, -0.029600689187645912, -0.1581965535879135,
			-0.11071659624576569, -1.025928258895874, -1.1396381855010986, -0.5356075763702393,
			-1.0146069526672363, -0.960573136806488, -0.12518221139907837, 0.07574563473463058,
			0.1576646864414215, -0.17527435719966888, 0.14846768975257874, 0.4553956091403961,
			0.49081721901893616, 0.24992898106575012, 0.19654186069965363, 0.4541798532009125,
			0.31031960248947144, 0.2517929971218109, 0.4089628756046295, 0.8085120320320129,
			0.23971447348594666, 0.138038769364357, 0.19430826604366302, 0.44698917865753174,
			0.009699299931526184, 0.003671731799840927, -0.030008066445589066,
			-0.04903818294405937, 0.06993744522333145, -0.9376301169395447, -0.9655227065086365,
			-0.4881771504878998, -1.308579444885254, -0.6478335857391357, 0.08101487159729004,
			-0.1489940583705902, 0.06307662278413773, -0.4092460870742798, -0.3219905495643616,
			-0.637248158454895, -0.12514808773994446, -0.4028037190437317, -0.695238471031189,
			0.0978558212518692, -0.4642133414745331, -0.3126677870750427, -0.7472493648529053,
			0.37820950150489807, 0.1555364578962326, -0.01921979710459709, -0.11160043627023697,
			0.004484869539737701, 0.019079867750406265, -0.013437952846288681,
			0.02924676612019539, -0.010476445779204369, -0.23673208057880402, -0.5107042193412781,
			-0.3188958764076233, -0.5274055004119873, -1.730249285697937, -0.42849457263946533,
			-0.4242497682571411, -0.07026530802249908, -0.05836397036910057, -0.7174606323242188,
			-0.24761180579662323, -0.25048598647117615, 0.6959035396575928, -0.1753738969564438,
			-1.9552104473114014, -1.1591659784317017, -0.1002078577876091, -1.333591103553772,
			-1.6118083000183105, -0.8497517108917236, -0.5229398012161255, 0.01938306726515293,
			0.024413589388132095, -0.02691839635372162, -0.01698264107108116,
			-0.013953691348433495, 0.0071250274777412415, 0.02538376674056053,
			-0.03536148741841316, 0.04868677258491516, 0.03866668418049812, -0.3470711410045624,
			-0.5382390022277832, -0.5670190453529358, -0.6361322999000549, -0.9178997278213501,
			-1.3381019830703735, -1.0191115140914917, -1.276857614517212, -0.8430514931678772,
			-0.5158594846725464, -0.4172345995903015, -0.393053263425827, -0.34693241119384766,
			-0.35692065954208374, -0.045449964702129364, -0.03955840691924095,
			-0.0750698372721672, -0.011082420125603676, -0.028123315423727036,
			-0.021978575736284256, -0.007083965465426445, -0.009582972154021263
		],
		[
			-0.010532895103096962, -0.005354639142751694, -0.019835153594613075,
			0.0009927041828632355, 0.005929846316576004, -0.0038151703774929047,
			0.013703342527151108, -0.030854668468236923, -0.03362257778644562,
			-0.013301199302077293, -0.03102811425924301, -0.006225569173693657,
			0.1441737562417984, 0.14237520098686218, -0.004569593816995621, 0.01582847721874714,
			0.02676483988761902, 0.015960216522216797, -0.03137494623661041, 0.02561138942837715,
			0.0021511688828468323, -0.024220207706093788, -0.008392857387661934,
			0.025813356041908264, -0.021523162722587585, -0.03079465962946415,
			-0.0016522035002708435, -0.026244696229696274, -0.031040852889418602,
			-0.01166331022977829, -0.009327791631221771, -0.023071788251399994,
			0.04290683567523956, 0.17891843616962433, 0.13370947539806366, 0.1933578997850418,
			0.17984408140182495, 0.3013032376766205, 0.49549439549446106, 0.4265424609184265,
			0.5491056442260742, 0.9628283977508545, -0.164697527885437, 0.3907288908958435,
			0.8946518898010254, 1.0383816957473755, 0.5855816602706909, 0.7991839647293091,
			0.8528789281845093, 0.6965134739875793, 0.33025506138801575, 0.2226875275373459,
			-0.007697220891714096, 0.008679389953613281, 0.014429975301027298,
			-0.016889074817299843, -0.02721545659005642, -0.0329948291182518,
			0.017474932596087456, 1.0528254508972168, 1.0233296155929565, 0.06920535117387772,
			0.16148890554904938, 0.1737768054008484, -0.03831630200147629, -0.8352450728416443,
			-0.6877684593200684, -0.03397466987371445, 0.36336344480514526, -1.1078097820281982,
			-1.2964924573898315, -0.9436892867088318, 0.21830561757087708, 0.11070762574672699,
			0.4467633366584778, -0.35969072580337524, 0.6391099095344543, 0.8743758201599121,
			0.7984644174575806, 0.797131359577179, -0.19059744477272034, -0.07003231346607208,
			0.012571476399898529, 0.02117568626999855, -0.03464805707335472, -0.01712782494723797,
			-0.840749204158783, 1.0700998306274414, 0.9987671375274658, 0.17048759758472443,
			-0.0609859861433506, -0.1814580261707306, 0.3999677896499634, 0.05925063416361809,
			0.6681625843048096, 0.6006364822387695, 0.662427544593811, 0.5154504179954529,
			0.24554717540740967, 0.2909184694290161, -0.024600444361567497, 0.2272304743528366,
			0.8596023917198181, 0.16089500486850739, 1.2058205604553223, 0.6673427224159241,
			-0.017947781831026077, 0.6162401437759399, 0.13681405782699585, 0.45659613609313965,
			0.10353528708219528, 0.017379045486450195, 0.006336100399494171, 0.03209758922457695,
			-0.42364922165870667, 0.7280332446098328, -0.05612504854798317, -0.22350527346134186,
			-0.2155037522315979, 0.1799166053533554, 0.08765054494142532, 0.0900559276342392,
			0.20107679069042206, 0.1973821371793747, 0.086887888610363, -0.19478905200958252,
			-0.08151907473802567, -0.0894574373960495, -0.19815579056739807,
			-0.011975627392530441, 0.3129727244377136, 0.2035767138004303, 0.09038741141557693,
			0.2770826816558838, 0.021568432450294495, 0.5302895903587341, 0.22200079262256622,
			0.3449196517467499, 0.47231796383857727, -0.01672404818236828, 0.02724422886967659,
			0.032214824110269547, 0.39764368534088135, 0.2923271954059601, -0.14187179505825043,
			-0.21782749891281128, 0.10650087893009186, 0.34404894709587097, -0.05379260703921318,
			-0.08142274618148804, -0.4827004671096802, -0.0375131294131279, 0.0023768548853695393,
			0.17125819623470306, 0.013342100195586681, 0.0934237539768219, 0.11026940494775772,
			0.27332526445388794, 0.02908993698656559, -0.025242440402507782, 0.11469331383705139,
			-0.13888747990131378, -0.3730235993862152, -0.6068713068962097, -0.26580989360809326,
			0.44349855184555054, 1.0513237714767456, 0.07274170964956284, 0.03243424370884895,
			0.2920084297657013, 0.4951724410057068, 0.08869743347167969, 0.38917604088783264,
			0.04638544097542763, 0.06739023327827454, 0.11672637611627579, 0.37561142444610596,
			0.41020259261131287, 0.08989206701517105, 0.047196224331855774, -0.10031859576702118,
			0.09288753569126129, 0.08902285993099213, 0.2983878254890442, 0.38325488567352295,
			0.447614848613739, 0.36538365483283997, 0.4453902840614319, 0.2431841343641281,
			0.13143587112426758, -0.22849251329898834, 0.028501540422439575,
			-0.0066291578114032745, 0.702144205570221, -0.05137763172388077, -0.10132012516260147,
			0.0669344812631607, 1.6676356792449951, 0.3952515125274658, 0.17660512030124664,
			0.12652023136615753, -0.24640043079853058, 0.21757277846336365, 0.12133578211069107,
			0.1085808277130127, 0.00961284339427948, 0.11539873480796814, -0.06062997132539749,
			-0.09785609692335129, -0.06757687777280807, -0.14922082424163818, 0.3566690683364868,
			0.2706158757209778, 0.21019026637077332, 0.2075551301240921, 0.1765502393245697,
			0.11087949573993683, -0.12323860079050064, -0.1425689309835434, 0.05370514467358589,
			-0.033222466707229614, 0.10754597932100296, -0.2291291058063507, -0.131866917014122,
			-1.4838454723358154, 0.8741202354431152, 0.3103797137737274, 0.3857859671115875,
			-0.31667402386665344, -0.281087189912796, -0.14054985344409943, -0.08365888148546219,
			0.05210063233971596, -0.05496080592274666, 0.2687833309173584, 0.18628649413585663,
			0.07511308044195175, -0.04735257849097252, -0.16343773901462555, -0.03231997415423393,
			0.17438608407974243, 0.11812783032655716, 0.1278335005044937, 0.02937498688697815,
			0.14568114280700684, 0.13401319086551666, 0.04268861562013626, -0.0027384706772863865,
			0.35883715748786926, 0.09469706565141678, -0.009075150825083256, 0.43123599886894226,
			0.2361610382795334, 0.8968321681022644, -0.05972735956311226, 0.4320446252822876,
			-0.0824456587433815, -0.36728352308273315, -0.05666383355855942, -0.5909927487373352,
			-0.13263697922229767, 0.11603736132383347, 0.2490483522415161, 0.039452437311410904,
			0.23431316018104553, 0.04249302297830582, 0.07678771018981934, -0.10341088473796844,
			-0.009571141563355923, 0.16128332912921906, -0.3269418478012085, -0.07747173309326172,
			-0.011709840036928654, -0.011362627148628235, 0.06119408831000328, 0.0272938534617424,
			0.48576730489730835, 0.5475331544876099, 0.5182321071624756, -0.11116708070039749,
			0.1772412806749344, 0.24556855857372284, -0.2996923625469208, 0.2769622504711151,
			0.32996058464050293, -0.11450204998254776, -0.014771852642297745, -0.4236982762813568,
			-0.0010821892647072673, 0.3518347144126892, 0.3172537684440613, 0.19727754592895508,
			0.08592230826616287, 0.20292805135250092, 0.30849912762641907, 0.03587479144334793,
			0.1587074249982834, -0.26738110184669495, -0.20403924584388733, -0.3166867792606354,
			-0.02215346321463585, -0.1571023017168045, -0.08769405633211136, 0.0204203762114048,
			0.13083797693252563, 0.34992459416389465, 0.021186595782637596, -0.34996193647384644,
			0.3984467387199402, 0.3673892021179199, 1.043992042541504, 0.6745944023132324,
			0.5704773664474487, 0.19769449532032013, -0.06437640637159348, 0.08197811990976334,
			0.2922877371311188, 0.13408473134040833, 0.13131839036941528, 0.3229150176048279,
			0.23568524420261383, 0.4514828324317932, 0.6029360294342041, 0.4475719928741455,
			0.2145654857158661, 0.04168873652815819, -0.08125267177820206, -0.2779648005962372,
			-0.2471597045660019, -0.45173290371894836, -0.15358160436153412,
			-0.003740063402801752, 0.7595252990722656, 0.8048635721206665, 0.9672834873199463,
			0.2948751747608185, 0.27584588527679443, 0.06024383753538132, 0.6570330262184143,
			0.6338961720466614, 0.6700279116630554, 0.3710995018482208, 0.05251055955886841,
			0.04086623340845108, 0.08530090749263763, 0.0227914210408926, -0.05732402577996254,
			0.11337872594594955, -0.147609680891037, 0.025056812912225723, 0.38801902532577515,
			0.48820722103118896, 0.2150612324476242, 0.1776251196861267, 0.11181563138961792,
			-0.1304224133491516, -0.2891853451728821, -0.5452629327774048, -0.4473350942134857,
			-0.006585660856217146, -0.5123676657676697, 0.2832612693309784, 0.8151535987854004,
			1.0212504863739014, -0.5464112758636475, 0.04943465441465378, 0.42087894678115845,
			0.772506833076477, 0.3607739508152008, 0.42545968294143677, -0.16086821258068085,
			-0.21545132994651794, -0.13859160244464874, -0.12819458544254303,
			-0.04126701131463051, 0.14980092644691467, 0.17667333781719208, 0.43791279196739197,
			0.4059632122516632, 0.3405957818031311, 0.2346363216638565, 0.041711024940013885,
			-0.03489631786942482, -0.08360110223293304, -0.08042331039905548,
			-0.04554601013660431, -0.30421212315559387, -0.5806213617324829, -0.3696499466896057,
			0.10269511491060257, -0.029554491862654686, -0.13938291370868683, 0.2082739919424057,
			0.04544778913259506, 0.3538673222064972, 0.312030553817749, 0.013408917002379894,
			0.09108772873878479, -0.09112729877233505, -0.1813192069530487, -0.17743727564811707,
			-0.14607618749141693, 0.02995321713387966, 0.10245160758495331, 0.13209082186222076,
			0.2838752567768097, 0.1378171741962433, 0.14293499290943146, 0.06667768210172653,
			-0.03213900327682495, 0.1409028172492981, 0.08948439359664917, 0.1434893012046814,
			0.5139092206954956, -0.2830463647842407, -0.6173987984657288, -0.7655715942382812,
			-0.874214231967926, -0.6899662017822266, -0.12266135215759277, 0.13913017511367798,
			0.1398412585258484, -0.3890205919742584, -0.6414598822593689, 0.3085092008113861,
			0.7511220574378967, 0.29836323857307434, 0.012820452451705933, -0.0019691698253154755,
			-0.10621172189712524, -0.052311431616544724, -0.14165936410427094,
			-0.09365839511156082, 0.08995657414197922, 0.036839764565229416, 0.028983553871512413,
			-0.0732031762599945, -0.08031721413135529, 0.3194417953491211, 0.31167590618133545,
			0.6575076580047607, 0.41281288862228394, 0.019488442689180374, -0.07510772347450256,
			-0.20958620309829712, -0.9018852114677429, -0.8411716222763062, -0.17889410257339478,
			-0.06342117488384247, 0.20587140321731567, 0.00652484642341733, -0.11139635741710663,
			0.21045783162117004, 0.6062480211257935, 0.388816773891449, 0.062373168766498566,
			0.2604329586029053, 0.2240704745054245, 0.24748258292675018, 0.04142298176884651,
			0.011746437288820744, 0.05869072675704956, -0.08977079391479492, -0.16379165649414062,
			-0.1608613282442093, -0.021781664341688156, 0.17000028491020203, 0.18064367771148682,
			0.5638437867164612, -0.22195973992347717, 0.19448606669902802, -0.37156397104263306,
			-0.8005802631378174, -1.3776744604110718, -0.9162290096282959, 0.11329521238803864,
			-0.026993267238140106, 0.21120098233222961, -0.3599097728729248, 0.743923544883728,
			0.2114136517047882, 0.3507539629936218, 0.22694441676139832, 0.26953840255737305,
			0.1674061268568039, 0.22677795588970184, 0.02073752135038376, -0.007208273746073246,
			-0.07659642398357391, -0.12226679176092148, -0.24477051198482513, -0.1489323377609253,
			-0.22379183769226074, -0.07544953376054764, -0.3246817886829376,
			-0.022035982459783554, 0.13476531207561493, -0.38303419947624207, -0.5167742371559143,
			-0.5494352579116821, -0.7207804918289185, -0.854302167892456, -0.302359014749527,
			0.8149444460868835, 0.8029657602310181, 0.05374113470315933, 0.023510344326496124,
			0.2269260138273239, 0.2383027970790863, 0.232612743973732, 0.35284027457237244,
			0.3465154469013214, 0.2510291039943695, 0.15581054985523224, 0.3580242395401001,
			0.16787089407444, -0.09339672327041626, -0.19688034057617188, -0.16721569001674652,
			-0.02976018376648426, -0.14215736091136932, -0.20148125290870667,
			-0.44690001010894775, 0.060581546276807785, 0.10052979737520218, -0.1671200841665268,
			-0.17039628326892853, -0.5212631821632385, -1.1018770933151245, -0.5478034615516663,
			0.415351539850235, -0.5561246275901794, -0.18802013993263245, 0.8368083834648132,
			0.13468913733959198, -0.06649354845285416, 0.24328413605690002, -0.07617845386266708,
			-0.007794159930199385, -0.08044501394033432, 0.08969829976558685, 0.14555807411670685,
			0.23865321278572083, 0.01570148579776287, 0.2507169842720032, -0.016649270430207253,
			-0.13585036993026733, -0.13000333309173584, -0.3728157579898834, -0.137884721159935,
			-0.16395020484924316, 0.08411021530628204, -0.08817891031503677, -0.18774734437465668,
			-0.08230667561292648, -0.21854612231254578, 0.18418315052986145, -0.6498345136642456,
			-0.4665031135082245, -0.3687789738178253, -0.0026725195348262787, 0.19269591569900513,
			-0.11567529290914536, -0.02256072871387005, -0.11829851567745209,
			-0.10598918050527573, -0.23733550310134888, -0.155351921916008, 0.11418243497610092,
			0.2398831844329834, 0.3129863440990448, 0.01869962364435196, 0.005517461337149143,
			0.25774455070495605, -0.10948038846254349, -0.06097757816314697, -0.2933986485004425,
			-0.1500004380941391, -0.4221307337284088, -0.19403612613677979, -0.12359964847564697,
			-0.23260831832885742, -0.10485735535621643, -0.1766628921031952, 0.09761039912700653,
			0.19769692420959473, -0.48680514097213745, -0.13685879111289978, -0.05936121195554733,
			-0.29005178809165955, -0.26061898469924927, -0.6885663866996765, -0.14264845848083496,
			-0.3919014036655426, -0.15212415158748627, 0.06948567181825638, -0.19051750004291534,
			0.06936925649642944, 0.029731161892414093, 0.24510644376277924, 0.12684746086597443,
			0.08915851265192032, -0.06255810707807541, 0.058394163846969604,
			-0.050171684473752975, -0.013390320353209972, -0.24252305924892426,
			-0.16970761120319366, -0.19950363039970398, -0.23916345834732056,
			-0.28527143597602844, -0.46820178627967834, -0.23887330293655396,
			-0.07191528379917145, 0.11754271388053894, -0.05715467035770416, -0.09806990623474121,
			-0.05997469648718834, -0.3919162154197693, 0.0919409990310669, 0.1697065383195877,
			-0.5125607848167419, -0.214076966047287, -0.010513256303966045, -0.14643102884292603,
			-0.0940999984741211, -0.07825849205255508, 0.07480742782354355, 0.21814733743667603,
			0.043041180819272995, 0.14522019028663635, 0.07070896029472351, 0.12160364538431168,
			0.1544603705406189, -0.32196107506752014, -0.556682288646698, -0.5827329754829407,
			-0.7872545719146729, 0.11104434728622437, -0.04205688089132309, -0.16371102631092072,
			0.03656759113073349, 0.2742941677570343, -0.0490540936589241, 0.007191110402345657,
			0.014849219471216202, 0.2984524369239807, 0.6875914931297302, 0.5059716701507568,
			0.37821513414382935, -0.39324721693992615, -0.23844604194164276, -0.274834543466568,
			-0.6487386226654053, -0.4141222834587097, -0.14195257425308228, -0.16032515466213226,
			-0.05503401532769203, -0.14147129654884338, -0.059269946068525314,
			-0.10845626890659332, -0.2956872284412384, -0.19661131501197815, -0.3828153610229492,
			-0.32967543601989746, -0.2050086259841919, 0.36264532804489136, 0.1254516988992691,
			0.2929270267486572, 0.1815662682056427, -0.14930163323879242, -0.026301810517907143,
			-0.0029417909681797028, -0.01852506957948208, -0.6062993407249451, 0.9000545144081116,
			0.6357637643814087, 0.3147249221801758, -0.1630626767873764, -0.2901625633239746,
			-0.4974059760570526, -0.7392005324363708, -0.45427191257476807, -0.27688372135162354,
			0.027757301926612854, 0.04200553521513939, -0.11553725600242615, 0.25517600774765015,
			0.09432415664196014, 0.004243716597557068, -0.30883118510246277, -0.34293586015701294,
			0.17517000436782837, -0.652299165725708, -0.31399357318878174, 0.009204595349729061,
			-0.16821599006652832, -0.4558907151222229, -0.1793232411146164, 0.002521336078643799,
			-0.019752349704504013, 0.025835320353507996, 0.6172373294830322, -0.1286858767271042,
			-0.27733859419822693, 0.45310118794441223, 0.37166985869407654, 0.27065780758857727,
			-0.3368399143218994, -0.30974820256233215, 0.30329424142837524, 0.218400776386261,
			0.34700387716293335, 0.137952983379364, -0.03728654235601425, 0.17304015159606934,
			0.513348400592804, 0.5908635854721069, 0.23516349494457245, 0.6621782779693604,
			0.3252771198749542, 0.17341279983520508, -0.22332514822483063, -0.1056058257818222,
			0.5764203071594238, -0.0374886654317379, -0.06126781925559044, 0.024005141109228134,
			-0.014238787814974785, 0.02087908238172531, 0.017745770514011383,
			0.006711603607982397, -0.047281838953495026, -0.13669821619987488,
			-0.07507515698671341, 1.0315684080123901, 0.665688157081604, 0.5708656907081604,
			0.6725648641586304, 0.7523720860481262, 0.5363898277282715, 1.0476734638214111,
			0.9983997941017151, 0.382224440574646, 0.7527802586555481, 1.4066176414489746,
			1.3344396352767944, 0.8929314613342285, 1.606941819190979, 1.094124436378479,
			0.8688880801200867, 0.2708960771560669, 0.19661615788936615, 0.08540304005146027,
			-0.012749241665005684, -0.021397480741143227, 0.03309096023440361,
			0.005518101155757904, 0.004346083849668503, 0.03038124367594719, 0.08599980175495148,
			0.06684902310371399, 0.4032054543495178, 0.4423055052757263, 0.4156830906867981,
			0.2121591567993164, 0.7679388523101807, 0.6593472957611084, 0.2960711717605591,
			0.31287655234336853, 0.7684781551361084, 0.3087475299835205, 0.3557499349117279,
			0.48893046379089355, 0.8140075206756592, 0.2377006560564041, -0.1038404330611229,
			0.11516669392585754, 0.24422195553779602, 0.47774556279182434, 0.015069399029016495,
			-0.01117647998034954, -0.028962107375264168, 0.027775023132562637
		],
		[
			0.018528811633586884, -0.017797164618968964, -0.035000450909137726,
			0.003464590758085251, -0.02762468531727791, -0.010978996753692627,
			-0.0011617429554462433, -0.020676353946328163, 0.021815788000822067,
			-4.560500383377075e-5, -0.00998237356543541, -0.012322485446929932,
			0.008460130542516708, 0.02112441137433052, 0.019609414041042328,
			-0.018549097701907158, -0.03295695409178734, -0.03373623639345169,
			-0.015317071229219437, -0.011235790327191353, 0.003369878977537155,
			-0.009347222745418549, 0.016069874167442322, 0.016573425382375717,
			-0.029007768258452415, 0.03337794914841652, 0.0009919218719005585,
			-0.015962056815624237, -0.019176339730620384, 0.0339549221098423,
			-0.016764428466558456, -0.024798057973384857, 0.008794397115707397,
			0.01114608347415924, 0.023595649749040604, 0.01871844008564949, 0.022612739354372025,
			-0.03783002868294716, -0.031799741089344025, -0.08249635994434357,
			-0.07407274097204208, -0.024228522554039955, 0.01808108389377594,
			-0.0014057420194149017, -0.0486876554787159, -0.035514961928129196,
			-0.08763737231492996, -0.06907541304826736, -0.026444431394338608,
			-0.006729099899530411, -0.03328653797507286, 0.00645417720079422,
			0.024293523281812668, 0.00024704262614250183, 0.01458091288805008,
			0.027728203684091568, 0.0012660585343837738, -0.032061200588941574,
			-0.02970993146300316, -0.024821236729621887, -0.023011093959212303,
			-0.03459174931049347, 0.010781463235616684, 0.08963516354560852, 0.07639233767986298,
			0.08525851368904114, 0.041287194937467575, 0.0518450029194355, -0.03983281925320625,
			-0.07018838077783585, -0.08426155149936676, -0.04001680389046669,
			-0.07796692848205566, -0.09313853085041046, -0.045631539076566696,
			-0.06853508949279785, -0.08671659976243973, -0.032252561300992966,
			0.034916479140520096, 0.015050400048494339, -0.0004919208586215973,
			-0.0322602353990078, -0.0198000967502594, -0.03396397456526756, -0.028297770768404007,
			-0.009427428245544434, 0.02750614657998085, -0.015337139368057251,
			0.005620446056127548, 0.01823832094669342, 0.028479838743805885, 0.07456822693347931,
			0.06824915111064911, 0.08994780480861664, 0.07155276089906693, 0.06304854899644852,
			-0.04682846739888191, -0.06939037144184113, -0.05726274475455284,
			-0.03976799547672272, -0.02698485739529133, -0.06112998351454735,
			-0.05498889461159706, -0.08174166828393936, -0.08368904143571854,
			-0.049092140048742294, -0.030369989573955536, -0.07905068248510361,
			-0.0017603151500225067, 0.0016565322875976562, -0.0033498406410217285,
			-0.02556484192609787, 0.0028483569622039795, 0.01847251132130623,
			0.005305338650941849, -0.01925012469291687, -0.08792975544929504,
			-0.08710606396198273, -0.0305410735309124, 0.0719846710562706, 0.029482526704669,
			0.06595708429813385, -0.0489526204764843, -0.06455434113740921, -0.0354401171207428,
			-0.043023690581321716, -0.09300018846988678, -0.06234891340136528,
			-0.07044077664613724, -0.0259726382791996, -0.02647005021572113, 0.05287285894155502,
			-0.08331141620874405, -0.06879115849733353, -0.0907607302069664,
			-0.029046138748526573, -0.057038433849811554, -0.06405376642942429,
			0.005128581076860428, -0.01012345775961876, 0.028516363352537155,
			-0.03275985270738602, -0.015570458024740219, 0.020463727414608, -0.08823946863412857,
			-0.06792795658111572, -0.027736911550164223, -0.09480461478233337,
			-0.05565867945551872, -0.05601251870393753, -0.03635164350271225,
			-0.06478865444660187, -0.09333737194538116, -0.04108471795916557,
			-0.04445507377386093, -0.08875580132007599, 0.0490955151617527, 0.08143841475248337,
			-0.06609459221363068, -0.04251491650938988, -0.06784611940383911, -0.0552162230014801,
			-0.05350635573267937, -0.05243855342268944, -0.05230852589011192,
			-0.09459738433361053, -0.06876474618911743, 0.034547869116067886,
			-0.02800874412059784, 0.021729640662670135, 0.019621524959802628, 0.05204261466860771,
			-0.04927726462483406, -0.03136584535241127, -0.0628187358379364, -0.05010869354009628,
			-0.05731146037578583, -0.09039084613323212, -0.062359172850847244,
			-0.09361778944730759, -0.09030404686927795, -0.024385061115026474,
			-0.0421212837100029, -0.04505092278122902, -0.05630672723054886, -0.03250781446695328,
			-0.079214908182621, -0.07608023285865784, -0.03514760360121727, -0.0261699128895998,
			-0.04688149690628052, -0.09360262751579285, -0.03341306746006012,
			-0.050111252814531326, -0.062174394726753235, -0.02800723910331726,
			0.03152889385819435, -0.00023821741342544556, -0.02963290549814701,
			0.08630821108818054, -0.05384398251771927, -0.05469254404306412,
			-0.061727046966552734, -0.06033233925700188, -0.08474624902009964,
			-0.05583040043711662, -0.043729037046432495, -0.05008465796709061,
			-0.06397151201963425, -0.09554186463356018, -0.04257908836007118, -0.0524592287838459,
			-0.07231394946575165, -0.0930018350481987, -0.0444314144551754, -0.029700586572289467,
			-0.09203778952360153, -0.025773724541068077, -0.09451967477798462,
			-0.08091247826814651, -0.05823008716106415, -0.05210443586111069,
			-0.04153791069984436, -0.06215380132198334, 0.02548655867576599, -0.02840484119951725,
			0.004298023879528046, 0.026725467294454575, -0.08448347449302673,
			-0.02589343674480915, -0.06642525643110275, -0.05081544816493988,
			-0.05037891864776611, -0.05568473041057587, -0.05950567498803139,
			-0.03570687398314476, -0.028937814757227898, -0.08268443495035172,
			-0.07581185549497604, -0.05500304326415062, -0.02675626613199711,
			-0.08372771739959717, -0.0419941246509552, -0.061362262815237045,
			-0.028180385008454323, -0.04851306229829788, -0.026073232293128967,
			-0.07485681027173996, -0.049953147768974304, -0.03692477196455002,
			-0.09456297010183334, 0.006971288472414017, 0.026594851166009903,
			-0.019618405029177666, 0.009678289294242859, -0.06195599213242531,
			-0.057104192674160004, -0.04295383021235466, -0.043438419699668884,
			-0.09334733337163925, -0.08579173684120178, -0.07573340088129044,
			-0.03496348857879639, -0.09370920062065125, -0.04594384506344795,
			-0.07533039897680283, -0.045334018766880035, -0.0425453782081604,
			-0.06624627858400345, -0.05925959348678589, -0.07682368904352188, -0.0728427842259407,
			-0.0379534587264061, -0.05422496795654297, -0.048686012625694275,
			-0.033226024359464645, -0.05166567862033844, -0.04998986795544624,
			-0.09325068444013596, 0.0011978670954704285, -0.019594324752688408,
			0.014142468571662903, 0.005281727761030197, -0.09396842122077942, 0.0783642828464508,
			-0.038695450872182846, -0.05550342798233032, -0.04884318634867668,
			-0.03917693719267845, -0.09343501925468445, -0.04615721106529236,
			-0.03582202270627022, -0.0255790613591671, -0.05059758573770523, -0.04127718508243561,
			-0.06638790667057037, -0.07947824150323868, -0.05001695454120636,
			-0.08654114603996277, -0.05299593135714531, -0.09496091306209564,
			-0.06989669799804688, -0.07466580718755722, -0.05448397994041443,
			-0.06073524057865143, -0.024779116734862328, 0.014667242765426636,
			0.028146754950284958, -0.03510759770870209, -0.02182786539196968,
			-0.09367011487483978, 0.027881501242518425, 0.04975863918662071, -0.06953053921461105,
			-0.03259175270795822, -0.04696553200483322, -0.0529228113591671, -0.04264736920595169,
			-0.07150395959615707, -0.03998520225286484, -0.08296844363212585,
			-0.047131262719631195, -0.08703313767910004, -0.08547068387269974,
			-0.03991454839706421, -0.060608986765146255, -0.0690692886710167,
			-0.03395162522792816, -0.037484120577573776, -0.06688638031482697,
			-0.040142253041267395, -0.0513622984290123, -0.08160604536533356, 0.01136009395122528,
			-0.0076921246945858, 0.014613199979066849, 0.006311468780040741, -0.01623385027050972,
			-0.0008631013333797455, 0.04098217561841011, 0.06233872473239899,
			-0.06715011596679688, -0.04591432586312294, -0.07914645969867706,
			-0.08217126131057739, -0.04761119559407234, -0.04182741791009903,
			-0.03357839211821556, -0.0847572460770607, -0.0415821298956871, -0.0850968137383461,
			-0.05342283099889755, -0.09012046456336975, -0.03285753354430199,
			-0.02571757696568966, -0.07826144993305206, -0.08435456454753876,
			-0.048348844051361084, -0.07486175745725632, -0.047723446041345596,
			-0.07966828346252441, -0.051164139062166214, 0.03518525883555412,
			-0.026423558592796326, 0.015450406819581985, -0.03409038856625557,
			-0.018794771283864975, -0.06540694087743759, -0.09280675649642944,
			-0.04845865070819855, -0.065932497382164, -0.0726897120475769, -0.03506813198328018,
			-0.0648534819483757, -0.054996591061353683, -0.05342596024274826,
			-0.08124063163995743, -0.06290663778781891, -0.044082678854465485,
			-0.07957892119884491, -0.060893069952726364, -0.07946949452161789,
			-0.049354929476976395, -0.03370663896203041, -0.07542980462312698,
			-0.03510288894176483, -0.06768286973237991, -0.05481306090950966, -0.0355030857026577,
			-0.07276931405067444, -0.002831649035215378, 0.010227862745523453,
			-0.01032310351729393, 0.013741258531808853, 0.013733167201280594,
			-0.08882863074541092, -0.07550493627786636, -0.08936600387096405,
			-0.05288601666688919, -0.07945118099451065, -0.04087020084261894, -0.0859779566526413,
			-0.03415442630648613, -0.07542512565851212, -0.04522564262151718,
			-0.08427491039037704, 0.028429005295038223, 0.035227663815021515,
			-0.05771378427743912, -0.06445881724357605, -0.09333325177431107,
			-0.05178946629166603, -0.05517062172293663, -0.0713481530547142,
			-0.024892516434192657, -0.027056464925408363, -0.08943577855825424,
			-0.08770407736301422, -0.021351926028728485, 0.02246318757534027,
			0.033326100558042526, -0.015550414100289345, -0.03420650586485863,
			-0.05256475508213043, -0.09413353353738785, -0.03602703660726547,
			-0.09439198672771454, -0.04169735684990883, -0.09079346805810928,
			-0.06121203675866127, -0.04939933121204376, 0.029213381931185722,
			0.060424625873565674, 0.08257590979337692, 0.06000286340713501, 0.08005747944116592,
			-0.04681221395730972, -0.07619468867778778, -0.04001989960670471,
			-0.03221895173192024, -0.08144591748714447, -0.07561825215816498,
			-0.09401776641607285, -0.028113698586821556, -0.06835005432367325,
			0.06133962422609329, 0.0068427883088588715, 0.02849695459008217,
			-0.008878035470843315, -0.0058091916143894196, 0.027058031409978867,
			-0.04682274907827377, -0.09563018381595612, -0.029819553717970848,
			-0.024487148970365524, -0.08380097895860672, -0.0770997703075409,
			-0.04749518260359764, 0.06755009293556213, 0.07243599742650986, 0.03438110277056694,
			0.07871539145708084, 0.03238576278090477, 0.02697451040148735, -0.07237359881401062,
			-0.055289361625909805, -0.045715369284152985, -0.09118606895208359,
			-0.04496967792510986, -0.03412878140807152, -0.03305773437023163,
			-0.056237876415252686, -0.05946243554353714, 0.031609486788511276,
			0.04221702367067337, 0.0066978782415390015, -0.0037101246416568756,
			-0.0012826211750507355, -0.014559933915734291, -0.0799674540758133,
			-0.05270286649465561, -0.0372631773352623, -0.08123628795146942, -0.07062096148729324,
			-0.029541313648223877, 0.04841320961713791, 0.08700194209814072, 0.04576076567173004,
			0.08567509800195694, 0.04805455729365349, 0.05373166874051094, -0.08577705919742584,
			-0.0864463597536087, -0.06670185923576355, -0.08717601001262665, -0.07666276395320892,
			-0.08581187576055527, -0.04084460437297821, -0.04384595528244972,
			-0.07277021557092667, 0.038657866418361664, 0.05319838225841522, 0.027846528217196465,
			0.006804481148719788, -0.020018041133880615, -0.02775724232196808,
			-0.02821529097855091, -0.051928844302892685, -0.06843720376491547,
			-0.08814605325460434, -0.08914651721715927, -0.03180587664246559,
			-0.04608168825507164, 0.0671003982424736, 0.059701066464185715, 0.03979848697781563,
			0.03784151375293732, 0.07472152262926102, 0.07589405030012131, -0.044760480523109436,
			-0.0508711151778698, -0.07277625054121017, -0.08043457567691803,
			-0.037238143384456635, -0.036191754043102264, -0.031863413751125336,
			-0.04616115614771843, -0.03641895204782486, 0.09005358815193176, 0.07994289696216583,
			0.08000031113624573, 0.01194041594862938, -0.010784754529595375, 0.024832449853420258,
			-0.01571924425661564, -0.09563601762056351, -0.06021524965763092,
			-0.03356188163161278, -0.06027344614267349, -0.09358587861061096,
			-0.043095435947179794, -0.061303962022066116, 0.024397484958171844,
			0.06486285477876663, 0.04624543339014053, -0.07033469527959824, -0.053704097867012024,
			-0.031018899753689766, -0.0720902606844902, -0.0906175896525383, -0.07830222696065903,
			-0.09375372529029846, -0.07081352919340134, -0.044912274926900864,
			-0.06439928710460663, -0.04392983764410019, 0.08392071723937988, 0.030664723366498947,
			0.029679767787456512, 0.01699821650981903, -0.011281635612249374,
			-0.008603986352682114, 0.011764992028474808, 0.026832200586795807,
			-0.050250615924596786, -0.024432484060525894, -0.03147810325026512,
			-0.0953245460987091, -0.07247421890497208, -0.046082451939582825,
			-0.03688881918787956, -0.06439115107059479, -0.0457589216530323, -0.0618639774620533,
			-0.06868952512741089, -0.03128930181264877, -0.07266047596931458,
			-0.03112541139125824, -0.0817241296172142, -0.03264846280217171, -0.06328056752681732,
			-0.04449014738202095, 0.07173357903957367, 0.057733938097953796, 0.08897186070680618,
			0.04511216655373573, -0.007723692804574966, -0.006936861202120781,
			-0.026620682328939438, 0.0005462430417537689, 0.027730856090784073,
			0.06037138029932976, 0.040596604347229004, -0.09231347590684891, -0.07868456840515137,
			-0.09045305103063583, -0.0653788298368454, -0.06572804600000381, -0.08764693886041641,
