{
	"epoch": 37,
	"learning_rate": 0.009,
	"batch_size": 950,
	"to_shuffle": true,
	"loss": 0.0009858843191614141,
	"accuracy": 1.0,
	"fc_weights": [
		[
			0.03453719988465309, -0.0001202896237373352, -0.023406416177749634,
			0.006890002638101578, 0.0007420442998409271, -0.006392227485775948,
			0.019756916910409927, -0.005083054304122925, 0.02873963490128517,
			0.021696433424949646, -0.001841515302658081, 0.018410176038742065,
			0.026941481977701187, 0.01846015825867653, 0.005920272320508957, 0.0292479507625103,
			-0.013747598975896835, 0.0085812509059906, 0.01554081216454506, 0.01107766106724739,
			0.03169536218047142, 0.024257652461528778, -0.008920334279537201,
			-0.0012368075549602509, -0.017519496381282806, 0.027952801436185837,
			0.011366806924343109, 0.03351074829697609, -0.023615647107362747,
			0.010332867503166199, 0.020888973027467728, -0.014473238959908485,
			-0.0018705837428569794, 0.02373887598514557, -0.016269471496343613,
			0.0342751182615757, -0.021560946479439735, 0.014173343777656555, 0.003981970250606537,
			-0.01957404613494873, 0.013654284179210663, 0.023827552795410156,
			-0.047375526279211044, -0.04917161539196968, -0.08955678343772888,
			-0.021460164338350296, -0.009712722152471542, -0.02121042087674141,
			-0.00897691585123539, 0.007188502699136734, -0.008168471977114677,
			-0.02080591768026352, -0.0014514625072479248, 0.0074121542274951935,
			0.013622883707284927, 0.02893642708659172, -0.019147230312228203,
			-0.02342812716960907, 0.0034247078001499176, -0.003965556621551514,
			0.008207857608795166, 0.022735320031642914, 0.025931883603334427,
			-0.06392739713191986, -0.06331907957792282, -0.03453788161277771,
			-0.03636990115046501, -0.04585884511470795, -0.03280150145292282,
			-0.030953500419855118, -0.05065574124455452, -0.058957312256097794,
			-0.06973475217819214, -0.07669368386268616, -0.07320444285869598,
			-0.027909306809306145, -0.026078464463353157, -0.06435992568731308,
			-0.021160347387194633, -0.0008679702877998352, -0.00621139258146286,
			-0.032753534615039825, -0.006544781848788261, 0.019206780940294266,
			-0.03012387454509735, 0.010480932891368866, -0.02204429730772972,
			-0.004235323518514633, 0.025067806243896484, -0.023361504077911377,
			0.013071276247501373, -0.0719153881072998, -0.08072055131196976, -0.0709385797381401,
			-0.06989387422800064, -0.08150837570428848, -0.05547986924648285,
			-0.06925633549690247, -0.023351609706878662, -0.02062094397842884,
			-0.07491189986467361, -0.045251086354255676, -0.0708795040845871,
			-0.021799029782414436, -0.08919011056423187, -0.07201728224754333,
			-0.04208341985940933, -0.022952506318688393, -0.014619337394833565,
			0.009384121745824814, 0.013653840869665146, 0.03339749202132225,
			-0.007619278505444527, -0.03251614794135094, 0.031623926013708115,
			-0.0013531260192394257, 0.06638508290052414, 0.02923968993127346,
			-0.08102883398532867, -0.07741749286651611, -0.03625522926449776, -0.0430179163813591,
			-0.0556703619658947, -0.03839467093348503, -0.02227294072508812,
			-0.018928634002804756, -0.061102692037820816, -0.038428954780101776,
			-0.059604059904813766, -0.08348068594932556, -0.03686687350273132,
			-0.021367689594626427, -0.05898125842213631, -0.04865055903792381,
			-0.02150125801563263, 0.039890822023153305, 0.018591798841953278, 0.02848592773079872,
			0.016863785684108734, 0.005060404539108276, -0.012309147045016289,
			-0.014610201120376587, -0.00034711137413978577, -0.0259843859821558,
			0.07031054049730301, -0.04247730225324631, -0.07352341711521149,
			-0.042989280074834824, -0.02917751856148243, -0.057428520172834396,
			-0.030494876205921173, -0.03237650915980339, -0.06919368356466293,
			-0.026793600991368294, -0.07392270863056183, -0.052026424556970596,
			-0.023922787979245186, -0.06545677036046982, -0.019856633618474007,
			-0.06360102444887161, -0.07775208353996277, -0.03110675886273384, 0.02459251508116722,
			0.054451946169137955, 0.043047551065683365, 0.039056990295648575, 0.03423113003373146,
			-0.019856512546539307, 0.0178203284740448, -0.03040964901447296,
			-0.022733837366104126, -0.028427597135305405, -0.05233554169535637,
			-0.027402278035879135, -0.04159591719508171, -0.06558597087860107,
			-0.056503865867853165, -0.07441665232181549, -0.0495670884847641,
			-0.027180830016732216, -0.08726286888122559, -0.03713438659906387,
			-0.08253107219934464, -0.018367929384112358, -0.04231277480721474,
			-0.08255133777856827, -0.039114780724048615, -0.05821921303868294,
			-0.05479169636964798, -0.08387777954339981, 0.0395779088139534, 0.03814052417874336,
			0.03762030974030495, 0.04012155905365944, -0.026142695918679237, 0.025851834565401077,
			-0.03383135050535202, 0.003497239202260971, -0.0749802216887474, -0.05169404298067093,
			-0.06747777760028839, -0.02982230670750141, -0.05456267297267914,
			-0.04084482043981552, -0.03083132952451706, -0.06739510595798492,
			-0.024277035146951675, -0.055545561015605927, -0.044482119381427765,
			-0.02722080424427986, -0.02388010546565056, -0.03792488947510719,
			-0.059057123959064484, -0.053036462515592575, -0.058851052075624466,
			-0.08524966984987259, -0.03914263844490051, -0.0882771760225296, 0.04577065259218216,
			0.06843589246273041, 0.0542525015771389, 0.05117566138505936, 0.03142775222659111,
			-0.021264588460326195, 0.007705185562372208, -0.0217899139970541,
			-0.047021251171827316, -0.07364341616630554, -0.024900248274207115,
			-0.06537054479122162, -0.01864951103925705, -0.04597045108675957,
			-0.07797780632972717, -0.057376887649297714, -0.029035449028015137,
			-0.047735296189785004, -0.051021624356508255, 0.035600289702415466,
			0.03417380154132843, 0.029630184173583984, -0.08301272243261337, -0.08304491639137268,
			-0.02747287042438984, -0.08373145014047623, -0.07702252268791199,
			-0.028730079531669617, 0.02731555886566639, 0.04158857837319374, 0.059155628085136414,
			0.05432954430580139, 0.008332721889019012, -0.022392090409994125,
			-0.02822105959057808, 0.02697298303246498, -0.0637432187795639, -0.04691070690751076,
			-0.026324087753891945, -0.05558133125305176, -0.031485140323638916,
			-0.06948504596948624, -0.07629451155662537, -0.047372277826070786,
			-0.05270151048898697, -0.056158844381570816, -0.027057697996497154,
			-0.022124437615275383, 0.0725673958659172, -0.0188931692391634, -0.058806274086236954,
			-0.0737573578953743, -0.02970408834517002, -0.06475283950567245, -0.06754405796527863,
			-0.07809923589229584, 0.08683715760707855, 0.03362927585840225, 0.0690581426024437,
			0.043676819652318954, -0.014485746622085571, -0.013785593211650848,
			0.005373384803533554, -0.033547934144735336, -0.03829750791192055,
			-0.08016563951969147, -0.053654298186302185, -0.021120566874742508,
			-0.04836449772119522, -0.023450810462236404, -0.021364035084843636,
			-0.05741986632347107, -0.057740483433008194, -0.07251297682523727,
			-0.029701894149184227, -0.032426558434963226, -0.08868277072906494,
			-0.07422833144664764, -0.04329003393650055, -0.03671589866280556,
			-0.07187962532043457, -0.05930066853761673, -0.08015452325344086,
			-0.07766900956630707, -0.019269656389951706, 0.01905231550335884, 0.04858441650867462,
			0.06763380765914917, -0.02892955392599106, 0.006571508944034576,
			-0.011466307565569878, -0.020507652312517166, -0.04707435518503189,
			-0.027086695656180382, -0.02118452452123165, -0.03499637544155121,
			-0.043850332498550415, -0.07115788757801056, -0.018349500373005867,
			-0.08779265731573105, -0.03818488121032715, -0.06271267682313919,
			-0.04567168280482292, -0.08838504552841187, -0.03219590708613396,
			-0.05241084843873978, -0.04637038707733154, -0.03643485903739929,
			-0.04562167823314667, -0.04291701689362526, -0.07239638268947601,
			-0.07880586385726929, 0.018909472972154617, 0.027711467817425728,
			0.052443891763687134, 0.028006305918097496, -0.007587376981973648,
			-0.002354700118303299, -0.02501382678747177, 0.010728277266025543,
			-0.07351789623498917, -0.0628490000963211, -0.029447034001350403,
			-0.019313564524054527, -0.027818329632282257, -0.08927415311336517,
			-0.033296603709459305, -0.04151754081249237, -0.018641682341694832,
			-0.07567394524812698, -0.048898085951805115, -0.055707912892103195,
			-0.037532903254032135, -0.01929924450814724, -0.03933918848633766,
			-0.0766354352235794, -0.05544011667370796, -0.05286671966314316, -0.03638743609189987,
			-0.02980026789009571, -0.08708858489990234, 0.07039083540439606, -0.0342421792447567,
			0.06252972036600113, -0.01507616974413395, -0.01332622766494751,
			-0.021613135933876038, -0.014226198196411133, -0.020746951922774315,
			-0.05879804864525795, -0.052029311656951904, 0.08716265857219696, 0.06265009194612503,
			-0.07072882354259491, -0.03299974650144577, -0.08669298887252808,
			-0.031164750456809998, -0.024052947759628296, -0.08599463105201721,
			-0.022969234734773636, -0.08362115174531937, -0.07209603488445282,
			-0.08530706912279129, -0.05397697910666466, -0.05054334178566933, -0.072893887758255,
			-0.05505719780921936, -0.07502337545156479, -0.028888260945677757,
			0.08576472103595734, -0.08360808342695236, 0.07671073079109192, -0.025717711076140404,
			-0.021851548925042152, -0.013641158118844032, 0.032531481236219406,
			-0.0004071630537509918, -0.08187162131071091, 0.0833016186952591,
			0.019934209063649178, 0.05246999114751816, -0.0464324988424778, -0.059184614568948746,
			-0.028219224885106087, -0.024964524433016777, -0.03186948597431183,
			-0.04000066593289375, -0.08101873844861984, -0.02285776659846306,
			-0.04799620434641838, -0.0469682514667511, -0.047837983816862106,
			-0.08324732631444931, -0.03627331927418709, -0.07320505380630493,
			-0.04294675588607788, -0.0750332772731781, -0.07766950875520706, -0.02459864877164364,
			0.08561396598815918, -0.034657105803489685, -0.03144019842147827,
			0.0037225186824798584, -0.030264753848314285, -0.021030690521001816,
			-0.034281276166439056, 0.04435527324676514, 0.04153835028409958, 0.028865298256278038,
			-0.07675342261791229, -0.0636497437953949, -0.08580896258354187, -0.07394029200077057,
			-0.08371303975582123, -0.08933213353157043, -0.024415606632828712,
			0.030688369646668434, -0.06155950948596001, -0.027867507189512253,
			-0.02484244480729103, -0.02288626693189144, -0.08754526823759079,
			-0.028241101652383804, -0.03355955332517624, -0.0459231473505497,
			-0.07117323577404022, -0.058034393936395645, -0.03515235334634781,
			0.018445540219545364, -0.0206438098102808, -0.009458892047405243,
			0.010003212839365005, -0.08215250074863434, -0.05939944088459015, 0.08123014867305756,
			0.022573761641979218, 0.08918868005275726, 0.01849142462015152, -0.06828001141548157,
			-0.0473661795258522, -0.038976509124040604, -0.04259808734059334, -0.0594472773373127,
			0.040693167597055435, 0.04392325505614281, -0.05968957766890526, -0.0378839410841465,
			-0.03368194028735161, -0.020368602126836777, -0.08763062208890915,
			-0.05199397727847099, -0.0862894058227539, -0.038798097521066666,
			-0.029242070391774178, -0.062057606875896454, -0.05041933432221413,
			0.013069890439510345, 0.004286069422960281, 0.005341839045286179,
			-0.0031530484557151794, -0.042675893753767014, -0.020014872774481773,
			-0.043621353805065155, 0.08353567123413086, 0.049544524401426315, 0.078996941447258,
			-0.08227094262838364, -0.04129545018076897, -0.06194193661212921,
			-0.05263205245137215, -0.04942077025771141, 0.06688149273395538, 0.028071435168385506,
			0.05233149603009224, -0.021851977333426476, -0.03165079653263092, -0.0878240093588829,
			-0.039414599537849426, -0.06943442672491074, -0.06846566498279572,
			-0.05462248623371124, -0.07635331898927689, -0.08863883465528488, -0.0590050108730793,
			0.034280385822057724, 0.012795403599739075, -0.0117681585252285, 0.03436804190278053,
			-0.03666973486542702, -0.06944182515144348, -0.06974242627620697,
			-0.024539776146411896, -0.054199423640966415, 0.06555359810590744,
			-0.05424986407160759, -0.0789535641670227, -0.08809409290552139, -0.0427854061126709,
			-0.06139601022005081, 0.02008267119526863, 0.04127401486039162, 0.04466043785214424,
			-0.07486820966005325, -0.08370345830917358, -0.07498001307249069,
			-0.07408830523490906, -0.04238554835319519, -0.061326973140239716,
			-0.0838271751999855, -0.04211996868252754, -0.08368909358978271, -0.05137266218662262,
			0.013266317546367645, -0.03286820277571678, -0.021159347146749496,
			0.022347208112478256, -0.0831480622291565, -0.07073623687028885, -0.06968507170677185,
			-0.025371098890900612, -0.0869184285402298, -0.024713754653930664, 0.0226240586489439,
			-0.021053126081824303, -0.07093792408704758, -0.08437592536211014,
			-0.04852330684661865, 0.08365365862846375, 0.04336158186197281, -0.08521367609500885,
			-0.055834028869867325, -0.08413173258304596, -0.06510850042104721,
			-0.08448005467653275, -0.04951346293091774, -0.08335284143686295,
			-0.034398604184389114, -0.0643448606133461, -0.04199243709445, -0.04696868360042572,
			0.014379732310771942, 0.02005162462592125, 0.02341855689883232, -0.02020139805972576,
			-0.04331082105636597, -0.08804038912057877, -0.034190110862255096,
			-0.026410378515720367, -0.04232155159115791, -0.019743969663977623,
			-0.03428889065980911, -0.044133301824331284, -0.074620321393013, -0.04586201533675194,
			-0.03765825927257538, -0.02739253081381321, -0.02960515208542347,
			-0.05359716713428497, -0.0520332008600235, -0.056168779730796814,
			-0.03278172016143799, -0.027404721826314926, -0.06293608248233795,
			-0.04338507726788521, -0.05439343675971031, -0.05636165663599968,
			-0.055790483951568604, 0.06911073625087738, 0.0338362418115139, 0.015256933867931366,
			0.0063293129205703735, -0.040972448885440826, -0.028028352186083794,
			-0.022767480462789536, -0.027351297438144684, -0.056667957454919815,
			-0.035726092755794525, -0.021110745146870613, -0.061637572944164276,
			-0.03935156390070915, -0.054375894367694855, -0.05705813691020012,
			-0.08175186067819595, -0.030877554789185524, -0.018508894369006157,
			-0.06478079408407211, -0.05438145622611046, -0.030384598299860954,
			-0.06438079476356506, -0.0672486424446106, -0.07556529343128204, -0.05019434913992882,
			-0.04885236173868179, 0.02867935784161091, 0.06086298078298569, 0.08285336196422577,
			-0.0010541118681430817, 0.026620738208293915, 0.0035698413848876953,
			-0.03408663347363472, -0.06556437909603119, -0.024442562833428383,
			-0.07878126204013824, -0.026558903977274895, -0.08365380018949509,
			-0.022492090240120888, -0.048803895711898804, -0.053283676505088806,
			-0.054671965539455414, -0.08924265950918198, -0.056168798357248306,
			-0.08040311187505722, -0.060454484075307846, -0.08479457348585129,
			-0.07460684329271317, -0.029742365702986717, -0.054443489760160446,
			-0.04977857321500778, -0.020681142807006836, 0.07951005548238754, 0.02866371162235737,
			0.0331093929708004, 0.029181020334362984, 0.02094559744000435, -0.003973323851823807,
			0.023264870047569275, -0.009495072066783905, -0.0036094971001148224,
			-0.009366512298583984, -0.059066325426101685, -0.08167500793933868,
			-0.03338499367237091, -0.04932812228798866, -0.04562734439969063,
			-0.02345006726682186, -0.03444386646151543, -0.07731357961893082,
			-0.02113962359726429, -0.04904424399137497, -0.0601612888276577, -0.07064731419086456,
			-0.025332069024443626, -0.048463668674230576, -0.04708561673760414,
			-0.036200691014528275, -0.07963002473115921, 0.06862773001194, 0.027868565171957016,
			0.034095123410224915, -0.07751817256212234, 0.0076494403183460236,
			-0.024949125945568085, -0.030228501185774803, -0.031328391283750534,
			0.0021399222314357758, 0.023320231586694717, 0.0030360147356987, 0.02918246015906334,
			-0.05707958713173866, -0.06999928504228592, -0.05982165411114693, -0.0694836974143982,
			-0.04272359982132912, -0.05258901044726372, -0.059190552681684494,
			-0.07983585447072983, -0.07216324657201767, -0.032641343772411346,
			-0.03263246268033981, -0.07056853175163269, -0.05665180832147598,
			-0.041609302163124084, -0.02246120758354664, -0.06698722392320633, 0.0629303976893425,
			0.08282073587179184, 0.030500134453177452, -0.026657484471797943,
			-0.005418896675109863, -0.00679522380232811, -0.006172308698296547,
			0.006510719656944275, 0.03389257565140724, 0.03561261668801308, -0.022795364260673523,
			0.010922852903604507, -0.03784184530377388, -0.04493079334497452,
			-0.04921317845582962, -0.06351154297590256, -0.08961907774209976, 0.04208933562040329,
			-0.07867643237113953, -0.04205261543393135, -0.04504651948809624, -0.0430263876914978,
			-0.0480266772210598, -0.06847888231277466, 0.021986374631524086, 0.05099277198314667,
			-0.04297243803739548, 0.05181165412068367, 0.049999602138996124, 0.06062276288866997,
			0.057456597685813904, -0.05249153450131416, -0.001541193574666977,
			0.015029244124889374, 0.02250446379184723, 0.004353713244199753, 0.02757430449128151,
			0.007939595729112625, -0.012909650802612305, -0.0037674829363822937,
			-0.038842372596263885, -0.024858394637703896, -0.036492954939603806,
			-0.030556095764040947, -0.021307891234755516, -0.08954703062772751,
			-0.07011614739894867, -0.08285925537347794, -0.056828372180461884,
			-0.07139232009649277, -0.0349789559841156, -0.052038248628377914,
			-0.04101744294166565, -0.08604121953248978, -0.05379850044846535, -0.0884002298116684,
			0.03515764698386192, -0.03157855570316315, -0.07553697377443314, 0.004662502557039261,
			0.029737140983343124, -0.0020434819161891937, -0.019221067428588867,
			0.00010178238153457642, 0.01679038256406784, 0.005005788058042526,
			-0.018469538539648056, 0.014325257390737534, 0.034784045070409775,
			-0.006702307611703873, -0.026662388816475868, 0.015741847455501556,
			-0.0333452932536602, -0.018213924020528793, 0.031691279262304306,
			0.007922172546386719, -0.03324063867330551, -0.04007586091756821,
			-0.08277460187673569, -0.0334714874625206, -0.04264330863952637,
			-0.028346464037895203, -0.03002903237938881, -0.04396166652441025,
			-0.06034640595316887, -0.03212497755885124, 0.014108031988143921,
			0.027046550065279007, 0.025081228464841843, -0.020060157403349876, 0.0325973741710186,
			-0.005074603483080864
		],
		[
			0.027203600853681564, 0.02733498439192772, -0.006726572290062904,
			0.028641384094953537, -0.03281646594405174, -0.004381924867630005,
			0.00023474916815757751, -0.004395216703414917, 0.008677288889884949,
			0.024643689393997192, 0.011381760239601135, 0.02956484630703926, -0.08087021112442017,
			-0.05583212152123451, -0.07726994156837463, -0.04071172699332237,
			-0.03461147099733353, 0.01486906036734581, -0.027411555871367455,
			0.0030582137405872345, -0.02358546480536461, 0.023284494876861572,
			0.01019911840558052, -0.004981713369488716, -0.020063959062099457,
			-0.009621212258934975, 0.008248448371887207, 0.01820569857954979, 0.03238010033965111,
			0.0008929148316383362, -0.02580442652106285, -0.004864254966378212,
			0.023075420409440994, 0.03066306933760643, 0.024157945066690445,
			-0.020293880254030228, 0.01646227389574051, 0.018218565732240677,
			-0.030793149024248123, 0.014542791992425919, -0.062447164207696915,
			-0.057975854724645615, -0.035537511110305786, -0.052584681659936905,
			-0.07741662114858627, -0.037562280893325806, -0.08871503919363022,
			-0.08726970106363297, 0.026150599122047424, -0.03466750308871269,
			-0.006951795890927315, 0.021159343421459198, -0.026030519977211952,
			0.02127055451273918, 0.012318618595600128, -0.025899913161993027, 0.0317227728664875,
			0.0022654496133327484, -0.03270866721868515, 0.031750377267599106,
			-0.012498179450631142, -0.010857833549380302, -0.011428331956267357,
			-0.059472862631082535, -0.05044037476181984, -0.07407835125923157,
			-0.02118709683418274, -0.05501377582550049, -0.060413461178541183,
			-0.046828556805849075, -0.04734429717063904, -0.07539660483598709,
			-0.047618016600608826, -0.03009275533258915, -0.06007111817598343,
			-0.05840497091412544, -0.03890226408839226, -0.05593157932162285,
			-0.06247791647911072, -0.05122426524758339, -0.0708792433142662, -0.08450654149055481,
			-0.01482732780277729, -0.03167779743671417, 0.010872270911931992, 0.02207159250974655,
			0.016805142164230347, 0.007753454148769379, -0.028994370251893997,
			0.005869723856449127, -0.0011000819504261017, -0.018578562885522842,
			-0.08311045914888382, -0.024874111637473106, -0.03492064028978348,
			-0.08819928765296936, -0.05380159616470337, -0.07305788993835449,
			-0.04416477680206299, -0.03547902777791023, -0.0643390491604805,
			-0.029912680387496948, -0.08617771416902542, -0.04231397062540054,
			-0.07685387879610062, -0.030657663941383362, -0.08811963349580765,
			-0.03561076894402504, -0.02817106992006302, 0.03121579810976982, 0.017716731876134872,
			0.003527458757162094, 0.015491116791963577, -0.0011842325329780579,
			0.02164660021662712, 0.002166207879781723, -0.050090402364730835,
			-0.06460500508546829, -0.06120581552386284, -0.028806688264012337,
			-0.04267830029129982, -0.05506351962685585, -0.052566275000572205,
			-0.03807072341442108, -0.04697747528553009, -0.047676872462034225,
			-0.050063908100128174, -0.04127034172415733, -0.04195825755596161,
			-0.01872611790895462, -0.065766841173172, -0.028539011254906654,
			-0.023711999878287315, -0.057277780026197433, -0.05901189520955086,
			-0.06044917181134224, -0.02666170336306095, -0.06969733536243439,
			-0.06142406165599823, -0.035559382289648056, -0.02620016410946846,
			-0.019561180844902992, -0.01973113790154457, -0.013847297057509422,
			-0.019029438495635986, -0.06973298639059067, -0.05244172737002373,
			-0.06591323763132095, -0.06632408499717712, -0.01979302428662777,
			-0.034532032907009125, -0.031095528975129128, -0.0213690847158432,
			-0.05543840304017067, -0.030279742553830147, -0.01885976642370224,
			-0.05079864338040352, -0.040536150336265564, -0.059067532420158386,
			0.05754634737968445, -0.08784350752830505, -0.08275534212589264,
			-0.021742919459939003, 0.07034933567047119, -0.08708744496107101,
			-0.07903852313756943, -0.03878046199679375, 0.02824776992201805, -0.00985012762248516,
			0.01992623507976532, 0.004896100610494614, 0.0256289541721344, -0.0232712235301733,
			-0.06101922690868378, -0.08470040559768677, -0.02829248644411564,
			-0.07524077594280243, -0.03434096649289131, -0.052921995520591736,
			-0.025361541658639908, -0.039134617894887924, -0.07940264046192169,
			-0.08316595107316971, -0.07241246104240417, -0.03423331305384636,
			-0.05766069516539574, -0.06206020340323448, 0.07161731272935867, -0.0620211660861969,
			-0.08871394395828247, 0.08918844163417816, 0.05440770089626312, 0.01898893155157566,
			-0.06760463118553162, -0.05663742497563362, -0.08377379179000854,
			0.014480315148830414, 0.03386804834008217, 0.07618023455142975, 0.07314031571149826,
			0.040412068367004395, 0.0350300595164299, 0.05067254975438118, 0.04828772321343422,
			-0.06433562934398651, -0.026126520708203316, -0.051011618226766586,
			-0.041499122977256775, -0.06927915662527084, -0.0815986841917038,
			-0.07008231431245804, -0.04589353874325752, -0.038228150457143784,
			-0.08379238843917847, -0.03818376734852791, -0.052478913217782974,
			-0.06883937865495682, -0.04975287243723869, 0.025999024510383606, 0.06970808655023575,
			0.020468778908252716, 0.048358481377363205, -0.12436904013156891,
			-0.07258714735507965, 0.06507804244756699, 0.02527688443660736, 0.018953129649162292,
			0.04634265601634979, 0.04926714673638344, 0.06540072709321976, 0.06909497082233429,
			0.028237100690603256, 0.06556855142116547, -0.03399381786584854, -0.08120839297771454,
			-0.019213642925024033, -0.02092263475060463, -0.04542199894785881,
			-0.07327226549386978, -0.08525391668081284, -0.04931679368019104,
			-0.07758469134569168, -0.05320274084806442, -0.08620479702949524, 0.05856524780392647,
			0.07053165137767792, 0.07310230284929276, 0.06938203424215317, 0.027695218101143837,
			0.05447281897068024, -0.09586486965417862, -0.022673770785331726,
			-0.02538391575217247, 0.01773139461874962, 0.08594891428947449, 0.02592492289841175,
			0.06503728032112122, 0.032226722687482834, 0.07238094508647919, 0.07339406758546829,
			-0.0212559774518013, -0.03592034429311752, -0.0760740414261818, -0.04038223251700401,
			-0.06829572468996048, -0.07553478330373764, -0.07956782728433609,
			-0.07757296413183212, -0.06891434639692307, -0.045417141169309616,
			-0.04490633308887482, -0.10961493849754333, 0.02336207777261734, 0.03508829325437546,
			0.031190043315291405, 0.04769439995288849, 0.06395191699266434, 0.04241075739264488,
			0.05441796034574509, -0.02471889927983284, -0.013977212831377983,
			-0.018729623407125473, 0.07148701697587967, 0.06290321052074432, 0.08952488005161285,
			0.06186635419726372, 0.044477928429841995, 0.04510635882616043, -0.08716080337762833,
			-0.04603353515267372, -0.024685906246304512, -0.0811443030834198,
			-0.05389201268553734, -0.05100810155272484, -0.05724209174513817,
			0.018064193427562714, -0.0820990651845932, -0.0692005604505539, -0.06240212544798851,
			-0.05191342905163765, 0.017260083928704262, 0.05388425663113594, 0.05370745435357094,
			0.02465788461267948, 0.06448960304260254, 0.05087374895811081, 0.018743125721812248,
			-0.015086255967617035, 0.03061067685484886, -0.022129714488983154, 0.0731675773859024,
			0.024827437475323677, -0.02820306271314621, 0.059177909046411514,
			-0.044804662466049194, -0.02262193337082863, -0.05029207840561867,
			-0.0184006467461586, -0.062148645520210266, -0.0334220789372921, -0.11700892448425293,
			-0.06665029376745224, 0.06268202513456345, 0.07122748345136642, -0.09193751215934753,
			-0.08912292122840881, -0.05852777138352394, -0.06585852056741714,
			-0.04202432185411453, -0.041705310344696045, -0.0499199815094471,
			0.016890142112970352, 0.04361657053232193, -0.06366128474473953, -0.03250138834118843,
			-0.025992989540100098, -0.00694989413022995, -0.02110963687300682,
			0.02750861831009388, 0.033456236124038696, -0.08502159267663956, -0.01925623044371605,
			-0.08125653117895126, -0.05626591667532921, -0.057159774005413055,
			-0.027760546654462814, -0.04220929369330406, 0.021715976297855377,
			0.03546193987131119, 0.05612064152956009, 0.015893058851361275, 0.03590334579348564,
			-0.027433345094323158, -0.07261331379413605, -0.08345453441143036,
			-0.03444034606218338, -0.07222700864076614, -0.05420292541384697,
			-0.05030140280723572, -0.041836921125650406, -0.07726562768220901,
			0.06835925579071045, -0.015230869874358177, -0.01783308945596218,
			-0.002002812922000885, -0.009077154099941254, 0.03300229087471962,
			0.05529315769672394, -0.0680558905005455, -0.08114029467105865, -0.02402808889746666,
			-0.08804444223642349, -0.033094193786382675, -0.061954256147146225,
			-0.030848665162920952, -0.06354396790266037, 0.05636005848646164, 0.0829201191663742,
			0.03444983437657356, -0.06511199474334717, -0.06505800038576126,
			-0.036083418875932693, -0.07137732952833176, -0.02970549277961254,
			-0.06302542984485626, -0.05781363695859909, -0.02003704197704792,
			-0.057577796280384064, -0.03929804265499115, -0.03488439321517944,
			0.015841681510210037, -0.033230945467948914, -0.017861252650618553,
			-0.01934613659977913, -0.033418890088796616, 0.035904236137866974,
			-0.025414392352104187, -0.08119484037160873, -0.06753237545490265,
			-0.026582470163702965, -0.0373394712805748, -0.084169402718544, -0.036678899079561234,
			-0.02443021722137928, -0.09267503023147583, 0.07714401930570602, -0.06848125159740448,
			-0.07515126466751099, -0.03456471115350723, -0.022436561062932014,
			-0.08418247103691101, -0.026905052363872528, -0.025874953716993332,
			-0.061479147523641586, -0.08312591910362244, -0.019910261034965515,
			-0.023869942873716354, -0.06171462684869766, 0.03450862690806389,
			0.026596728712320328, 0.022826310247182846, 0.03223852440714836, 0.007662788033485413,
			0.03831993788480759, -0.06523255258798599, -0.04467298462986946, -0.08048062771558762,
			-0.034984905272722244, -0.027144858613610268, -0.027631638571619987,
			-0.051466964185237885, -0.029477035626769066, -0.0778806209564209,
			-0.028847908601164818, -0.07628662884235382, -0.03366512432694435,
			-0.0252129677683115, -0.05334557592868805, -0.07128218561410904,
			-0.029986834153532982, -0.07494804263114929, -0.06809584051370621,
			-0.020938800647854805, -0.056890152394771576, -0.07366066426038742,
			-0.07715535163879395, -0.0017027966678142548, 0.006041690707206726,
			-0.003331504762172699, -0.010479237884283066, 0.07297753542661667,
			-0.07657350599765778, -0.05188122019171715, -0.019996078684926033,
			-0.03656863793730736, -0.02416851557791233, -0.08689142763614655,
			-0.03396739810705185, -0.06791062653064728, -0.05006396770477295,
			-0.02955891191959381, -0.075471892952919, -0.08794312924146652, -0.021786240860819817,
			-0.08736969530582428, -0.021877380087971687, -0.02076777257025242,
			-0.08049488812685013, -0.04257832467556, -0.046353716403245926, -0.06948510557413101,
			-0.08308275043964386, -0.08222011476755142, -0.01946781948208809,
			-0.02238667942583561, 0.005158416926860809, 0.011417306959629059,
			-0.006535228341817856, 0.07455331832170486, -0.05311727896332741,
			-0.06572611629962921, -0.04055408760905266, -0.06056113541126251,
			-0.03023529425263405, -0.0343623012304306, -0.03854374215006828, -0.0804343894124031,
			-0.04282976686954498, -0.029040377587080002, -0.08073028922080994,
			-0.07889756560325623, -0.04753486439585686, -0.04943839833140373,
			-0.028477352112531662, -0.05739111080765724, -0.032525211572647095,
			-0.06515543162822723, -0.08220261335372925, -0.025295643135905266,
			-0.018374226987361908, -0.0614929161965847, -0.023239005357027054,
			0.005933407694101334, 0.03368383273482323, 0.006097737699747086, 0.029751431196928024,
			0.07229699939489365, -0.024343885481357574, -0.08828780055046082,
			-0.024568643420934677, -0.05676620826125145, -0.026016980409622192,
			-0.02542700245976448, -0.04018229618668556, -0.04093145951628685, -0.0545339435338974,
			-0.06900949776172638, -0.033115386962890625, -0.031073149293661118,
			-0.026166068390011787, -0.036748163402080536, -0.05512590706348419,
			-0.03544137254357338, -0.05764558166265488, -0.029259467497467995,
			-0.047145336866378784, -0.06772664934396744, -0.021180907264351845,
			-0.020923001691699028, -0.04648594930768013, 0.02856878563761711,
			-0.0015476569533348083, -0.012574072927236557, 0.022167585790157318,
			0.06011490896344185, -0.08937328308820724, -0.060333386063575745,
			-0.022542700171470642, -0.035071682184934616, -0.0381494015455246,
			-0.07796964049339294, -0.07405059039592743, -0.03417057543992996,
			-0.03527510538697243, -0.06755737960338593, -0.0724131241440773, -0.08304574340581894,
			-0.05391639098525047, -0.027731401845812798, -0.08176439255475998,
			-0.03752445802092552, -0.041340384632349014, -0.030860554426908493,
			-0.08386395126581192, -0.031138282269239426, -0.06373602896928787,
			-0.045215073972940445, -0.04961390420794487, 0.021623164415359497,
			0.023955509066581726, 0.020768549293279648, 0.08761996775865555, 0.08610307425260544,
			-0.06780096143484116, -0.062109749764204025, -0.0823175311088562,
			-0.08094794303178787, -0.03000144474208355, -0.035443346947431564,
			-0.044356249272823334, -0.08585546165704727, -0.034122150391340256,
			-0.06401548534631729, -0.04468163102865219, -0.06410398334264755,
			-0.048437073826789856, -0.045883532613515854, -0.04763578623533249,
			-0.05363771691918373, -0.061760660260915756, -0.07276497036218643,
			-0.0737566128373146, -0.04744534566998482, -0.020727433264255524,
			-0.056246235966682434, -0.05628810450434685, -0.04141226038336754,
			0.01727341115474701, -0.03535255044698715, 0.018878845497965813, 0.06057894974946976,
			-0.0897037610411644, -0.03676934167742729, -0.10588908195495605, -0.09354259818792343,
			-0.040391404181718826, -0.03532641753554344, -0.07554110884666443,
			-0.09235888719558716, -0.07579445838928223, -0.08542684465646744,
			-0.04849223420023918, -0.05152272805571556, -0.05434185639023781,
			-0.05401791259646416, -0.05957160145044327, -0.03455739468336105,
			-0.07794418185949326, -0.08732862770557404, -0.020008787512779236,
			-0.05699959769845009, -0.06745554506778717, -0.051393549889326096,
			-0.03921566158533096, -0.04026656970381737, -0.022527793422341347,
			-0.018670273944735527, 0.056307170540094376, 0.04825671762228012,
			-0.08875516802072525, -0.04911099374294281, -0.09793297201395035,
			-0.06593053787946701, -0.04963497072458267, 0.041879452764987946, 0.07627322524785995,
			0.06502475589513779, 0.059860482811927795, 0.05671401694417, 0.04416460543870926,
			0.024964721873402596, 0.0946543887257576, 0.03393257036805153, 0.03265741840004921,
			-0.06984832882881165, -0.055696628987789154, -0.07770182937383652,
			-0.08033941686153412, -0.03887996822595596, -0.0719374269247055, -0.08367109298706055,
			-0.019737619906663895, 0.02460118755698204, 0.018829762935638428, 0.01849793642759323,
			-0.008270638063549995, 0.03241279348731041, -0.08073178678750992,
			-0.03901197388768196, -0.1439797729253769, -0.016164613887667656, 0.05092287063598633,
			0.04186322167515755, 0.08328475803136826, 0.08358952403068542, 0.07025636732578278,
			0.07627762854099274, 0.06433022767305374, 0.05205141007900238, 0.031954195350408554,
			0.047891031950712204, 0.04170140251517296, 0.05161425843834877, 0.04014664515852928,
			-0.03337157890200615, -0.075896255671978, -0.05859477445483208, -0.021778108552098274,
			-0.0640779510140419, -0.02731252647936344, 0.01171194389462471, 0.024168062955141068,
			0.017894957214593887, -0.035589467734098434, -0.031699467450380325,
			0.01573311537504196, -0.07055561244487762, -0.07928203791379929, 0.07775228470563889,
			0.07158781588077545, 0.019452949985861778, 0.045967139303684235, 0.030438309535384178,
			0.08552548289299011, 0.06810459494590759, 0.07141699641942978, 0.0733390599489212,
			0.03301828354597092, -0.05776073411107063, -0.03142217546701431, -0.04152956232428551,
			-0.024491559714078903, -0.0746924877166748, -0.058603379875421524,
			-0.046051181852817535, -0.07419358193874359, -0.013717634603381157,
			-0.012233393266797066, -0.033845774829387665, -0.009681416675448418,
			0.02616366744041443, -0.017013754695653915, 0.032121364027261734, 0.02727137878537178,
			0.03372491896152496, 0.08330859988927841, 0.06922641396522522, 0.043168943375349045,
			-0.06888554245233536, -0.035033512860536575, -0.04564680531620979,
			-0.08016113936901093, -0.0821603313088417, -0.06159643083810806, -0.0674823671579361,
			-0.0306682251393795, -0.025286909192800522, -0.08621592819690704,
			-0.08870372921228409, -0.08854393661022186, -0.028743237257003784,
			-0.03246980533003807, -0.07754360139369965, 0.03925877436995506,
			-0.0038780830800533295, 0.0019363276660442352, -0.013395097106695175,
			-0.03279054909944534, 0.011981531977653503, 0.028705131262540817, 0.02531488612294197,
			-0.004254017025232315, 0.0537356361746788, 0.07515149563550949, 0.05250510945916176,
			0.0813605934381485, 0.08869774639606476, -0.04162063077092171, -0.07872489839792252,
			0.07795180380344391, -0.06864595413208008, -0.0880928486585617, -0.05182458087801933,
			-0.028993980959057808, -0.0463777594268322, -0.07957655936479568,
			-0.05272386595606804, -0.047590818256139755, -0.07467573881149292, -0.058359295129776,
			0.04812553897500038, -0.002171862870454788, -0.0039046965539455414,
			0.019732248038053513, 0.011193305253982544, -0.02850024402141571,
			0.0011189617216587067, -0.019197145476937294, 0.031948212534189224,
			0.014578655362129211, -0.00737331248819828, -0.018284479156136513,
			0.06832928955554962, 0.020599063485860825, 0.07508878409862518, 0.031809888780117035,
			0.07321483641862869, 0.08943209052085876, 0.06221791356801987, 0.02216939441859722,
			0.08388611674308777, 0.05633574724197388, -0.037436146289110184, -0.08196928352117538,
			-0.05611123889684677, 0.06375369429588318, 0.03164703771471977, 0.02924777753651142,
			-0.010307317599654198, 0.027833085507154465, -0.034642305225133896,
			0.018809888511896133, -0.010788731276988983, 0.01805516704916954
		],
		[
			-0.02505674585700035, -0.025073861703276634, -0.00955703854560852,
			0.021496038883924484, -0.03541255742311478, 0.021626081317663193,
			0.0032845698297023773, 0.016784578561782837, -0.024070098996162415,
			-0.0015021935105323792, 0.0014716126024723053, 0.009831272065639496,
			-0.03277415782213211, 0.022052345797419548, 0.06912564486265182, 0.04266348481178284,
			-0.025253642350435257, 0.0222359336912632, 0.019020650535821915, 0.024015530943870544,
			-0.021373823285102844, -0.027611780911684036, 0.027735810726881027,
			-0.004610538482666016, 0.03318730369210243, -0.005554132163524628,
			0.009403131902217865, -0.03216373920440674, -0.013332836329936981,
			0.022168513387441635, 0.006918273866176605, 0.011176276952028275, -0.1418343037366867,
			-0.11846423149108887, -0.07848188281059265, -0.03868383541703224, 0.07634147256612778,
			0.005290878005325794, -0.11807433515787125, -0.008745914325118065,
			-0.05309050902724266, 0.04226076230406761, 0.1821669340133667, 0.46001142263412476,
			0.3318536877632141, 0.12359857559204102, -0.3178607225418091, -0.24774108827114105,
			-0.45074787735939026, -0.26758629083633423, -0.27335280179977417,
			-0.09027079492807388, 0.029399942606687546, -0.02437952160835266,
			-0.035445503890514374, -0.006191888824105263, 0.025794707238674164,
			0.0219263955950737, -0.12661516666412354, 0.8719969987869263, 0.6236414909362793,
			-0.05370244383811951, -0.09261778742074966, -0.17224599421024323,
			-0.25636398792266846, -0.1608218103647232, -0.04451537877321243, 0.09818205237388611,
			0.7888897657394409, 1.384265422821045, 0.914070725440979, 0.5574110150337219,
			0.5302904844284058, -0.07828091830015182, -0.19872984290122986, 0.20681288838386536,
			0.2253069281578064, 0.08040039986371994, -0.5514745712280273, -0.6684021353721619,
			0.01913035474717617, 0.03877801448106766, -0.024989955127239227, 0.008939947932958603,
			-0.01344873197376728, 0.02182145044207573, 0.6301674246788025, 0.5127832293510437,
			-1.042406439781189, -0.34672310948371887, -0.3322044909000397, -0.20139572024345398,
			-0.4269198179244995, -0.32885560393333435, 0.252002477645874, 1.0647101402282715,
			0.910760760307312, 0.7643479108810425, 0.592820405960083, 0.5733867883682251,
			0.898402214050293, 0.22146786749362946, -0.20386886596679688, -0.19692346453666687,
			-0.2882031798362732, -0.460717111825943, 0.30210080742836, -0.2337586134672165,
			-0.5011219382286072, -0.040866825729608536, -0.21321667730808258,
			0.030281636863946915, 0.015590507537126541, 0.04772794991731644, 0.8945853114128113,
			-0.46610668301582336, -0.03892767056822777, -0.2956751883029938, -0.13699328899383545,
			0.007433461491018534, 0.0008052652119658887, -0.17174381017684937,
			-0.3720264136791229, -0.16171452403068542, 0.027901899069547653, 0.36940351128578186,
			0.6190425753593445, 1.1111279726028442, 0.9542086720466614, 0.766908586025238,
			0.013888019137084484, -0.12792626023292542, -0.20987574756145477, -0.7813348174095154,
			-0.4753531813621521, -1.066880464553833, -0.7650649547576904, -0.6638235449790955,
			-0.15263715386390686, -0.15669234097003937, 0.02030043676495552, 0.012565787881612778,
			0.16169030964374542, -0.6868786215782166, -0.4119517505168915, -0.7997217178344727,
			-0.2209959328174591, -0.24875223636627197, -0.05662047490477562, -0.6093361973762512,
			-0.6266428828239441, -0.7897864580154419, -0.3992668688297272, 0.19713982939720154,
			0.5194465517997742, 0.7356213927268982, 0.5026744604110718, 0.08109445869922638,
			0.038124844431877136, 0.34104999899864197, 0.19756625592708588, 0.009555821307003498,
			0.014100093394517899, -0.43475788831710815, -0.8015522360801697, -1.0423468351364136,
			-0.3892022371292114, -0.34709006547927856, 0.008333329111337662, 0.2948503792285919,
			-0.9091013073921204, -0.15244026482105255, -0.9847509264945984, -1.018250823020935,
			-0.12554346024990082, -0.5616130828857422, -0.3653249144554138, -0.3256798982620239,
			-0.1023537814617157, -0.45931828022003174, -0.45659732818603516, -0.15841266512870789,
			0.17849117517471313, 0.2377375066280365, 0.6632388830184937, 0.7859805822372437,
			0.5885390043258667, 0.07455459982156754, -0.16610604524612427, -0.013245520181953907,
			-0.5522177815437317, -1.0259935855865479, -1.5039714574813843, -1.0417325496673584,
			-0.270893931388855, -0.1315247118473053, 0.007021822035312653, -0.04206940159201622,
			-0.8950005173683167, -0.5971618890762329, 0.4226079285144806, -0.34020838141441345,
			-0.4637990891933441, -0.2889053523540497, -0.43403318524360657, 0.22065557539463043,
			-0.4140714406967163, -0.4410313367843628, -0.10417741537094116, -0.23073728382587433,
			-0.2613357901573181, 0.15667924284934998, 0.5842146873474121, 0.6174746751785278,
			0.7183775901794434, 0.5352860689163208, 0.02470330148935318, 0.20293571054935455,
			0.0452248714864254, -0.4079608917236328, -0.968540608882904, -0.4818166494369507,
			-0.8330451250076294, -0.08359364420175552, -0.35304489731788635, -0.3276018798351288,
			-0.4013441801071167, 0.04336556792259216, 0.3795976936817169, -0.1337393820285797,
			-0.2302723228931427, -0.5258491635322571, -0.1277184933423996, -0.10927323251962662,
			-0.11458983272314072, -0.4131701588630676, -0.5309446454048157, -0.4423626661300659,
			-0.2613934874534607, 0.14004527032375336, 0.49294912815093994, 0.6467189192771912,
			0.7797062397003174, 0.8421803712844849, 0.3789556324481964, 0.3419143855571747,
			0.5220315456390381, -0.030038395896553993, -0.8381680846214294, -1.0081673860549927,
			-0.15288789570331573, 0.2664189636707306, -0.056757889688014984, -0.8637245893478394,
			0.4655228555202484, 0.38889071345329285, 0.04326141998171806, -0.2474326640367508,
			0.3224259316921234, 0.09676285088062286, 0.2997163236141205, -0.273830771446228,
			0.040644869208335876, -0.2253536432981491, -0.11249205470085144, -0.06567832827568054,
			-0.33989399671554565, 0.11892946809530258, 0.24126745760440826, 0.12758319079875946,
			0.6624526977539062, 0.86659175157547, 0.5112909078598022, 0.35460302233695984,
			0.3822978436946869, 0.27861976623535156, -0.40402981638908386, -0.4703327715396881,
			-0.13832689821720123, 0.19126476347446442, -0.04806451126933098, -0.03203823044896126,
			0.06858447939157486, 0.17131224274635315, -0.14875179529190063, 0.1359863132238388,
			-0.007560884114354849, -0.06701824069023132, -0.06147534027695656,
			-0.35017555952072144, -0.24740998446941376, -0.06676030904054642,
			-0.06438062340021133, -0.42171233892440796, 0.2444690316915512, 0.3816177248954773,
			0.21550290286540985, 0.05970486253499985, 0.30367547273635864, 0.42122766375541687,
			0.350992351770401, 0.31491971015930176, 0.6350300312042236, 0.7797984480857849,
			-0.7174287438392639, -0.4850080907344818, 0.06455555558204651, 0.842619776725769,
			-0.09817115217447281, 0.24180841445922852, -0.12168784439563751, 0.12122471630573273,
			0.38785260915756226, 0.08500371873378754, -0.3988758325576782, -0.1508980095386505,
			0.11761640012264252, -0.15754270553588867, -0.04254991561174393,
			-0.044081199914216995, -0.3549201190471649, -0.3647770285606384, 0.1655150204896927,
			0.40289807319641113, -0.1250569075345993, -0.23004606366157532, -0.0589141882956028,
			0.12373899668455124, 0.4521208703517914, 0.225394606590271, 0.46073710918426514,
			0.4197578430175781, -0.09891412407159805, 0.18599630892276764, 0.46615132689476013,
			0.31942427158355713, -0.25169968605041504, -0.16608479619026184, 0.13956168293952942,
			-0.1312495917081833, 0.6681051254272461, -0.04461914300918579, 0.4737367331981659,
			0.025841498747467995, -0.1970706284046173, -0.004558187909424305,
			-0.009451694786548615, -0.2518918514251709, -0.5217406153678894, -0.4002028703689575,
			0.15597859025001526, 0.06481941789388657, -0.301984578371048, -0.14168010652065277,
			-0.2832595109939575, 0.19990408420562744, 0.22123563289642334, 0.3315752446651459,
			0.3376118540763855, 0.46398815512657166, 0.2639610767364502, -0.5888654589653015,
			-0.4256702661514282, -0.08902855962514877, 0.5250662565231323, -0.23484280705451965,
			-0.10694929212331772, 0.42158690094947815, 0.6540521383285522, 0.3449306786060333,
			0.4237217307090759, -0.23586581647396088, -0.042402483522892, -0.11745735257863998,
			0.11076975613832474, 0.17147324979305267, -0.42130956053733826, -0.19734004139900208,
			0.0989801213145256, 0.03001207672059536, -0.23193299770355225, -0.12994688749313354,
			0.06724710017442703, 0.13375289738178253, 0.06079411879181862, 0.3142087161540985,
			0.448802649974823, -0.23179477453231812, -0.5265435576438904, -0.8300598859786987,
			-0.1057991310954094, 0.11817183345556259, -0.09009084105491638, -0.3559150993824005,
			-0.1868697851896286, 0.6114509105682373, 0.03375856205821037, 0.5609124898910522,
			0.26385074853897095, -0.11954396218061447, -0.1916012018918991, -0.09403466433286667,
			0.03542354330420494, 0.25228846073150635, -0.16100119054317474, -0.2132890820503235,
			0.009993953630328178, 0.04041619598865509, -0.007268792483955622, 0.08822211623191833,
			0.302730917930603, 0.2593357563018799, 0.2245948761701584, 0.25718915462493896,
			0.22268235683441162, -0.40901246666908264, -0.2798537611961365, -0.3764203190803528,
			0.4498900771141052, 0.17625707387924194, -0.033390071243047714, 0.04031108692288399,
			0.10332656651735306, 0.14492522180080414, -0.27250435948371887, 0.24147380888462067,
			0.19735293090343475, -0.18473486602306366, 0.19305630028247833, 0.14226022362709045,
			0.21764904260635376, 0.09415295720100403, -0.20442703366279602, -0.3207955062389374,
			-0.2719237804412842, -0.09178382158279419, 0.2604983150959015, -0.28464946150779724,
			0.15152721107006073, 0.3688865602016449, -0.10228127241134644, -0.3990486264228821,
			0.27581530809402466, -0.01335868425667286, -0.15827614068984985, -0.3775891661643982,
			0.22325323522090912, 0.2508491277694702, 0.08749570697546005, 0.2720463275909424,
			0.8523461222648621, -1.127223253250122, -0.03688979148864746, 0.15694208443164825,
			0.23459267616271973, 0.17855706810951233, -0.0661788135766983, 0.3473534882068634,
			0.3993658423423767, 0.16702474653720856, -0.21916846930980682, -0.5062054395675659,
			-0.4187522828578949, -0.1916084885597229, 0.3416936695575714, -0.07158580422401428,
			0.0490400604903698, -0.11551447212696075, -0.31857550144195557, -0.35265570878982544,
			-0.1541787087917328, -0.23537655174732208, -0.29296204447746277, -0.4151383340358734,
			0.1373845487833023, 0.3257332742214203, -0.0014233887195587158, 0.21868400275707245,
			0.29528337717056274, -0.8674629330635071, -0.45683571696281433, 0.06327947974205017,
			-0.15498203039169312, -0.004014585632830858, -0.048265621066093445,
			0.21955624222755432, 0.3037756383419037, 0.2195083200931549, 0.07681483775377274,
			-0.1343684196472168, -0.0914594754576683, -0.0433724969625473, 0.17162877321243286,
			-0.3800147473812103, -0.2519235610961914, -0.2134978473186493, -0.29247745871543884,
			-0.2502937316894531, -0.22982743382453918, -0.41221264004707336, 0.12216906994581223,
			0.2635308504104614, 0.24952614307403564, 0.5465006232261658, -0.07541065663099289,
			0.5128017663955688, 0.5160977244377136, -0.16981302201747894, -0.7019115686416626,
			-0.24012115597724915, -0.174007847905159, 0.006241451483219862, 0.08111800253391266,
			0.18107810616493225, 0.2961759865283966, 0.05942482501268387, -0.40088018774986267,
			-0.1699443757534027, -0.20039398968219757, -0.17895793914794922, -0.08280958235263824,
			-0.2854682505130768, -0.16738539934158325, 0.03321954607963562, -0.1300218105316162,
			-0.0822562500834465, 0.10972899198532104, -0.18022304773330688, 0.1874287724494934,
			0.06150571629405022, -0.0754111036658287, 0.5955547094345093, 0.18525519967079163,
			-0.08360102027654648, -0.7364281415939331, -0.515546441078186, -0.4095304310321808,
			-0.09244769811630249, -0.0977250188589096, 0.07591275125741959, -0.18615537881851196,
			-0.05234349146485329, 0.17841167747974396, -0.41711074113845825, -0.23145118355751038,
			-0.04974214360117912, -0.1472034752368927, -0.028302721679210663,
			-0.022012490779161453, -0.16767942905426025, 0.0033727639820426702,
			0.13542568683624268, -0.09379719942808151, 0.09941059350967407, 0.29522788524627686,
			0.20334123075008392, -0.09806261956691742, -0.46254265308380127, 0.1889772266149521,
			0.33898335695266724, 0.02531719207763672, 0.22024810314178467, -0.6250510215759277,
			-0.18591724336147308, -0.09805884957313538, 0.0036225877702236176,
			-0.26796069741249084, 0.141037255525589, -0.2302744835615158, -0.1447962522506714,
			0.3181074559688568, 0.2570870816707611, 0.23501227796077728, -0.1850290149450302,
			0.14429539442062378, 0.04447679966688156, -0.012267804704606533,
			-0.023427549749612808, 0.37964507937431335, 0.3583926558494568, 0.2395210564136505,
			0.08963511139154434, 0.46063414216041565, 0.38879725337028503, 0.9716342091560364,
			0.5403083562850952, 0.46501052379608154, 0.02916436828672886, 0.2395552396774292,
			0.0779905840754509, 1.4856359958648682, 1.0964336395263672, -0.35785767436027527,
			-0.3755420744419098, 0.06409570574760437, 0.24337922036647797, -0.15633583068847656,
			0.057745929807424545, 0.28705984354019165, -0.029304921627044678, 0.04937351867556572,
			0.28094831109046936, 0.18946227431297302, 0.013469233177602291, 0.06515032052993774,
			-0.20808540284633636, 0.1860482543706894, 0.06025547534227371, -0.06236390024423599,
			0.020297620445489883, 0.27206453680992126, 0.020044533535838127, 0.4872087836265564,
			-0.10400743037462234, 0.9126830101013184, 0.06252804398536682, 0.17738190293312073,
			0.06733627617359161, 0.9709183573722839, 0.2058619111776352, -0.24584722518920898,
			0.35882824659347534, 0.412544846534729, 0.03262986242771149, 0.21696627140045166,
			0.18198436498641968, 0.14312808215618134, 0.07990709692239761, 0.05405532568693161,
			0.29895922541618347, 0.26307883858680725, 0.023429008200764656, -0.323167622089386,
			-0.39827319979667664, -0.2988477647304535, 0.06388534605503082, 0.17683826386928558,
			0.02579497918486595, -0.18855558335781097, -0.05518387258052826, 0.016237111762166023,
			-0.6031831502914429, -0.3505436182022095, 0.011412961408495903, 0.005167793482542038,
			0.022951394319534302, 0.5898844599723816, -0.1548655778169632, -0.6645159125328064,
			-0.019063862040638924, -0.3403934836387634, 0.0753403976559639, 0.13385726511478424,
			0.43011391162872314, 0.168333038687706, -0.08039908856153488, 0.23703955113887787,
			0.31165188550949097, 0.09786655008792877, 0.2956702709197998, 0.1080472394824028,
			0.18570424616336823, -0.014992007054388523, -0.2959863841533661, -0.5139817595481873,
			-0.5115635395050049, 0.3391103446483612, -0.3100563585758209, 0.038114000111818314,
			-0.8450451493263245, -0.1623508185148239, -0.020725557580590248, 0.032358456403017044,
			-0.033160991966724396, -0.05368402600288391, -0.06463050842285156, 0.5507627725601196,
			-0.3489948511123657, -0.1685720682144165, -0.30916842818260193, -0.16062968969345093,
			0.3640480935573578, 0.37192732095718384, -0.07015155255794525, -0.07926523685455322,
			-0.0008575879619456828, 0.22435642778873444, 0.44083473086357117, 0.142398402094841,
			0.0982968807220459, -0.6293554306030273, -0.3616911768913269, -0.2641415297985077,
			0.09187353402376175, 0.3687419295310974, 0.3013884723186493, 0.01669660583138466,
			0.050029098987579346, -0.018503835424780846, 0.010759826749563217,
			-0.013114457949995995, 0.011865559965372086, 0.6687852740287781, -0.7841793298721313,
			-0.8640270829200745, -0.3769446611404419, 0.12337271124124527, 0.01586923375725746,
			0.33606037497520447, 0.44828328490257263, 0.01942395605146885, 0.04779776930809021,
			0.4332379102706909, 0.09354185312986374, 0.572442889213562, -0.34435608983039856,
			-0.9326639175415039, -1.2521212100982666, -0.7069316506385803, 0.7643669843673706,
			0.8868900537490845, 0.029810108244419098, -0.35980260372161865, -0.5176903605461121,
			-0.5857365131378174, 0.014794182032346725, -0.06582867354154587,
			-0.030260244384407997, 0.027653563767671585, 0.01601513847708702,
			-0.014076229184865952, 1.1033949851989746, 0.2977045476436615, -0.19782814383506775,
			-0.07526783645153046, 0.5323003530502319, -0.25410932302474976, -0.13457727432250977,
			0.24470670521259308, -0.11037321388721466, -0.3831923305988312, 0.048170316964387894,
			0.9835821390151978, 0.1485949009656906, -0.19673696160316467, -0.3926147520542145,
			-0.12436733394861221, 0.3892781436443329, 0.8600485324859619, 0.0649942010641098,
			-0.0914841815829277, 0.17144162952899933, 0.7143045663833618, -0.04940180853009224,
			-0.009935243055224419, 0.012848138809204102, 0.02852356806397438,
			-0.01194394938647747, 4.836544394493103e-5, 0.019761227071285248,
			-0.20661193132400513, -0.41208457946777344, -0.19266080856323242,
			0.050072815269231796, -0.05480238050222397, 0.2553452253341675, -0.4209209680557251,
			-0.021451173350214958, 0.05040615797042847, -0.08127925544977188, 0.06425252556800842,
			-1.102434515953064, -0.6418293714523315, -0.36909255385398865, -0.13406148552894592,
			-0.18576239049434662, -0.34396421909332275, -0.021663587540388107,
			-0.042449843138456345, -0.33186304569244385, -0.003255099058151245,
			0.0087762251496315, -0.008437344804406166, 0.03318587318062782
		],
		[
			0.023398928344249725, 0.018581174314022064, 0.031233225017786026,
			-0.012153102084994316, -0.004249248653650284, 0.016324732452630997,
			0.014656011015176773, -0.004144314676523209, -0.022738516330718994,
			0.02254309132695198, 0.020049642771482468, 0.012270785868167877, 0.033498525619506836,
			-0.019098665565252304, -0.004796299152076244, 0.0027364834677428007,
			0.0297921784222126, 0.005898177623748779, -0.024103492498397827, 0.030198287218809128,
			0.006356924772262573, 0.02014239877462387, -0.008658839389681816,
			-0.0010022744536399841, -0.010326368734240532, -0.030909761786460876,
			-0.030663764104247093, 0.013921476900577545, -0.028202589601278305,
			-0.0033645927906036377, -0.0054238829761743546, 0.021691184490919113,
			0.014842307195067406, 0.05238621309399605, 0.08004894107580185, 0.08149006962776184,
			0.07826791703701019, 0.030456198379397392, 0.05758338421583176, 0.14582139253616333,
			0.18361467123031616, 0.10116534680128098, -0.08310296386480331, 0.010966791771352291,
			0.13508805632591248, 0.048793330788612366, -0.12112338840961456, -0.08639957010746002,
			-0.12143377959728241, -0.04194307327270508, 0.28473082184791565, 0.2948663532733917,
			0.008099470287561417, -0.024932781234383583, 0.006473597139120102,
			0.023738618940114975, -0.03481541946530342, -0.017108237370848656,
			-0.02060660719871521, 0.058551933616399765, -0.1609899252653122,
			-0.002739538438618183, 0.0012296977220103145, 0.0005266570369713008,
			0.298100084066391, 0.5299158096313477, 0.9477018713951111, 0.7614409327507019,
			0.09046263992786407, -1.1555191278457642, -0.8618788123130798, -0.8957207798957825,
			-0.9668320417404175, -0.9472428560256958, -0.5082148313522339, -0.810367226600647,
			-0.44385847449302673, -0.08803665637969971, -0.13026002049446106, 0.11349162459373474,
			0.0593273900449276, 0.05937734991312027, 0.03275637701153755, 0.031118880957365036,
			-0.015564493834972382, 0.00013097375631332397, -0.2003786563873291,
			0.053910236805677414, -0.030701182782649994, 0.3448641002178192, 0.20042669773101807,
			0.3196772038936615, 0.8135939240455627, 1.0119948387145996, 0.9321779608726501,
			0.848595142364502, 0.7133898735046387, 0.21288637816905975, -0.24895846843719482,
			-0.25127074122428894, -0.5268063545227051, -0.6163489818572998, -1.0263558626174927,
			-1.0972155332565308, -0.4818584620952606, -0.21278493106365204, 0.08118914812803268,
			0.39549386501312256, 0.9722340106964111, 0.4117526113986969, 0.4077654778957367,
			-0.01180114597082138, 0.013553358614444733, 0.02539774961769581, -0.1954922080039978,
			0.3575197458267212, 0.004418369848281145, -0.16908417642116547, 0.41747957468032837,
			0.7953233122825623, 0.3362633287906647, 0.30210044980049133, 0.3204227089881897,
			0.6651257276535034, -0.06800775974988937, -0.3637273907661438, -0.24819041788578033,
			-0.08426429331302643, -0.310980886220932, -0.3413558900356293, -0.3337708115577698,
			-0.6604270935058594, -0.1503610610961914, -0.12646055221557617, 0.2402328997850418,
			0.4960132837295532, 0.7826712727546692, 0.4137352406978607, 0.12902632355690002,
			0.006765431724488735, -0.001340378075838089, 0.015886642038822174, 0.004239521920681,
			0.4736179709434509, 0.028021806851029396, -0.3838856816291809, -0.06540200114250183,
			-0.10095696896314621, -0.09504079818725586, 0.1933523714542389, 0.15128648281097412,
			0.5497888326644897, 0.31043341755867004, 0.19815483689308167, 0.015740230679512024,
			0.185398131608963, 0.2849186658859253, 0.44752731919288635, 0.39660829305648804,
			-0.1329410821199417, 0.28486961126327515, -0.272775262594223, -0.6816060543060303,
			-0.9041315913200378, 0.13277003169059753, 0.5656894445419312, 0.31045615673065186,
			-0.023120101541280746, -0.01399913989007473, 0.13716433942317963, 0.34327661991119385,
			0.5983907580375671, -0.05017949640750885, -0.37567898631095886, -0.1520572304725647,
			0.24743595719337463, 0.2679179906845093, 0.3449925184249878, 0.867845356464386,
			0.45725294947624207, 0.7070104479789734, 0.7449271082878113, 0.9125798940658569,
			1.1122523546218872, 0.8729414343833923, 0.6688253283500671, 0.6161589026451111,
			0.10018687695264816, -0.018392235040664673, -0.41085436940193176,
			-0.19375981390476227, 0.5306921005249023, 0.4199775457382202, 0.09451910853385925,
			0.03552287071943283, 0.16142266988754272, -0.027927616611123085, 0.19287589192390442,
			0.33935806155204773, 0.6779302954673767, 0.18291491270065308, -0.1318524330854416,
			0.3038261830806732, 0.02678844891488552, 0.5737637281417847, 0.3889428377151489,
			0.4989848732948303, 0.6483195424079895, 0.614057719707489, 1.0487738847732544,
			1.1623038053512573, 0.9853267073631287, 0.5529784560203552, 0.050847768783569336,
			0.15104176104068756, -0.3457883894443512, -0.3620736002922058, -0.3782447576522827,
			-0.2341058999300003, -0.5511345267295837, -0.8171581029891968, -0.4115190804004669,
			0.03618129342794418, 0.34527888894081116, -0.0324808806180954, 0.0658365786075592,
			-0.22297053039073944, 0.5832261443138123, 0.09311115741729736, 0.25797030329704285,
			0.3370724022388458, 0.026293398812413216, 0.7963457107543945, 0.45815131068229675,
			0.6374064087867737, 0.6848810911178589, 0.7645289301872253, 0.6977852582931519,
			0.7191784977912903, 0.48455002903938293, 0.04800211638212204, -0.16149653494358063,
			0.2150975465774536, 0.16752347350120544, -0.280756413936615, -0.3560086786746979,
			-0.08057387918233871, -0.9332846403121948, -1.3771178722381592, 0.04071781411767006,
			0.11267530918121338, 0.24974045157432556, 0.035796064883470535, -0.00443905359134078,
			-0.12300918996334076, 0.35094720125198364, 0.4507439136505127, 0.011372175067663193,
			0.2120550274848938, 0.16386786103248596, 0.47286105155944824, 0.37940722703933716,
			0.2797151207923889, 0.05978431552648544, 0.09245563298463821, -0.07982369512319565,
			0.020093237981200218, -0.0446450337767601, -0.34307223558425903, 0.33232414722442627,
			0.415515273809433, 0.08584346622228622, -0.4998798072338104, -0.4707268476486206,
			-0.3692792057991028, -0.6858749389648438, -0.13200891017913818, -0.0496060736477375,
			-0.04043376073241234, -0.2561270594596863, 0.03513901308178902, -0.056472573429346085,
			-0.10317680984735489, 0.3530709147453308, -0.27777719497680664, -0.013998552225530148,
			0.48160460591316223, -0.00694065447896719, -0.045165613293647766, -0.179656520485878,
			-0.1739998608827591, -0.4034140110015869, -0.7330306768417358, -0.6711783409118652,
			-0.6339857578277588, -0.5265047550201416, 0.05740366131067276, -0.05293348431587219,
			0.42979371547698975, 0.11854095011949539, -0.14513543248176575, -0.19972366094589233,
			-0.07646656781435013, 0.13749364018440247, -0.09310020506381989, -0.43516266345977783,
			-0.2631611227989197, -0.7591781616210938, -0.07369035482406616, 0.07433296740055084,
			-0.02603544481098652, 0.33296412229537964, -0.19714204967021942, -0.41063958406448364,
			0.1343391090631485, -0.18876780569553375, -0.5150750279426575, -0.18653585016727448,
			-0.4694340229034424, -0.41238006949424744, -0.4153369069099426, -0.0315328873693943,
			-0.305174320936203, 0.002077017677947879, 0.18253830075263977, 0.10735020786523819,
			0.07662007212638855, 0.14554813504219055, -0.12175608426332474, 0.2553320825099945,
			-0.11964169889688492, -0.014941012486815453, 0.18851785361766815, -0.6272172331809998,
			0.10032821446657181, -0.663386881351471, -0.20450787246227264, -0.02349613793194294,
			0.03875892236828804, 0.40326809883117676, -0.2790335416793823, -0.5576823353767395,
			-0.11172879487276077, -0.1909460425376892, -0.293132483959198, -0.14318805932998657,
			-0.6384374499320984, -0.3753548562526703, -0.2669830918312073, -0.44480594992637634,
			-0.005058867856860161, -0.02149534597992897, 0.05206553637981415, 0.14114098250865936,
			0.06706039607524872, 0.25609105825424194, 0.0205515306442976, 0.4040756821632385,
			-0.5539893507957458, -0.16497287154197693, -0.5677616596221924, -1.1064318418502808,
			-0.10023307800292969, -0.42765700817108154, -0.4037380814552307, -0.05286301299929619,
			0.2012699991464615, 0.3505622446537018, -1.545175552368164, -0.6151860952377319,
			-0.0843425989151001, 0.18713204562664032, -0.14620330929756165, -0.08665779232978821,
			-0.08779827505350113, -0.24976351857185364, -0.17844566702842712,
			-0.16008448600769043, -0.18556243181228638, -0.19218093156814575, -0.1467936635017395,
			-0.06949295848608017, 0.030987290665507317, 0.055664025247097015, 0.2395114004611969,
			-0.2165221869945526, -0.27230414748191833, -0.30188608169555664, -0.6243630647659302,
			-1.223718523979187, -0.3569808900356293, 0.09874997287988663, -0.020177826285362244,
			-0.0832572802901268, 0.29996657371520996, 0.4233097434043884, -0.6816404461860657,
			-0.9825525283813477, -0.027232572436332703, 0.3581269681453705, 0.11339026689529419,
			-0.21413353085517883, 0.004269372671842575, 0.007839623838663101,
			-0.13889756798744202, 0.058656759560108185, -0.234466552734375, -0.15165820717811584,
			-0.23959317803382874, -0.12819914519786835, 0.2313031405210495, -0.2860684096813202,
			0.1810825765132904, -0.18801550567150116, -0.30859890580177307, 0.20482489466667175,
			-0.4138096272945404, -0.6392647624015808, -0.45295438170433044, 0.051226548850536346,
			0.010444201529026031, 0.10330639779567719, -0.03077060356736183, 0.16492648422718048,
			-0.02817414700984955, -0.07030981034040451, 0.1377602070569992, 0.14578752219676971,
			0.1057111993432045, -0.023973703384399414, -0.1470564305782318, -0.10879989713430405,
			-0.1915970742702484, -0.10834410041570663, -0.1246965304017067, -0.06937047839164734,
			-0.013513133861124516, 0.06857237219810486, 0.00013802690955344588,
			-0.45675745606422424, -0.13606739044189453, 0.20433646440505981, 0.01537647470831871,
			0.037561915814876556, 0.17953291535377502, -0.3943166434764862, -0.7522920966148376,
			0.2547730803489685, -0.0849735289812088, 0.0904010608792305, 0.49556586146354675,
			0.2278909683227539, -0.07699711620807648, -0.4766698181629181, 0.04986255615949631,
			0.08533388376235962, -0.19577650725841522, -0.22114604711532593, -0.1280059665441513,
			-0.06687972694635391, 0.10611189901828766, -0.08787588030099869, -0.2389988750219345,
			-0.30270808935165405, -0.14244146645069122, 0.03154973313212395, -0.20541462302207947,
			-0.5068395733833313, 0.03349101170897484, 0.36061516404151917, 0.6166983246803284,
			0.38912370800971985, 0.17755043506622314, -0.5722162127494812, -0.6741042733192444,
			0.33395078778266907, 0.007460743188858032, 0.031060203909873962, -0.05332281067967415,
			0.19749774038791656, -0.1550690084695816, -0.5308976769447327, -0.3105122447013855,
			-0.303657203912735, -0.17748622596263885, -0.2851213216781616, -0.20412786304950714,
			-0.16958187520503998, 0.053536541759967804, -0.054872337728738785,
			-0.18886440992355347, -0.2064514011144638, -0.2542944848537445, -0.0379963181912899,
			-0.4401131570339203, -0.35042643547058105, 0.2739642560482025, -0.19712792336940765,
			-0.03368169441819191, -0.1094028651714325, -0.22442413866519928, 0.057521939277648926,
			-0.4101763367652893, 0.5244366526603699, 0.6316638588905334, 0.07996635884046555,
			-0.1724221408367157, -0.252898633480072, -0.007883355021476746, -0.15435603260993958,
			-0.26061156392097473, -0.26268619298934937, 0.09084848314523697, -0.32082828879356384,
			0.24724049866199493, 0.07342193275690079, -0.0742737278342247, -0.11791247129440308,
			-0.21535146236419678, -0.2862648665904999, -0.08662594854831696, -0.14536812901496887,
			-0.2508810758590698, 0.06360176205635071, 0.307204008102417, 0.22670377790927887,
			0.4064255952835083, -0.05228452757000923, -0.18575669825077057, 0.20575568079948425,
			0.8028165102005005, 0.11904622614383698, -0.16757822036743164, 0.07991401851177216,
			0.04936680197715759, -0.29848554730415344, -0.11621619015932083, -0.3167014718055725,
			-0.5940380096435547, -0.003878755262121558, -0.07495038211345673, -0.3660685122013092,
			0.1673603057861328, -0.05988636240363121, 0.060979992151260376, -0.3065069019794464,
			-0.5137118101119995, -0.519754946231842, -0.09640175849199295, -0.06871020793914795,
			-0.16556382179260254, 0.10501625388860703, 0.08066811412572861, 0.2021399438381195,
			0.34036165475845337, 0.07813935726881027, -0.020428819581866264, 0.0740305557847023,
			0.608059287071228, 0.029949596151709557, -0.024513114243745804, 0.09678788483142853,
			0.8556782007217407, 0.7339155077934265, 0.34802132844924927, 0.4111294150352478,
			-0.13326801359653473, 0.020360641181468964, 0.3395748734474182, 0.038514863699674606,
			0.09285648167133331, -0.21402627229690552, -0.14804963767528534, -0.06619855016469955,
			-0.3775807023048401, -0.0898352786898613, -0.10962595045566559, -0.07340691983699799,
			-0.16838477551937103, -0.033856865018606186, -0.006053786259144545,
			0.3846592307090759, 0.11443711817264557, 0.03635650500655174, 0.23415865004062653,
			0.2726185917854309, 0.0008009118027985096, -0.08364222198724747, -0.17909905314445496,
			0.058129891753196716, 0.584911584854126, 0.12090152502059937, 0.18930009007453918,
			0.2133818417787552, 0.05010075494647026, 0.18034249544143677, 0.08874459564685822,
			0.03062470257282257, 0.19564586877822876, -0.03862759470939636, 0.21575070917606354,
			0.15535475313663483, 0.09120850265026093, -0.04731409251689911, 0.28858816623687744,
			0.1420164853334427, -0.1421782225370407, 0.2614245116710663, 0.3563869297504425,
			0.5092729926109314, -0.0036430777981877327, -0.0013425350189208984,
			0.2126408964395523, 0.0018488100031390786, 1.7186956405639648, -0.019592897966504097,
			-0.21206772327423096, 0.051120344549417496, 0.4063190817832947, 0.1925743967294693,
			-0.12441685795783997, -0.12980292737483978, 0.3676755726337433, 0.22513632476329803,
			0.012081125751137733, 0.14647440612316132, 0.09473586082458496, 0.02065373957157135,
			0.445720374584198, 0.18104521930217743, 0.19724296033382416, 0.2357311248779297,
			0.3289055824279785, 0.19463172554969788, -0.08425528556108475, 0.08730866760015488,
			0.1988317370414734, -0.23848122358322144, -0.02376646175980568, 0.07369554787874222,
			0.25949734449386597, -0.28167492151260376, -0.24345821142196655, -0.04894639551639557,
			0.028550725430250168, 0.002651657909154892, 0.24047614634037018, 0.8281443119049072,
			0.16051562130451202, 0.3335952162742615, 0.5251024961471558, 0.48385700583457947,
			0.12111068516969681, -0.17433638870716095, 0.30186429619789124, 0.683236300945282,
			0.3782450258731842, 0.17727641761302948, 0.13026145100593567, 0.27379024028778076,
			0.2550334930419922, -0.06732768565416336, -0.08169037103652954, 0.26188358664512634,
			0.38723689317703247, -0.06966718286275864, 0.40337395668029785, 0.48304396867752075,
			0.8854975700378418, 0.2585426867008209, -0.5271907448768616, 0.03372683748602867,
			0.026741228997707367, -0.018540000542998314, -0.052936628460884094,
			0.6212628483772278, 0.5023624897003174, 0.2647130787372589, 0.3608122766017914,
			0.40080294013023376, 0.22864843904972076, -0.013553924858570099,
			-0.0018248818814754486, 0.16890650987625122, 0.15693634748458862, 0.277405321598053,
			0.06725408881902695, 0.3436697721481323, 0.21724024415016174, -0.004716070834547281,
			0.2579062879085541, 0.32575345039367676, 0.015560443513095379, 0.09013308584690094,
			0.08311638981103897, 0.47755005955696106, 1.0752099752426147, -0.10103007405996323,
			0.03181488439440727, 0.03534488007426262, -0.013257073238492012,
			-0.021897917613387108, 0.74861079454422, -0.08014398068189621, -0.5970751047134399,
			-0.3350949287414551, 0.6033172011375427, 0.6629003882408142, 0.6363216638565063,
			0.21203070878982544, 0.5774499773979187, 0.40318378806114197, 0.5843322277069092,
			0.2718029320240021, -0.33296826481819153, 0.3109353184700012, 0.20460624992847443,
			0.2567903995513916, 0.20715153217315674, 0.1594102829694748, -0.127173513174057,
			0.13100430369377136, -0.21425850689411163, 0.005121622234582901, 0.7521641254425049,
			0.16587203741073608, 0.08630815148353577, -0.022721469402313232,
			0.0022488050162792206, -0.02182149887084961, -0.030257273465394974,
			-0.0200488343834877, -0.8119385838508606, -0.5404080748558044, -0.4424903988838196,
			-0.24596445262432098, 0.44239068031311035, 0.36082056164741516, 0.8997467756271362,
			1.3983781337738037, 0.3883087933063507, 0.7682138085365295, 0.19794975221157074,
			-0.4055292010307312, 0.005805833265185356, 0.4388028681278229, 0.4958302974700928,
			0.5084165334701538, 0.5373879075050354, 0.4194636642932892, 0.8215141296386719,
			0.526989758014679, 0.4992973208427429, -0.07659811526536942, -0.008884625509381294,
			-0.02798451855778694, 0.002789173275232315, 0.03073614463210106, 0.016090452671051025,
			-0.010635478422045708, -0.10439882427453995, -0.17847569286823273,
			-0.16737939417362213, 0.026355504989624023, 0.07239752262830734, 0.017013784497976303,
			-0.20548410713672638, -0.20593935251235962, -0.131367027759552, 0.092502661049366,
			0.2597772479057312, -0.17820073664188385, 0.1497323364019394, 0.4518589377403259,
			0.9416623115539551, 0.16672398149967194, -0.17093828320503235, 0.25827738642692566,
			0.3793472349643707, -0.5231721997261047, -0.030622070655226707, 0.032678525894880295,
			0.013655111193656921, 0.028470855206251144
		],
		[
			-0.03428180515766144, 0.013510927557945251, 1.3560056686401367e-5,
			0.010508120059967041, 0.032902780920267105, -0.0026746168732643127,
			0.024385593831539154, 0.02897944673895836, -0.01480553112924099, 0.02691943570971489,
			-0.022849489003419876, 0.021522104740142822, -0.08217643201351166,
			-0.009442065842449665, 0.05356483533978462, 0.06626980751752853,
			-0.002175193279981613, -0.01185578666627407, -0.01763632521033287,
			0.009912416338920593, 0.0011913999915122986, -0.03507155925035477,
			0.027950000017881393, -0.03457807004451752, -0.017497889697551727,
			-0.008412251248955727, -0.0016104206442832947, 0.03227348253130913,
			-0.02664078213274479, -0.008069345727562904, 0.019188694655895233,
			0.022727690637111664, 0.03220326825976372, -0.05040156468749046, -0.08432477712631226,
			-0.07671409100294113, 0.08530130982398987, 0.06636346876621246, 0.026501694694161415,
			-0.13182252645492554, -0.43426835536956787, 0.06208537518978119, 0.14050303399562836,
			-0.024136818945407867, 0.18971894681453705, 0.11541461944580078, -0.08522848784923553,
			-0.17554044723510742, -0.17956498265266418, -0.2583860158920288, -0.06741232424974442,
			0.014014369808137417, 0.0077123939990997314, 7.331371307373047e-5,
			0.019861485809087753, 0.03171996399760246, 0.0031051598489284515,
			0.031944263726472855, 0.0133683942258358, -0.06408825516700745, -0.09534959495067596,
			-0.0010019702604040504, -0.06775721162557602, -0.1210486888885498, 0.1568802148103714,
			-0.19373376667499542, -0.2953779697418213, 0.24644266068935394, 0.4015568494796753,
			0.7974353432655334, 0.8357813954353333, 0.3642336130142212, 0.25782325863838196,
			-0.148794487118721, 0.014701045118272305, 0.0564509816467762, 0.13910537958145142,
			0.0429278202354908, -0.652946949005127, -0.3164166808128357, 0.0490504615008831,
			0.0461760088801384, -0.00779324397444725, 0.028166767209768295, -0.003945626318454742,
			-0.014920853078365326, 0.7867551445960999, 0.4702282249927521, 0.1648237556219101,
			-0.038311976939439774, -0.12551026046276093, 0.2257663756608963, 0.7028370499610901,
			0.008251621387898922, -0.0952485129237175, 0.416063129901886, 0.4182647168636322,
			-0.10744111984968185, 0.23541805148124695, 0.19162656366825104, 0.40086546540260315,
			0.34083646535873413, 0.693442702293396, 0.6926745176315308, 0.42861148715019226,
			-0.0895281434059143, -0.2708694040775299, -0.8654935956001282, -0.46779122948646545,
			-0.24499978125095367, -0.4426805078983307, -0.006886584684252739,
			-0.01934419944882393, 0.08985216915607452, 0.7560144662857056, 0.61222243309021,
			-0.04087324067950249, 0.6229403018951416, 0.5105121731758118, 0.1528625637292862,
			-0.3012937903404236, -0.025612255558371544, 0.21336974203586578, 0.27541542053222656,
			-0.22972054779529572, -0.4158046245574951, -0.2887377142906189, -0.1564362794160843,
			0.2963658571243286, 0.20831841230392456, 0.4760912358760834, 0.5563310384750366,
			0.8645977973937988, 0.03118436597287655, -0.06332270056009293, -0.6712512969970703,
			-1.0643075704574585, -0.9883326292037964, -0.655512809753418, -0.5271971821784973,
			0.0033928677439689636, -0.00023872032761573792, 0.7266748547554016,
			0.44721612334251404, 0.041776981204748154, 0.725970447063446, 0.2926989793777466,
			-0.2022520750761032, 0.002560604829341173, -0.1949993073940277, -0.0733436793088913,
			-0.19536258280277252, -0.261270135641098, -0.318608820438385, -0.24025917053222656,
			-0.12158040702342987, 0.27598392963409424, -0.062095578759908676, -0.1522117257118225,
			-0.27522438764572144, -0.022184455767273903, -0.29466500878334045,
			-0.10323712974786758, 0.07940088212490082, -0.3687678575515747, -1.3962153196334839,
			-0.5513348579406738, -0.5173134207725525, 0.024986740201711655, 0.2920500636100769,
			0.06553983688354492, 0.3230104148387909, -0.013336303643882275, 0.32862454652786255,
			0.36322900652885437, 0.046280939131975174, -0.32791417837142944, 0.06375281512737274,
			0.34056752920150757, 0.17875109612941742, -0.0484476163983345, -0.2083926796913147,
			-0.02628106251358986, -0.21634921431541443, -0.14154991507530212,
			-0.18053723871707916, 0.0003653591265901923, 0.41341468691825867,
			-0.12590456008911133, -0.5402842164039612, 0.044494081288576126, 0.1345232129096985,
			0.08599893748760223, -1.3359739780426025, -0.6798072457313538, -0.4963255226612091,
			-0.02991347759962082, 0.6724388003349304, 0.42162516713142395, 0.501154363155365,
			0.1189153715968132, 0.15612737834453583, 0.2708025276660919, 0.17433078587055206,
			0.06847729533910751, 0.14128397405147552, 0.3362230360507965, 0.5251300930976868,
			0.2058044672012329, 0.07323840260505676, 0.03951699659228325, -0.057054124772548676,
			0.30637460947036743, 0.30456313490867615, 0.045781027525663376, 0.5649065971374512,
			0.23240643739700317, -0.2083558887243271, 0.24279621243476868, 0.024515844881534576,
			0.08713942021131516, -0.20706908404827118, -0.44555139541625977, -0.4972488582134247,
			0.017253795638680458, 0.25202620029449463, -0.07275862246751785, 0.3706234097480774,
			0.06792313605546951, 0.036455102264881134, -0.6983641982078552, 0.07535801827907562,
			0.04867175593972206, 0.25878265500068665, 0.45789217948913574, 0.749032199382782,
			0.4321621060371399, 0.2218102365732193, 0.3878905475139618, 0.23123964667320251,
			0.2443111687898636, 0.4031520187854767, 0.14060267806053162, 0.2353806048631668,
			0.2056242674589157, -0.06189856678247452, 0.5467209219932556, 0.5276883244514465,
			-0.4532582461833954, -0.5278761982917786, -0.1846572905778885, -0.04204002395272255,
			0.062111590057611465, 0.26181265711784363, 0.34430617094039917, 0.6214209198951721,
			0.085963673889637, 0.14943253993988037, 0.08034282177686691, 0.14690664410591125,
			0.1198500394821167, 0.4079654812812805, 0.31796106696128845, 0.06995871663093567,
			0.33605778217315674, -0.6123559474945068, -1.0318882465362549, -0.0881432518362999,
			0.2302316427230835, 0.1134658008813858, 0.06326376646757126, 0.006083520129323006,
			-0.139648899435997, -0.111127570271492, 0.7008888721466064, 0.1836555451154709,
			-0.5705469846725464, -1.207450032234192, -0.65879887342453, 0.08811511099338531,
			0.025807777419686317, 0.16096937656402588, 0.18349473178386688, 0.5241670608520508,
			0.11301899701356888, 0.166123628616333, 0.2221631109714508, -0.06940393894910812,
			0.4139677882194519, -0.13057959079742432, -0.17534533143043518, -0.5781009793281555,
			-0.8911018371582031, -1.2238038778305054, -1.4930320978164673, -0.4750761091709137,
			0.0009439692366868258, 0.17475982010364532, -0.09297516196966171,
			-0.12274982780218124, -0.07149530947208405, -0.12981927394866943, 0.0685117244720459,
			-0.7473092079162598, -0.7227265238761902, 0.33997461199760437, -9.591211710358039e-5,
			0.12290164083242416, 0.08233637362718582, 0.10857954621315002, -0.8424440026283264,
			-0.1599368453025818, -0.13896949589252472, 0.03411738574504852, -0.02201324701309204,
			-0.32378819584846497, -0.38619428873062134, -1.0464431047439575, -1.3399291038513184,
			-1.4374444484710693, -1.7159180641174316, -1.3678823709487915, -0.42198053002357483,
			0.39987441897392273, 0.0977696031332016, 0.08904572576284409, -0.09552473574876785,
			0.15048052370548248, 0.050281837582588196, -0.3863312304019928, -0.5029065608978271,
			-0.5835236310958862, -0.1497528851032257, 0.47609061002731323, -1.0445815324783325,
			-0.4201912581920624, 0.10870523750782013, -0.0942179337143898, -1.0697587728500366,
			-0.5610882043838501, -1.0224918127059937, -0.6966961026191711, -0.9907248020172119,
			-1.1883846521377563, -1.7881286144256592, -2.144594430923462, -1.3683900833129883,
			-0.7548298835754395, -0.16095557808876038, -0.18250568211078644, 0.08264103531837463,
			0.33409401774406433, 0.26574113965034485, -0.2400752454996109, -0.01993839256465435,
			-0.14489556849002838, 0.07751490920782089, -0.04420469328761101, -0.22813254594802856,
			-0.2228502631187439, -0.3027383089065552, -0.2645054757595062, -0.5810206532478333,
			-0.8066950440406799, -0.03982801362872124, -0.12119057774543762, 0.18864384293556213,
			-0.8495792150497437, -1.6139031648635864, -1.4944568872451782, -1.527236819267273,
			-1.5625267028808594, -1.6775195598602295, -1.1982741355895996, -0.28312575817108154,
			0.03006860427558422, 0.004529120866209269, -0.06354250013828278, 0.19778934121131897,
			0.12751127779483795, 0.05576091632246971, -0.1627093106508255, -0.09087662398815155,
			-0.08824872225522995, -0.18221013247966766, 0.22130660712718964, 0.4163050353527069,
			-0.26328444480895996, -0.9112034440040588, -0.7851928472518921, -0.3792995810508728,
			-0.17061656713485718, 0.00992872565984726, -0.1637408435344696, 0.2248845249414444,
			-0.7062927484512329, -1.074365258216858, -1.063817024230957, -0.5551327466964722,
			-0.6244523525238037, -0.4775477945804596, 0.14029954373836517, 0.6493056416511536,
			0.539391815662384, 0.12363148480653763, 0.1582787185907364, 0.39621102809906006,
			0.2305707037448883, 0.2153468132019043, 0.12392149120569229, 0.09924741834402084,
			0.3040006160736084, 0.08521939069032669, 0.32079148292541504, 0.3361646831035614,
			0.4561516344547272, 0.21739570796489716, -0.12181970477104187, 0.22086085379123688,
			0.1999504417181015, 0.027340520173311234, -0.1796594113111496, 0.686470627784729,
			-0.0037852434907108545, -0.3684047758579254, -0.35999080538749695,
			0.00880429893732071, 0.039274271577596664, 0.2458777129650116, 0.3412618339061737,
			0.5575128793716431, 0.24180638790130615, -0.1986401379108429, 0.14624302089214325,
			0.08336599916219711, 0.2355836182832718, 0.2218724936246872, 0.0926336795091629,
			0.017991550266742706, 0.09630828350782394, 0.0076486761681735516, 0.11952104419469833,
			0.15278448164463043, 0.46200045943260193, 0.6620010733604431, 0.3781803548336029,
			0.27121543884277344, 0.08800279349088669, 0.004267968237400055, -0.062267061322927475,
			0.9612589478492737, 1.0395829677581787, 0.19444650411605835, 0.2814353406429291,
			0.4903579652309418, 0.2859462797641754, -0.17467090487480164, 0.27917999029159546,
			0.32344964146614075, 0.036456700414419174, 0.06918198615312576, 0.030871465802192688,
			-0.08239413797855377, 0.05809834972023964, -0.003485006047412753, -0.1743265986442566,
			0.042561326175928116, 0.5628988146781921, 0.09480519592761993, 0.3908770680427551,
			0.08192360401153564, -0.08108336478471756, 0.3296654224395752, 0.5372248291969299,
			0.3227311670780182, 0.09800278395414352, -0.015381567180156708, -0.07117270678281784,
			1.0024782419204712, 0.7547364830970764, 0.25829628109931946, 0.4672698974609375,
			0.032308194786310196, -0.18951013684272766, -0.18064117431640625, -0.1049695760011673,
			0.008402250707149506, 0.025121573358774185, 0.012373287230730057,
			-0.15827511250972748, 0.18508000671863556, 0.10265879333019257, -0.08042686432600021,
			-0.30823156237602234, -0.27860963344573975, 0.3621233403682709, -0.17538955807685852,
			-0.13859450817108154, -0.02849683165550232, -0.41908979415893555,
			0.035773709416389465, 0.2213180661201477, 0.1950158178806305, 0.1002655103802681,
			-0.007100214250385761, 0.018126903101801872, 0.49741846323013306, 1.2550016641616821,
			0.1737406998872757, 0.3751234710216522, 0.07458164542913437, -0.10980180650949478,
			-0.08156081289052963, -0.012807205319404602, 0.23061330616474152, 0.12632423639297485,
			0.028990358114242554, 0.13474693894386292, 0.1595224142074585, 0.17221564054489136,
			-0.3087035119533539, -0.11646976321935654, -0.21787504851818085, 0.003574472153559327,
			-0.3382446765899658, -0.3116859793663025, 0.046538159251213074, -0.14225631952285767,
			0.06377126276493073, 0.05587226524949074, 0.16236506402492523, 0.23240308463573456,
			-0.10010890662670135, 0.23724709451198578, -0.02228335104882717, 0.4774220287799835,
			0.007148198317736387, 0.06339555978775024, 0.4194727838039398, 0.18082819879055023,
			-0.09225015342235565, 0.2167314738035202, 0.33510342240333557, 0.46271955966949463,
			0.24056319892406464, 0.5164742469787598, 0.011101665906608105, 0.026981499046087265,
			-0.33598557114601135, 0.13143116235733032, -0.25388264656066895, -0.05512235313653946,
			-0.280301034450531, 0.01819504238665104, -0.1306067407131195, 0.20758359134197235,
			-0.03181350603699684, 0.1951291412115097, 0.22032946348190308, 0.1539614349603653,
			0.007596202194690704, 0.1550137847661972, 0.5827407240867615, 0.6652366518974304,
			-0.2560650706291199, 0.18680423498153687, 0.3859453797340393, 0.16602036356925964,
			0.025585999712347984, 0.026341529563069344, 0.28699207305908203, 0.2625657021999359,
			0.09410902857780457, 0.11791595071554184, 0.16602520644664764, -0.10505939275026321,
			-0.09907697886228561, 0.09041141718626022, 0.026765407994389534, 0.2379261553287506,
			-0.20140330493450165, -0.08164874464273453, -0.3095817565917969, -0.2346336841583252,
			-0.20285291969776154, 0.009792164899408817, 0.10768009722232819,
			-0.024703534319996834, -0.008403582498431206, 0.0689440593123436, 0.8700057864189148,
			0.08420175313949585, -0.8266661167144775, 0.11630559712648392, 0.044464875012636185,
			-0.02342541143298149, 0.11690539121627808, -0.12385819107294083, 0.2320900410413742,
			-0.053768690675497055, 0.0074378992430865765, 0.028160039335489273,
			-0.24258938431739807, -0.16792671382427216, 0.07553146034479141, 0.22244298458099365,
			0.05797785520553589, 0.2799622714519501, -0.04069406911730766, 0.29728883504867554,
			-0.22819645702838898, 0.21370993554592133, 0.03761306777596474, 0.5294724702835083,
			0.41313228011131287, 0.01872263103723526, 0.020282521843910217, 0.04106916859745979,
			0.7581049203872681, -0.8710584044456482, -0.5475935339927673, 0.4531463086605072,
			-0.3878011703491211, -0.07782288640737534, 0.07294068485498428, 0.016720730811357498,
			-0.11699455231428146, 0.0639464408159256, -0.26033246517181396, 0.21391549706459045,
			0.22862407565116882, -0.045425254851579666, 0.3028184175491333, 0.32053425908088684,
			0.04451338201761246, 0.5487847328186035, 0.03134693577885628, -0.06169898435473442,
			-0.08619214594364166, 0.3507395088672638, 0.3836117684841156, 0.5637099742889404,
			-0.12761472165584564, 0.06197654455900192, -0.014402322471141815,
			-0.0047584641724824905, 0.715803325176239, -0.8287602066993713, -0.42266687750816345,
			0.33446332812309265, 0.2290106862783432, 0.2480909824371338, -0.06279024481773376,
			0.15415045619010925, -0.2507491409778595, 0.16725657880306244, 0.040726806968450546,
			0.1557593196630478, -0.06607966125011444, 0.06402671337127686, -0.12305961549282074,
			-0.2348460853099823, 0.33289894461631775, 0.14010509848594666, -0.09883906692266464,
			0.05270856246352196, 0.3037385046482086, 0.845242977142334, 0.24640074372291565,
			0.5263959765434265, 0.05936663970351219, -0.005352199077606201, -0.020946746692061424,
			0.02191505953669548, 0.3087896406650543, 0.4740360379219055, 1.3437139987945557,
			0.021939853206276894, -0.11466845870018005, -0.016951341181993484,
			0.18876361846923828, 0.1804487705230713, -0.4157058596611023, -0.38279879093170166,
			-0.3450985252857208, -0.1345496028661728, 0.0030531033407896757, -0.2285609245300293,
			-0.34497833251953125, 0.44395601749420166, -0.11690900474786758, -0.3138512372970581,
			-0.1770348846912384, -0.04943222180008888, 0.43353429436683655, 0.38622719049453735,
			0.5745208263397217, 0.24830776453018188, 0.15175750851631165, 0.029200982302427292,
			-0.008384466171264648, -0.01758289895951748, -0.17404551804065704,
			0.04894739016890526, -0.25473281741142273, -0.30329689383506775, 0.18900522589683533,
			0.044270168989896774, 0.13753750920295715, 0.23228000104427338, 0.6580389142036438,
			0.4345441162586212, 0.2891080379486084, 0.029119327664375305, 0.005860033445060253,
			0.2901679575443268, 0.6572728753089905, 0.03797300159931183, -0.3511216640472412,
			-0.4723557233810425, -0.10037396103143692, -0.5361796617507935, -0.343327134847641,
			0.01307489350438118, -0.06196279078722, 0.01085797231644392, 0.11890347301959991,
			0.004331815987825394, 0.012550272047519684, -0.013532601296901703,
			-0.02972470223903656, -0.10147278755903244, -1.2154223918914795, -1.3272924423217773,
			-1.232881784439087, -0.16048914194107056, -0.15220335125923157, 0.16633199155330658,
			0.36379578709602356, 0.19529561698436737, 0.07719496637582779, -0.15705017745494843,
			0.19675831496715546, 1.1950491666793823, 0.4043958783149719, 0.5092830657958984,
			0.02477388270199299, -0.25281089544296265, -0.754895031452179, -0.5012931227684021,
			-0.4060957729816437, -0.10195448249578476, -0.020163260400295258, 0.03435251861810684,
			-0.01594417169690132, -0.02145880088210106, 0.013127196580171585,
			-0.03205849230289459, -0.007388630881905556, 0.01610570028424263,
			-0.002836819738149643, 0.1104564294219017, 0.00901738554239273, -0.014828229323029518,
			0.05030399560928345, 0.3825351297855377, 0.5460501909255981, 0.2025756537914276,
			0.16936719417572021, 0.3693988025188446, 0.2094433754682541, 0.22143100202083588,
			0.22849300503730774, 0.2307533472776413, 0.17514778673648834, 0.06066131591796875,
			0.06206467002630234, -0.30629366636276245, -0.48035308718681335,
			-0.0009918436408042908, -0.030776817351579666, -0.016058070585131645,
			-0.005151920020580292, 0.012471619993448257
		],
		[
			0.028246063739061356, -0.009000254794955254, 0.005595598369836807,
			-0.02657940611243248, 0.010666638612747192, -0.0012912042438983917,
			-0.02432757243514061, 0.002626422792673111, -0.001411188393831253,
			0.03330736979842186, 0.028019089251756668, 0.027392465621232986, 0.09516831487417221,
			0.05052250996232033, -0.05557559058070183, -0.0425097793340683, -0.016421867534518242,
			-0.025013118982315063, 0.0080658458173275, -0.031282227486371994,
			-0.009045762941241264, -0.004332602024078369, 0.0017239563167095184,
			-0.009937243536114693, 0.017017986625432968, -0.02381027303636074,
			-0.024033628404140472, -0.03458681330084801, 0.020267874002456665,
			-0.0061200689524412155, -0.003572694957256317, -0.018106427043676376,
			0.06628596037626266, 0.12426036596298218, 0.14980483055114746, 0.26935046911239624,
			0.08583033084869385, 0.0831693559885025, 0.2044997662305832, 0.260580837726593,
			0.27918776869773865, 0.22379864752292633, 0.32174059748649597, 0.11521004885435104,
			-0.10842190682888031, 0.06416664272546768, 0.19033487141132355, 0.16509221494197845,
			0.1904115229845047, 0.1357092261314392, 0.017213884741067886, -0.30509835481643677,
			-0.009228533133864403, 0.025693487375974655, -0.015049722045660019,
			-0.00451350212097168, -0.01722937449812889, 0.02525816485285759, 0.099961057305336,
			-0.3356073200702667, 0.18764017522335052, 0.27620360255241394, 0.34105435013771057,
			0.2772510349750519, 0.058499496430158615, 0.13821543753147125, 0.1535077542066574,
			-0.16482676565647125, -0.4648101031780243, 0.9435290694236755, 0.40963760018348694,
			-0.11939264833927155, -0.5711331963539124, -0.13105705380439758, -0.24073097109794617,
			0.6873108148574829, 0.08572352677583694, -0.24944348633289337, 0.061542265117168427,
			-0.28604018688201904, -0.11317788064479828, -0.1579878330230713, 0.013661429286003113,
			-0.026966243982315063, 0.0071787163615226746, 0.012196473777294159,
			0.062445949763059616, -0.8398258686065674, -0.6303894519805908, -0.17557066679000854,
			-0.21586765348911285, -0.17842425405979156, -0.4731384515762329, -0.3148077130317688,
			-0.6503214836120605, -0.639151394367218, -0.39791589975357056, 0.5002142786979675,
			0.06998665630817413, -0.4473254978656769, -0.2765897512435913, 0.3210889399051666,
			-0.027073180302977562, -0.45605289936065674, -0.7629609704017639,
			-0.35343310236930847, 0.051553498953580856, 0.010682204738259315, 0.09381020069122314,
			-0.23157262802124023, -0.007553387433290482, 0.0295085646212101, 0.014696761965751648,
			-0.00227551581338048, -0.2955723702907562, -0.5039642453193665, -0.6587312817573547,
			-0.9211316704750061, -0.26682335138320923, -0.36882835626602173, -0.03421320766210556,
			0.14360947906970978, -0.15784280002117157, -0.25125324726104736, 0.1806279867887497,
			0.09764998406171799, -0.00012609566329047084, 0.2492988407611847, 0.12036758661270142,
			0.16160941123962402, 0.18407849967479706, 0.18901191651821136, 0.19129464030265808,
			0.006326636299490929, 0.5738962292671204, 0.37690290808677673, -0.28793567419052124,
			-0.3003292381763458, -0.344292014837265, 0.20521892607212067, 0.01633840799331665,
			0.013839267194271088, -0.4907365143299103, -0.5890199542045593, -0.10340382903814316,
			0.532606840133667, 0.4864642024040222, -0.011365188285708427, 0.44383305311203003,
			0.6898573637008667, 0.47521036863327026, 0.06723377853631973, -0.24455472826957703,
			-0.13269825279712677, -0.0979604572057724, 0.0064597357995808125, 0.12913116812705994,
			0.41004034876823425, 0.17473900318145752, 0.2467515766620636, -0.1859268844127655,
			0.07518257200717926, 0.06392458081245422, 0.043752044439315796, 0.20507065951824188,
			0.04898936673998833, -0.4325743317604065, 0.22477027773857117, 0.008994892239570618,
			-0.10712262243032455, 0.7114850282669067, -0.35421574115753174, 0.046710699796676636,
			0.07836751639842987, 0.16243864595890045, 0.38522830605506897, 0.44699373841285706,
			0.05731790140271187, 0.09982924908399582, 0.16327115893363953, 0.040512826293706894,
			-0.07911302894353867, -0.09781350195407867, -0.06191627308726311,
			0.0011016250355169177, -0.1094280406832695, -0.29051223397254944,
			-0.02727075293660164, 0.449481725692749, 0.22431233525276184, -0.2706086039543152,
			-0.6215801239013672, -0.5452856421470642, 0.19552308320999146, -0.08546130359172821,
			0.04879823699593544, 0.020226450636982918, -0.13234242796897888, 0.7063801884651184,
			-0.5635089874267578, -0.09297745674848557, 0.19819384813308716, 0.04901864007115364,
			0.18871384859085083, 0.16220495104789734, 0.4596119821071625, 0.46644362807273865,
			0.14066585898399353, -0.052113473415374756, -0.09041804075241089,
			-0.22682158648967743, 0.22983002662658691, 0.21636006236076355, 0.13605831563472748,
			-0.1741747111082077, 0.33559083938598633, 0.08959519863128662, -0.027394216507673264,
			-0.0908416286110878, 0.16254250705242157, 0.3525697588920593, 0.6247447729110718,
			0.4922364056110382, 0.008416860364377499, 1.2783869504928589, -0.11128943413496017,
			1.185072660446167, 0.2450733482837677, 0.3089928925037384, 0.03619658574461937,
			-0.026936179026961327, 0.145737424492836, 0.645504891872406, 0.7545490264892578,
			-0.12072671204805374, -0.1383352130651474, -0.05214614421129227, -0.5730708241462708,
			-0.16929326951503754, 0.2568594217300415, 0.39052626490592957, 0.13602808117866516,
			0.17954979836940765, 0.38883697986602783, 0.11174996197223663, 0.1589713990688324,
			0.06230678781867027, -0.1516212671995163, 0.5433732271194458, 0.45384764671325684,
			-0.1447315812110901, -0.35564303398132324, 0.040024448186159134, 0.8763430118560791,
			0.12191950529813766, 0.507838785648346, 0.39583054184913635, 0.27354615926742554,
			0.2584027349948883, 0.6281658411026001, 0.3799161911010742, 0.7486093044281006,
			0.18549993634223938, 0.09611568599939346, -0.1131381168961525, -0.31853294372558594,
			-0.6789629459381104, -0.06674817949533463, 0.3233758211135864, 0.41833850741386414,
			0.3925347626209259, 0.5676805973052979, 0.3451308012008667, 0.2141491174697876,
			0.010379085317254066, -0.2020517736673355, 0.49611636996269226, -0.38727959990501404,
			-0.8641206622123718, -0.041942957788705826, 0.035791147500276566, 0.7290131449699402,
			0.6938515901565552, 0.1293325126171112, 0.3101727366447449, 0.5788097381591797,
			0.3138855993747711, 0.35840487480163574, 0.2910417318344116, 0.6124550700187683,
			0.27326440811157227, 0.17499728500843048, -0.12367399781942368, -0.5287884473800659,
			-1.016666054725647, -0.3340440094470978, 0.5734519958496094, 0.7673549652099609,
			0.550706684589386, 0.4687379002571106, 0.10132463276386261, 0.27767327427864075,
			0.3895491361618042, -0.3182402551174164, -0.11316084116697311, 0.11740687489509583,
			-0.5583895444869995, -0.18196748197078705, 0.20578911900520325, 0.9048840403556824,
			0.3058331608772278, -0.10763143002986908, -0.2336028814315796, 0.516761302947998,
			0.698586106300354, 0.008905529044568539, 0.24956107139587402, 0.6945698261260986,
			0.4403902590274811, 0.026392599567770958, -0.2577598989009857, -0.38426339626312256,
			-0.6959007978439331, -0.27630186080932617, 0.42160120606422424, 0.16860370337963104,
			0.26491108536720276, 0.24225932359695435, 0.3655523955821991, 0.19179348647594452,
			0.0023299017921090126, -0.2094852477312088, -0.12993097305297852,
			-0.14520791172981262, -0.6717087626457214, 0.04194602370262146, 0.21747899055480957,
			0.5451711416244507, 0.21792487800121307, -0.5645878911018372, 0.1726357638835907,
			0.4549563527107239, 0.43456125259399414, 0.04538218304514885, 0.47931239008903503,
			0.48076674342155457, 0.12516210973262787, -0.41569507122039795, -0.511967658996582,
			-0.7885274887084961, -0.6843492984771729, -0.40685203671455383, -0.006747635547071695,
			-0.4186512529850006, -0.2641528248786926, -0.15886840224266052, -0.1550588756799698,
			0.07560423761606216, 0.02662033773958683, 0.05552039295434952, 0.20072157680988312,
			-0.7797075510025024, -0.2637162208557129, -0.07955276966094971, 0.019698018208146095,
			0.3360934555530548, 0.2733129858970642, -0.5947166085243225, 0.7263841032981873,
			0.030848301947116852, -0.055489495396614075, 0.20026201009750366, 0.23872514069080353,
			0.3039521872997284, -0.05094526708126068, -0.97055584192276, -1.178807020187378,
			-0.8639930486679077, -0.9548342823982239, -0.2655735909938812, -0.2637287676334381,
			-0.5634689927101135, -0.6496970057487488, -0.2116927206516266, -0.42011189460754395,
			-0.08358460664749146, -0.1951327621936798, -0.07065963000059128, 0.17049837112426758,
			-0.3639910817146301, -0.3021917939186096, -0.1990956962108612, 0.029980726540088654,
			0.19354261457920074, 0.46559566259384155, -0.2539244592189789, 0.4578022062778473,
			0.37192273139953613, -0.14885859191417694, 0.26579058170318604, -0.024814940989017487,
			0.10709816217422485, -0.6480891704559326, -0.717580258846283, -0.6440240740776062,
			-0.7541773319244385, -0.3524777591228485, 0.010180116631090641, 0.08857422322034836,
			-0.5034570097923279, -0.6509931683540344, -0.09793408960103989, -0.09461967647075653,
			-0.2581588923931122, 0.11547917872667313, 0.16970562934875488, 0.33558371663093567,
			0.04259025305509567, -0.25526440143585205, -0.23029343783855438, 0.12583684921264648,
			-0.3224671185016632, 0.6109572649002075, -0.4685056805610657, -0.3053049147129059,
			-0.3092605769634247, -0.085813008248806, 0.42519620060920715, 0.23236851394176483,
			0.15012654662132263, -0.5428684949874878, -0.6350449323654175, -0.40140804648399353,
			-0.2929876744747162, -0.2698030471801758, -0.01750347390770912, -0.11505451798439026,
			-0.4249975383281708, -0.23270907998085022, -0.11168811470270157, 0.10108740627765656,
			0.29182562232017517, 0.3488403260707855, -0.11274193227291107, -0.6146960854530334,
			0.018048737198114395, 0.1329503208398819, -0.26021209359169006, 0.16718564927577972,
			-0.14155177772045135, -0.023338735103607178, -0.938244104385376, -0.7792115807533264,
			-0.14505533874034882, 0.3126753866672516, 0.2648915946483612, 0.40673768520355225,
			0.2494012415409088, -0.564119815826416, -0.5141652226448059, -0.04322516545653343,
			-0.059292733669281006, -0.1349266767501831, 0.18742145597934723, -0.34069404006004333,
			-0.3507988452911377, -0.08841267973184586, 0.13902755081653595, 0.45791664719581604,
			0.28988125920295715, 0.2415991723537445, 0.019832875579595566, -0.17493942379951477,
			0.30864953994750977, 0.17258304357528687, -0.28556084632873535, -0.009249918162822723,
			-0.2737968862056732, 0.21466858685016632, -0.34440791606903076, -0.43263471126556396,
			0.0824982300400734, 0.24786768853664398, 0.20350047945976257, 0.30012381076812744,
			0.09608589857816696, 0.2272854596376419, 0.008218931965529919, 0.13728636503219604,
			-0.07993046194314957, -0.05886036530137062, 0.22570577263832092, 0.018919687718153,
			0.0672575980424881, 0.3311123847961426, 0.03507506474852562, 0.24356380105018616,
			0.08977748453617096, 0.4227227568626404, 0.02295602858066559, 0.03114962950348854,
			-0.189963236451149, 0.37048283219337463, -0.5282877683639526, -0.1283763200044632,
			-0.17152705788612366, 0.23928874731063843, 0.15993592143058777, -0.3585658669471741,
			-0.2691248655319214, 0.10180125385522842, 0.267182320356369, 0.26524755358695984,
			0.15557624399662018, -0.018235832452774048, 0.3098827600479126, -0.037722907960414886,
			-0.10987182706594467, -0.18038474023342133, -0.28895002603530884, 0.17007377743721008,
			0.5197314620018005, 0.5798060894012451, 0.003588329069316387, 0.35078945755958557,
			0.42804089188575745, 0.2223132997751236, 0.023020002990961075, 0.014394018799066544,
			-0.26345276832580566, -0.7616353631019592, -0.40030381083488464, 0.04509999230504036,
			0.03779226541519165, 0.5078543424606323, 0.5645709037780762, -0.14576242864131927,
			-0.039682865142822266, 0.5125533938407898, 0.3965070843696594, 0.3948163688182831,
			0.6879182457923889, 0.4318029284477234, 0.48268765211105347, 0.05006343498826027,
			-0.24252910912036896, -0.12387339025735855, -0.10268987715244293, 0.13907434046268463,
