{
	"epoch": 36,
	"learning_rate": 0.01,
	"batch_size": 850,
	"to_shuffle": true,
	"loss": 0.0005480420784200154,
	"accuracy": 1.0,
	"fc_weights": [
		[
			-0.030764959752559662, -0.019945375621318817, -0.017410773783922195,
			-0.01573004573583603, -0.0002679117023944855, -0.018462739884853363,
			-0.007057011127471924, 0.018275756388902664, 0.0028668269515037537,
			-0.011844856664538383, -0.006804376840591431, -0.009143583476543427,
			0.07568040490150452, 0.09806253761053085, 0.04246760159730911, -0.00962477270513773,
			-0.0022291429340839386, 0.0025688782334327698, -0.002050977200269699,
			0.014653541147708893, -0.02539239265024662, 0.00935676321387291, 0.033928897231817245,
			0.02016126736998558, 0.009891021996736526, -0.006521629169583321,
			0.018070518970489502, -0.02664205990731716, -0.0033182017505168915,
			0.016910012811422348, -0.03374919295310974, -0.005439251661300659,
			0.08122015744447708, 0.18026010692119598, 0.22175198793411255, 0.1982000321149826,
			0.23113508522510529, 0.2310587763786316, 0.20690305531024933, 0.20382830500602722,
			0.33765068650245667, 0.8906295299530029, 0.5392882227897644, 0.00665966747328639,
			0.19429181516170502, 0.10179568082094193, 0.0208818968385458, 0.2146739661693573,
			0.22063718736171722, 0.05211732164025307, 0.07014176994562149, 0.011987872421741486,
			-0.03159784898161888, -0.008718755096197128, 0.005425501614809036,
			-0.019454527646303177, 0.013279501348733902, 0.03006793186068535, 0.09611022472381592,
			0.050814613699913025, 0.0616309717297554, 0.0737762376666069, 0.19000934064388275,
			0.22871413826942444, 0.13013896346092224, -0.41721466183662415, 0.30988621711730957,
			0.3861790597438812, -0.009031910449266434, -0.21468932926654816, 0.4024403989315033,
			-0.01879086345434189, -0.2688477337360382, 0.7462954521179199, 1.0861769914627075,
			0.24539777636528015, 0.6518827676773071, 0.6592738032341003, 0.31231701374053955,
			0.32820573449134827, 0.2054646909236908, 0.2562689185142517, 0.001261197030544281,
			0.002353183925151825, 0.016444005072116852, -0.02700064517557621, 0.37129682302474976,
			0.5750121474266052, 1.2567377090454102, 0.2307622879743576, 0.7329299449920654,
			0.4722732603549957, -0.540352463722229, -0.49352261424064636, -0.0633997991681099,
			-1.1500681638717651, -0.8712889552116394, -0.49130502343177795, 0.5161104202270508,
			0.8619319200515747, 0.34343674778938293, 0.044268570840358734, 0.7732076644897461,
			0.6502017378807068, 0.5707206726074219, 0.245568186044693, -0.2834753096103668,
			0.12678952515125275, 0.8268150687217712, -0.30645671486854553, 0.09558077156543732,
			0.014161292463541031, 0.015560753643512726, -0.0008429477456957102,
			0.22443976998329163, 0.916292667388916, -0.05808023363351822, 0.19344808161258698,
			1.438894510269165, 0.7387896180152893, -0.4790484607219696, -0.38962510228157043,
			0.06692317128181458, 0.22460371255874634, -0.16086578369140625, -0.10215847939252853,
			0.046222757548093796, 0.10021413117647171, -0.2561553418636322, -0.36665356159210205,
			0.30429399013519287, 0.26918140053749084, -0.21564868092536926, -0.17477335035800934,
			-0.20494884252548218, 0.12947413325309753, -0.03864089772105217, 0.2979014217853546,
			0.7619563937187195, 0.0917850211262703, 0.031870339065790176, -0.010533289983868599,
			0.11978504806756973, 0.6837661862373352, -0.008490181528031826, 0.34973594546318054,
			0.05135529115796089, 0.02185383439064026, -0.0999394878745079, 0.058026235550642014,
			0.5703639388084412, 0.8821499943733215, 0.25206172466278076, 0.3567964732646942,
			-0.11373569816350937, 0.32048314809799194, 0.2975004017353058, 0.43791183829307556,
			0.5116692781448364, 0.08879059553146362, 0.5691667199134827, 0.05958982929587364,
			0.14084988832473755, 0.6149764657020569, -0.05771438032388687, -0.388278603553772,
			0.4050980508327484, 0.1306539624929428, 0.003635171800851822, 0.2263694703578949,
			-0.009036686271429062, 0.1837100237607956, 0.5829938650131226, 0.0967092514038086,
			0.10883265733718872, 0.38774988055229187, 0.3217441737651825, 0.00018251351139042526,
			0.1260794848203659, 0.3641589879989624, 0.13691271841526031, 0.12094318866729736,
			0.2747490108013153, 0.3369663953781128, 0.4856936037540436, 0.30291566252708435,
			0.5509503483772278, 0.43331727385520935, 0.5570009350776672, -0.003057940397411585,
			-0.3296932280063629, -0.5582601428031921, -0.46727973222732544, 0.10695387423038483,
			0.348165363073349, 0.033817145973443985, 0.00969669595360756, 0.226640522480011,
			-0.11693215370178223, 0.203346848487854, 0.26302483677864075, 0.33654460310935974,
			0.4431252181529999, 0.4357897937297821, 0.416513055562973, 0.0705997571349144,
			0.16929404437541962, -0.20175626873970032, -0.15464147925376892, -0.09777475893497467,
			0.5634661912918091, -0.08835294842720032, 0.5397767424583435, 0.15118293464183807,
			0.43587547540664673, 0.3808373212814331, -0.34397655725479126, -0.6463669538497925,
			-0.7435518503189087, -1.0883029699325562, -1.0215940475463867, 0.31848251819610596,
			0.013920463621616364, -0.012620106339454651, 0.006494302302598953,
			-0.10487135499715805, -0.9171193838119507, -0.5071460008621216, -0.25360918045043945,
			0.23942957818508148, 0.31927254796028137, -0.04543716460466385, 0.44523003697395325,
			-0.17336969077587128, -0.23188522458076477, -0.05392812192440033, -0.1016654446721077,
			-0.13632607460021973, 0.14634285867214203, -0.501015841960907, -0.7380038499832153,
			-0.8907642960548401, -0.6043521761894226, -0.46753013134002686, -1.1690683364868164,
			-0.6465100049972534, -0.5856770277023315, -0.877835214138031, -0.6220890879631042,
			0.050789300352334976, 0.11386476457118988, -0.12179283797740936,
			-0.004225157201290131, -0.0803392231464386, -0.43758758902549744, -0.9059076905250549,
			0.7560915946960449, 0.10211068391799927, 0.2148485630750656, 0.4300065338611603,
			0.15294212102890015, -0.3245277404785156, -0.6954971551895142, -0.4815056025981903,
			-0.4443769156932831, -0.861176609992981, -0.7111999988555908, -1.129609227180481,
			-1.2969939708709717, -1.6491957902908325, -1.1917939186096191, -1.2239474058151245,
			-1.1438584327697754, -0.6772997379302979, -0.6674593687057495, -0.5596784949302673,
			-0.29401105642318726, 0.006886154413223267, 0.037750840187072754,
			0.002970240544527769, 0.023764189332723618, -0.15186326205730438, -0.6877011060714722,
			0.3224460780620575, 0.29660800099372864, -0.19293931126594543, 0.2113301008939743,
			-0.25479233264923096, -0.32718247175216675, -0.6878402233123779, -1.0293943881988525,
			-0.7607109546661377, -0.6284699440002441, -0.9786953926086426, -0.4709794223308563,
			-0.5512998104095459, -0.1908513307571411, -0.37441083788871765, -0.4931735098361969,
			-0.4935426115989685, -0.88429856300354, -0.6767271161079407, -1.104588508605957,
			-0.6830534338951111, -1.0395466089248657, -0.5577210783958435, -0.22206643223762512,
			0.0757269635796547, -0.02681218832731247, -0.12047635763883591, -0.6969733834266663,
			0.7846986651420593, 0.6751479506492615, -0.5546577572822571, -0.2944890558719635,
			-0.5692072510719299, -1.0372264385223389, -0.7210350036621094, -0.4326552748680115,
			-0.9003012776374817, -0.3443830609321594, -0.1324993520975113, 0.3281290829181671,
			0.6687341332435608, 0.6120831370353699, 0.540838897228241, 0.3231012225151062,
			0.1849302351474762, -0.6145275235176086, -0.6744468212127686, -0.35315221548080444,
			-0.4640286862850189, 0.10022801905870438, -1.0142048597335815, -1.2702258825302124,
			-0.24677859246730804, 0.029195692390203476, -0.20420488715171814, -0.7603555917739868,
			0.9976397156715393, 0.09875371307134628, -0.49826961755752563, -0.658761739730835,
			-0.5167492628097534, -0.030894309282302856, -0.3999759256839752, -0.0911313146352768,
			0.027679258957505226, 0.35638323426246643, 0.20691032707691193, 0.3490011394023895,
			0.06052660569548607, 0.3813527226448059, 0.27670007944107056, 0.5835713148117065,
			0.38439175486564636, 0.02930772304534912, 0.19554899632930756, 0.0959310457110405,
			0.03449627012014389, 0.27047133445739746, -1.0207988023757935, -0.6397880911827087,
			-0.18138545751571655, 0.06627342104911804, -0.36411231756210327, -0.3488234877586365,
			1.5035055875778198, 0.3671897351741791, -0.3869248628616333, -0.4786377251148224,
			0.11997959762811661, -0.04944593086838722, -0.12813667953014374, 0.0806121751666069,
			0.32307708263397217, -0.012969189323484898, 0.24124644696712494, 0.31895896792411804,
			-0.15547999739646912, 0.11614091694355011, -0.06374523043632507, 0.1764417290687561,
			-0.019405515864491463, 0.17936483025550842, 0.1980116367340088, 0.740818440914154,
			0.6079363822937012, 1.1972230672836304, -0.3811814785003662, -0.4735011160373688,
			-0.13473309576511383, 0.2674211263656616, 0.03809342160820961, -0.23885133862495422,
			2.1382482051849365, 0.27614739537239075, -0.9706922173500061, 0.2641676366329193,
			0.4742445647716522, 0.5184302926063538, 0.2087256759405136, 0.44673120975494385,
			0.24546895921230316, 0.14683286845684052, 0.12379276752471924, 0.2576551139354706,
			-0.35964229702949524, -0.18484720587730408, -0.16257953643798828, 0.27496543526649475,
			0.01117948442697525, 0.26623693108558655, -0.05216092988848686, 0.25638577342033386,
			0.815069854259491, 0.22699350118637085, 0.09327037632465363, 0.6791850328445435,
			-0.03900354355573654, 0.20393986999988556, 0.12441029399633408, -0.11087162047624588,
			1.2953087091445923, -1.1740357875823975, 0.026309173554182053, 0.4714219570159912,
			0.04576598480343819, -0.1423710137605667, 0.2996305227279663, 0.3756185472011566,
			0.1622471809387207, 0.20061059296131134, -0.03671080991625786, -0.274483859539032,
			-0.14926519989967346, 0.31550225615501404, 0.1814362108707428, 0.21051613986492157,
			0.2101026326417923, 0.573555588722229, -0.18918250501155853, -0.21754367649555206,
			0.05490848794579506, 0.3412436246871948, -0.10237986594438553, 0.9099528193473816,
			0.2664290964603424, 0.028807584196329117, 0.03804546967148781, -0.45312976837158203,
			0.3669402599334717, -0.38897189497947693, 0.01900022104382515, 0.20067107677459717,
			-0.2633005678653717, -0.7207853198051453, -0.5721613764762878, -0.3017147481441498,
			-0.445269376039505, -0.15032871067523956, -0.08725147694349289, 0.3750702142715454,
			0.16640949249267578, 0.4894248843193054, 0.4698340892791748, 0.3011935353279114,
			0.2697483003139496, 0.38735976815223694, 0.3931353986263275, 0.5408779978752136,
			0.685706615447998, 1.1648473739624023, 1.0191664695739746, 1.737339735031128,
			0.2789570391178131, 0.02416367456316948, 0.06533490866422653, -0.44207167625427246,
			0.6636587977409363, 0.012863274663686752, 0.2851262092590332, 0.13455791771411896,
			-0.2982933819293976, -0.34475547075271606, -0.9231253862380981, -0.8254154324531555,
			-0.972022294998169, -1.3587791919708252, -0.627556562423706, -0.03947536647319794,
			0.12042175233364105, -0.014638127759099007, 0.16753555834293365, 0.3836248815059662,
			0.20034493505954742, 0.17861145734786987, 0.45693832635879517, 0.09466084837913513,
			-0.23446883261203766, 0.2578815817832947, -0.513773500919342, -0.4835720360279083,
			-0.2540244460105896, 0.9443378448486328, -0.07660392671823502, -0.2515537738800049,
			0.5742897987365723, 0.5778927803039551, 0.8464269638061523, 0.08673166483640671,
			-0.015492811799049377, 0.10449723899364471, -0.17331719398498535,
			-0.031894978135824203, -0.1922348141670227, -0.669224739074707, -0.07881955057382584,
			0.4546302855014801, 0.13458304107189178, 0.4685100317001343, 0.21249844133853912,
			-0.017643548548221588, 0.22852349281311035, 0.027126561850309372, 0.39279651641845703,
			-0.242315411567688, -0.5695545077323914, 0.5027320384979248, 0.06692468374967575,
			-0.6396067142486572, 0.5808809995651245, -0.08194879442453384, 0.6539475917816162,
			1.3571979999542236, 0.04010479897260666, 0.14856204390525818, 0.49467676877975464,
			0.07129531353712082, -0.17769436538219452, -0.37086570262908936, -0.3623311221599579,
			-0.16940683126449585, 0.7475645542144775, 0.6449631452560425, 0.6947487592697144,
			0.4579278826713562, 0.17846667766571045, 0.26799672842025757, 0.027621131390333176,
			-0.10292142629623413, -0.12815715372562408, 0.20232823491096497, 0.39340782165527344,
			-0.10268358141183853, -0.4623178541660309, 0.48877981305122375, -0.476196825504303,
			0.14084826409816742, 0.5878003239631653, 0.01370733231306076, -0.05204962193965912,
			0.9746048450469971, 0.5899908542633057, 0.10079015791416168, 0.33823803067207336,
			0.03330932930111885, -0.19407647848129272, -0.1890914887189865, -0.2480456829071045,
			-0.14730826020240784, 0.38030508160591125, 0.39764317870140076, 0.2968134880065918,
			0.3640407919883728, 0.4468950629234314, 0.03483545035123825, -0.05156366899609566,
			-0.28209030628204346, -0.30179494619369507, -0.06184221804141998, 0.3702179491519928,
			0.196694478392601, 0.25431931018829346, 0.3551243543624878, -0.3082507848739624,
			0.13927124440670013, -0.08267095685005188, -0.0320989228785038, 0.005115964449942112,
			0.15856002271175385, 0.7098492980003357, -0.23703253269195557, 0.10078691691160202,
			-0.11769749969244003, 0.20164941251277924, -0.0487787164747715, -0.31602054834365845,
			0.39082619547843933, 0.4816780686378479, 0.48563769459724426, 0.17608782649040222,
			0.1367053985595703, -0.10130443423986435, 0.103976771235466, 0.1274099051952362,
			-0.15737833082675934, -0.1802307367324829, 0.27698731422424316, 0.08560752868652344,
			-0.1581781804561615, 0.6640902161598206, 0.12802191078662872, -0.1921786516904831,
			0.22786174714565277, 0.027184421196579933, -0.006749878637492657,
			0.051180195063352585, 0.20503874123096466, 0.607586145401001, 0.17914286255836487,
			-0.21193455159664154, -0.4149511158466339, 0.059109702706336975, 0.1987157166004181,
			0.0025028837844729424, 0.0717780590057373, 0.5121156573295593, 0.14929379522800446,
			0.12450224906206131, 0.23454399406909943, 0.13880302011966705, 0.22182655334472656,
			0.06487452238798141, 0.13563741743564606, -0.09715370833873749, -0.3493803143501282,
			-0.6240365505218506, -0.08499295264482498, 0.316179096698761, -0.49770069122314453,
			-0.5455887913703918, 0.07173017412424088, -0.021463586017489433, 0.02083447575569153,
			0.0002102591097354889, 0.18571998178958893, 0.9760845303535461, 1.193852424621582,
			0.6479493975639343, 0.11389900743961334, 0.3494679629802704, 0.4954887926578522,
			0.5963064432144165, 0.7727044820785522, 0.4302971661090851, -0.0740235447883606,
			0.031497348099946976, 0.17126742005348206, 0.2201198935508728, -0.03005305677652359,
			-0.1588112860918045, 0.1272171586751938, -0.12300503253936768, 0.3817962408065796,
			-0.31838321685791016, -0.2978801429271698, -0.46450209617614746, 0.7518887519836426,
			-0.423890620470047, 0.10271581262350082, 0.01653251051902771, 0.030668120831251144,
			0.0018818750977516174, -0.030395496636629105, 0.7360295653343201, 0.14773964881896973,
			0.23287224769592285, 0.5564512610435486, 1.046716570854187, 0.8396233916282654,
			0.3561092019081116, 0.08923264592885971, -0.16040703654289246, -0.3025963008403778,
			-0.0618428997695446, 0.2804182469844818, 0.002314968267455697, -0.41987794637680054,
			0.43687477707862854, 0.710117757320404, 0.2757185399532318, -0.47019222378730774,
			-0.3816509544849396, -0.5394777655601501, -0.4914804995059967, 0.22114767134189606,
			0.053851351141929626, -0.06625393778085709, -0.026956312358379364,
			0.02030804008245468, 0.01710367202758789, 0.13147547841072083, 0.6872133016586304,
			0.21115276217460632, 0.4494359791278839, 1.103265404701233, 1.166361927986145,
			0.09738770127296448, 0.7695739269256592, -0.520111620426178, -0.28662312030792236,
			0.10893017798662186, -0.6405949592590332, -0.1111455112695694, -0.08851417899131775,
			0.4022616446018219, 0.8372012376785278, 0.7597667574882507, 0.3181055188179016,
			-0.5593606233596802, -0.04574340581893921, -0.20252136886119843, -0.7864744067192078,
			0.016500677913427353, 0.0835491269826889, 0.03499576821923256, 0.03143863007426262,
			0.027431320399045944, -0.02076854184269905, 0.013788335025310516,
			0.043015915900468826, -0.3436928391456604, 0.3977566957473755, 0.4748002588748932,
			0.3967856466770172, 0.2265138477087021, -0.13599160313606262, 0.11273618787527084,
			-0.06344206631183624, -0.43484964966773987, 0.6074963808059692, 0.5306162238121033,
			1.125903844833374, -0.6276845335960388, -0.41012948751449585, -0.17799901962280273,
			-0.2201981395483017, 0.19840586185455322, 0.6957306861877441, 1.1134264469146729,
			0.986875057220459, 0.04914811626076698, -0.024763083085417747, -0.025031983852386475,
			-0.017043331637978554, -0.0332755446434021, 0.028285134583711624, 0.03288615122437477,
			0.03400345519185066, -0.030855759978294373, 0.004739945754408836,
			0.006996673531830311, -0.03811080381274223, -0.1620926558971405, -0.19918732345104218,
			-0.06334182620048523, -0.025260983034968376, -0.08581662178039551,
			-0.13548551499843597, -0.2070140391588211, -0.1663862019777298, -0.07135720551013947,
			-0.030368421226739883, -0.13154694437980652, -0.34541934728622437,
			-0.25144192576408386, -0.061367519199848175, -0.04422307386994362,
			0.014894593507051468, 0.030356448143720627, 0.010750949382781982,
			0.008644182235002518, 0.011697918176651001
		],
		[
			0.023730073124170303, 0.004507835954427719, -0.013170557096600533,
			-0.03116537071764469, -0.022915322333574295, -0.004730088636279106,
			0.030593205243349075, 0.022669345140457153, 0.00014671310782432556,
			0.0058192722499370575, 0.010232765227556229, -0.021284189075231552,
			-0.3088218867778778, -0.26365387439727783, 0.050150949507951736, 0.028325188905000687,
			-0.019452065229415894, -0.0016371943056583405, 0.026161272078752518,
			-0.027096830308437347, 0.014482427388429642, -0.003367152065038681,
			0.0262080617249012, -0.035207122564315796, 0.02410142868757248, 0.010549400001764297,
			0.0009429492056369781, -0.007384065538644791, 0.006972063332796097,
			0.026485949754714966, -0.01417703740298748, 0.025005903095006943,
			-0.02260979823768139, -0.0585150271654129, -0.045427825301885605,
			-0.02221459150314331, 0.031883057206869125, 0.023495115339756012, 0.3410053551197052,
			0.678123414516449, 0.4069015085697174, 0.8746867179870605, 0.5101125836372375,
			-0.576442539691925, 0.3292393386363983, 0.5040561556816101, -0.07595375180244446,
			-0.6009697318077087, -0.7475250959396362, -0.5387805700302124, -0.40221288800239563,
			-0.23694439232349396, 0.022638749331235886, -0.017432017251849174,
			0.023829638957977295, -0.03422556445002556, -0.013962814584374428,
			0.003006547689437866, -0.12330742925405502, 0.26248684525489807, 0.21463584899902344,
			0.028314907103776932, 0.061924342066049576, 0.26190030574798584, 0.43021103739738464,
			1.056226372718811, 0.7068968415260315, 0.3628484010696411, 1.1579294204711914,
			0.20045500993728638, 0.9341608285903931, -0.9837040305137634, -1.5887583494186401,
			-1.0122246742248535, -1.1543766260147095, -0.9192814230918884, -0.8937452435493469,
			-0.31667959690093994, -0.03634725511074066, -0.04644517973065376, 0.25768497586250305,
			0.1852044016122818, 0.018728051334619522, 0.02063189074397087, 0.030036140233278275,
			0.0072174109518527985, -0.14163804054260254, -0.07524300366640091,
			-0.9609049558639526, -0.26874274015426636, -0.602903425693512, 0.03239618241786957,
			-0.11670847982168198, 0.0850767120718956, -0.4099622964859009, 0.6103823781013489,
			0.22983121871948242, 0.2818390429019928, 0.8390888571739197, 1.037028431892395,
			0.4827965795993805, -0.08076725900173187, -0.45640283823013306, -0.6147952079772949,
			-0.6461406350135803, -0.5075292587280273, -0.1482306271791458, -0.06151802837848663,
			0.4382433295249939, -0.8175647258758545, -0.6947411298751831, 0.019653141498565674,
			0.035470034927129745, -0.0642261952161789, -0.7158288955688477, -0.3464668095111847,
			0.061400774866342545, -0.3208189606666565, 0.022686343640089035, 0.10762498527765274,
			-0.2736010253429413, -0.0722135677933693, -0.32531774044036865, -0.5198193192481995,
			-0.5147278904914856, -0.3877027630805969, 0.03017364628612995, 0.7036535739898682,
			0.8229873776435852, 0.4914799928665161, 0.5576320886611938, 0.14947278797626495,
			-0.2605540454387665, -0.28336474299430847, 0.4754512310028076, -0.08219031244516373,
			-0.10405953973531723, 0.023055627942085266, -0.40029385685920715, 0.3795515298843384,
			0.02270255982875824, -0.02997269108891487, -1.4483869075775146, -0.2179240584373474,
			0.1893025040626526, -0.7044622898101807, -0.12779296934604645, -0.1635192483663559,
			-0.4823463261127472, -0.5423004031181335, -0.18881337344646454, -0.34598129987716675,
			-0.2122173011302948, -0.10809129476547241, -0.049956899136304855, 0.2461191862821579,
			0.49864184856414795, 0.2930285632610321, 0.33075201511383057, 0.6443811655044556,
			0.12225084006786346, -0.333179235458374, -0.23211856186389923, -0.5229420065879822,
			-0.6304739713668823, 0.8488320112228394, 0.12482119351625443, 0.2033425122499466,
			0.0030011050403118134, 0.08945626765489578, -0.4507606625556946, 0.5254111289978027,
			-0.1608038991689682, 0.1526155322790146, 0.0309214536100626, -0.5540807247161865,
			-0.8676197528839111, -0.11205931007862091, -0.10696304589509964, -0.11942540109157562,
			-0.004315758589655161, -0.04789897799491882, -0.028933826833963394,
			-0.08432361483573914, 0.07559721916913986, 0.0878727063536644, 0.3098798990249634,
			0.400073379278183, 0.3238246738910675, 0.4760802090167999, 0.34267130494117737,
			-0.328642874956131, -0.72003573179245, -0.5725679993629456, -0.6788944005966187,
			-0.1283583641052246, -0.0012471928494051099, 0.17321209609508514,
			0.011719373986124992, 0.8749403357505798, 0.42282623052597046, 0.7610961198806763,
			0.5657532215118408, -0.24900959432125092, -0.1314776986837387, 0.06089929863810539,
			-0.1842990219593048, 0.20117470622062683, -0.04480616748332977, -0.031239919364452362,
			-0.37162286043167114, -0.10245104134082794, -0.44781067967414856,
			0.013376048766076565, 0.48405781388282776, 0.5011235475540161, -0.051974695175886154,
			0.16578496992588043, 0.36187630891799927, 0.40918174386024475, 0.5606611967086792,
			0.15327002108097076, -1.0254542827606201, -0.544386088848114, -0.27130722999572754,
			-0.02541816048324108, 0.42545583844184875, 0.6047762036323547, 1.215524435043335,
			0.595644474029541, 0.5240486860275269, -0.07510551810264587, 0.14263300597667694,
			-0.18884530663490295, -0.33691006898880005, -0.3786092698574066, -0.2725512981414795,
			-0.19656318426132202, -0.1039312556385994, -0.28084009885787964, -0.04714387282729149,
			-0.17900194227695465, 0.39404329657554626, 0.560510516166687, 0.19990034401416779,
			0.13791701197624207, 0.28974220156669617, -0.24914862215518951, -0.016057254746556282,
			0.09773187339305878, -0.3297789394855499, -0.263047993183136, -0.10665803402662277,
			-0.18692748248577118, 0.6726163625717163, 0.8722248673439026, 0.25812655687332153,
			0.7144160270690918, 0.27631011605262756, -0.027510810643434525, -0.31680503487586975,
			-0.20566584169864655, -0.060109011828899384, -0.26832422614097595,
			-0.27347302436828613, -0.15215778350830078, -0.3479490578174591, -0.22296977043151855,
			-0.15884631872177124, 0.06659001857042313, 0.34925973415374756, 0.5420987010002136,
			0.7621244788169861, 0.3174634575843811, -0.3800860345363617, -0.3981322944164276,
			-0.6505063772201538, -0.3541344404220581, -0.7581374645233154, -0.23380331695079803,
			-0.12917153537273407, -0.17897926270961761, 0.9299978613853455, 1.330752968788147,
			-0.8180594444274902, 0.48499420285224915, 0.3607794940471649, -0.4452802240848541,
			-0.6818732023239136, -0.18903733789920807, -0.28581830859184265, -0.03356526046991348,
			-0.5093657970428467, -0.12894661724567413, -0.277365505695343, -0.36591604351997375,
			-0.054234541952610016, 0.20613211393356323, 0.19923152029514313, 0.4329313039779663,
			0.35252782702445984, 0.2784908711910248, 0.27281275391578674, -0.2778691053390503,
			-1.1203677654266357, -0.40124160051345825, -0.6725903153419495, -0.008882926777005196,
			-0.06318703293800354, -1.06157648563385, 0.6486389636993408, 0.03906147927045822,
			-0.779035210609436, -0.03248603641986847, -0.24357116222381592, -0.5478190779685974,
			-0.0010217096423730254, 0.09706325829029083, 0.1939484179019928,
			-0.022812681272625923, -0.153457909822464, -0.23180091381072998, -0.3471737205982208,
			-0.32289013266563416, -0.14115290343761444, -0.3978789150714874, -0.06644121557474136,
			0.22759614884853363, 0.22399435937404633, 0.4417673349380493, 0.49079155921936035,
			0.04414844885468483, -0.4361264109611511, -0.28984102606773376, -0.7326456308364868,
			-0.13925786316394806, -0.022180425003170967, -0.08344149589538574,
			0.34393370151519775, -0.8123608827590942, -0.04790893942117691, -0.11033929139375687,
			-0.2055102288722992, -0.5233045816421509, 0.11962974071502686, 0.03361007571220398,
			-0.010352222248911858, -0.1799238920211792, -0.1612858772277832, -0.2797867953777313,
			-0.11063920706510544, -0.5331125259399414, -0.6572022438049316, -0.7596510052680969,
			-0.27936112880706787, 0.027285361662507057, -0.13610440492630005, 0.33210495114326477,
			0.18527264893054962, 0.4950951933860779, 0.4526396095752716, -0.6863541007041931,
			-0.7271924018859863, 0.10722290724515915, 0.015913955867290497, 0.07504650950431824,
			-0.23711319267749786, -0.5490007400512695, 0.3975549638271332, 0.05770637467503548,
			0.18878889083862305, -0.04113035649061203, 0.23989538848400116, -0.009948342107236385,
			0.005744813475757837, -0.2902558147907257, -0.4662711024284363, -0.3352449834346771,
			0.03787435218691826, -0.4513155221939087, -0.6186451315879822, -0.5796354413032532,
			-0.2961542010307312, -0.1493721753358841, -0.17750495672225952, 0.24860616028308868,
			0.2975316345691681, 0.7897791862487793, 0.5735217928886414, 0.06624910980463028,
			-0.2557244300842285, 0.37808629870414734, -0.13596168160438538, -0.11142328381538391,
			-0.7973065972328186, -0.30178412795066833, 0.37344759702682495, 0.3297954201698303,
			0.6387358903884888, 0.6859607696533203, 0.3923604190349579, -0.17356126010417938,
			-0.3896118998527527, -0.5576418042182922, -0.4190081059932709, -0.24215492606163025,
			-0.32950007915496826, -0.5345182418823242, -0.3638603985309601, -0.13500288128852844,
			-0.04697345197200775, 0.015534089878201485, 0.15556275844573975, 0.560055136680603,
			0.5770166516304016, 0.419039249420166, 0.39736515283584595, 0.9601116180419922,
			0.9276675581932068, 0.2415095418691635, -0.1278344690799713, -0.1302061825990677,
			-0.5246432423591614, 0.5708070397377014, 0.2596139907836914, 0.07985895872116089,
			0.33506670594215393, 0.6972830891609192, 0.5475675463676453, 0.01944100111722946,
			0.05822907015681267, -0.08319372683763504, 0.07333914190530777, -0.21070104837417603,
			-0.11889858543872833, -0.41342830657958984, -0.43195828795433044, -0.2590654790401459,
			0.056774016469717026, 0.2749137580394745, 0.09844288975000381, 0.3807048797607422,
			0.49843963980674744, 0.3893921673297882, 0.5357847809791565, 0.6251041889190674,
			0.6501662135124207, 0.2086043506860733, -0.06416209042072296, -0.10299807041883469,
			0.4939916133880615, 0.5252789258956909, 0.03405160829424858, 0.37275072932243347,
			0.3602040112018585, 0.23157112300395966, 0.10113494843244553, 0.1165335476398468,
			0.018456529825925827, -0.20609501004219055, -0.08355867117643356,
			0.0027429258916527033, -0.07326677441596985, -0.4786652624607086, -0.3899453580379486,
			0.0955168679356575, 0.24590063095092773, 0.47211021184921265, 0.48608535528182983,
			0.4041197896003723, 0.3517908751964569, -0.13581892848014832, 0.16710755228996277,
			0.35830703377723694, 0.6112238168716431, 0.17749463021755219, 0.034640830010175705,
			-0.2188941389322281, 1.025089144706726, 0.06891649216413498, 0.047767192125320435,
			0.05683150887489319, 0.026961982250213623, 0.26776885986328125, 0.12722034752368927,
			0.2166862189769745, 0.10380768030881882, -0.5124911069869995, -0.11700797080993652,
			0.23848122358322144, -0.1875283420085907, -0.2158510386943817, -0.21046678721904755,
			0.03942633792757988, 0.21454781293869019, 0.4463595449924469, 0.18583694100379944,
			0.2273453027009964, 0.18767471611499786, -0.34431564807891846, -0.5880679488182068,
			0.5067636966705322, 0.2660105526447296, 0.544379472732544, -0.23163533210754395,
			0.049234192818403244, 0.48314177989959717, 0.7496143579483032, 0.29714706540107727,
			-0.5027785301208496, -0.014730626717209816, 0.3156960904598236, 0.2797529399394989,
			0.43473607301712036, 0.004504214972257614, -0.1331218183040619, 0.1542527824640274,
			0.3754115402698517, -0.027331940829753876, -0.37324538826942444, -0.288207083940506,
			0.0791061595082283, 0.2034207284450531, 0.7468374371528625, 0.31376615166664124,
			0.18112632632255554, -0.09819730371236801, -0.8115484118461609, -0.25839293003082275,
			0.4334464967250824, 0.23740601539611816, -0.05723980814218521, -0.01318279653787613,
			0.07294660061597824, -0.7550950050354004, 1.0612244606018066, 0.2773236334323883,
			0.10583880543708801, 0.11103490740060806, 0.4211869239807129, 0.34511232376098633,
			0.32902586460113525, 0.2474379539489746, 0.32661405205726624, 0.39883413910865784,
			0.3313296139240265, 0.1670953333377838, -0.2179846316576004, -0.10554984211921692,
			-0.005433127284049988, 0.28003260493278503, 0.6760680079460144, 0.2584858238697052,
			0.06067686155438423, -0.5668521523475647, -0.9308712482452393, 0.1030544862151146,
			0.49661922454833984, 0.42115578055381775, 0.17818810045719147, 0.032626617699861526,
			0.32882794737815857, -0.2533792555332184, 0.9371148943901062, 0.35765770077705383,
			0.5773842930793762, 0.08371685445308685, 0.10604029893875122, 0.03483163192868233,
			0.027853911742568016, 0.05588759109377861, 0.4414716958999634, 0.5211063623428345,
			0.231740340590477, 0.09655056893825531, -0.1491306722164154, 0.07548165321350098,
			0.2068479210138321, 0.43988707661628723, 0.6679608225822449, 0.47710704803466797,
			0.32655197381973267, -0.46401458978652954, -0.3133109211921692, 0.5787123441696167,
			0.5567861199378967, 0.24206925928592682, -0.18783064186573029, -0.0751374289393425,
			0.10488970577716827, 0.6547137498855591, 0.032430533319711685, -0.006350960582494736,
			-0.11699213087558746, -0.11969545483589172, -0.07903794944286346, 0.06388765573501587,
			-0.33495599031448364, -0.04181104898452759, 0.16938985884189606, 0.2827986776828766,
			-0.10798560827970505, -0.09764664620161057, -0.14905846118927002, 0.1877279132604599,
			0.05093637853860855, 0.11683153361082077, 0.5788576602935791, 0.3525103032588959,
			-0.15592150390148163, 0.08452057838439941, -0.05527554824948311, 0.12572814524173737,
			-0.08857861161231995, -0.1716046780347824, 0.039255231618881226, -0.0812111496925354,
			0.03954729437828064, 0.9656670093536377, 0.2833203077316284, -0.4696834981441498,
			-0.05048259347677231, 0.2635505795478821, 0.20633582770824432, 0.052504587918519974,
			-0.28631889820098877, -0.12303245067596436, 0.014166517183184624, 0.08272697776556015,
			-0.1852419376373291, -0.3551514446735382, 0.02387608401477337, 0.3500441908836365,
			0.39161303639411926, 0.3857063949108124, 0.7579318284988403, 0.5481972694396973,
			0.23710930347442627, 0.5928453207015991, 0.2827233672142029, 0.38370153307914734,
			-0.2842722237110138, -0.6957181692123413, 0.02361328713595867, 0.01702812686562538,
			0.02891578897833824, -0.15474098920822144, 0.22665803134441376, -0.7802783846855164,
			-0.40008652210235596, 0.4467775523662567, 0.42857393622398376, -0.04324418678879738,
			-0.2188466489315033, -0.31577956676483154, -0.24263928830623627, -0.22863923013210297,
			-0.2034454643726349, 0.03908495977520943, 0.1891525834798813, 0.14961566030979156,
			0.0013554611941799521, 0.23980191349983215, 0.5547971129417419, -0.021755022928118706,
			0.5604950189590454, 0.7275394797325134, 0.4584721028804779, 0.6331047415733337,
			-0.3232268691062927, -0.7364926338195801, -0.01566597819328308, -0.03121993876993656,
			0.03038642182946205, -0.16450223326683044, -0.17871607840061188, 0.42619603872299194,
			-0.14529657363891602, 0.7489895820617676, 0.8766332864761353, 0.1386270970106125,
			0.09773750603199005, -0.05105292797088623, 0.10314325988292694, 0.29478028416633606,
			0.06411487609148026, 0.25898686051368713, 0.8158665299415588, -0.006123411003500223,
			-0.5055691003799438, -0.7065078020095825, -1.115336537361145, 0.012810143642127514,
			-0.027479413896799088, 0.9137449264526367, 1.0025521516799927, 0.697782039642334,
			0.39258354902267456, 0.0803358182311058, -0.03521425649523735, 0.026708319783210754,
			-0.019075386226177216, 0.9584237337112427, -0.426673024892807, 0.1063898578286171,
			0.9905268549919128, 0.426422655582428, 0.23404435813426971, -0.4306795597076416,
			0.18901729583740234, 0.7815721035003662, 1.0630466938018799, -0.7229878902435303,
			-0.7388002276420593, -0.5878569483757019, -0.042885515838861465, -1.0646557807922363,
			-1.623572826385498, -0.5148075819015503, 0.6570941805839539, 0.5744212865829468,
			0.5969301462173462, 0.28700223565101624, -0.2740538716316223, -0.6527564525604248,
			0.0735352411866188, 0.10337690263986588, -0.001694958657026291, -0.012588046491146088,
			-0.006246533244848251, 0.024656306952238083, 0.7463204264640808, 0.7410422563552856,
			1.1259489059448242, 0.7229272127151489, -0.13859130442142487, 0.34037071466445923,
			-0.6582238674163818, -1.4350650310516357, -1.5742098093032837, -0.15330567955970764,
			0.5672445893287659, 0.5995895862579346, 0.1281515210866928, -0.8421837687492371,
			-2.487227439880371, -1.6482648849487305, -0.3919057250022888, -0.012350651435554028,
			0.46602174639701843, 0.6436213254928589, 1.0515408515930176, 0.9063712358474731,
			-0.04509928077459335, -0.0031775906682014465, -0.02763396129012108,
			0.012422677129507065, 0.011817950755357742, 0.009515054523944855,
			-0.010934272781014442, -0.25610262155532837, -0.33814725279808044,
			-0.0932837426662445, 0.016771690919995308, 0.13045556843280792, 0.03185150399804115,
			-0.11980395019054413, -0.2146725207567215, 0.11955061554908752, -0.23394286632537842,
			-0.7102439403533936, -1.1572262048721313, -0.17659208178520203, -0.14613737165927887,
			-0.17718423902988434, 0.4353351294994354, 0.5892678499221802, 0.34266725182533264,
			0.22975634038448334, -0.3096410036087036, 0.0021428875625133514,
			0.0018917731940746307, -0.021641403436660767, -0.0005918033421039581
		],
		[
			-0.03490886092185974, -0.01942593790590763, -0.033788204193115234,
			0.03373591974377632, 0.008825235068798065, -0.02381293848156929,
			-0.0013284459710121155, 0.028150487691164017, 0.025976859033107758,
			-0.030555270612239838, -0.010254187509417534, -0.018908774480223656,
			0.48608970642089844, 0.5165112614631653, 0.02118610218167305, -0.011352645233273506,
			-0.017843659967184067, -0.017363136634230614, -0.01886742189526558,
			0.01871022954583168, -0.0235990472137928, 0.007378432899713516,
			-0.0009022317826747894, 0.011561207473278046, -0.012681327760219574,
			-0.012948986142873764, 0.020087331533432007, -0.0027898773550987244,
			0.018222931772470474, -0.015418896451592445, 0.023030679672956467,
			0.03005504235625267, 0.0454942025244236, 0.14949211478233337, 0.5152137279510498,
			0.5241775512695312, 0.36594611406326294, 0.6053014397621155, 0.5520749092102051,
			0.12904761731624603, 0.3708207905292511, 0.6108391284942627, -0.8661649227142334,
			0.1699911206960678, 0.11114378273487091, 0.5268368124961853, 0.4696520268917084,
			0.27549025416374207, 0.34458717703819275, 0.4549116790294647, 0.3597479462623596,
			0.18319490551948547, 0.011465862393379211, 0.03524259850382805, 0.004937939345836639,
			0.004674799740314484, -0.03267623484134674, -0.03025319054722786,
			0.026917772367596626, -0.3184811472892761, 0.04362441226840019, 0.04469484090805054,
			0.05776430293917656, 0.055345568805933, 0.805223286151886, 0.3263229429721832,
			0.5727639198303223, 1.1362251043319702, 0.4789718985557556, 0.2821578085422516,
			0.7661961913108826, 1.0207372903823853, 0.6573688387870789, 1.1369894742965698,
			1.1404423713684082, 0.41791221499443054, 0.11598233133554459, -0.02132064290344715,
			0.19034971296787262, 0.18135714530944824, 0.07475242763757706, 0.25449275970458984,
			0.028549376875162125, -0.02830006182193756, 0.022070493549108505,
			-0.0010363049805164337, 0.016257192939519882, -0.2299041599035263, 0.4020949602127075,
			0.5703262686729431, 0.6857733130455017, 0.13180877268314362, 0.5184541344642639,
			0.48994937539100647, 0.569525420665741, 0.11259837448596954, 0.35374948382377625,
			1.1821516752243042, 0.944832444190979, 1.5119751691818237, 0.34068459272384644,
			-0.1292416900396347, -0.09351303428411484, -0.8591175675392151, -0.41573280096054077,
			-0.4713902771472931, -0.25994187593460083, -0.2612084448337555, 0.03704018145799637,
			0.12356160581111908, 0.09115559607744217, -0.012885533273220062,
			-0.022562436759471893, -0.014504021033644676, 0.02584482729434967,
			-0.016345733776688576, 0.7227092385292053, 0.6748479008674622, 0.10217226296663284,
			-0.10588934272527695, -0.27816617488861084, 0.01356051117181778, 0.1382686346769333,
			-0.21289962530136108, 0.6323190927505493, 0.6768518686294556, 0.976999819278717,
			0.7018656134605408, 0.18114976584911346, -0.16404132544994354, -0.4704514145851135,
			-1.5451371669769287, -1.8593562841415405, -0.7467890977859497, 0.30828842520713806,
			-1.1795927286148071, -0.956142246723175, -0.2819465696811676, -0.25895458459854126,
			-0.6166188716888428, 0.012412302196025848, -0.021388569846749306,
			0.025196801871061325, -0.6931251287460327, 0.4942591190338135, 0.5545037984848022,
			0.6667971611022949, 0.06489027291536331, -0.1629357635974884, -0.24829722940921783,
			-0.06462345272302628, -0.17219871282577515, -0.31623172760009766, -0.2376435101032257,
			-0.1031767874956131, -0.3459888994693756, -0.135828897356987, -1.0244941711425781,
			-1.7971078157424927, -1.0373278856277466, -0.6321622133255005, -0.9580219984054565,
			-0.9963476657867432, -1.271101474761963, -1.5831791162490845, -0.9832421541213989,
			-0.9191335439682007, 0.15287530422210693, 0.02424592897295952, -0.02670275792479515,
			0.11319278180599213, -0.8436707854270935, 0.8237872123718262, 1.1237298250198364,
			0.301779180765152, -0.49041733145713806, -0.15472207963466644, -0.1771935522556305,
			-0.6535993218421936, 0.38878345489501953, 0.38880226016044617, 0.20943504571914673,
			-0.10579989105463028, -0.8980510234832764, -1.4054628610610962, -0.9408323168754578,
			-0.4088716506958008, -0.21165506541728973, -0.067941814661026, -0.19569437205791473,
			-0.2535170316696167, -0.2096603512763977, -0.21602147817611694, -1.3297691345214844,
			-0.18733279407024384, -0.5010121464729309, 0.039247073233127594, 0.8432731032371521,
			0.33948376774787903, -0.5315626263618469, -0.05088239535689354, 0.3007509112358093,
			-0.01172417402267456, -0.09287979453802109, -0.26764416694641113,
			0.0009101444738917053, 0.41154468059539795, 0.3768535256385803, 0.051743414252996445,
			-0.6456208229064941, -0.8583791255950928, -0.8900887370109558, -0.7017850875854492,
			-0.7282429337501526, -0.3982450067996979, -0.7480863332748413, -0.7812804579734802,
			-0.5335805416107178, -0.6317967772483826, -0.10818973928689957, 0.1348634511232376,
			-0.08380415290594101, -0.22788377106189728, -0.6178142428398132, 1.5684012174606323,
			1.1097744703292847, 1.0132606029510498, -0.25284120440483093, 0.24461133778095245,
			0.210844025015831, -0.25383278727531433, -0.17456097900867462, 0.11410746723413467,
			0.4433511793613434, 0.09394122660160065, -0.03027528151869774, -0.33109331130981445,
			-0.7800692915916443, -1.0410794019699097, -0.49504318833351135, -0.4912715554237366,
			-0.2690398395061493, -0.2069898098707199, -0.5102067589759827, -0.029528161510825157,
			-0.16712452471256256, -0.14770860970020294, -0.1097736582159996, -0.05366498604416847,
			0.5417279005050659, -0.790590226650238, -0.4006493389606476, 0.26490938663482666,
			1.4154751300811768, -0.0011953068897128105, -0.32922840118408203, 0.7432687282562256,
			-0.1845606565475464, -0.13658930361270905, 0.016370991244912148, 0.11717097461223602,
			0.19455356895923615, 0.00024210124684032053, 0.7826833724975586, 0.662643313407898,
			-0.1807069629430771, -0.40826156735420227, -0.24440087378025055, 0.028081778436899185,
			0.04430224001407623, 0.4286085367202759, -0.2032000869512558, 0.2222803384065628,
			0.3602532744407654, 0.18229509890079498, 0.4173445701599121, -0.13787464797496796,
			0.3218723237514496, -0.340329647064209, 0.8093985319137573, 0.25594326853752136,
			1.6892527341842651, 0.37204012274742126, -0.720384418964386, 0.016329756006598473,
			-0.4485136568546295, -0.08642758429050446, 0.06746239960193634, -0.09018272161483765,
			0.3430840075016022, 0.4360590875148773, 0.9328175187110901, 0.31861305236816406,
			-0.3853769898414612, -0.809978723526001, 0.14643330872058868, 0.22325722873210907,
			0.5350247025489807, 0.6710513234138489, 0.7038634419441223, 0.8503041863441467,
			0.7646138072013855, 0.6303659081459045, 0.4146752655506134, 0.7274577021598816,
			0.525080680847168, 0.041700199246406555, -0.2556605339050293, 0.27484074234962463,
			2.4932479858398438, 0.35617926716804504, 0.2689676880836487, -0.6053217649459839,
			-0.3507944941520691, 0.28953826427459717, -0.2315514236688614, -0.27891993522644043,
			0.3883800804615021, 0.14523588120937347, 0.5683999061584473, 0.03056159056723118,
			-0.4691380262374878, -0.11659318208694458, 0.16165240108966827, 0.251969575881958,
			0.5629436373710632, 0.8769922256469727, 0.7017738223075867, 0.4730651378631592,
			0.6069813966751099, 0.8464012145996094, 0.689449667930603, 0.756514310836792,
			-0.03173908591270447, -0.0009075109846889973, 1.124817132949829, 0.06676052510738373,
			0.6295537948608398, 0.4662877321243286, 0.8620184063911438, -0.819102942943573,
			-0.508206844329834, -0.10280618071556091, 0.32757365703582764, 0.45484036207199097,
			0.4179675877094269, 0.29113033413887024, 0.4938580393791199, -0.1739031821489334,
			-0.569648802280426, 0.03394032269716263, 0.4628678262233734, 0.07786679267883301,
			0.29497241973876953, 0.41296446323394775, 0.3157149851322174, 0.6080886721611023,
			0.4720216989517212, 1.0219528675079346, 0.5752273201942444, 0.8368414044380188,
			0.7578844428062439, 1.5596357583999634, 1.4746922254562378, 0.02594144642353058,
			0.5243908762931824, 0.9003039598464966, 0.9926396608352661, -0.373846173286438,
			0.6165379881858826, 0.3271661400794983, 0.35827407240867615, 0.8045513033866882,
			0.5722779035568237, 0.41172629594802856, 0.0654304102063179, -0.610440731048584,
			-0.7784029245376587, -0.29387977719306946, -0.23369024693965912, -0.15876129269599915,
			-0.029304994270205498, 0.07884630560874939, 0.003256666474044323, 0.5482282042503357,
			0.5268866419792175, 0.2491842359304428, 0.7008334398269653, 0.5315146446228027,
			1.13021981716156, 1.4312386512756348, -0.13981780409812927, -0.02245871163904667,
			0.18553845584392548, 0.6252672076225281, 0.7885125279426575, -0.9426715970039368,
			0.48051920533180237, 0.03945215791463852, -0.18119007349014282, 0.515450119972229,
			0.4229532778263092, 0.38908541202545166, -0.06361683458089828, -0.6339607834815979,
			-0.8130192756652832, 0.11951541900634766, -0.020662255585193634, -0.06323068588972092,
			-0.001216133707202971, -0.1826314926147461, -0.2661466598510742, -0.07149376720190048,
			0.22067449986934662, 0.6161903738975525, 0.6492976546287537, 0.4659712612628937,
			0.06006990000605583, -0.1940353661775589, -0.08934242278337479, 0.1423400491476059,
			0.001630987972021103, -0.872027575969696, 0.3117644786834717, -0.9587924480438232,
			-0.34832996129989624, 0.13839900493621826, 0.45684972405433655, 0.3884839713573456,
			-0.055726516991853714, -0.009340004064142704, 0.33286282420158386, -0.505011260509491,
			-0.7153555154800415, 0.29471349716186523, 0.15524278581142426, -0.3873641788959503,
			0.14859150350093842, -0.16485688090324402, -0.41666173934936523, -0.6481888294219971,
			-0.03644517436623573, -0.19228670001029968, -0.23542138934135437, -0.2901606857776642,
			0.29226988554000854, -0.7982762455940247, -0.014016248285770416, 0.25363704562187195,
			-0.01969556324183941, -0.8059353232383728, -0.43649598956108093,
			-0.020004361867904663, 0.3802950084209442, -0.02631174772977829, -0.17588357627391815,
			0.15379224717617035, 0.0016868902603164315, -0.08589789271354675, -0.5117035508155823,
			-0.8001865744590759, -0.33880534768104553, 0.14649222791194916, -0.4385554790496826,
			-0.4368795156478882, -0.27543896436691284, -0.5641852021217346, -0.2756214439868927,
			-0.6319440603256226, 0.18316392600536346, -0.19016890227794647, -0.43838247656822205,
			-0.10417322814464569, 0.2905484437942505, -1.1613879203796387, -0.13208337128162384,
			0.028449777513742447, 0.010431315749883652, 0.18511469662189484, 0.03223772719502449,
			0.5317667722702026, 0.6028332114219666, -0.09954247623682022, -0.40133845806121826,
			-0.25071969628334045, -0.39247673749923706, -0.680660605430603, -0.22535815834999084,
			-0.5325513482093811, -0.2689617872238159, 0.20548303425312042, -0.3752947151660919,
			-0.3459923565387726, -0.47303661704063416, 0.24077166616916656, -0.31164437532424927,
			-0.19643743336200714, 0.09622491151094437, 0.00416141003370285, -0.03501448780298233,
			-0.2410721331834793, 0.6415286064147949, -0.8197376728057861, -0.9212471842765808,
			0.8768931031227112, -0.0148670244961977, 0.735331654548645, -1.216321349143982,
			0.6952081918716431, 0.2300494909286499, -0.7219967842102051, 0.005864327773451805,
			0.23740534484386444, -0.27211281657218933, -0.43981340527534485, -0.41553202271461487,
			0.21380338072776794, 0.5073004961013794, 0.568486213684082, -0.1367683857679367,
			0.025457587093114853, -0.12548577785491943, 0.3936254382133484, -0.2944851815700531,
			0.01140168122947216, 0.3736291229724884, -0.12111610919237137, 0.13361835479736328,
			-0.06819272041320801, 0.8146759867668152, -0.5709353685379028, -0.4798046946525574,
			-0.017124831676483154, 0.6859055757522583, 1.4042123556137085, -0.5403862595558167,
			0.7369765639305115, 0.3509058952331543, -0.11264809966087341, 0.34628257155418396,
			0.21831709146499634, -0.10158300399780273, -0.2673937678337097, 0.03860265016555786,
			-0.08131247758865356, 0.15878142416477203, 0.5196871757507324, -0.019270170480012894,
			-0.2988235652446747, -0.02872181497514248, -0.04028317332267761, -0.17866097390651703,
			0.108147032558918, -0.217499777674675, -0.572838544845581, -0.2061227262020111,
			0.009487898088991642, 0.4073280692100525, -0.14747008681297302, 0.01367567852139473,
			-0.021026387810707092, 0.44313961267471313, 1.4501031637191772, -0.2842138707637787,
			-0.6857772469520569, -0.9720878601074219, -0.13469195365905762, 0.2513697147369385,
			-0.5285589098930359, -0.08164691179990768, -0.07666593790054321, -0.17799091339111328,
			0.19041647017002106, 0.11399070173501968, 0.22866210341453552, -0.06034789979457855,
			0.032202158123254776, 0.11180979013442993, 0.14554989337921143, -0.645750105381012,
			-0.2218053638935089, -0.5946865081787109, -0.41427403688430786, -0.9138748645782471,
			-0.01662098802626133, -0.3755996525287628, 0.060513321310281754, 0.03434929624199867,
			0.024439547210931778, -0.009738193824887276, 0.27834776043891907, -0.3214358687400818,
			-1.6965216398239136, 0.3097410500049591, -0.07856859266757965, -0.27066850662231445,
			0.2245430052280426, 0.03065018728375435, -0.21921004354953766, -0.005203749518841505,
			-0.22699517011642456, -0.03328664228320122, -0.2291439175605774, -0.45232948660850525,
			0.08650970458984375, 0.39356547594070435, 0.3370802700519562, -0.29338857531547546,
			0.00294793420471251, 0.18030871450901031, 0.1295376867055893, 0.16839534044265747,
			0.29924532771110535, -0.05384444817900658, 1.3395847082138062, 0.0008521462441422045,
			-0.026902250945568085, 0.0025192461907863617, 0.21698568761348724,
			-0.7750083804130554, -0.2789253890514374, -0.06602715700864792, 0.053424011915922165,
			0.24219101667404175, 0.3366222679615021, 0.22565346956253052, 0.21773280203342438,
			-0.09424548596143723, -0.2277139574289322, -0.1068655401468277, -0.5315351486206055,
			0.03268187865614891, 0.3069753050804138, 0.2041255384683609, -0.18056978285312653,
			0.02055697701871395, -0.03691728040575981, 0.43212229013442993, -0.4781358242034912,
			-0.4708976745605469, 0.054762646555900574, -0.14129281044006348, 1.1644343137741089,
			-0.03213503211736679, 0.019455935806035995, 0.017545167356729507,
			-0.04276968911290169, 0.24430035054683685, -0.2503562569618225, -0.2571186423301697,
			-0.11256900429725647, -0.12367631494998932, -0.1451183408498764, 0.07900243997573853,
			0.13621853291988373, 0.03537335246801376, 0.05284169688820839, 0.04474956542253494,
			0.12124567478895187, -0.08974727988243103, -0.05972427874803543, -0.4121282696723938,
			-0.8009927272796631, -0.1865246593952179, -0.01067814789712429, 0.7768027782440186,
			-0.09447098523378372, 0.42689165472984314, -0.4145492613315582, -0.2391679584980011,
			0.5894894599914551, 0.006325129419565201, -0.0214985404163599, 0.0070682913064956665,
			-0.043775200843811035, 0.856563925743103, -0.6536366939544678, 0.28870493173599243,
			0.3789924383163452, 0.3233474791049957, 0.23564937710762024, -0.2336861938238144,
			0.34614813327789307, -0.44951754808425903, -0.17133782804012299, 0.21067897975444794,
			0.3415575921535492, -0.08195182681083679, -0.12110564112663269, -0.11862044781446457,
			-0.4062941074371338, 0.27327585220336914, -0.0066263023763895035, 0.2630431652069092,
			0.7576751708984375, 0.38123786449432373, -0.2170649766921997, 0.13757985830307007,
			-0.012246005237102509, -0.016772573813796043, -0.007427496835589409,
			0.018542882055044174, -0.3702741265296936, 1.2707250118255615, 0.051187023520469666,
			-0.34933650493621826, 0.12072386592626572, -0.1926269382238388, -0.0485534630715847,
			-0.6832650303840637, 0.14360816776752472, 0.16570179164409637, -0.16916750371456146,
			0.5089243054389954, 0.5749887824058533, 0.5469496846199036, 0.534853994846344,
			0.020973391830921173, 0.021504096686840057, 0.038668133318424225,
			-0.02818615734577179, 0.5154483318328857, 0.823004961013794, 0.47881123423576355,
			0.04322611540555954, -0.3165896534919739, -0.012821309268474579,
			-0.029275473207235336, 0.027776289731264114, 0.018225640058517456,
			0.005682595074176788, 0.012568283826112747, -0.02664560079574585, 0.0933421179652214,
			0.12444869428873062, -0.12079688906669617, -0.6555335521697998, -0.5893115997314453,
			-1.0841163396835327, 0.006469204556196928, 0.0953095480799675, -0.07185415923595428,
			-0.8418452739715576, -0.612470269203186, 0.06096033379435539, 0.049701787531375885,
			-0.3432431221008301, 0.6210936903953552, 0.37757354974746704, -0.10660124570131302,
			-0.07573933899402618, -0.7217017412185669, -0.6691246628761292, 0.15058661997318268,
			0.012331880629062653, -0.0036248229444026947, 0.00865364819765091,
			-0.0012075342237949371, -0.02976202592253685, 0.0052231959998607635,
			0.3075108528137207, 0.29983755946159363, 0.1939288228750229, 0.3687165677547455,
			0.1562650203704834, 0.4132184684276581, -0.25671637058258057, -0.541168749332428,
			-0.2302703559398651, 0.2852925956249237, 0.02805047295987606, -0.9926019310951233,
			-0.23256950080394745, -0.20831091701984406, -1.4409756660461426, -0.13235001266002655,
			0.952940046787262, 0.7293561100959778, 0.6802213788032532, 0.3279606103897095,
			0.02059093490242958, 0.010032210499048233, 0.01603042334318161, -0.013558493927121162
		],
		[
			0.004770822823047638, -0.015745768323540688, -0.01764552667737007,
			0.017067603766918182, 0.007508683949708939, -0.025232668966054916,
			-0.03119022585451603, 0.005941528826951981, -0.03535107523202896,
			-0.007839454337954521, -0.022669576108455658, 0.0238662026822567, 0.08644712716341019,
			0.2976731061935425, 0.27480655908584595, 0.10052932798862457, 0.032791655510663986,
			0.025369714945554733, 0.00255608931183815, 0.026273149996995926,
			-0.008863614872097969, -0.032357003539800644, 0.0026110149919986725,
			0.013165988028049469, 0.018741745501756668, 0.03548949584364891, 0.006056271493434906,
			0.0034009888768196106, 0.035584982484579086, -0.013340188190340996,
			0.029650557786226273, -0.033819954842329025, -0.01957773044705391,
			0.009948489256203175, 0.05814007297158241, -0.07778752595186234, 0.037307221442461014,
			-0.04971952736377716, 0.0425926148891449, 0.11704670637845993, -0.08111247420310974,
			0.057094987481832504, -0.04945383965969086, 0.015289495699107647, 0.3292190134525299,
			0.30615103244781494, -0.0656161978840828, -0.20850375294685364, -0.22296398878097534,
			-0.190800741314888, 0.22930850088596344, 0.3670676648616791, -0.034078896045684814,
			0.030498135834932327, -0.020187221467494965, -0.021059595048427582,
			0.022087305784225464, -0.009561343118548393, 0.003108825534582138,
			-0.0481639988720417, -0.14776945114135742, 0.029259050264954567, 0.054526783525943756,
			-0.03286696597933769, 0.02209918200969696, 0.08337409794330597, 0.06815764307975769,
			0.13417287170886993, 0.8975021839141846, -0.06335249543190002, -0.3791525065898895,
			-0.9922604560852051, -0.9169173240661621, -0.7431801557540894, -0.6042225360870361,
			-0.8991076946258545, -0.6782082319259644, -0.16070877015590668, -0.17236167192459106,
			-0.11002986878156662, 0.010851557366549969, -0.015618273988366127,
			0.01810498908162117, -0.025723513215780258, 0.026515863835811615,
			-0.026719674468040466, 0.046926554292440414, -0.02558819018304348,
			0.017099883407354355, -0.06215876340866089, -0.013734837993979454,
			0.08720910549163818, 0.5675970911979675, 1.1251463890075684, 0.6497513055801392,
			-0.057710859924554825, -0.14261288940906525, 0.19852222502231598, -0.4415293037891388,
			-0.8143432140350342, -0.5215951800346375, -0.14271192252635956, -1.174267292022705,
			-1.1164603233337402, -0.8338708877563477, -0.5415488481521606, -0.4866545796394348,
			-0.33119744062423706, -0.250040203332901, 0.021009985357522964, -0.005568785592913628,
			0.009835571050643921, -0.01903144083917141, -0.024250345304608345,
			0.39467495679855347, 0.1954745054244995, 0.06947840005159378, -0.07125482708215714,
			0.0751536637544632, 0.24783410131931305, 0.08416919410228729, 0.5722047686576843,
			0.21029868721961975, 0.4807877838611603, 0.3022938370704651, 0.22088371217250824,
			0.20985959470272064, 0.35463452339172363, -0.013324038125574589, -0.06071338802576065,
			-0.339548796415329, -0.5606256127357483, -0.38409414887428284, -0.2148190587759018,
			-0.4194055497646332, -0.4940391778945923, -1.063237190246582, -0.9523486495018005,
			-0.05562194809317589, -0.02619670331478119, 0.016231216490268707,
			0.010331794619560242, 0.03502608463168144, 0.326148122549057, 0.22495903074741364,
			0.2714821398258209, 0.17634563148021698, -0.5538613200187683, 0.5896623730659485,
			0.8128987550735474, 0.2649194598197937, 0.33706167340278625, 0.24822071194648743,
			0.6014841794967651, 0.44190749526023865, 0.2858455181121826, 0.15158897638320923,
			-0.5673230886459351, -0.19084535539150238, -0.23136445879936218,
			-0.042311910539865494, -0.32759857177734375, -0.015617446042597294,
			-0.025344349443912506, -0.2754090130329132, -0.045685235410928726,
			-0.07575475424528122, -0.07549833506345749, -0.007293270900845528,
			-0.024892818182706833, -0.20781797170639038, 0.5385392308235168, 0.11721649020910263,
			0.6217626333236694, 0.06303001940250397, 0.11684931069612503, 0.38570117950439453,
			0.5743567943572998, 0.8981722593307495, 0.7876533269882202, 0.8464338183403015,
			0.6804670095443726, 0.7205926775932312, 0.8163856863975525, 1.0134469270706177,
			0.5089969635009766, 0.2652038633823395, -0.10632049292325974, -0.448076069355011,
			-0.3636750280857086, -0.004947857465595007, -0.1824217289686203, -0.46994107961654663,
			-0.1581186205148697, -0.15197403728961945, -0.08227711170911789,
			-0.027747156098484993, 0.49071627855300903, 0.4956226348876953, 0.48899146914482117,
			0.0991530790925026, -0.0970388650894165, 0.45660555362701416, -0.033144596964120865,
			0.05287671089172363, 0.48718565702438354, 0.6182259321212769, 0.6711595058441162,
			0.46624574065208435, 0.8394390940666199, 0.8086740374565125, 0.8660331964492798,
			0.7892818450927734, 0.3125387728214264, 0.17590628564357758, -0.1674545854330063,
			-0.3180187940597534, -0.02948346547782421, -0.03516000136733055, -0.52933669090271,
			-0.8703892230987549, -0.520475447177887, -0.14211945235729218, -0.06905896216630936,
			-0.9278374314308167, 0.567538857460022, 0.21482917666435242, -0.2884865999221802,
			-0.16053541004657745, -0.22867263853549957, 0.4063626825809479, 0.22481752932071686,
			0.4787040948867798, 0.17030979692935944, 0.2916494905948639, 0.1642402559518814,
			0.26426905393600464, 0.22186310589313507, 0.7719800472259521, 0.4251002073287964,
			0.03021295927464962, 0.03302808105945587, 0.22350426018238068, 0.4217545986175537,
			-0.34975704550743103, -0.2694089114665985, -0.10479369014501572, -0.7884907126426697,
			-0.9563069343566895, -0.30348682403564453, 0.10321663320064545, -0.0634077861905098,
			0.18451829254627228, 0.2883392870426178, -0.20984724164009094, -0.13354218006134033,
			-0.0596393346786499, -0.31128010153770447, -0.08786293119192123,
			-0.001135978032834828, -0.01482020877301693, -0.03459123522043228,
			-0.038696978241205215, -0.012623078189790249, -0.13701289892196655,
			-0.3676479756832123, -0.19698622822761536, -0.20223426818847656, -0.2723921239376068,
			0.5433548092842102, 0.2729107439517975, 0.4141125977039337, -0.1533280611038208,
			-0.26913148164749146, -0.2870277166366577, -0.5798869132995605, -0.6581166386604309,
			-0.3480835258960724, 0.1953691691160202, -0.3457617461681366, 0.16836245357990265,
			0.11475860327482224, 0.37932610511779785, -0.19066140055656433, -0.04847392439842224,
			-0.1541784405708313, 0.09039030969142914, -0.15288275480270386, -0.053092118352651596,
			-0.26230400800704956, -0.5861482620239258, -0.4597960114479065, -1.250659704208374,
			-0.8438394665718079, -0.5246413350105286, -0.6346082091331482, 0.12855327129364014,
			0.3063206076622009, 0.3603672683238983, 0.27177026867866516, 0.10556071996688843,
			0.07655572891235352, -0.10444197803735733, -0.6582518815994263, -0.7724718451499939,
			-0.031478818506002426, -0.08686143904924393, -0.348615825176239, 0.1993231326341629,
			-0.8153973817825317, -0.28442299365997314, 0.4448099136352539, -0.1033196747303009,
			-0.23494639992713928, -0.3862683176994324, -0.21497182548046112, -0.4124709665775299,
			-0.42339131236076355, -0.5883795022964478, -0.5486400723457336, -0.8165196776390076,
			-0.4932839870452881, -0.5875728130340576, -0.058011747896671295, 0.08692348748445511,
			0.40304040908813477, 0.15513117611408234, 0.12063952535390854, 0.7147791981697083,
			-0.07876970618963242, -0.10725533217191696, -0.16246354579925537, -0.548042356967926,
			-0.013377825729548931, -0.5731391906738281, -0.11849420517683029,
			0.043903935700654984, 0.07378526777029037, -0.24249151349067688, 0.3400319516658783,
			-0.32692357897758484, -0.5556113719940186, -0.37816286087036133, -0.4859218895435333,
			-0.2110888808965683, -0.31850466132164, -0.6668528914451599, -0.6974631547927856,
			-0.746362030506134, -0.742680549621582, -0.23259760439395905, 0.11490954458713531,
			0.056126516312360764, 0.15813367068767548, -0.09712051600217819, 0.27078959345817566,
			0.3969283103942871, -0.12754173576831818, -0.4688648283481598, 0.012855755165219307,
			-0.6415371298789978, -0.07438639551401138, -0.35954371094703674, 0.011921781115233898,
			-0.3285004794597626, -0.05032423511147499, 0.10312119126319885, 0.383872926235199,
			-1.2501132488250732, -0.49675387144088745, -0.15804293751716614, -0.19060355424880981,
			0.02819603867828846, -0.11263489723205566, 0.15358388423919678, -0.5004026889801025,
			-0.1789223849773407, -0.2740946412086487, -0.2822650671005249, 0.033197179436683655,
			0.1044788807630539, 0.08828811347484589, 0.18950919806957245, 0.3858028054237366,
			0.10872630774974823, -0.04345858469605446, -0.44243231415748596, -0.72706538438797,
			-0.4322337806224823, -0.24054460227489471, 0.06906098872423172, 0.05353008583188057,
			-0.25090542435646057, -0.13379012048244476, 0.015543271787464619, 0.33649739623069763,
			-0.03454116731882095, -0.5148949027061462, 0.358388215303421, 0.20841285586357117,
			0.09010819345712662, 0.07231813669204712, 0.09400447458028793, -0.13936714828014374,
			0.03033209778368473, 0.11803523451089859, 0.053141430020332336, 0.09923099726438522,
			-0.18232399225234985, -0.008866749703884125, 0.366700142621994, -0.009357694536447525,
			0.01770847477018833, -0.4611203074455261, -0.16471995413303375, -0.5567637085914612,
			-0.27132296562194824, -0.3398318290710449, 0.10713890939950943, 0.12653093039989471,
			-0.2429424673318863, -0.1582064926624298, -0.2653639018535614, 0.5973734855651855,
			0.47156721353530884, -0.022933728992938995, 0.390395849943161, 0.40620338916778564,
			0.037629734724760056, 0.2685316503047943, 0.17889384925365448, -0.0637909546494484,
			-0.024459155276417732, -0.19757111370563507, -0.2954949140548706, 0.02949259988963604,
			0.07444746047258377, 0.4544468820095062, 0.04745420068502426, -0.3233458399772644,
			-0.20805153250694275, 0.09062238037586212, 0.41708120703697205, -0.5118265748023987,
			-0.45321017503738403, -0.12607549130916595, -0.29995715618133545, 0.27144503593444824,
			0.0720200315117836, -0.1148604303598404, 0.14647535979747772, 0.29162248969078064,
			0.787765383720398, 0.0608639195561409, 0.34273651242256165, 0.08215484023094177,
			-0.27282097935676575, -0.14344720542430878, 0.2240159809589386, -0.06979361921548843,
			-0.03442798927426338, -0.22191524505615234, -0.3806051015853882, -0.1709854006767273,
			0.20969456434249878, 0.35985127091407776, -0.05403841286897659, -0.39016735553741455,
			-0.009384892880916595, -0.1926809549331665, 0.41369178891181946, -0.560472846031189,
			-0.6808108687400818, -0.12356002628803253, -0.30817511677742004, 0.28316816687583923,
			0.03281811997294426, -0.16329260170459747, -0.15391503274440765, 0.554332435131073,
			0.8339690566062927, 0.5245010256767273, 0.13042469322681427, -0.7037433385848999,
			-0.5150125622749329, -0.28833097219467163, -0.11509371548891068, -0.20996901392936707,
			-0.4151535928249359, -0.2581765651702881, -0.015215403400361538, 0.20242652297019958,
			0.21630331873893738, 0.2184583991765976, -0.43526628613471985, -0.5024706721305847,
			-0.08248942345380783, -0.8975377678871155, -0.3928406834602356, -0.9464219212532043,
			-0.6811608672142029, 0.24287930130958557, 0.6019213199615479, 0.7707635164260864,
			0.6217958927154541, 0.018071340397000313, 0.027772733941674232, 0.4743766188621521,
			0.2631675601005554, 0.4082166850566864, 0.013554811477661133, -0.45763450860977173,
			-0.08197908848524094, -0.2124110758304596, 0.5193196535110474, 0.007342214696109295,
			-0.29470890760421753, -0.08676904439926147, -0.07282613217830658,
			0.008497350849211216, 0.22603045403957367, -0.001760124578140676,
			-0.13602668046951294, 0.07321450114250183, -0.006989336106926203, -0.5745214819908142,
			-0.3250519633293152, -0.5089575052261353, -0.5509706735610962, -0.02663433365523815,
			1.176817774772644, 0.5706601142883301, -0.07456962019205093, 0.23067282140254974,
			-0.7255710363388062, -0.49691522121429443, -0.10617628693580627, 0.06107353791594505,
			0.03565891832113266, 0.19742240011692047, -0.07099068909883499, 0.20878833532333374,
			0.8596546053886414, 0.05744852125644684, 0.2720838487148285, -0.17271320521831512,
			-0.2728971242904663, 0.018992694094777107, -0.01216068770736456, -0.15353286266326904,
			-0.1844085454940796, 0.10784434527158737, 0.02289741113781929, -0.8217843174934387,
			-0.2705482542514801, -0.04750937968492508, 0.09108096361160278, -0.44145023822784424,
			0.3730766177177429, -0.0078089116141200066, -0.029526149854063988, 0.8716466426849365,
			-0.5194560885429382, 0.30279335379600525, 0.18013930320739746, 0.4274691343307495,
			0.20972898602485657, 0.09591636061668396, -0.13075664639472961, 0.16499529778957367,
			0.7803519368171692, 0.19820082187652588, 0.08813151717185974, -0.16357411444187164,
			-0.09695889055728912, -0.053020626306533813, -0.2127601057291031,
			-0.13124626874923706, -0.26454421877861023, 0.17517925798892975, -0.11802591383457184,
			-0.47575369477272034, -0.5906267166137695, -0.059336576610803604, 0.2811514139175415,
			-0.17835180461406708, 0.18793991208076477, -0.15449228882789612, -0.17968890070915222,
			0.14770305156707764, 0.683508574962616, 0.19463130831718445, 0.40789303183555603,
			0.16457870602607727, 0.008154250681400299, 0.0031587197445333004, -0.500085175037384,
			-0.3040964603424072, 0.21531876921653748, 0.03624714910984039, 0.20554548501968384,
			0.15841205418109894, -0.018997151404619217, -0.38017141819000244, 0.14718087017536163,
			-0.02563897706568241, -0.1418517529964447, 0.20269504189491272, -0.1530240774154663,
			-0.29940661787986755, -0.08975136280059814, 0.1477278620004654, 0.23228596150875092,
			-0.23788033425807953, -0.21658863127231598, -0.005913950968533754,
			-0.1879161298274994, 0.07831688225269318, 1.0314500331878662, 0.0983891710639,
			0.1047845110297203, 0.0871904194355011, 0.16380715370178223, 0.18020202219486237,
			-0.17722560465335846, -0.029292918741703033, 0.31410840153694153,
			-0.05983090400695801, 0.19779427349567413, 0.0862426906824112, 0.06601295620203018,
			-0.4293830096721649, 0.2589418888092041, -0.020428940653800964, -0.26720762252807617,
			-0.10033468902111053, 0.08982829749584198, -0.5215335488319397, 0.03554777055978775,
			0.04613567516207695, 0.3650835454463959, -0.5022161602973938, -0.6478865742683411,
			0.00018055540567729622, -0.007941851392388344, -0.03164191171526909,
			-0.10874705016613007, -0.7800992131233215, -0.3055139482021332, -0.025217223912477493,
			0.4015190899372101, 0.34706005454063416, -0.4510706067085266, 0.07233326137065887,
			0.09444832056760788, 0.1998097002506256, -0.006317603401839733, -0.012945861555635929,
			-0.20618440210819244, -0.4213329553604126, -0.008349578827619553,
			-0.041498031467199326, -0.4654008150100708, 0.09606775641441345, 0.48386263847351074,
			-0.14117789268493652, 0.5755991339683533, 0.33659541606903076, 0.3019401729106903,
			-0.5066505670547485, -0.6952965259552002, 0.00717659667134285, -0.03485512733459473,
			-0.03528860956430435, 0.15879805386066437, -0.7071051597595215, 0.6940603852272034,
			1.1282455921173096, -0.3191286623477936, -0.5244772434234619, -0.2997656464576721,
			-0.1313408613204956, -0.25072813034057617, -0.3398381471633911, -0.46929413080215454,
			-0.12005726993083954, -0.38487789034843445, -0.2537543773651123,
			-0.027422046288847923, -0.22396232187747955, -0.3855139911174774,
			0.018702257424592972, -0.04048677906394005, 0.7304900288581848, 0.8317722082138062,
			1.1490156650543213, 1.02008855342865, 0.2980913817882538, 0.13825470209121704,
			0.0040878839790821075, 0.029336821287870407, 0.0011489801108837128,
			-0.0511777438223362, 0.09683434665203094, -0.7846183180809021, -0.8595412373542786,
			-0.7750976085662842, 0.18392348289489746, 0.6205087900161743, 0.12640827894210815,
			0.2902306318283081, 0.48422971367836, 0.30401283502578735, 0.372483491897583,
			0.28546515107154846, -0.44018030166625977, -0.3366605043411255, -0.3651011884212494,
			-0.1109839528799057, -0.4966258704662323, 0.09258658438920975, 0.9969482421875,
			0.7170604467391968, 0.9256407022476196, 0.7033153176307678, 0.1997630000114441,
			0.13004155457019806, 0.02628510445356369, 0.003179263323545456, -0.020156733691692352,
			-0.02516983449459076, 0.40293872356414795, -1.4760115146636963, -1.3296672105789185,
			-1.0774037837982178, 0.09430865943431854, 0.9330253601074219, 0.7634243369102478,
			0.5787276029586792, 0.37565159797668457, -0.24042052030563354, -0.04691123217344284,
			0.011195891536772251, -1.114410161972046, 0.5615237355232239, 0.42094630002975464,
			0.796364963054657, 0.05091341957449913, 0.9448392391204834, 0.30817702412605286,
			0.10792636126279831, 0.2906561493873596, 0.29985445737838745, 0.02921479567885399,
			-0.008330583572387695, 0.01657254248857498, -0.01647108420729637,
			0.006655506789684296, -0.02271728217601776, 0.0348743237555027, 0.27253299951553345,
			0.27750054001808167, 0.3950471878051758, 0.32787784934043884, 0.3135930597782135,
			0.2080579251050949, 0.5853913426399231, 0.2326010912656784, 0.17066210508346558,
			0.24498121440410614, 0.31314536929130554, 0.2812318205833435, 0.26914459466934204,
			0.8280848264694214, 1.245187759399414, 0.4837731719017029, 0.30418962240219116,
			0.17863579094409943, 0.10993436723947525, 0.09179872274398804, 0.024204503744840622,
			0.0317782498896122, -0.025845017284154892, 0.02366238832473755
		],
		[
			0.019054017961025238, 0.008689183741807938, 0.002180885523557663,
			0.008288577198982239, -0.02236008271574974, 0.03502614423632622,
			-0.027327466756105423, -0.03289004787802696, -0.006754480302333832,
			0.001554138958454132, 0.007815200835466385, -0.020855773240327835,
			0.006361978128552437, 0.0007741491426713765, 0.21273531019687653, 0.05134976655244827,
			-0.0033872537314891815, -0.004215657711029053, 0.018150851130485535,
			0.03118213638663292, 0.024622511118650436, 0.030087057501077652, 0.006498910486698151,
			-0.013575784862041473, -0.02863713726401329, 0.031352680176496506,
			0.030512798577547073, -0.028685294091701508, -0.02574973553419113,
			0.023472093045711517, -0.024032091721892357, -0.007570816203951836,
			0.007837080396711826, 0.1055985763669014, 0.1820838302373886, 0.12301613390445709,
			0.021748745813965797, 0.0061065563932061195, 0.09258697926998138, 0.3960775136947632,
			0.24086099863052368, 0.36761927604675293, -0.09444320201873779, 0.05813924968242645,
			0.4506024420261383, 0.3048381507396698, -0.2596559226512909, 0.006240507122129202,
			0.03302105516195297, -0.11198700219392776, 0.1459687203168869, 0.15437062084674835,
			0.008713796734809875, 0.03159939870238304, -0.029846955090761185,
			-0.030445342883467674, -0.02964964136481285, 0.018210969865322113,
			0.04089362174272537, 0.9580444097518921, 1.0261449813842773, 0.005109294783324003,
			-0.012465235777199268, 0.3947969675064087, 0.01427720207720995, -0.16100595891475677,
			0.20458857715129852, 0.226787269115448, 0.0429442897439003, -0.9261537790298462,
			-0.4799049496650696, -0.9659038186073303, -1.0896399021148682, -0.9181941151618958,
			-0.6212630271911621, -0.7674759030342102, -0.45282280445098877, -0.18851575255393982,
			-0.5108553767204285, -0.06204207241535187, 0.1226547509431839, 0.3226132392883301,
			-0.023222610354423523, 0.0012184381484985352, -0.003225121647119522,
			-0.005756774917244911, -0.7650792002677917, 0.9655535221099854, 1.207787275314331,
			-0.4681299030780792, -0.5528015494346619, -0.7933387756347656, -0.5680388808250427,
			0.6739218831062317, 0.18075956404209137, -0.18834568560123444, 0.034248024225234985,
			0.7994228005409241, -0.09297684580087662, -0.376179039478302, -0.054996419697999954,
			0.3632819652557373, -0.13342219591140747, -0.19712655246257782, -0.09248087555170059,
			0.7205011248588562, 0.5829413533210754, 0.4410738945007324, -0.0796901062130928,
			0.7883135080337524, 0.30993369221687317, -0.0295663233846426, -0.026777077466249466,
			-0.06078670918941498, -0.8042374849319458, -0.011232122778892517, -0.2810867428779602,
			-0.73094242811203, -0.06743767857551575, 0.24972426891326904, -0.4147045612335205,
			0.47592052817344666, 0.09167825430631638, 0.3633694648742676, 0.3206339180469513,
			-0.10010164976119995, -0.08985008299350739, 0.007970539852976799, 0.19908063113689423,
			0.6721546649932861, 0.4996891915798187, 0.5205832123756409, 0.48187512159347534,
			-0.16704310476779938, 0.48902231454849243, 0.6876083612442017, 0.6834703087806702,
			0.572128415107727, 0.5332135558128357, -0.25124841928482056, 0.03079300746321678,
			-0.01983969286084175, 0.14238673448562622, 0.13822242617607117, -0.6678692698478699,
			-1.3508013486862183, -0.5818731784820557, -0.09835871309041977, -0.14601117372512817,
			-0.03710848093032837, 0.5306969881057739, 0.7664930820465088, 0.1767483353614807,
			0.04792298749089241, 0.11177466809749603, 0.03141188621520996, 0.057667456567287445,
			0.2670752704143524, -0.061175793409347534, -0.13284604251384735, 0.10830982029438019,
			-0.12371058762073517, 0.09712271392345428, -0.6330317258834839, -0.006575501058250666,
			0.39258718490600586, 0.5028270483016968, -0.2637847065925598, 0.020740419626235962,
			-0.3560168743133545, 0.7171605229377747, -1.2379192113876343, -0.5046325325965881,
			-0.6836219429969788, -0.3580971956253052, -0.10882343351840973, 0.1058565229177475,
			-0.24300140142440796, 0.0892074778676033, 0.43213847279548645, 0.09799017757177353,
			0.1600184440612793, 0.183987095952034, 0.19604238867759705, 0.20238319039344788,
			-0.0483686588704586, -0.08856255561113358, -0.2064630687236786, -0.2954109311103821,
			-0.3837975561618805, 0.18898728489875793, 0.19101905822753906, -0.2790457010269165,
			0.16370616853237152, -0.22551296651363373, -0.41397035121917725,
			-0.003960132133215666, -1.1171146631240845, 0.38388240337371826, -0.7783628106117249,
			-0.3608241379261017, -0.8249841928482056, -0.3235647976398468, -0.17739996314048767,
			0.027605947107076645, 0.056161604821681976, 0.5363470315933228, 0.5329810976982117,
			0.05307411774992943, -0.02750140242278576, -0.11664889752864838, 0.11225584149360657,
			0.11981350183486938, -0.11349109560251236, 0.056904494762420654, -0.06496050953865051,
			-0.3752199709415436, -0.30690211057662964, 0.05668420344591141, 0.060597870498895645,
			0.10449259728193283, 0.4974833130836487, 0.33660632371902466, 0.22026555240154266,
			1.7963628768920898, -0.3112322986125946, -0.3415209949016571, -0.35640057921409607,
			-0.6822656989097595, -0.6914002895355225, 0.45879456400871277, 0.1668538749217987,
			0.2779199182987213, 0.421497106552124, 0.5908791422843933, 0.22440554201602936,
			-0.07604875415563583, 0.02651171013712883, 0.02239086851477623, -0.20073065161705017,
			0.15398536622524261, 0.18493624031543732, 0.169979527592659, 0.04254203662276268,
			0.05640607327222824, -0.2784631848335266, -0.047296784818172455, 0.10123030841350555,
			0.4200954735279083, 0.7051913738250732, 0.23662465810775757, 0.5871173143386841,
			-0.09630168229341507, -0.637653112411499, -0.10100051760673523, -0.6929376125335693,
			-0.8588606119155884, -0.08906850218772888, 0.8716641068458557, 0.47077563405036926,
			0.12180401384830475, 0.29288920760154724, 0.43738439679145813, -0.08022186905145645,
			0.0032460729125887156, 0.3146730363368988, 0.27544739842414856, -0.20221483707427979,
			0.137980654835701, 0.3396485447883606, 0.14586223661899567, 0.09567271918058395,
			0.0635187104344368, -0.24656346440315247, -0.43326112627983093, -0.2941930294036865,
			0.7953180074691772, 0.4538576304912567, 0.5534670948982239, -0.9878481030464172,
			-0.11463110893964767, -0.32335495948791504, -0.5060591697692871, -0.6588165163993835,
			-0.38324692845344543, 0.5075942277908325, 0.6162101030349731, 0.30768680572509766,
			0.05355187505483627, 0.1791963428258896, 0.11759305745363235, -0.22320424020290375,
			-0.12096653878688812, 0.025060001760721207, 0.3865516781806946, 0.04377157241106033,
			0.19550469517707825, 0.29032912850379944, 0.3442375361919403, -0.049754541367292404,
			0.019969942048192024, -0.13361655175685883, -0.2886483371257782, 0.3902049660682678,
			0.8012843132019043, 0.10265930742025375, 0.49674180150032043, -1.1890654563903809,
			-0.3478545546531677, 1.4198694229125977, -0.9464139938354492, -0.4040866792201996,
			0.1032358855009079, 0.03582925722002983, 0.4570200741291046, 0.40019491314888,
			-0.11135172098875046, -0.26149898767471313, -0.24379637837409973, -0.0696035698056221,
			-0.02013223245739937, -0.017504578456282616, 0.20454438030719757, 0.17383834719657898,
			-0.03484565019607544, 0.32682493329048157, 0.23281949758529663, 0.13671092689037323,
			0.13464631140232086, 0.08323661237955093, -0.11561623960733414, 0.45853906869888306,
			1.4632419347763062, 0.7203938364982605, 1.6377389430999756, -0.5669864416122437,
			-0.21544021368026733, -0.13406358659267426, -0.632278561592102, 0.3456317186355591,
			0.45223182439804077, -0.18228504061698914, 0.39114677906036377, 0.2879476249217987,
			-0.3697519898414612, -0.1569608896970749, -0.14763782918453217, 0.3039071559906006,
			0.10791525989770889, -0.15242911875247955, -0.1582241803407669, -0.21362553536891937,
			-0.6319577693939209, 0.031976986676454544, -0.3097688555717468, 0.2825526297092438,
			0.13675786554813385, 0.1692599207162857, 0.3172289729118347, 0.5078473687171936,
			0.8867455720901489, 0.619444727897644, 0.8989683389663696, -0.45236653089523315,
			-0.1079816147685051, -0.14831461012363434, -0.8822202086448669, 0.4412696957588196,
			0.5051159858703613, -0.171281635761261, -0.2103164792060852, 0.16810546815395355,
			-0.05925032123923302, 0.18626241385936737, 0.27026697993278503, 0.0577215738594532,
			0.10590802133083344, -0.33144664764404297, -0.36363449692726135, -0.2208399921655655,
			-0.5329567193984985, -0.47293564677238464, -0.11052069067955017, 0.33916422724723816,
			0.18410350382328033, 0.4122914969921112, 0.8727802038192749, 0.7226855158805847,
			0.5595216155052185, 0.6675375699996948, 0.9503217935562134, 0.3572348952293396,
			0.2407529056072235, -0.2728941738605499, -1.0041124820709229, -0.1911928951740265,
			0.6347332000732422, 0.1286461502313614, -0.09550116211175919, 0.028248203918337822,
			0.1344272941350937, 0.165988028049469, 0.31980806589126587, 0.17018839716911316,
			-0.142417311668396, -0.21292556822299957, -0.23094534873962402, -0.1542290449142456,
			-0.4366510510444641, -0.33037641644477844, 0.07752779871225357, -0.4776216149330139,
			0.21158699691295624, 0.6052228212356567, 0.41843491792678833, 0.3576600253582001,
			0.8197287321090698, 1.00807523727417, 0.6198553442955017, 0.20475681126117706,
			0.17523370683193207, -0.12442784756422043, -0.9065892100334167, 0.10240544378757477,
			0.7556710839271545, 0.23618414998054504, -0.08898290246725082, -0.11774202436208725,
			0.05092640221118927, 0.3154199719429016, 0.18504872918128967, -0.1832292079925537,
			0.0049093859270215034, -0.13501045107841492, -0.17316502332687378,
			-0.2843160331249237, -0.11246935278177261, -0.13167990744113922, 0.10872582346200943,
			-0.16287541389465332, -0.007759824860841036, 0.1699684113264084, 0.00203859549947083,
			0.42701467871665955, 1.1607673168182373, 1.01823091506958, -0.06869176775217056,
			0.40381401777267456, -0.21327900886535645, -0.19720594584941864, -0.48321717977523804,
			0.26528438925743103, 0.19642363488674164, -0.29359468817710876, -0.11485602706670761,
			-0.20228052139282227, -0.20667633414268494, -0.29680728912353516,
			-0.16550302505493164, -0.13915865123271942, 0.16912660002708435, -0.40800806879997253,
			-0.185445636510849, -0.14696022868156433, -0.1604674905538559, 0.04912111163139343,
			0.04683629795908928, -0.2650609612464905, -0.007184446789324284, -0.327334463596344,
			-0.08440039306879044, 0.6565373539924622, 0.0038123405538499355, 1.0469064712524414,
			0.6140217185020447, 0.5167883634567261, -0.026679664850234985, -0.25448372960090637,
			-0.369294136762619, 0.32265761494636536, 0.3826651871204376, -0.34693169593811035,
			0.054397642612457275, -0.12349219620227814, -0.18408623337745667,
			-0.07406672090291977, 0.12073902040719986, 0.3598928451538086, 0.2553563117980957,
			-0.3392232060432434, -0.3323090970516205, -0.11988351494073868, -0.12834417819976807,
			0.08420911431312561, -0.25669077038764954, -0.0758180022239685, -0.05603905767202377,
			-0.3799797594547272, -0.14368782937526703, 0.2589758038520813, 0.22033776342868805,
			0.4384361803531647, -0.7089210152626038, 1.0677253007888794, -0.7826083898544312,
			-0.3630181550979614, -0.25253626704216003, -0.12421482056379318, 0.12075769156217575,
			-0.08213242888450623, 0.21360710263252258, -0.0646507740020752, -0.15079019963741302,
			-0.15874625742435455, 0.20274655520915985, 0.48702576756477356, 0.28216463327407837,
			-0.47142624855041504, -0.1064530536532402, 0.15181677043437958, -0.23127679526805878,
			-0.38322174549102783, -0.23342099785804749, -0.015987690538167953, -0.294080525636673,
			-0.29927003383636475, -0.047217752784490585, 0.28259527683258057, 0.3871268928050995,
			0.47090479731559753, -0.7089462280273438, -0.42366915941238403, -0.22958894073963165,
			-0.16188205778598785, 0.36489230394363403, -0.42122790217399597, 0.08579475432634354,
			0.05600900575518608, 0.004540721420198679, -0.014417087659239769,
			-0.024666234850883484, -0.23721717298030853, 0.27641063928604126, 0.23796617984771729,
			0.34248998761177063, -0.020869271829724312, 0.017645740881562233, 0.13605104386806488,
			-0.18308047950267792, -0.025518449023365974, -0.030137062072753906,
			0.10620209574699402, 0.22854377329349518, 0.13109715282917023, 0.18506833910942078,
			0.3285302221775055, -0.5380454659461975, -0.35172802209854126, 0.5946711897850037,
			-0.2932906746864319, 0.0150047168135643, 0.4116465449333191, 0.46271324157714844,
			0.024110237136483192, 0.6965619325637817, 0.43201538920402527, 0.008464077487587929,
			-0.02392623759806156, 0.3322395086288452, 0.3062429428100586, 0.49376100301742554,
			0.39233720302581787, 0.3041749894618988, 0.1884021908044815, -0.11518161743879318,
			0.2551264464855194, -0.21855749189853668, -0.029444562271237373, -0.18873128294944763,
			0.031109482049942017, -0.0019432059489190578, -0.08365738391876221,
			-0.09336262941360474, -0.2830454111099243, -1.0615191459655762, 0.0018274551257491112,
			0.22607412934303284, -0.17697389423847198, -0.16258534789085388,
			-0.026268629357218742, -0.17105525732040405, 0.2894652187824249, 0.3760453462600708,
			-0.08660668879747391, 0.34560373425483704, 0.3631282150745392, 0.3350212872028351,
			0.4570049047470093, 0.39902228116989136, 0.5968701243400574, 0.2584556043148041,
			0.07824680209159851, 0.08261630684137344, 0.23209238052368164, -0.2899349629878998,
			0.004136526491492987, -0.31250569224357605, -0.3898997902870178, -0.6805781722068787,
			-0.33969902992248535, 0.10754115134477615, 0.011546204797923565, -0.9298405051231384,
			0.2651563882827759, 1.625158429145813, 0.005169329699128866, -0.16714441776275635,
			-0.08161976933479309, 0.22065620124340057, 1.286077618598938, -0.06130538508296013,
			0.12052113562822342, 0.4740873873233795, 0.4832412302494049, 0.29174456000328064,
			0.4789055585861206, 0.3465060591697693, 0.28405627608299255, 0.35428574681282043,
			0.30675968527793884, 0.26777246594429016, 0.01971260830760002, -0.2141331285238266,
			0.03886977210640907, 0.11458281427621841, -0.2551867961883545, -0.4236483871936798,
			-0.40262097120285034, 0.04896044731140137, 0.11270633339881897, -0.6050726175308228,
			0.0791936069726944, 0.7544121146202087, 0.048134297132492065, 0.004483610391616821,
			0.0020499341189861298, -0.1571086049079895, 0.6217894554138184, -0.04448571801185608,
			0.039441872388124466, -0.4492388069629669, -0.3834226131439209, 0.24100880324840546,
			0.05865321308374405, -0.02704453654587269, -0.21408385038375854, -0.1325157880783081,
			0.026354771107435226, 0.013170082122087479, -0.13239090144634247, 0.28050729632377625,
			0.563873827457428, 0.33551129698753357, -0.046669043600559235, -0.13778816163539886,
			-0.2806089222431183, 0.2286110818386078, 0.4003217816352844, -0.26197564601898193,
			0.3588234782218933, -0.24318471550941467, 0.030426498502492905, 0.00813642144203186,
			0.017512697726488113, -0.3763945400714874, -0.06947984546422958, 0.07240434736013412,
			-0.3567638099193573, -1.046546220779419, -0.7929072380065918, -0.5202857851982117,
			-0.23161493241786957, -0.3921867311000824, -0.5197579264640808, -0.25348737835884094,
			-0.2286960482597351, -0.1850118488073349, -0.42120784521102905, 0.3641892075538635,
			-0.09933632612228394, 0.5856078863143921, 0.09526360780000687, -0.09504967927932739,
			-0.5791910290718079, -0.28821519017219543, 0.3870897889137268, 0.5690616965293884,
			0.1819397658109665, -0.07701573520898819, -0.02340085245668888, -0.017555296421051025,
			0.03517380729317665, 0.661047101020813, -0.17381161451339722, -0.6124315857887268,
			-0.513404369354248, -0.5666723251342773, -0.8390597105026245, -1.1385366916656494,
			-1.0169625282287598, -0.05804538354277611, -0.19552360475063324, -0.8879484534263611,
			-0.6683288812637329, -0.767090380191803, -0.21432539820671082, -0.2777504324913025,
			0.01819516159594059, -0.11877331137657166, 0.5176540613174438, 1.0795035362243652,
			0.3597838878631592, 0.12162058055400848, 0.7513140439987183, 0.8533523082733154,
			0.12610618770122528, 0.07183025032281876, 0.0248735211789608, 0.019541077315807343,
			-0.026559490710496902, -0.022349154576659203, 0.8006624579429626, 0.9276150465011597,
			0.8322135210037231, 0.4916260540485382, 0.004354668781161308, 0.08066326379776001,
			-0.3314017057418823, -0.017947549000382423, 0.23374438285827637, 0.4470844268798828,
			0.19610537588596344, 0.010013123974204063, -0.9736563563346863, -0.09322921931743622,
			0.34582579135894775, 0.29481828212738037, 0.4791020154953003, 0.94801265001297,
			-0.010503069497644901, -0.2895808517932892, 0.5705012083053589, -0.11560790985822678,
			-0.04249397665262222, -0.013644171878695488, -0.01959117501974106,
			0.01781444251537323, -0.021937355399131775, -0.0306791290640831,
			-0.008106831461191177, -0.2986339330673218, -0.40292254090309143,
			-0.014286506921052933, 0.016652531921863556, 0.0238625630736351, -0.4301799535751343,
			-0.6723364591598511, -0.19099247455596924, -0.12613485753536224, -0.6200082898139954,
			-1.0888561010360718, 0.13780032098293304, -0.41006308794021606, -0.8489812016487122,
			-0.00936307106167078, 0.4809955060482025, -0.491354376077652, -0.68930983543396,
			-0.4622679650783539, -0.13641682267189026, -0.03117959201335907,
			-0.031045373529195786, -0.02507791481912136, -0.03564351052045822
		],
		[
			-0.01570325344800949, 0.012905273586511612, -0.029171131551265717,
			-0.016276385635137558, -0.0003042928874492645, -0.030352849513292313,
			-0.02439270354807377, -0.03536956012248993, -0.008498230949044228, 0.0046369768679142,
			0.02770642563700676, 0.01094977930188179, 0.009227685630321503, 0.0028790272772312164,
			0.015942387282848358, -0.026673445478081703, 0.020760122686624527,
			-0.004554195329546928, 0.015646278858184814, 0.022042512893676758,
			-0.026256345212459564, -0.032870419323444366, 0.007912460714578629,
			-0.012762006372213364, -0.022198563441634178, -0.008092982694506645,
			0.03176412358880043, -0.01655130460858345, -0.010258505120873451,
			0.015050727874040604, -0.0019408166408538818, -0.014296600595116615,
			0.001043073832988739, -0.021881500259041786, 0.07037558406591415, 0.12276173382997513,
			0.06634562462568283, 0.07454218715429306, -0.2810461223125458, -0.42197319865226746,
			0.048218391835689545, 0.4168511629104614, -0.2845630943775177, -0.5662984251976013,
			0.2973438501358032, 0.4063057601451874, 0.4112597703933716, 0.3739047050476074,
			0.4405166208744049, 0.40692806243896484, 0.5253216028213501, -0.022898564115166664,
			-0.016676664352416992, 0.02991199865937233, 0.021052315831184387,
			-0.009407656267285347, 0.028227631002664566, 0.004416413605213165,
			0.10129384696483612, 0.1346343457698822, 0.27608540654182434, 0.14142076671123505,
			0.06219089403748512, 0.07687368988990784, -0.030071983113884926, 0.1635632961988449,
			0.09334980696439743, 0.48950034379959106, -0.24058933556079865, -0.1451435089111328,
			0.09867190569639206, -0.525195837020874, -0.3838864266872406, 0.34060850739479065,
			0.6560274362564087, 0.33544883131980896, 0.24803468585014343, 0.2210848331451416,
			0.4913605749607086, 0.30339154601097107, -0.14564871788024902, -0.18616680800914764,
			0.004206795245409012, 0.018957313150167465, 0.03265831246972084,
			-0.029875386506319046, -0.9874153137207031, 0.02984349988400936, 0.825417697429657,
			0.4090934097766876, 0.5397228002548218, 0.6685930490493774, -0.3296828269958496,
			-0.2913629412651062, -0.6784679293632507, -0.32197141647338867, -0.37287983298301697,
			0.04585140198469162, 0.5819152593612671, -1.0704879760742188, -0.09360050410032272,
			0.5161245465278625, 0.6892363429069519, 0.4998648166656494, 0.9436842799186707,
			0.7107608318328857, 0.08435716480016708, 0.8356714844703674, 0.6850662231445312,
			0.24063414335250854, 0.3392857611179352, -0.0022008605301380157,
			-0.006446123123168945, 0.09319069236516953, -0.5656395554542542, -0.18169786036014557,
			-0.4324718415737152, 0.7419396638870239, 0.8658503293991089, 0.9313840866088867,
			0.1699199378490448, -0.04973680526018143, -0.27375608682632446, -0.38061562180519104,
			-0.3558870851993561, 0.18669675290584564, -0.13485465943813324, -0.24841898679733276,
			0.16775599122047424, 0.2003631591796875, 0.050445277243852615, -0.04289693012833595,
			0.055048875510692596, 0.2101977914571762, 0.47391200065612793, 1.0206679105758667,
			0.8719542622566223, 0.4166411757469177, 0.27560150623321533, 0.47671908140182495,
			0.020764224231243134, -0.0006476975977420807, 1.3472294807434082, 0.8457663059234619,
			0.44990214705467224, 0.49101144075393677, -0.4058818817138672, -0.3165239095687866,
			-0.4869422912597656, -0.4713733196258545, -0.4592655599117279, -0.5557724237442017,
			-0.25584089756011963, -0.08618666231632233, -0.06756587326526642, 0.17134147882461548,
			0.12638428807258606, 0.3735060691833496, -0.007174353115260601, 0.15356765687465668,
			0.5571715831756592, -0.26939651370048523, 0.2552044987678528, 0.15822073817253113,
			0.6587955951690674, 0.22539441287517548, 0.9054026007652283, 0.5294708609580994,
			0.010616380721330643, 0.32535243034362793, 0.5130430459976196, 0.6094652414321899,
			0.2749982178211212, -0.008121141232550144, -0.4897826313972473, -0.3657582998275757,
			0.09633434563875198, -0.31760746240615845, -0.4230586886405945, -0.5790725946426392,
			-0.29274046421051025, 0.12527355551719666, -0.09611465036869049, -0.14745818078517914,
			0.15096145868301392, 0.05201805755496025, -0.07421771436929703, 0.37692901492118835,
			0.7043123245239258, -0.07629778236150742, 0.09046187251806259, 0.5465999841690063,
			0.772273600101471, 0.7744525671005249, 0.36138051748275757, -0.1178591251373291,
			-0.03175298124551773, 0.34032800793647766, -0.24041500687599182, 0.005965115502476692,
			-0.010272536426782608, -0.23944076895713806, -0.8920106291770935, -0.7932186126708984,
			-0.37277504801750183, 0.024750681594014168, -0.3378755450248718, -0.4607399106025696,
			-0.6476357579231262, -0.08543990552425385, -0.09118228405714035, 0.3276633620262146,
			0.25579744577407837, 0.34812572598457336, 0.41285425424575806, 0.32840508222579956,
			0.5649407505989075, -0.08342084288597107, 0.2007281333208084, 0.314043253660202,
			0.17429473996162415, 0.3056615889072418, 0.595814049243927, -0.057123295962810516,
			0.03471693769097328, -0.09146039187908173, -0.71219402551651, -0.5333338975906372,
			0.3444080948829651, 0.590611457824707, 0.42077240347862244, -0.12939989566802979,
			0.20246900618076324, 0.470231831073761, 0.20724868774414062, -0.45829033851623535,
			-0.3357868492603302, -0.17872053384780884, -0.2649454176425934, 0.11705167591571808,
			0.3787769675254822, 0.1590520143508911, 0.06292286515235901, -0.0676552876830101,
			0.17034684121608734, 0.020567012950778008, 0.3243839740753174, 0.07846236228942871,
			0.5565340518951416, 0.26864001154899597, 0.02126726135611534, 0.035934872925281525,
			-0.09174221009016037, -0.07805851846933365, -0.6007537841796875, -0.40244588255882263,
			0.08816885203123093, 0.3670070469379425, -0.25528427958488464, 0.014583260752260685,
			-0.06442370265722275, -0.19041651487350464, -0.21252967417240143, -0.0585324764251709,
			0.04786630719900131, -0.09008582681417465, -0.5347741842269897, -0.4442593455314636,
			-0.5135497450828552, -0.3010711371898651, -0.7108752131462097, -0.9024316072463989,
			-0.2943834364414215, -0.8453817963600159, -0.2041897028684616, 0.1738676130771637,
			1.0087133646011353, 0.16970640420913696, -0.3426860272884369, -0.4618161916732788,
			-0.07922561466693878, -0.09235815703868866, -0.08258030563592911, 0.6388766765594482,
			0.4492267966270447, 0.39529407024383545, -0.08287718892097473, 0.422627717256546,
			-0.4795916676521301, -0.5607844591140747, 0.017743971198797226, 0.5328531265258789,
			0.5891210436820984, -0.09271486848592758, -0.38452664017677307, -0.2303241640329361,
			-0.38550668954849243, -0.5842276215553284, -0.5468977689743042, -0.9323963522911072,
			-0.4568365812301636, -1.1003304719924927, 0.06648282706737518, 0.08822315186262131,
			0.3926270008087158, -0.3380837142467499, -0.6429929137229919, -0.8389397263526917,
			-0.08250101655721664, -0.09037161618471146, 0.4464816451072693, 0.5466054081916809,
			0.13288913667201996, -0.45004802942276, 0.11490876972675323, -0.1402098834514618,
			-0.4851224720478058, -0.8894403576850891, -0.0927373617887497, 0.2799091041088104,
			0.10608398169279099, 0.1309932917356491, 0.2355605959892273, 0.28724998235702515,
			-0.33613476157188416, -0.134525865316391, -0.022200191393494606, -0.5714463591575623,
			-0.6271083354949951, -0.6630188822746277, -0.7893808484077454, -0.5876114368438721,
			-0.29569968581199646, -0.9214817881584167, -0.10448170453310013, -0.4947583079338074,
			0.012807376682758331, -0.08076487481594086, 0.3016763925552368, -0.37398529052734375,
			0.11314380168914795, -0.5546717643737793, -0.7866545915603638, -0.6507275104522705,
			-0.5537407994270325, -0.13831250369548798, -0.09392347186803818, 0.1549087017774582,
			-0.11811158061027527, 0.4555470645427704, 0.8368449807167053, 0.6416637897491455,
			-0.4011244773864746, 0.01069275476038456, 0.11642925441265106, -0.10909583419561386,
			-0.13098594546318054, -0.3000422716140747, -0.3140239715576172, -0.29530155658721924,
			-0.29677054286003113, -0.29010844230651855, 0.46293336153030396, -0.09713436663150787,
			0.0644429475069046, -0.043312299996614456, -0.3728637993335724, 0.12405780702829361,
			-0.41302427649497986, -0.5413457155227661, 0.07967998087406158, 0.37170806527137756,
			0.38095325231552124, -0.11174137145280838, -0.03550148755311966, 0.0342075414955616,
			0.5163347721099854, 0.8585278987884521, 0.721339762210846, 0.22441314160823822,
			-0.26966592669487, 0.1852952390909195, 0.023205924779176712, 0.0864865779876709,
			0.05707418918609619, -0.2754441201686859, -0.46195828914642334, -0.005196777638047934,
			0.2462330162525177, 0.2312093824148178, 0.6728482842445374, -0.12358377128839493,
			0.272895485162735, 0.2232166826725006, -0.03189692273736, 0.844110369682312,
			-0.9354563355445862, -0.10163701325654984, 0.38537490367889404, 0.06850728392601013,
			0.017981991171836853, -0.2763098478317261, -0.192818284034729, 0.22790703177452087,
			0.7520044445991516, 0.5915263295173645, -0.0038882128428667784, -0.2070888876914978,
			-0.02529381960630417, 0.021058501675724983, -0.2590318024158478, -0.14909784495830536,
			0.5824495553970337, -0.20153944194316864, -0.7608837485313416, -0.8618351817131042,
			-1.0130963325500488, -0.12620851397514343, -0.3149918019771576, -0.11763511598110199,
			0.22677826881408691, 0.18612907826900482, -0.019301433116197586, -1.228550910949707,
			-0.463312566280365, 0.07453856617212296, -0.2632472813129425, -0.1486634612083435,
			-0.18887177109718323, -0.8746544122695923, -0.5954275131225586, 0.2633950412273407,
			0.743958592414856, -0.04412706568837166, -0.04194246232509613, 0.08415502309799194,
			0.22937656939029694, 0.20805278420448303, 0.27238428592681885, 0.029680993407964706,
			0.658011257648468, -0.2861756682395935, -0.3630816340446472, -0.24831841886043549,
			-0.655286431312561, -0.2964211702346802, -0.19322337210178375, -0.11124160140752792,
			-0.22987844049930573, 0.1583077758550644, -0.26284855604171753, -0.937516450881958,
			-0.34871599078178406, -0.24106253683567047, -0.5198860764503479, -0.5764794945716858,
			-0.7133440375328064, -0.7369244694709778, -0.22430141270160675, 0.03703173249959946,
			0.09048831462860107, -0.27285638451576233, -0.049406714737415314, 0.02203390933573246,
			0.1876850426197052, 0.4454447627067566, 0.22590363025665283, 0.1309044361114502,
			0.41254499554634094, -0.8769122958183289, -0.3494631350040436, -0.41847607493400574,
			0.23780599236488342, 0.04975738376379013, -0.23689666390419006, 0.12150251120328903,
			0.013525135815143585, 0.09055161476135254, -0.48226332664489746, -0.6472005248069763,
			0.47779905796051025, -0.16532672941684723, -0.28769025206565857, -0.3897325396537781,
			-0.5786598920822144, -0.3085496127605438, -0.10732775926589966, -0.493488609790802,
			-0.30815190076828003, -0.39488548040390015, -0.2897586524486542, -0.06610230356454849,
			0.19372700154781342, 0.48943600058555603, 0.49426427483558655, 0.38862502574920654,
			0.2648148536682129, -0.8130699992179871, -0.952275276184082, -0.9770970940589905,
			-0.46188855171203613, -0.26361745595932007, 0.575381338596344, 1.0138870477676392,
			0.2770427465438843, -0.10654418915510178, -0.1286243200302124, -0.4785043001174927,
			0.44796767830848694, 0.35436469316482544, 0.18462514877319336, 0.06794597953557968,
			0.1847439706325531, -0.20600374042987823, -0.14596150815486908, -0.23205885291099548,
			-0.4278188943862915, -0.5190029144287109, -0.3346388339996338, 0.14555925130844116,
			0.4491739869117737, 0.5804046988487244, 0.7595633268356323, 0.40734046697616577,
			-0.6384873390197754, -1.170149326324463, -0.9796529412269592, -0.9248828887939453,
			-0.9353811144828796, 0.35744965076446533, 0.24828363955020905, -0.6257697939872742,
			-0.10448985546827316, -0.5179783701896667, 0.3880932927131653, 0.1357470005750656,
			1.064107060432434, 1.1101065874099731, 0.6029192805290222, -0.025124983862042427,
			0.2382487654685974, 0.12995176017284393, 0.13355199992656708, -0.39392146468162537,
			-0.4663328230381012, -0.5248377323150635, 0.19392412900924683, 0.33967405557632446,
			0.3616182804107666, 0.8630831837654114, 1.1451040506362915, 0.030134398490190506,
			-0.46413636207580566, -0.7349914312362671, -0.8525824546813965, -0.4522973299026489,
			-0.2974205017089844, 0.023199528455734253, -0.14484266936779022, -0.4400928318500519,
			-0.007918503135442734, 0.7577495574951172, -0.008941126987338066,
			-0.30842408537864685, 0.8091860413551331, 0.5499012470245361, 0.44026979804039,
			-0.09023785591125488, 0.130324125289917, 0.6735326647758484, 0.6210885643959045,
			0.058044467121362686, 0.12049002945423126, 0.09833711385726929, 0.14477679133415222,
			-0.02144802361726761, -0.07661207765340805, 0.6098442673683167, 0.09836098551750183,
			-0.46853041648864746, -0.9612010717391968, -0.52642822265625, -0.6365459561347961,
			-0.4927460551261902, -0.4031902253627777, -0.3060774505138397, -0.2506462037563324,
			-0.13402260839939117, -0.17468957602977753, -0.10866817831993103, -0.6431934833526611,
			-0.38796156644821167, -0.2734152674674988, 0.04923013597726822, 0.06523607671260834,
			0.09128810465335846, 0.2603071630001068, 0.3461751937866211, 0.179835245013237,
			0.4146515429019928, 0.44167360663414, 0.3689664900302887, 0.09520751982927322,
			0.04723688215017319, 0.12093532085418701, -0.09939566999673843, -0.5938764810562134,
			-0.3572978675365448, -0.7065080404281616, -0.760147750377655, -0.8928879499435425,
			-0.5027549862861633, -0.6923044919967651, -0.14196239411830902, -0.21901895105838776,
			-0.00838353019207716, -0.16202034056186676, 0.04282597452402115, -0.33903342485427856,
			0.8321974277496338, -0.7237832546234131, -0.43250909447669983, 0.0361519418656826,
			0.2869965136051178, 0.0762249082326889, 0.3203850984573364, 0.5956100821495056,
			0.7524779438972473, 0.4329640567302704, 0.377830445766449, 0.0471067950129509,
			0.22592483460903168, -0.2741188406944275, -1.142046332359314, -1.2454094886779785,
