{
   "results": [
      {
         "epoch": 9,
         "learning_rate": 0.01,
         "batch_size": 450,
         "to_shuffle": true,
         "loss": 0.034809241448529066,
         "accuracy": 0.9886333333333334,
         "fc_weights": [
            [
               0.002130601555109024,
               -0.013499090448021889,
               -0.02077716588973999,
               -0.003924466669559479,
               -0.004397738724946976,
               -0.005023377016186714,
               0.02675742283463478,
               0.014941934496164322,
               0.013526011258363724,
               -0.03465070575475693,
               0.03177676722407341,
               -0.01817367412149906,
               -0.1645675152540207,
               -0.14923644065856934,
               -0.4132454991340637,
               -0.0925699919462204,
               0.012855909764766693,
               -0.009921785444021225,
               0.022426098585128784,
               0.010550856590270996,
               -0.01179104670882225,
               -0.02779340371489525,
               -0.0002532489597797394,
               -0.026440655812621117,
               0.027829650789499283,
               0.00978434830904007,
               0.021493922919034958,
               -0.030618149787187576,
               0.026154961436986923,
               0.025417204946279526,
               0.01811983808875084,
               0.0032760389149188995,
               -0.004523227922618389,
               -0.0796380490064621,
               -0.3164425194263458,
               -0.2649465501308441,
               -0.04192116856575012,
               -0.016640307381749153,
               -0.22789451479911804,
               -0.710135281085968,
               -0.6828882694244385,
               -0.37519100308418274,
               0.24608540534973145,
               0.37590622901916504,
               -1.1019480228424072,
               -0.5025525093078613,
               -0.16029788553714752,
               -0.5010117888450623,
               -0.5118784308433533,
               -0.2010272890329361,
               -0.15622246265411377,
               0.019475482404232025,
               -0.020611368119716644,
               -0.00520702451467514,
               -0.02365776151418686,
               -0.02326824516057968,
               -0.03200221061706543,
               -0.025353725999593735,
               -0.24431222677230835,
               -0.24955807626247406,
               -0.08743583410978317,
               -0.14185920357704163,
               -0.46033918857574463,
               -0.3624402582645416,
               -0.3833414316177368,
               -0.4543454647064209,
               -0.5791822671890259,
               -0.4897068440914154,
               0.00133754953276366,
               0.7346585988998413,
               -0.24139101803302765,
               0.2354874312877655,
               0.5556171536445618,
               0.34927529096603394,
               0.08025418967008591,
               0.6030306816101074,
               0.11372561007738113,
               -0.3756510317325592,
               -0.4695713222026825,
               -0.48065006732940674,
               -0.35801589488983154,
               -0.0486542284488678,
               -0.034931547939777374,
               -0.010410718619823456,
               -0.020683344453573227,
               0.012471500784158707,
               -0.07271400839090347,
               0.08124842494726181,
               -0.011345074512064457,
               -0.11472708731889725,
               -0.182967409491539,
               0.0931740403175354,
               -0.14940115809440613,
               -0.5562768578529358,
               -0.13796360790729523,
               -0.5194592475891113,
               -0.14334985613822937,
               -0.1534024477005005,
               0.07583203911781311,
               0.5145069360733032,
               0.35390782356262207,
               0.16839709877967834,
               0.36983489990234375,
               0.5061290264129639,
               0.21489208936691284,
               -0.02563859149813652,
               -0.10959649085998535,
               -0.6924123764038086,
               -0.4731976091861725,
               0.3289243280887604,
               0.49480140209198,
               0.008498873561620712,
               0.03059748187661171,
               0.08052291721105576,
               -0.2848234176635742,
               0.4201180338859558,
               0.6111160516738892,
               0.44883230328559875,
               0.3483699560165405,
               0.008867540396749973,
               0.11906741559505463,
               0.0632997676730156,
               0.3938681185245514,
               0.13403163850307465,
               0.08700327575206757,
               0.11202190071344376,
               -0.01694670133292675,
               0.04230474680662155,
               0.018558558076620102,
               -0.35655683279037476,
               0.043831177055835724,
               0.2658422589302063,
               -0.06685292720794678,
               0.2385730892419815,
               -0.13781945407390594,
               -0.294262558221817,
               0.2172050178050995,
               0.5920137763023376,
               0.5200825333595276,
               -0.040547825396060944,
               0.02045382931828499,
               -0.005703117698431015,
               -0.1907387226819992,
               0.3154144287109375,
               -0.19975367188453674,
               0.9338039755821228,
               0.3289303779602051,
               -0.08010736852884293,
               -0.06531389057636261,
               0.1548759788274765,
               0.14341308176517487,
               -0.02921934239566326,
               0.000812393962405622,
               -0.236238494515419,
               -0.22500017285346985,
               -0.19699467718601227,
               -0.02046891488134861,
               0.05821215733885765,
               0.14815181493759155,
               0.20251932740211487,
               0.38100144267082214,
               0.3203819990158081,
               0.4398900866508484,
               0.5063857436180115,
               0.2717975378036499,
               -0.04739876836538315,
               -0.3373143672943115,
               0.04836886748671532,
               0.028638895601034164,
               0.2800348997116089,
               0.3158256709575653,
               -0.3471747636795044,
               -0.09259594231843948,
               0.26643115282058716,
               -0.13983160257339478,
               -0.18816222250461578,
               -0.09672369062900543,
               -0.052819401025772095,
               -0.06065859645605087,
               -0.20149503648281097,
               -0.20835848152637482,
               -0.29920241236686707,
               -0.23302435874938965,
               -0.042478881776332855,
               -0.1209217756986618,
               -0.02803352288901806,
               0.4310741722583771,
               0.6358001232147217,
               0.6957867741584778,
               0.23294328153133392,
               -0.01969771273434162,
               0.1983063519001007,
               0.3315699100494385,
               0.503919243812561,
               0.5654094219207764,
               -0.0025326258037239313,
               -0.0315103679895401,
               0.41594815254211426,
               -0.021207286044955254,
               -0.18943946063518524,
               0.1534150093793869,
               0.10334306210279465,
               -0.05158403143286705,
               0.10344954580068588,
               -0.2490788847208023,
               -0.18266764283180237,
               -0.19867008924484253,
               -0.10733798146247864,
               -0.07934810221195221,
               -0.34913718700408936,
               -0.09393881261348724,
               -0.13644064962863922,
               0.10375021398067474,
               0.4183127284049988,
               0.4408459961414337,
               0.6973931193351746,
               0.5493174195289612,
               0.2404703050851822,
               -0.015849201008677483,
               0.14410383999347687,
               0.0983206033706665,
               0.13672873377799988,
               0.9258880019187927,
               0.008127599023282528,
               -0.9263181090354919,
               0.15465599298477173,
               0.04801404848694801,
               0.021285099908709526,
               0.007931777276098728,
               0.18419498205184937,
               -0.17609405517578125,
               0.07226364314556122,
               -0.3419337272644043,
               -0.27111148834228516,
               -0.1388966143131256,
               0.021090706810355186,
               -0.0415000319480896,
               -0.1626138538122177,
               -0.2135530561208725,
               -0.011195180006325245,
               0.08501796424388885,
               0.46925264596939087,
               0.3953666388988495,
               0.49367597699165344,
               0.34350138902664185,
               0.18511170148849487,
               0.16757433116436005,
               0.09920333325862885,
               0.14936569333076477,
               0.20532779395580292,
               0.4565814137458801,
               0.08075699955224991,
               0.05964814871549606,
               0.163671612739563,
               0.4096260070800781,
               -0.4112407863140106,
               0.27711859345436096,
               0.03171853721141815,
               0.10608086735010147,
               0.0032864122185856104,
               0.006020764820277691,
               -0.10046643018722534,
               -0.402582585811615,
               -0.1941775679588318,
               -0.20408375561237335,
               -0.23141202330589294,
               -0.3219424784183502,
               -0.13007983565330505,
               0.1279526948928833,
               0.20389187335968018,
               0.35717031359672546,
               0.20160281658172607,
               0.003985496703535318,
               0.006175396963953972,
               0.1363285779953003,
               -0.526850700378418,
               -0.6209701299667358,
               0.018729083240032196,
               -0.07965471595525742,
               0.37505993247032166,
               0.07245388627052307,
               0.15069076418876648,
               0.3019114136695862,
               0.17100372910499573,
               0.09832684695720673,
               -0.13846822082996368,
               -0.16710372269153595,
               -0.16592557728290558,
               0.0032927491702139378,
               -0.19361869990825653,
               -0.2536700665950775,
               -0.21040144562721252,
               -0.09600034356117249,
               -0.09637506306171417,
               -0.4390506148338318,
               -0.2454523891210556,
               -0.13734392821788788,
               0.24059364199638367,
               0.2113310694694519,
               0.0323852002620697,
               -0.3675532042980194,
               -0.5653693675994873,
               -0.701093852519989,
               -1.098253607749939,
               -0.7691211700439453,
               -0.11939676851034164,
               0.2145901620388031,
               0.28995224833488464,
               0.045491304248571396,
               0.10962577164173126,
               0.24224601686000824,
               0.2014818638563156,
               -0.22355906665325165,
               -0.026924876496195793,
               -0.21146491169929504,
               -0.3466087281703949,
               -0.19018983840942383,
               -0.21857070922851562,
               -0.23673860728740692,
               -0.2971026301383972,
               -0.18918736279010773,
               -0.27522388100624084,
               -0.19429220259189606,
               -0.19358542561531067,
               0.06614476442337036,
               0.07531516999006271,
               0.06596879661083221,
               -0.27451837062835693,
               -0.8463166356086731,
               -0.7354630827903748,
               -1.0084909200668335,
               -1.0859421491622925,
               -1.2684199810028076,
               -0.5470491051673889,
               -0.06096459925174713,
               0.06933031976222992,
               0.09739499539136887,
               0.1637159287929535,
               0.20213985443115234,
               0.08808718621730804,
               -0.5740056037902832,
               -0.049576498568058014,
               -0.15437984466552734,
               -0.09034460037946701,
               -0.14538615942001343,
               -0.1789645105600357,
               0.12646734714508057,
               -0.21632809937000275,
               0.09914878010749817,
               0.0742993950843811,
               0.018612708896398544,
               0.21487845480442047,
               0.17009353637695312,
               -0.029210124164819717,
               -0.057264309376478195,
               -0.5217531323432922,
               -0.6897022128105164,
               -0.797099769115448,
               -1.1080138683319092,
               -1.1037861108779907,
               -1.001120924949646,
               -0.6196807622909546,
               -0.17938929796218872,
               0.021321233361959457,
               0.029918398708105087,
               0.20930024981498718,
               0.18621927499771118,
               0.12221982330083847,
               -0.4067203402519226,
               -0.23415160179138184,
               -0.17574630677700043,
               -0.12947072088718414,
               -0.1620074212551117,
               0.09356144815683365,
               -0.09231971949338913,
               -0.1219419613480568,
               -0.0567561499774456,
               -0.15235143899917603,
               0.07467995584011078,
               0.23948606848716736,
               0.31322839856147766,
               0.24903856217861176,
               -0.11388666927814484,
               -0.5880699753761292,
               -0.5417819619178772,
               -0.3497302532196045,
               -0.609261155128479,
               -0.6759852170944214,
               -0.5322982668876648,
               -0.42689335346221924,
               -0.1291128695011139,
               -0.39891517162323,
               0.2923915684223175,
               0.2967691421508789,
               0.41275036334991455,
               0.09132038801908493,
               0.4077262878417969,
               -0.04938080906867981,
               -0.19408683478832245,
               -0.082015261054039,
               0.06116499379277229,
               0.17533284425735474,
               0.1260707676410675,
               -0.24774041771888733,
               -0.22124937176704407,
               -0.16115717589855194,
               0.08636227250099182,
               0.2427694946527481,
               0.2372693121433258,
               0.18279878795146942,
               -0.2810896933078766,
               -0.19995851814746857,
               -0.3105350732803345,
               -0.12533487379550934,
               -0.2869151532649994,
               -0.030880171805620193,
               0.31547728180885315,
               -0.04694046825170517,
               0.46062445640563965,
               -0.22404009103775024,
               0.303369402885437,
               0.22961293160915375,
               0.8829532265663147,
               0.27883997559547424,
               0.5851315855979919,
               0.18978755176067352,
               0.03269656002521515,
               0.19970524311065674,
               0.1103808805346489,
               0.03515365719795227,
               0.07608252018690109,
               -0.2256535440683365,
               -0.2041676938533783,
               -0.12586906552314758,
               0.08996646851301193,
               0.15744876861572266,
               0.048046186566352844,
               0.015759428963065147,
               -0.07319492846727371,
               0.008901523426175117,
               0.2133284956216812,
               0.22325053811073303,
               0.22054442763328552,
               0.32841938734054565,
               0.5020993947982788,
               0.5301229357719421,
               0.9580502510070801,
               -0.18279562890529633,
               0.009472367353737354,
               0.23652155697345734,
               0.27840304374694824,
               0.3512749671936035,
               0.4843575060367584,
               0.38845565915107727,
               0.19676893949508667,
               0.08953674137592316,
               0.11508455872535706,
               0.07701538503170013,
               -0.009575631469488144,
               -0.4417091906070709,
               -0.3152151107788086,
               -0.02459331974387169,
               0.27566397190093994,
               0.24126867949962616,
               -0.09860020130872726,
               -0.0501415990293026,
               0.1703159362077713,
               0.49761971831321716,
               0.4035329520702362,
               0.6441420316696167,
               0.2548011541366577,
               0.03862475976347923,
               0.5967544317245483,
               0.0669778510928154,
               0.056622929871082306,
               -0.07134216278791428,
               -0.017280213534832,
               0.21575576066970825,
               0.1420113742351532,
               0.36266615986824036,
               0.5261526703834534,
               0.39383065700531006,
               0.26252302527427673,
               0.3120008409023285,
               0.21789653599262238,
               0.16885924339294434,
               0.00892549380660057,
               -0.18261022865772247,
               -0.32524949312210083,
               -0.22170671820640564,
               0.3352511525154114,
               0.2822098135948181,
               0.17994338274002075,
               0.22810359299182892,
               0.33895623683929443,
               0.47031256556510925,
               0.4207688868045807,
               0.3855350613594055,
               0.38249364495277405,
               0.02283608540892601,
               0.2149267941713333,
               -1.0665427446365356,
               -0.24340136349201202,
               -0.6118414402008057,
               -0.5624083280563354,
               0.18400470912456512,
               0.17156028747558594,
               0.4903842806816101,
               0.3376729190349579,
               0.34165099263191223,
               0.12001582980155945,
               0.013087110593914986,
               0.06460344046354294,
               0.10302577912807465,
               -0.09105122089385986,
               -0.052624840289354324,
               -0.24766649305820465,
               -0.009215661324560642,
               0.3684306740760803,
               0.44945353269577026,
               0.4247816205024719,
               0.4158399999141693,
               0.3131595551967621,
               0.28265079855918884,
               0.29971498250961304,
               0.39597946405410767,
               0.08096307516098022,
               -0.08226633071899414,
               0.43917641043663025,
               0.02153470367193222,
               -1.1508493423461914,
               -0.5400157570838928,
               -0.007247129455208778,
               0.06034447252750397,
               0.060346052050590515,
               0.6954553127288818,
               0.17834267020225525,
               0.021986888721585274,
               0.22808456420898438,
               0.00453136395663023,
               0.22496221959590912,
               0.09509226679801941,
               -0.041766248643398285,
               0.1790718287229538,
               -0.21616479754447937,
               -0.10484090447425842,
               0.13505561649799347,
               0.5263137221336365,
               0.4705425798892975,
               0.3399541974067688,
               0.25378164649009705,
               0.22983938455581665,
               0.32592615485191345,
               0.3241487145423889,
               -0.19826693832874298,
               0.025975018739700317,
               0.4668028652667999,
               0.5052376389503479,
               -1.0938907861709595,
               -0.4878370761871338,
               0.01664026826620102,
               -0.2306433469057083,
               -0.11860965937376022,
               0.21103595197200775,
               -0.02205185778439045,
               -0.16060803830623627,
               0.15434043109416962,
               -0.1300795078277588,
               0.01076411921530962,
               -0.07875529676675797,
               -0.05085618421435356,
               -0.1114068403840065,
               -0.16113823652267456,
               -0.2503892183303833,
               0.041545331478118896,
               0.23138637840747833,
               0.4012583792209625,
               0.3968544900417328,
               0.5036171674728394,
               0.2929297983646393,
               0.2654750347137451,
               0.25277358293533325,
               -0.02991895005106926,
               0.14654265344142914,
               -0.3567158281803131,
               -0.37601420283317566,
               -0.48690760135650635,
               0.12964192032814026,
               0.2917913496494293,
               0.0891416072845459,
               -0.013437237590551376,
               0.226629376411438,
               -0.14189787209033966,
               -0.06007198989391327,
               -0.12156616896390915,
               -0.012339242734014988,
               -0.07936207950115204,
               -0.29320719838142395,
               -0.20874306559562683,
               -0.19019660353660583,
               -0.132112056016922,
               -0.10936058312654495,
               0.015124416910111904,
               0.06750448793172836,
               0.1532609611749649,
               0.23973771929740906,
               0.3166542053222656,
               0.22163067758083344,
               0.4744093716144562,
               0.3345576226711273,
               -0.04904298856854439,
               -0.1735111027956009,
               -0.04964600130915642,
               0.044037509709596634,
               -0.39279672503471375,
               0.012815912254154682,
               0.29033932089805603,
               0.2170708179473877,
               -0.18804943561553955,
               -0.34782856702804565,
               -0.10286890715360641,
               0.10310430079698563,
               -0.09570295363664627,
               -0.1275726705789566,
               -0.23888421058654785,
               -0.32565534114837646,
               -0.22163604199886322,
               0.012482646852731705,
               -0.357042521238327,
               -0.18943320214748383,
               -0.08269747346639633,
               0.10232647508382797,
               0.0043152859434485435,
               0.25673192739486694,
               0.06681042909622192,
               0.3659782409667969,
               0.41586875915527344,
               0.3236900866031647,
               0.10263967514038086,
               -0.0429312027990818,
               0.10421106964349747,
               -0.025063900277018547,
               0.45679566264152527,
               -0.0400005541741848,
               -0.034360580146312714,
               -0.026369359344244003,
               0.6069714426994324,
               0.12116243690252304,
               0.04105251654982567,
               -0.1341600865125656,
               -0.04922424629330635,
               0.13701651990413666,
               -0.03394539654254913,
               -0.05849679186940193,
               0.0004537659406196326,
               0.05804845318198204,
               -0.05007830634713173,
               0.018520096316933632,
               0.018745489418506622,
               0.13385750353336334,
               0.09342402964830399,
               -0.05022314190864563,
               0.08380266278982162,
               0.18195077776908875,
               0.042480114847421646,
               0.20342053472995758,
               -0.062293004244565964,
               0.13730299472808838,
               0.0950639396905899,
               0.1309884786605835,
               0.577674150466919,
               0.008614234626293182,
               0.014294564723968506,
               0.006057266145944595,
               0.6319140791893005,
               0.5180947780609131,
               0.02624461054801941,
               -0.5339134335517883,
               0.020202606916427612,
               0.2746703028678894,
               0.31546086072921753,
               0.29170671105384827,
               -0.01663130894303322,
               0.1970064342021942,
               0.22589880228042603,
               0.4318537414073944,
               0.454733282327652,
               0.09625349193811417,
               0.01051080971956253,
               0.3850308060646057,
               0.23759324848651886,
               -0.2569362223148346,
               -0.19687508046627045,
               -0.27425238490104675,
               -0.5413158535957336,
               -0.0986405611038208,
               0.1970580816268921,
               -0.5105001926422119,
               -0.504004716873169,
               -0.01037437655031681,
               0.0315803624689579,
               -0.01743408292531967,
               -0.6064441204071045,
               0.4336819648742676,
               0.3150126039981842,
               0.10238711535930634,
               0.20784634351730347,
               0.6031700968742371,
               0.8011587262153625,
               0.4286172688007355,
               -0.05685314163565636,
               0.182473286986351,
               0.7522799968719482,
               0.36450788378715515,
               -0.13964566588401794,
               -0.34624776244163513,
               -0.15439818799495697,
               0.0321764312684536,
               0.1266695111989975,
               0.0798019990324974,
               -0.4398147761821747,
               -0.45924389362335205,
               0.009540761820971966,
               0.32897287607192993,
               0.3262268900871277,
               -0.28895097970962524,
               -0.773287832736969,
               -0.009293297305703163,
               0.015813089907169342,
               0.028442319482564926,
               -0.019722795113921165,
               0.03185446932911873,
               -0.08698680996894836,
               -0.34826552867889404,
               -0.3498750329017639,
               -0.2694234848022461,
               -0.20900681614875793,
               -0.39269909262657166,
               -0.16647066175937653,
               -0.05548865720629692,
               -0.25499197840690613,
               -0.19282090663909912,
               -0.45061248540878296,
               -0.06059197336435318,
               -0.0748627632856369,
               0.03908264636993408,
               0.2327398657798767,
               -0.047069404274225235,
               -0.40839460492134094,
               -0.41209346055984497,
               -0.3678741455078125,
               -0.14856012165546417,
               0.01996706612408161,
               0.018889062106609344,
               -0.024467146024107933,
               -0.0185208972543478,
               -0.017590492963790894,
               -0.027727434411644936,
               -0.027062445878982544,
               0.024561598896980286,
               0.0633329302072525,
               0.14408856630325317,
               0.019599970430135727,
               -0.06751571595668793,
               -0.0682215765118599,
               0.04807370901107788,
               0.24722179770469666,
               0.12394391745328903,
               0.054129358381032944,
               0.24919113516807556,
               -0.5831823348999023,
               -0.3273755609989166,
               -0.24235662817955017,
               0.4031393229961395,
               0.23811717331409454,
               -0.17615781724452972,
               -0.38165807723999023,
               -0.5144870281219482,
               -0.11538286507129669,
               0.18374118208885193,
               0.026653189212083817,
               -0.03422146290540695,
               -0.028356140479445457,
               0.021085403859615326
            ],
            [
               0.015684060752391815,
               -0.011684980243444443,
               0.001713234931230545,
               -0.029051385819911957,
               0.021464753895998,
               -0.024703674018383026,
               -0.02895844541490078,
               0.031726520508527756,
               -0.02753472328186035,
               -0.026749858632683754,
               0.023632701486349106,
               0.01084962859749794,
               0.16516819596290588,
               0.12291740626096725,
               -0.17999038100242615,
               -0.029582180082798004,
               -0.023061757907271385,
               -0.03298835828900337,
               0.013966843485832214,
               0.011508967727422714,
               0.017048172652721405,
               -0.0032578743994235992,
               0.03351616486907005,
               0.025446418672800064,
               0.025933891534805298,
               0.03394510969519615,
               -0.0012533105909824371,
               -0.00021128728985786438,
               0.011184684932231903,
               0.023578092455863953,
               0.005118034780025482,
               0.029891859740018845,
               0.05264388397336006,
               0.13076728582382202,
               0.2878962457180023,
               0.23401375114917755,
               0.039410267025232315,
               0.09689014405012131,
               0.24593539535999298,
               0.16929712891578674,
               0.197344571352005,
               0.21625450253486633,
               -0.06940434128046036,
               -0.09256608784198761,
               -0.1515282839536667,
               -0.017154643312096596,
               0.18579095602035522,
               0.29331523180007935,
               0.28013738989830017,
               0.18307165801525116,
               0.4140686094760895,
               0.2912384867668152,
               -0.024522658437490463,
               -0.008003231137990952,
               0.0016279630362987518,
               -0.002973262220621109,
               0.007409833371639252,
               -0.011797871440649033,
               0.19759230315685272,
               -0.39679816365242004,
               -0.04478594660758972,
               0.16662152111530304,
               0.39482346177101135,
               0.24208888411521912,
               0.38630759716033936,
               0.2190343290567398,
               0.13025014102458954,
               0.327419251203537,
               0.31361982226371765,
               0.39778023958206177,
               0.6442202925682068,
               0.5638632774353027,
               0.40187472105026245,
               0.46504583954811096,
               0.46973496675491333,
               -0.0844227522611618,
               -0.0048888325691223145,
               0.21308045089244843,
               0.5270154476165771,
               0.2162921130657196,
               -0.06030590832233429,
               -0.08840361982584,
               -0.02016592025756836,
               -0.014775579795241356,
               -0.02295011281967163,
               0.014270361512899399,
               -0.8867539763450623,
               -0.3772001266479492,
               0.40342679619789124,
               -0.07370873540639877,
               0.2618787884712219,
               -0.04402408376336098,
               0.28790274262428284,
               0.6184191703796387,
               0.4559861123561859,
               0.567460834980011,
               0.3171485960483551,
               0.37542733550071716,
               0.5621005296707153,
               0.6569643616676331,
               0.36533254384994507,
               0.23465211689472198,
               0.20052886009216309,
               -0.10240191966295242,
               -0.12193378806114197,
               0.6191725730895996,
               0.42491745948791504,
               0.8554509282112122,
               0.31865644454956055,
               -0.42608195543289185,
               -0.2980169355869293,
               0.0028004050254821777,
               0.025812890380620956,
               -0.11166501045227051,
               -0.840002715587616,
               -0.6421592831611633,
               0.15316586196422577,
               -0.3394244313240051,
               -0.1369490772485733,
               0.3259883522987366,
               0.20820090174674988,
               0.44149112701416016,
               0.43474772572517395,
               0.2259310781955719,
               0.19734779000282288,
               0.041200440376996994,
               0.2618294060230255,
               0.021213224157691002,
               0.15864157676696777,
               0.3533764183521271,
               0.160445898771286,
               -0.0006390291382558644,
               0.05781295895576477,
               0.21024657785892487,
               0.3335554301738739,
               0.8333732485771179,
               0.8761003613471985,
               0.2715376615524292,
               0.27353888750076294,
               0.3862258791923523,
               -0.002462882548570633,
               0.002902548760175705,
               -0.4699094891548157,
               -0.010878111235797405,
               -0.19876140356063843,
               -0.6997668743133545,
               0.0043406677432358265,
               0.15303745865821838,
               -0.03714222088456154,
               -0.006973227486014366,
               -0.02819887548685074,
               -0.0722947046160698,
               -0.08652732521295547,
               -0.24944791197776794,
               0.059375565499067307,
               -0.18544597923755646,
               -0.14074291288852692,
               -0.09735798835754395,
               -0.23512043058872223,
               0.07645833492279053,
               -0.07570251077413559,
               -0.21388934552669525,
               -0.05094889923930168,
               0.2398729920387268,
               0.6029351949691772,
               0.5123875141143799,
               0.6406408548355103,
               0.5009872913360596,
               0.033627886325120926,
               -0.040275923907756805,
               -0.058228425681591034,
               -0.42413824796676636,
               -0.2600962221622467,
               -0.3367097079753876,
               -0.2494068443775177,
               -0.04395488277077675,
               0.04954502359032631,
               0.006194511894136667,
               -0.27395930886268616,
               -0.24112680554389954,
               -0.20885813236236572,
               -0.27155667543411255,
               -0.15537013113498688,
               -0.20039328932762146,
               -0.3833431303501129,
               -0.3249651789665222,
               -0.3775627315044403,
               -0.12360277771949768,
               -0.3480014204978943,
               -0.7092872262001038,
               -0.13201875984668732,
               0.19065572321414948,
               0.26363739371299744,
               0.585135817527771,
               0.5707318186759949,
               0.5105314254760742,
               -0.012447698041796684,
               -0.49147242307662964,
               -0.18016201257705688,
               -0.5321512818336487,
               -0.4377581477165222,
               0.09387452900409698,
               -0.19026176631450653,
               -0.12519457936286926,
               0.37114477157592773,
               0.04115481674671173,
               -0.05745939910411835,
               -0.21202732622623444,
               -0.2322431206703186,
               -0.20903261005878448,
               -0.2215794324874878,
               -0.1826220154762268,
               -0.17649534344673157,
               -0.17453791201114655,
               -0.3432428538799286,
               -0.13358183205127716,
               -0.13945254683494568,
               0.12605293095111847,
               0.3678693473339081,
               0.19139190018177032,
               0.15154671669006348,
               0.3862088918685913,
               1.0687562227249146,
               0.5686259269714355,
               -0.30400794744491577,
               -0.5291456580162048,
               0.01846877485513687,
               -0.19941513240337372,
               -0.29393336176872253,
               -0.12029983848333359,
               -0.04344545677304268,
               0.19592556357383728,
               0.27910539507865906,
               0.14788731932640076,
               -0.17872029542922974,
               -0.05089087411761284,
               -0.12872913479804993,
               -0.276439905166626,
               -0.43078553676605225,
               -0.41492119431495667,
               -0.03270860016345978,
               -0.05485236644744873,
               -0.21818183362483978,
               -0.12206266075372696,
               0.16613052785396576,
               0.2573539912700653,
               0.06232868507504463,
               0.1280267983675003,
               0.14306090772151947,
               0.46228665113449097,
               1.0087532997131348,
               0.3128845691680908,
               -0.12368735671043396,
               -0.4493437111377716,
               -0.054277222603559494,
               -0.25256577134132385,
               -0.5737407803535461,
               -0.32224979996681213,
               0.13396991789340973,
               0.3280852437019348,
               0.28203245997428894,
               0.19957584142684937,
               -0.09150087088346481,
               -0.07544778287410736,
               -0.3041326105594635,
               -0.5987433195114136,
               -0.7908315658569336,
               -0.4101036489009857,
               0.2761330008506775,
               0.135519877076149,
               0.07440778613090515,
               0.20242320001125336,
               0.05460201948881149,
               0.1799139827489853,
               0.014341603964567184,
               0.13597235083580017,
               0.21694937348365784,
               0.4951399564743042,
               -0.06665389239788055,
               -0.7257219552993774,
               -0.1261061280965805,
               -0.08285616338253021,
               -0.4644456207752228,
               -0.463534414768219,
               -0.22636161744594574,
               -0.05998663231730461,
               0.022311154752969742,
               0.21138036251068115,
               0.35880884528160095,
               0.3637092709541321,
               0.05845260247588158,
               -0.08243320882320404,
               -0.13946937024593353,
               -0.5341240167617798,
               -0.6841942071914673,
               -0.10837264358997345,
               -0.17564059793949127,
               -0.12912581861019135,
               -0.02258753590285778,
               0.11422599107027054,
               -0.008760089986026287,
               -0.01656341180205345,
               -0.10909854620695114,
               0.13115087151527405,
               0.45933422446250916,
               -0.18121817708015442,
               -0.21590949594974518,
               -0.6775481700897217,
               -0.12141076475381851,
               -0.4918384850025177,
               -0.4293757677078247,
               -0.35955581068992615,
               -0.39161667227745056,
               0.02636761963367462,
               0.3134823441505432,
               0.2960764467716217,
               0.20827193558216095,
               0.3922440707683563,
               0.09622818231582642,
               0.12917859852313995,
               0.3468075394630432,
               -0.10997576266527176,
               -0.31970861554145813,
               -0.32002007961273193,
               -0.3925993740558624,
               -0.4713364541530609,
               -0.31917864084243774,
               0.029346156865358353,
               -0.18694108724594116,
               0.02572556585073471,
               -0.21734747290611267,
               0.07948774099349976,
               0.506542980670929,
               0.4957594573497772,
               0.5028711557388306,
               -0.6352594494819641,
               -0.03608521819114685,
               -0.06865549832582474,
               -0.3082619905471802,
               -0.3634631037712097,
               -0.5838562250137329,
               -0.30307015776634216,
               0.22886523604393005,
               0.43099620938301086,
               0.23811113834381104,
               0.17909012734889984,
               0.19592243432998657,
               0.49296966195106506,
               0.48593831062316895,
               0.04685508832335472,
               -0.36618292331695557,
               -0.2611621618270874,
               -0.23579925298690796,
               -0.3301854133605957,
               -0.3399483561515808,
               -0.1658102124929428,
               -0.07390308380126953,
               0.41400250792503357,
               0.25914791226387024,
               0.30661526322364807,
               0.5780773162841797,
               -0.1943604201078415,
               -0.47203513979911804,
               -0.8803064823150635,
               -0.05263936147093773,
               -0.059933021664619446,
               -0.18770357966423035,
               -0.5969375967979431,
               -0.7340975999832153,
               -0.07117575407028198,
               0.21445225179195404,
               0.42107897996902466,
               0.34368762373924255,
               0.31417882442474365,
               0.21258801221847534,
               0.5275062322616577,
               0.3197592794895172,
               0.16339817643165588,
               -0.10014376789331436,
               -0.035900432616472244,
               -0.0006666736444458365,
               -0.18405741453170776,
               -0.07757367193698883,
               0.03710800036787987,
               0.0658171996474266,
               0.3206614553928375,
               0.4705665111541748,
               0.22901268303394318,
               -0.29586827754974365,
               -0.5316696166992188,
               -0.4669276475906372,
               -0.15105490386486053,
               0.2096800059080124,
               0.05124184489250183,
               -0.07874473184347153,
               -0.4292786121368408,
               -0.63885498046875,
               0.33638468384742737,
               0.39527788758277893,
               0.30862748622894287,
               0.2728544771671295,
               0.14032012224197388,
               0.16780883073806763,
               0.29828760027885437,
               0.11799909919500351,
               0.20421434938907623,
               0.20507681369781494,
               0.07133402675390244,
               0.16860099136829376,
               0.08666042238473892,
               -0.07481853663921356,
               -0.21634843945503235,
               -0.2288053333759308,
               0.0735771656036377,
               0.38356369733810425,
               -0.0864342451095581,
               -0.5786126852035522,
               -0.2500784397125244,
               -0.4749297499656677,
               -0.05966969206929207,
               0.13724969327449799,
               -0.062486711889505386,
               0.4158002436161041,
               -0.1414674073457718,
               -0.25117844343185425,
               0.21438530087471008,
               0.1489192545413971,
               0.22183583676815033,
               0.3353036940097809,
               0.18366436660289764,
               0.1279517412185669,
               0.09597856551408768,
               0.18499384820461273,
               0.3499979078769684,
               0.34602245688438416,
               0.16357912123203278,
               0.3343668282032013,
               0.11338545382022858,
               -0.2629256844520569,
               -0.40045246481895447,
               -0.4757238030433655,
               -0.14552344381809235,
               -0.001510948990471661,
               -0.03306340426206589,
               -0.6724150776863098,
               -0.2600841522216797,
               -0.3525175452232361,
               -0.09603449702262878,
               -0.04674888774752617,
               -0.07692921906709671,
               0.2592233121395111,
               -0.020893234759569168,
               -0.4016861915588379,
               -0.21344321966171265,
               -0.2689417004585266,
               -0.26391273736953735,
               0.02953757904469967,
               0.008746824227273464,
               -0.06227323040366173,
               -0.043930817395448685,
               0.21356086432933807,
               0.22441338002681732,
               0.2296011596918106,
               0.37560757994651794,
               0.4174971878528595,
               0.06722420454025269,
               -0.20927490293979645,
               -0.4625556468963623,
               -0.518781304359436,
               -0.37311065196990967,
               -0.27685803174972534,
               -0.2527255117893219,
               -0.39873969554901123,
               -0.011952467262744904,
               -0.4432191252708435,
               -0.028686514124274254,
               -0.02682967483997345,
               -0.14748592674732208,
               0.06928955763578415,
               0.03418758884072304,
               -0.299245148897171,
               -0.3413560390472412,
               -0.45104363560676575,
               -0.3133713901042938,
               0.13814964890480042,
               0.03529562056064606,
               0.13524699211120605,
               0.028202615678310394,
               0.010397049598395824,
               0.03155763819813728,
               0.06477031856775284,
               0.04386765882372856,
               0.23342648148536682,
               -0.03804494068026543,
               -0.3173302114009857,
               -0.43016090989112854,
               -0.35299915075302124,
               -0.20044976472854614,
               0.09950294345617294,
               -0.08460290729999542,
               -0.013721042312681675,
               -0.3349580764770508,
               -0.3206500709056854,
               -0.19725221395492554,
               -0.2973027229309082,
               -0.08299265801906586,
               -0.13272953033447266,
               0.04415346682071686,
               -0.2031003087759018,
               -0.2914285361766815,
               -0.1897965967655182,
               -0.2968616783618927,
               0.013373423367738724,
               0.11941277980804443,
               0.10790477693080902,
               -0.0735686793923378,
               0.25192391872406006,
               0.2803550064563751,
               -0.023744720965623856,
               -0.23396418988704681,
               -0.09125255048274994,
               -0.25753408670425415,
               -0.36612123250961304,
               -0.39911437034606934,
               -0.21973583102226257,
               -0.20794913172721863,
               -0.18937674164772034,
               -0.043567538261413574,
               0.2961813807487488,
               0.32440322637557983,
               0.009340500459074974,
               -0.07280400395393372,
               0.010497208684682846,
               -0.2809560298919678,
               -0.22821083664894104,
               -0.08792802691459656,
               -0.28894883394241333,
               -0.3662392497062683,
               -0.24217145144939423,
               -0.10300290584564209,
               0.05837603658437729,
               0.10527355968952179,
               0.08267974108457565,
               0.17492850124835968,
               0.2714318335056305,
               0.28578096628189087,
               0.02104922942817211,
               -0.1790575087070465,
               -0.15200889110565186,
               -0.10170719772577286,
               -0.08373880386352539,
               -0.24325108528137207,
               -0.1453171670436859,
               -0.17157413065433502,
               -0.0328688882291317,
               0.3836778700351715,
               0.42479464411735535,
               0.460141658782959,
               0.08672203123569489,
               0.0900980681180954,
               -0.015421148389577866,
               -0.058776453137397766,
               0.04835269972681999,
               -0.11566144227981567,
               -0.39748916029930115,
               -0.343522310256958,
               -0.3316417336463928,
               -0.1294197291135788,
               0.03377359360456467,
               0.2627391815185547,
               0.3619948923587799,
               0.3829234540462494,
               0.3714182674884796,
               0.247735857963562,
               -0.020567601546645164,
               0.22210587561130524,
               0.15296295285224915,
               0.12292971462011337,
               0.11982132494449615,
               -0.06605371087789536,
               -0.04156288877129555,
               0.03436554595828056,
               0.1708054542541504,
               0.2350582629442215,
               0.006695352960377932,
               0.4519973695278168,
               0.09171751141548157,
               0.0597323402762413,
               0.08491200953722,
               -0.11398108303546906,
               -0.1170470267534256,
               -0.2380392998456955,
               -0.18577840924263,
               -0.4857792854309082,
               -0.33990034461021423,
               0.09617532789707184,
               0.14485600590705872,
               0.33805039525032043,
               0.1453741043806076,
               0.18696291744709015,
               0.22257667779922485,
               0.41750815510749817,
               0.2900303602218628,
               0.26876845955848694,
               0.11040017008781433,
               0.3215704560279846,
               0.1275482326745987,
               -0.005807865411043167,
               -0.04927375540137291,
               0.06144610047340393,
               0.3860553205013275,
               0.4686865210533142,
               -0.12934184074401855,
               0.2063629925251007,
               -0.4954404830932617,
               0.004097737371921539,
               0.08469026535749435,
               0.026753820478916168,
               -0.08193795382976532,
               -0.12468519061803818,
               -0.0014290891122072935,
               -0.32603228092193604,
               -0.42053401470184326,
               -0.08018039166927338,
               -0.06585515290498734,
               -0.008507801219820976,
               0.006573191843926907,
               -0.06844864785671234,
               0.13009560108184814,
               0.1929875910282135,
               0.1539989858865738,
               0.22057059407234192,
               0.15619024634361267,
               0.256808876991272,
               0.14656206965446472,
               0.06421571224927902,
               -0.07529707252979279,
               0.16713841259479523,
               0.13645035028457642,
               0.3493196368217468,
               -0.00510359276086092,
               -0.1369372308254242,
               0.24810630083084106,
               -0.008997809141874313,
               0.02234746143221855,
               -0.012912057340145111,
               -0.09563232213258743,
               -0.04978754371404648,
               0.4238123893737793,
               -0.11823246628046036,
               -0.4956086575984955,
               -0.5111787915229797,
               0.048440929502248764,
               -0.039488211274147034,
               -0.1341829001903534,
               -0.46212440729141235,
               -0.23410604894161224,
               -0.05273379012942314,
               -0.05236788094043732,
               -0.10267476737499237,
               0.09959102421998978,
               0.12928438186645508,
               0.2907363176345825,
               0.21758662164211273,
               0.16938982903957367,
               0.43796470761299133,
               0.3847011625766754,
               0.4648056626319885,
               -0.03716789186000824,
               0.052067406475543976,
               0.15062721073627472,
               -0.03326454758644104,
               -0.0036254748702049255,
               -0.03430550917983055,
               -0.10861477255821228,
               0.02876140922307968,
               0.599699854850769,
               -0.0401412695646286,
               -0.82140052318573,
               -0.6188656091690063,
               -0.13598227500915527,
               0.37561383843421936,
               0.1805117428302765,
               0.2379838079214096,
               0.11740875989198685,
               0.020747585222125053,
               -0.008056691847741604,
               -0.09088171273469925,
               0.24503441154956818,
               0.06823847442865372,
               0.3208533823490143,
               0.35468509793281555,
               0.17359283566474915,
               0.08032196760177612,
               0.27437320351600647,
               0.03659961745142937,
               -0.0691455751657486,
               -0.15927577018737793,
               -0.15737643837928772,
               0.015746045857667923,
               0.03222427889704704,
               -0.00419573113322258,
               0.44751879572868347,
               0.2656971514225006,
               0.20757213234901428,
               -0.3866666257381439,
               -0.5538906455039978,
               -0.6271153092384338,
               -0.20894363522529602,
               0.07317299395799637,
               0.06348925828933716,
               0.09925762563943863,
               0.11899399757385254,
               0.17554189264774323,
               -0.16407139599323273,
               0.2866404056549072,
               0.07956485450267792,
               0.15439029037952423,
               0.14991535246372223,
               -0.14343708753585815,
               -0.00517272436991334,
               0.186806321144104,
               0.2513240873813629,
               0.4986061155796051,
               0.4326384961605072,
               0.06921551376581192,
               -0.027325328439474106,
               -0.0062607452273368835,
               -0.009209459647536278,
               0.014541387557983398,
               -0.019586920738220215,
               0.10015244781970978,
               -0.1101103127002716,
               -0.5295040607452393,
               -0.45132943987846375,
               -0.3492168188095093,
               0.25497081875801086,
               -0.39054325222969055,
               -0.6287053823471069,
               -0.3315543234348297,
               -0.09910307079553604,
               -0.46089252829551697,
               -0.41534897685050964,
               -0.03282948210835457,
               -0.34601518511772156,
               -0.23989106714725494,
               -0.27281633019447327,
               -1.0107778310775757,
               -0.8679149150848389,
               -0.3971666693687439,
               -0.5724151134490967,
               -0.185311958193779,
               -0.1722973883152008,
               0.029180709272623062,
               0.008130554109811783,
               0.03521003946661949,
               0.02842605486512184,
               0.018055807799100876,
               0.006641317158937454,
               0.02348657324910164,
               -0.03889290615916252,
               -0.19316144287586212,
               -0.462026983499527,
               -0.43615320324897766,
               -0.25084346532821655,
               -0.10816124826669693,
               -0.31417176127433777,
               0.05978250876069069,
               0.19130295515060425,
               -0.3115493953227997,
               -0.8637681603431702,
               0.04985339194536209,
               -0.22075656056404114,
               -0.7958908677101135,
               -0.7113180160522461,
               -0.22287839651107788,
               -0.2021077424287796,
               -0.45871207118034363,
               -0.3827850818634033,
               -0.29003486037254333,
               0.02146153151988983,
               0.010002098977565765,
               0.025507234036922455,
               -0.029303109273314476
            ],
            [
               0.016134358942508698,
               0.029990922659635544,
               -0.003673851490020752,
               -0.0044915080070495605,
               0.01699594408273697,
               0.034681860357522964,
               0.022586282342672348,
               -0.027034815400838852,
               0.028882835060358047,
               -0.00411561131477356,
               0.03446079418063164,
               -0.020116198807954788,
               0.17436183989048004,
               0.41241636872291565,
               0.42547473311424255,
               0.1799827367067337,
               0.030832167714834213,
               -0.02395462989807129,
               -0.025996826589107513,
               0.03367790952324867,
               -0.0012157782912254333,
               -0.03419959172606468,
               -0.022197920829057693,
               -0.034229591488838196,
               -0.0011159144341945648,
               0.015793025493621826,
               -0.008745955303311348,
               -0.005844775587320328,
               0.006777171045541763,
               -0.011482801288366318,
               -0.022643432021141052,
               -0.03238009661436081,
               -0.009737269952893257,
               0.023997873067855835,
               -0.007506141439080238,
               0.06480831652879715,
               0.04318517446517944,
               0.02369006536900997,
               -0.08172471076250076,
               0.021099185571074486,
               -0.022113114595413208,
               -0.1646708995103836,
               -0.3939582109451294,
               0.0665617287158966,
               0.2547653615474701,
               0.1155686005949974,
               -0.06155341491103172,
               -0.14258231222629547,
               -0.09792466461658478,
               -0.1102452203631401,
               -0.05654967948794365,
               0.004397183656692505,
               0.0030508413910865784,
               0.013061169534921646,
               -0.02679283358156681,
               0.010157860815525055,
               0.005799178034067154,
               -0.01585218869149685,
               0.02340857684612274,
               0.4234830439090729,
               0.30462855100631714,
               -0.09513109177350998,
               -0.16479912400245667,
               -0.058969881385564804,
               -0.08437611162662506,
               -0.042188793420791626,
               -0.1301843822002411,
               -0.017285220324993134,
               0.7966455817222595,
               0.5497707724571228,
               0.36978286504745483,
               0.1246802806854248,
               0.24116985499858856,
               0.12593968212604523,
               -0.14676544070243835,
               -0.2930459678173065,
               -0.12440083920955658,
               -0.04085935279726982,
               -0.18555307388305664,
               -0.08969686925411224,
               0.024210326373577118,
               0.05546637997031212,
               0.01815681904554367,
               -0.02068943716585636,
               -0.010838368907570839,
               -0.011104678735136986,
               -0.841974139213562,
               0.2426287680864334,
               -0.4758376181125641,
               0.06704413145780563,
               -0.14414256811141968,
               -0.015163199976086617,
               0.17659802734851837,
               0.26008597016334534,
               0.23312783241271973,
               0.3212358057498932,
               0.5921573638916016,
               0.9774004220962524,
               1.1872321367263794,
               0.6333145499229431,
               0.9277337789535522,
               0.6693078875541687,
               0.20884592831134796,
               -0.29434826970100403,
               -0.27897071838378906,
               -0.6590420603752136,
               -0.6350435614585876,
               -0.48775672912597656,
               0.03550906851887703,
               0.13794150948524475,
               -0.25866296887397766,
               0.008926454931497574,
               0.03204233571887016,
               0.1689089983701706,
               -0.5718694925308228,
               -0.03855293244123459,
               -0.06673280894756317,
               -0.14104390144348145,
               0.20241950452327728,
               0.5714824199676514,
               0.44232645630836487,
               0.12471342831850052,
               0.12725292146205902,
               0.5634348392486572,
               0.5352773070335388,
               0.8777653574943542,
               0.7914276123046875,
               0.8396556973457336,
               0.7362712621688843,
               0.5787197351455688,
               0.34473103284835815,
               -0.09328402578830719,
               -0.4025283455848694,
               -0.7613053917884827,
               0.04156090319156647,
               -0.5533084273338318,
               -0.586929440498352,
               -0.31170743703842163,
               0.24810254573822021,
               -0.05541974678635597,
               -0.005148410797119141,
               -0.032723601907491684,
               0.0016576586058363318,
               0.11172597855329514,
               -0.17144775390625,
               -0.528268039226532,
               -0.35060951113700867,
               0.07325167953968048,
               0.00583077035844326,
               -0.08659976720809937,
               0.013794619590044022,
               0.013182437978684902,
               0.055880699306726456,
               0.10966761410236359,
               -0.033010393381118774,
               0.14902625977993011,
               0.3546086847782135,
               0.0732642412185669,
               0.2807789444923401,
               0.2755151391029358,
               0.20140734314918518,
               0.050119996070861816,
               0.12964573502540588,
               -0.3700181543827057,
               -0.5615308880805969,
               -0.2741551995277405,
               -0.3570762872695923,
               -0.4818616509437561,
               -0.03071778267621994,
               0.2730749547481537,
               -0.5923482775688171,
               0.27279630303382874,
               -0.12545011937618256,
               -0.47102293372154236,
               -0.5171584486961365,
               -0.39056435227394104,
               -0.15707990527153015,
               -0.1120513305068016,
               -0.23756664991378784,
               -0.43752598762512207,
               -0.5146390199661255,
               -0.27778851985931396,
               -0.21078196167945862,
               -0.07504675537347794,
               0.15229246020317078,
               0.21313799917697906,
               0.48505446314811707,
               0.40000593662261963,
               0.36092036962509155,
               0.34262844920158386,
               -0.04485364258289337,
               -0.32647237181663513,
               -0.2788936197757721,
               -0.6654596328735352,
               0.06869056075811386,
               -0.1569739133119583,
               0.02483641915023327,
               0.4703264832496643,
               -0.5918133854866028,
               -0.1736970990896225,
               -0.07091700285673141,
               -0.15292461216449738,
               -0.28316280245780945,
               -0.34265458583831787,
               0.002698169555515051,
               -0.027123358100652695,
               -0.34694617986679077,
               -0.6422059535980225,
               -0.5327314734458923,
               -0.36931198835372925,
               -0.21057827770709991,
               0.028168192133307457,
               0.36208367347717285,
               0.47916045784950256,
               0.6732277870178223,
               0.7259756922721863,
               0.581765353679657,
               0.23754681646823883,
               0.0663420557975769,
               0.08506119251251221,
               -0.39664381742477417,
               -0.4304921627044678,
               -0.2395062893629074,
               -0.2073173224925995,
               0.5717308521270752,
               0.45764902234077454,
               -0.4338874816894531,
               0.21224048733711243,
               0.3842604458332062,
               0.20480544865131378,
               0.05166543647646904,
               0.08594179898500443,
               0.016312627121806145,
               -0.32362261414527893,
               -0.4659641683101654,
               -0.4750046730041504,
               -0.3708423376083374,
               -0.31446534395217896,
               0.05694836378097534,
               0.1613118201494217,
               0.6779285073280334,
               0.42758139967918396,
               0.48765555024147034,
               0.7325562238693237,
               0.7135244607925415,
               0.34036946296691895,
               0.41543933749198914,
               -0.00291909696534276,
               -0.44065403938293457,
               -0.5523272752761841,
               0.43827998638153076,
               0.08342906087636948,
               -0.007578628603368998,
               0.10093322396278381,
               0.461923211812973,
               0.7744849324226379,
               0.043823156505823135,
               -0.020505912601947784,
               -0.009344333782792091,
               -0.17502205073833466,
               -0.28469276428222656,
               -0.4301966726779938,
               -0.05117715150117874,
               -0.14589381217956543,
               0.010732287541031837,
               -0.0005838503129780293,
               -0.12585777044296265,
               0.08690907061100006,
               0.3663427233695984,
               0.06326308846473694,
               -0.09416551887989044,
               0.38754022121429443,
               0.6972501277923584,
               0.25571519136428833,
               0.43886610865592957,
               0.35971924662590027,
               -0.07951125502586365,
               0.29179325699806213,
               0.7284626960754395,
               -0.020448846742510796,
               -0.00706144655123353,
               0.01608174480497837,
               0.08749359846115112,
               0.6194467544555664,
               -0.30652865767478943,
               -0.563305139541626,
               -0.324177622795105,
               -0.2792409360408783,
               -0.22429554164409637,
               -0.03738674148917198,
               0.06813429296016693,
               0.06652449071407318,
               -0.0010980046354234219,
               -0.11370567232370377,
               0.03845617547631264,
               0.039074670523405075,
               0.34042689204216003,
               -0.1671096384525299,
               -0.15546225011348724,
               -0.030749207362532616,
               0.5051224231719971,
               0.11803542077541351,
               0.48205673694610596,
               0.7023593783378601,
               0.09723948687314987,
               0.2632691562175751,
               0.14469872415065765,
               -0.058152079582214355,
               -0.05293244868516922,
               0.3140658140182495,
               -0.005769238341599703,
               -0.2532923221588135,
               -0.4583633244037628,
               -0.8569537997245789,
               -0.4759063422679901,
               0.10696781426668167,
               0.1493545025587082,
               0.028600206598639488,
               0.16617143154144287,
               0.10494730621576309,
               -0.4760459065437317,
               -0.23346781730651855,
               0.24841465055942535,
               0.059242378920316696,
               -0.30801624059677124,
               -0.1672605276107788,
               -0.14358334243297577,
               -0.1855657398700714,
               0.19961747527122498,
               0.15659037232398987,
               0.4563833177089691,
               0.5139959454536438,
               0.23097488284111023,
               0.5795594453811646,
               0.12978842854499817,
               -0.1710621863603592,
               -0.04486338049173355,
               -0.018560554832220078,
               0.057088591158390045,
               -0.6466866731643677,
               -0.2827339768409729,
               -0.6558516025543213,
               0.06744463741779327,
               0.03920704498887062,
               -0.1512022316455841,
               0.20151393115520477,
               0.17245367169380188,
               -0.32104167342185974,
               -0.49930328130722046,
               -0.02319854311645031,
               0.30780643224716187,
               -0.1432860940694809,
               -0.2649157643318176,
               -0.10335816442966461,
               -0.06898621469736099,
               0.05469539016485214,
               0.18379609286785126,
               0.042675409466028214,
               0.06794758886098862,
               0.4026660621166229,
               0.17001062631607056,
               -0.17455996572971344,
               -0.4662824273109436,
               0.009293029084801674,
               0.0780416876077652,
               0.0327499657869339,
               -0.18562175333499908,
               -0.21020542085170746,
               0.1572190523147583,
               0.05287100002169609,
               0.05808931216597557,
               -0.26502060890197754,
               -0.14077962934970856,
               -0.0987008810043335,
               -0.17301659286022186,
               -0.3769415318965912,
               -0.13815324008464813,
               0.2565973401069641,
               0.26399555802345276,
               0.15103109180927277,
               -0.10795674473047256,
               -0.2054993063211441,
               -0.11347309499979019,
               0.23753602802753448,
               -0.06357473134994507,
               0.009775932878255844,
               0.04761296510696411,
               -0.11675097793340683,
               -0.17358753085136414,
               -0.10793895274400711,
               -0.13197332620620728,
               -0.0869988277554512,
               -0.08270273357629776,
               0.004538858775049448,
               -0.06496086716651917,
               -0.08704792708158493,
               -0.048993032425642014,
               0.059436146169900894,
               -0.20892806351184845,
               -0.40142878890037537,
               -0.11785563081502914,
               0.06379184126853943,
               -0.08118809014558792,
               -0.0342094860970974,
               0.1154668778181076,
               0.2246229648590088,
               0.3144783675670624,
               0.1912894994020462,
               -0.2277458906173706,
               -0.1344384104013443,
               -0.022239351645112038,
               -0.012757946737110615,
               0.13799500465393066,
               0.3745545446872711,
               0.21905264258384705,
               -0.23518115282058716,
               -0.2489013373851776,
               -0.23688678443431854,
               0.06968891620635986,
               -0.27130648493766785,
               -0.13200832903385162,
               0.18248797953128815,
               -0.10838273167610168,
               -0.5849204063415527,
               -0.054551899433135986,
               0.20616823434829712,
               -0.0006873285747133195,
               -0.18612709641456604,
               -0.06499353796243668,
               0.09986590594053268,
               0.06557111442089081,
               -0.04109341278672218,
               0.08490078151226044,
               0.13627804815769196,
               0.15587832033634186,
               -0.13149501383304596,
               -0.18795457482337952,
               -0.3809513449668884,
               -0.26577889919281006,
               -0.26315608620643616,
               -0.2007683664560318,
               0.006396672688424587,
               0.12827007472515106,
               0.054393209517002106,
               0.18035650253295898,
               -0.2235477864742279,
               0.4289094805717468,
               0.06581023335456848,
               -0.04565626382827759,
               0.3023357391357422,
               0.6232733726501465,
               -0.6045326590538025,
               -0.0372268445789814,
               0.24752596020698547,
               0.03009280003607273,
               0.1442124992609024,
               0.04812665283679962,
               0.2429896593093872,
               0.2061004787683487,
               -0.10731493681669235,
               -0.08340277522802353,
               -0.024685705080628395,
               -0.09954767674207687,
               -0.17481283843517303,
               -0.014120826497673988,
               -0.07930415868759155,
               -0.22663085162639618,
               -0.28114840388298035,
               -0.18656432628631592,
               -0.3941933512687683,
               -0.11266420036554337,
               -0.18739010393619537,
               -0.16002394258975983,
               -0.3849504590034485,
               0.10355258733034134,
               0.07913744449615479,
               0.00661187618970871,
               0.21941624581813812,
               0.030629798769950867,
               0.05584562197327614,
               0.13071562349796295,
               -0.1876399964094162,
               -0.1486266404390335,
               0.14072652161121368,
               0.1714829057455063,
               0.1637047976255417,
               -0.08684728294610977,
               -0.10960164666175842,
               -0.047939930111169815,
               -0.09997011721134186,
               -0.3078470528125763,
               -0.32007697224617004,
               -0.030624331906437874,
               0.03349117189645767,
               -0.17324580252170563,
               0.007987906225025654,
               -0.2488735020160675,
               -0.27213215827941895,
               -0.21727348864078522,
               -0.31734296679496765,
               -0.31663429737091064,
               -0.2780657410621643,
               -0.002462893957272172,
               0.13543720543384552,
               0.22194360196590424,
               0.14947190880775452,
               0.14759711921215057,
               0.3068956434726715,
               -0.040405288338661194,
               0.026065517216920853,
               -0.07913058996200562,
               0.06606672704219818,
               0.3141450881958008,
               0.07466734200716019,
               -0.03821844235062599,
               -0.09931480884552002,
               -0.33992457389831543,
               -0.3515825867652893,
               -0.29897385835647583,
               0.0617888905107975,
               0.09235668927431107,
               0.17974194884300232,
               0.055055465549230576,
               -0.02067313715815544,
               -0.047611553221940994,
               -0.057756457477808,
               0.059761691838502884,
               -0.17930805683135986,
               -0.10444897413253784,
               -0.17251962423324585,
               -0.07315894961357117,
               -0.0012006894685328007,
               0.016291795298457146,
               0.2844076454639435,
               -0.09174800664186478,
               -0.2408379167318344,
               0.09243758767843246,
               0.5043402314186096,
               0.15365684032440186,
               -0.02604716643691063,
               -0.06063246726989746,
               -0.011912628076970577,
               -0.04373011365532875,
               -0.26615041494369507,
               -0.10071448981761932,
               -0.10728416591882706,
               -0.15016764402389526,
               0.03671616315841675,
               0.15652334690093994,
               0.3279329836368561,
               0.08779768645763397,
               0.15346376597881317,
               -0.0006626838003285229,
               -0.1964857578277588,
               -0.12151537090539932,
               -0.4355873167514801,
               -0.3140086531639099,
               -0.33706504106521606,
               0.042514923959970474,
               -0.04645999148488045,
               0.01956336945295334,
               0.32134711742401123,
               -0.13297399878501892,
               0.25449642539024353,
               -0.0077669802121818066,
               0.48953384160995483,
               0.21650353074073792,
               -0.052668072283267975,
               -0.2696404457092285,
               0.03011784702539444,
               0.0033042870927602053,
               -0.030980778858065605,
               0.02992718666791916,
               0.19504417479038239,
               0.01705615036189556,
               0.1270664781332016,
               0.10429723560810089,
               0.17420969903469086,
               -0.025746479630470276,
               -0.07228894531726837,
               -0.1671728789806366,
               -0.376487672328949,
               -0.683949887752533,
               -0.79976487159729,
               -0.46037429571151733,
               -0.4483621120452881,
               0.0381057932972908,
               -0.0948910191655159,
               -0.03822391480207443,
               0.14427180588245392,
               -0.08826657384634018,
               0.4577956199645996,
               -0.31999555230140686,
               0.015371231362223625,
               0.3436126708984375,
               0.06550964713096619,
               -0.2728434205055237,
               -0.15934079885482788,
               -0.12950833141803741,
               0.06784654408693314,
               0.11306411027908325,
               0.252424955368042,
               0.18113015592098236,
               0.04919018596410751,
               0.10910087823867798,
               0.052217595279216766,
               -0.04625896364450455,
               -0.02086864598095417,
               -0.30837512016296387,
               -0.748816728591919,
               -0.8274969458580017,
               -0.42541202902793884,
               -0.5926583409309387,
               -0.0802471712231636,
               0.17849582433700562,
               0.02557728812098503,
               -0.07028845697641373,
               0.05401298403739929,
               0.0843978077173233,
               0.39275047183036804,
               -0.37912338972091675,
               -0.1177273839712143,
               0.13720308244228363,
               0.12290135771036148,
               0.22972944378852844,
               0.23705732822418213,
               0.03168781101703644,
               0.1517871767282486,
               0.2176567018032074,
               0.3820872902870178,
               0.2694837152957916,
               0.18589957058429718,
               0.09608342498540878,
               0.04585489630699158,
               -0.19114148616790771,
               -0.138362318277359,
               -0.6173750758171082,
               -0.9503178596496582,
               -0.7391087412834167,
               -0.10828053951263428,
               -0.08962566405534744,
               0.03696874901652336,
               -0.09253201633691788,
               0.0018209537956863642,
               -0.02850634790956974,
               -0.002693314105272293,
               1.006645679473877,
               0.3244118094444275,
               -0.5126380920410156,
               -0.23799920082092285,
               -0.13092872500419617,
               0.2658821940422058,
               0.1647804081439972,
               0.2187092900276184,
               0.17670497298240662,
               0.25448352098464966,
               0.25263822078704834,
               0.473206102848053,
               0.14490005373954773,
               0.13928855955600739,
               0.1374429613351822,
               0.20989543199539185,
               -0.17759768664836884,
               -0.30123773217201233,
               -0.5211730599403381,
               -0.4855850040912628,
               -0.2565312385559082,
               -0.04039324074983597,
               0.1589757353067398,
               0.029904281720519066,
               -0.25143229961395264,
               0.03224657103419304,
               0.03290301188826561,
               -0.015442116186022758,
               -0.09287282824516296,
               0.465007483959198,
               0.4905044436454773,
               0.3989885449409485,
               0.10182300209999084,
               -0.02670793980360031,
               0.10821916162967682,
               -0.04804353043437004,
               0.16459757089614868,
               -0.175032377243042,
               0.10245227068662643,
               0.10481908917427063,
               -0.0814443901181221,
               -0.15152804553508759,
               -0.144300639629364,
               -0.09905398637056351,
               -0.5754765868186951,
               -0.27445900440216064,
               0.15132269263267517,
               0.25913652777671814,
               -0.21456116437911987,
               -0.04903716966509819,
               0.25167280435562134,
               0.08833453804254532,
               0.0032198650296777487,
               0.022135913372039795,
               -0.005927843973040581,
               0.006245702505111694,
               0.14975158870220184,
               -0.23343923687934875,
               -0.7012739777565002,
               -0.02522188052535057,
               0.5266011953353882,
               0.615707516670227,
               0.5475319623947144,
               0.38241150975227356,
               0.4059630334377289,
               0.23679113388061523,
               -0.011907347477972507,
               -0.119516521692276,
               -0.152654230594635,
               -0.29338404536247253,
               -0.28480470180511475,
               -0.4905835688114166,
               -0.6266400218009949,
               -0.15705829858779907,
               0.2125636637210846,
               0.2754530906677246,
               -0.2928622364997864,
               -0.5247638821601868,
               -0.2815561294555664,
               0.08047020435333252,
               0.05008380115032196,
               0.027550842612981796,
               0.004202067852020264,
               -0.0144659373909235,
               0.008962545543909073,
               0.7365020513534546,
               -0.6519051790237427,
               -0.5013613700866699,
               -0.5641376376152039,
               0.35708731412887573,
               0.04217866063117981,
               -0.2281072437763214,
               0.7067470550537109,
               0.8625471591949463,
               -0.10714153945446014,
               0.1204516664147377,
               0.40183225274086,
               0.4643256664276123,
               -0.45843949913978577,
               -0.5298599004745483,
               -0.6151610016822815,
               -0.38447925448417664,
               0.0801885724067688,
               -0.04865383356809616,
               -0.14016667008399963,
               -0.19068202376365662,
               -0.27191466093063354,
               -0.1281660795211792,
               -0.013842469081282616,
               -0.0038258247077465057,
               -0.0016395561397075653,
               -0.0027952566742897034,
               -0.014875626191496849,
               0.0349336676299572,
               -0.15623241662979126,
               -0.7650269269943237,
               0.21712128818035126,
               0.21110451221466064,
               0.3043709695339203,
               -0.014215388335287571,
               0.7063683867454529,
               0.7201361060142517,
               0.36320143938064575,
               0.20897595584392548,
               -0.1187080666422844,
               -0.05444122850894928,
               -0.11644639074802399,
               0.10218537598848343,
               0.1815851926803589,
               -0.061260055750608444,
               -0.04104948788881302,
               -0.11756070703268051,
               -0.12634502351284027,
               -0.08710359781980515,
               0.009433366358280182,
               0.009341128170490265,
               0.022377517074346542,
               -0.004281677305698395
            ],
            [
               0.010582968592643738,
               -0.029051223769783974,
               -0.016787827014923096,
               -0.019358737394213676,
               0.03450014069676399,
               -0.026969686150550842,
               -0.012183533981442451,
               -0.0318247452378273,
               -0.03241733834147453,
               -0.016962040215730667,
               -0.024355437606573105,
               0.03154044970870018,
               0.28704166412353516,
               0.3070099651813507,
               0.032320600003004074,
               -0.028129566460847855,
               -0.002351611852645874,
               -0.032807763665914536,
               -0.013017045333981514,
               -0.009211903437972069,
               -0.03280157595872879,
               -0.0185714028775692,
               0.005243249237537384,
               0.005376126617193222,
               -0.0024725086987018585,
               -0.008715050294995308,
               -0.003290962427854538,
               -0.03456936031579971,
               -0.0007856413722038269,
               -0.010654650628566742,
               -0.013254145160317421,
               -0.02042841538786888,
               0.027604077011346817,
               -0.006980419158935547,
               -0.02588319033384323,
               0.06876084953546524,
               0.0873221904039383,
               0.06514947861433029,
               0.07813549786806107,
               -0.007915101945400238,
               0.014509051106870174,
               0.08403322100639343,
               -0.05655306205153465,
               -0.16864076256752014,
               0.1653488725423813,
               -0.02053895778954029,
               -0.0815986692905426,
               -0.08075442910194397,
               -0.08373373001813889,
               -0.04055894911289215,
               -0.07277844101190567,
               0.03192022815346718,
               0.03044261410832405,
               -0.03383044898509979,
               -0.015404561534523964,
               -0.007366500794887543,
               -0.028341040015220642,
               -0.001197073608636856,
               0.21595782041549683,
               -0.03236968815326691,
               0.041489969938993454,
               0.08824672549962997,
               0.039538055658340454,
               0.017452605068683624,
               0.27420833706855774,
               0.6017685532569885,
               0.39011362195014954,
               0.5692898631095886,
               0.2922653555870056,
               0.599527895450592,
               0.5430672764778137,
               0.4979379177093506,
               0.375101238489151,
               -0.01484532468020916,
               -0.16412413120269775,
               -0.0794958770275116,
               -0.15003573894500732,
               -0.21135030686855316,
               -0.23470230400562286,
               -0.2657892405986786,
               0.03956557810306549,
               0.12656167149543762,
               -0.025766361504793167,
               -0.025812238454818726,
               -0.030876105651259422,
               0.004345305263996124,
               -0.9568203687667847,
               -0.21755734086036682,
               0.07075326144695282,
               0.18777306377887726,
               -0.12193398922681808,
               0.03403075784444809,
               -0.06280281394720078,
               0.316663533449173,
               0.3894156813621521,
               0.834153950214386,
               0.809302031993866,
               0.8400179743766785,
               0.23010079562664032,
               -0.015078646130859852,
               0.29824012517929077,
               0.4659891128540039,
               0.5251990556716919,
               -0.17725200951099396,
               -0.5707359313964844,
               0.31992846727371216,
               0.6388701796531677,
               0.7622745037078857,
               0.1351962834596634,
               -0.753290593624115,
               -0.8936209082603455,
               0.03001141920685768,
               0.01933552324771881,
               0.048694513738155365,
               -0.7166255712509155,
               -0.506079912185669,
               0.038072217255830765,
               0.4232647120952606,
               0.13869237899780273,
               0.38454827666282654,
               0.966684877872467,
               0.9863620400428772,
               0.8933280110359192,
               0.8342735767364502,
               0.535575807094574,
               0.19603081047534943,
               0.2276083081960678,
               0.1791103035211563,
               0.2750856876373291,
               0.1514757126569748,
               0.2568420171737671,
               0.40421605110168457,
               0.20052839815616608,
               -0.1531842052936554,
               -0.17812348902225494,
               -0.3780933618545532,
               -0.516516923904419,
               -0.34857621788978577,
               0.2478126436471939,
               0.4100625813007355,
               0.0009384416043758392,
               0.006471011787652969,
               -0.10227933526039124,
               0.9574815034866333,
               0.7252326607704163,
               0.16017252206802368,
               0.5786330103874207,
               0.2601728141307831,
               -0.5219191312789917,
               -0.34128960967063904,
               0.171162411570549,
               0.21984149515628815,
               0.06134585291147232,
               0.10413099825382233,
               0.18689963221549988,
               0.2670040428638458,
               0.02158968150615692,
               -0.04338422790169716,
               -0.011425865814089775,
               0.2911001443862915,
               0.738368570804596,
               0.6760700345039368,
               0.49250900745391846,
               -0.20419727265834808,
               -0.32067859172821045,
               0.1495790034532547,
               1.0063295364379883,
               0.5834313631057739,
               0.00836709514260292,
               0.26534974575042725,
               -0.03495253995060921,
               0.39411500096321106,
               -0.18065521121025085,
               -0.7003999352455139,
               -0.061168402433395386,
               -0.12990336120128632,
               -0.21540412306785583,
               -0.1118694394826889,
               0.16949306428432465,
               0.35773417353630066,
               0.2554539442062378,
               0.17727625370025635,
               0.23996601998806,
               0.2779819369316101,
               0.06643237918615341,
               0.08812884986400604,
               0.02123192884027958,
               0.009156905114650726,
               0.0984746590256691,
               -0.1755293905735016,
               -0.012880401685833931,
               0.17721042037010193,
               -0.09180153906345367,
               0.028223054483532906,
               0.12595626711845398,
               0.5992608666419983,
               -0.010270358994603157,
               0.1803746074438095,
               -0.5039676427841187,
               -0.5690014362335205,
               -0.01852167211472988,
               -0.27800482511520386,
               -0.40748485922813416,
               -0.3324626088142395,
               -0.04329722747206688,
               -0.0984741672873497,
               0.19437380135059357,
               0.15798012912273407,
               0.18169239163398743,
               0.21903635561466217,
               0.37034568190574646,
               0.19581131637096405,
               -0.08741080015897751,
               -0.26783084869384766,
               0.1311529129743576,
               -0.13253946602344513,
               -0.2258390635251999,
               0.0985412523150444,
               0.32745352387428284,
               0.03662414103746414,
               -0.12928535044193268,
               -0.154225692152977,
               0.021800808608531952,
               0.7526859641075134,
               -0.008409167639911175,
               -0.1539488285779953,
               -0.3102605640888214,
               0.11397173255681992,
               0.4114702045917511,
               -0.4557490050792694,
               -0.07343095541000366,
               0.01889023743569851,
               -0.03623408451676369,
               -0.14639900624752045,
               0.056875698268413544,
               -0.028657305985689163,
               0.10389303416013718,
               0.1569414883852005,
               0.023360436782240868,
               -0.14463795721530914,
               0.031090211123228073,
               0.006062342319637537,
               -0.14255964756011963,
               -0.052724212408065796,
               -0.16017521917819977,
               -0.10282570123672485,
               -0.12125091999769211,
               0.08561453968286514,
               0.16829708218574524,
               -0.33065998554229736,
               0.07207372784614563,
               0.24250121414661407,
               -0.04602738469839096,
               -0.029666325077414513,
               0.2376265525817871,
               0.27653494477272034,
               -0.286569207906723,
               -0.6487922072410583,
               0.040625303983688354,
               0.1228426992893219,
               0.0035081079695373774,
               -0.07997288554906845,
               0.05691808462142944,
               -0.1915045529603958,
               -0.27925437688827515,
               0.007324203848838806,
               -0.05802217125892639,
               -0.08461466431617737,
               0.09221161156892776,
               0.025059236213564873,
               -0.08631796389818192,
               0.10056822746992111,
               -0.12150393426418304,
               -0.2226189374923706,
               -0.08428782224655151,
               0.20964115858078003,
               0.24138422310352325,
               -0.14616572856903076,
               -0.23671278357505798,
               -0.7047592401504517,
               -0.07789938151836395,
               -0.06724070012569427,
               0.12356162816286087,
               -0.03150849789381027,
               -0.44476044178009033,
               -0.43340006470680237,
               0.10499748587608337,
               0.08363325893878937,
               0.04485099017620087,
               -0.03870639577507973,
               0.003638629103079438,
               -0.09915417432785034,
               -0.18780353665351868,
               -0.09544255584478378,
               0.14899909496307373,
               -0.10939063131809235,
               0.19763919711112976,
               0.04919717460870743,
               0.21804647147655487,
               0.2785642445087433,
               0.325313538312912,
               0.0629131868481636,
               0.1468719244003296,
               0.4286317825317383,
               0.10534641891717911,
               -0.48227015137672424,
               -0.37198013067245483,
               -0.5167330503463745,
               -0.24450914561748505,
               -0.11571167409420013,
               -0.3468330502510071,
               0.11784198880195618,
               0.10395145416259766,
               -0.17482544481754303,
               -0.13502787053585052,
               -0.05402170121669769,
               -0.34102723002433777,
               -0.20518963038921356,
               -0.22007794678211212,
               -0.2726636230945587,
               -0.2288423627614975,
               0.2911292612552643,
               0.345634788274765,
               0.2911624312400818,
               0.10755155980587006,
               0.10606001317501068,
               0.0912570208311081,
               0.08538197726011276,
               0.13530735671520233,
               0.16966824233531952,
               -0.20079827308654785,
               -0.15142309665679932,
               0.19401217997074127,
               0.5777963399887085,
               0.41587284207344055,
               0.05681009963154793,
               -0.21989761292934418,
               -0.21425770223140717,
               -0.5576845407485962,
               0.7377951741218567,
               -0.016372907906770706,
               -0.4427028298377991,
               -0.11043572425842285,
               0.17077676951885223,
               -0.09068801254034042,
               0.08088164031505585,
               -0.19833283126354218,
               -0.013367956504225731,
               -0.09011666476726532,
               0.26244720816612244,
               0.6762734055519104,
               0.1481570303440094,
               -0.12842004001140594,
               0.12903912365436554,
               -0.30801448225975037,
               -0.2333688735961914,
               -0.20133712887763977,
               0.13253258168697357,
               -0.32886481285095215,
               -0.347530722618103,
               0.012133431620895863,
               0.19465860724449158,
               -0.3176334798336029,
               -0.24848672747612,
               0.5303807258605957,
               -0.3992389738559723,
               -0.8334983587265015,
               0.8450480103492737,
               -0.5139040350914001,
               -0.4248236417770386,
               0.02357347309589386,
               0.018450133502483368,
               0.17105276882648468,
               0.017675675451755524,
               -0.4350658655166626,
               0.015132075175642967,
               0.08459464460611343,
               0.16489556431770325,
               0.4005511403083801,
               0.0346483550965786,
               -0.22439277172088623,
               -0.2202194631099701,
               -0.24929259717464447,
               -0.2322441190481186,
               -0.1599937081336975,
               -0.42492783069610596,
               -0.3416983187198639,
               -0.5213033556938171,
               -0.47372788190841675,
               -0.01805017702281475,
               -0.2162141650915146,
               0.13225340843200684,
               0.12219042330980301,
               -0.5026381015777588,
