{
	"epoch": 0,
	"learning_rate": 0.01,
	"batch_size": 64,
	"to_shuffle": true,
	"loss": 0.23540153150161108,
	"accuracy": 0.9291666666666667,
	"fc_weights": [
		[
			0.01633869856595993, 0.02808867022395134, -0.029764508828520775, -0.02970893122255802,
			0.032137442380189896, 0.030607324093580246, 0.023193642497062683,
			-0.004037890583276749, -0.031020548194646835, -0.026293210685253143,
			-0.014690680429339409, -0.016946474090218544, 0.23343218863010406,
			0.32527339458465576, 0.14297530055046082, 0.015721259638667107, -0.0162920281291008,
			-0.0301652941852808, -0.01919318176805973, -0.026920095086097717,
			-0.017519397661089897, -0.0016763098537921906, 0.023639660328626633,
			-0.03378468379378319, 0.004852820187807083, 0.022769872099161148,
			0.030582133680582047, 0.00984441488981247, -0.018388915807008743,
			0.007490728050470352, 0.018564268946647644, -0.019447455182671547, 0.1338910013437271,
			0.24504369497299194, 0.1446165293455124, 0.2395494282245636, 0.49053719639778137,
			0.5945606827735901, 0.3260948657989502, 0.35151907801628113, 0.31232795119285583,
			0.36470943689346313, 0.13658249378204346, 0.3539181351661682, 0.09219374507665634,
			0.15072587132453918, 0.24687984585762024, 0.30857834219932556, 0.4348050057888031,
			0.39500313997268677, 0.40886127948760986, 0.2549709379673004, 0.027867089956998825,
			-0.020361343398690224, 0.003318995237350464, 0.010455399751663208,
			-0.033171989023685455, 0.024885546416044235, -0.014567175880074501,
			-0.12589451670646667, 0.27177703380584717, 0.3360457718372345, 0.3153143525123596,
			0.14564387500286102, 0.4259825646877289, 0.23463654518127441, 0.2757093012332916,
			0.34151706099510193, 0.417378693819046, 0.07603730261325836, 0.17890149354934692,
			0.30310317873954773, 0.13022743165493011, 0.12151296436786652, 0.08525510877370834,
			0.1867741048336029, 0.0556933619081974, 0.10318411886692047, 0.20392587780952454,
			0.30916404724121094, 0.48514679074287415, 0.008272401988506317, 0.002026725560426712,
			-0.008316807448863983, 0.008050795644521713, 0.0029752328991889954,
			0.0008055604994297028, -0.16332383453845978, -0.10753872990608215,
			0.05393125116825104, 0.5615531802177429, 0.38101357221603394, 0.48478081822395325,
			0.14277437329292297, 0.030510561540722847, 0.018131613731384277, 0.09602425247430801,
			0.23611661791801453, 0.2763844132423401, 0.24804729223251343, 0.30030128359794617,
			0.20366743206977844, 0.020428255200386047, -0.06568311154842377, 0.0631234273314476,
			0.1183331236243248, 0.15067964792251587, -0.01464483980089426, -0.17904463410377502,
			-0.15229840576648712, -0.0013109482824802399, -0.0057393405586481094,
			-0.02936714142560959, 0.022803958505392075, 0.13862952589988708, 0.22653637826442719,
			0.1800212860107422, 0.17425067722797394, 0.2919423580169678, -0.038120340555906296,
			-0.28925785422325134, -0.20445095002651215, -0.2504822909832001,
			-0.045575808733701706, -0.0331626832485199, -0.06313210725784302,
			0.039604391902685165, -0.0027628580573946238, 0.05644119158387184,
			0.05304593965411186, -0.19690334796905518, -0.3405625522136688, -0.2200915664434433,
			-0.07625970244407654, -0.13011983036994934, -0.13895460963249207,
			-0.15420551598072052, -0.07197339087724686, -0.008384283632040024,
			0.03389224782586098, -0.02697327360510826, 0.003991510719060898, 0.056380514055490494,
			-0.19314055144786835, 0.10951007157564163, 0.29751235246658325, 0.15629716217517853,
			-0.29584801197052, -0.3213644027709961, -0.2820667028427124, -0.3342033922672272,
			-0.17492546141147614, -0.0300301481038332, 0.07642316073179245, -0.08645953983068466,
			-0.12413676083087921, -0.08814354240894318, -0.2188517302274704, -0.3878166675567627,
			-0.4446493983268738, -0.3712179362773895, -0.29763680696487427, -0.25038954615592957,
			-0.23142918944358826, -0.10367033630609512, -0.07716062664985657,
			-0.15177911520004272, -0.00554312951862812, 0.02659967541694641, -0.13306958973407745,
			0.03546329215168953, -0.27219730615615845, 0.054260049015283585, 0.037317872047424316,
			0.036081645637750626, -0.0909997969865799, -0.23660506308078766, -0.14131046831607819,
			-0.28103750944137573, 0.0359431616961956, 0.15029044449329376, 0.2324431836605072,
			0.1337675005197525, 0.3713383376598358, 0.3423440456390381, 0.1399977058172226,
			-0.02232285588979721, -0.1908005326986313, -0.4223906695842743, -0.38772493600845337,
			-0.4656657576560974, -0.6058591604232788, -0.3478820025920868, -0.20717263221740723,
			-0.0967409759759903, -0.16763538122177124, -0.018186647444963455, -0.370152086019516,
			0.011947591789066792, -0.057528428733348846, -0.32531458139419556,
			-0.25760477781295776, -0.2076009213924408, -0.3737899363040924, -0.27972257137298584,
			-0.15840815007686615, 0.02677167020738125, 0.14362254738807678, 0.2097117155790329,
			0.18725916743278503, 0.19735880196094513, 0.24620524048805237, 0.22675639390945435,
			0.09201309084892273, -0.044123295694589615, -0.28979504108428955,
			-0.24762766063213348, -0.3143390417098999, -0.4580235481262207, -0.5862684845924377,
			-0.5119438171386719, -0.31733644008636475, -0.13233083486557007, -0.1894359439611435,
			-0.22581841051578522, -0.019548451527953148, 0.03145930916070938,
			-0.19696785509586334, -0.2899484932422638, -0.46499717235565186, -0.33624833822250366,
			-0.47253090143203735, -0.3262619376182556, -0.0611686147749424, 0.17632868885993958,
			0.10199684649705887, 0.03869078680872917, -0.0028535891324281693, 0.08609002828598022,
			0.01668607071042061, -0.04907709360122681, -0.06293723732233047, -0.2137034833431244,
			-0.28362593054771423, -0.2399860918521881, -0.11982065439224243, -0.33929938077926636,
			-0.5384973883628845, -0.44888728857040405, -0.3818002939224243, -0.31804996728897095,
			-0.060229040682315826, 0.005049943923950195, 0.05953357741236687,
			-0.24997639656066895, -0.1878465861082077, -0.23293310403823853, -0.21976730227470398,
			-0.1718885749578476, -0.3004128634929657, -0.1686241775751114, 0.014019793830811977,
			0.07740218192338943, 0.04972591996192932, -0.03796005621552467, -0.05457537621259689,
			-0.17248934507369995, -0.3140231966972351, -0.32893845438957214, -0.2643662691116333,
			-0.35500720143318176, -0.32199612259864807, -0.17667090892791748,
			-0.0021476303227245808, -0.32963383197784424, -0.4298197329044342,
			-0.3228549361228943, -0.40437865257263184, -0.22686724364757538, -0.0826636329293251,
			-0.022256022319197655, -0.1627630889415741, -0.21290451288223267,
			-0.21360698342323303, -0.16976121068000793, 0.04754916578531265, -0.134917214512825,
			-0.16803762316703796, -0.08393540233373642, -0.005432572681456804, 0.0865778774023056,
			0.004927665926516056, -0.19074855744838715, -0.3477015197277069, -0.4207836091518402,
			-0.4932940602302551, -0.4192396104335785, -0.3330260217189789, -0.23092053830623627,
			-0.2327696532011032, 0.008340291678905487, 0.022621450945734978, -0.1886785477399826,
			-0.2395937442779541, -0.2592471241950989, -0.5311203598976135, -0.24836686253547668,
			-0.03749733418226242, 0.023423396050930023, -0.4014456272125244, -0.1960829496383667,
			-0.03355822712182999, -0.03493550419807434, 0.14668473601341248, -0.0235341414809227,
			-0.018488449975848198, 0.022073490545153618, -0.07732553035020828,
			-0.028745515272021294, -0.1752607673406601, -0.40159809589385986,
			-0.41954123973846436, -0.40339162945747375, -0.33432087302207947,
			-0.22336147725582123, -0.051024843007326126, 0.019654406234622, -0.03858879581093788,
			0.2180839329957962, 0.2850987911224365, 0.1930164247751236, 0.12832528352737427,
			-0.057870298624038696, -0.40902355313301086, -0.3610152006149292,
			-0.0006417669355869293, 0.14127163589000702, -0.06625889986753464,
			-0.04367600008845329, 0.2216845601797104, 0.2277507483959198, 0.25435328483581543,
			0.18019810318946838, 0.18718944489955902, 0.046460121870040894, -0.032634854316711426,
			-0.012619591318070889, -0.23546122014522552, -0.43914130330085754,
			-0.3308727443218231, -0.28721165657043457, -0.07080568373203278, 0.03095836192369461,
			0.15770971775054932, 0.21991924941539764, 0.06086232513189316, 0.11019400507211685,
			0.16560930013656616, 0.051188308745622635, 0.052497804164886475, 0.06547623127698898,
			-0.3094838559627533, -0.42968133091926575, 0.0931948572397232, -0.026788100600242615,
			0.013596903532743454, 0.056536607444286346, 0.44165515899658203, 0.35420748591423035,
			0.2927514910697937, 0.11389924585819244, 0.10101623088121414, -0.018168995156884193,
			-5.476503793033771e-5, -0.042770177125930786, -0.12747524678707123,
			-0.14733390510082245, -0.09434433281421661, -0.06392569094896317,
			-0.017285432666540146, 0.15296103060245514, 0.20759205520153046, 0.1381891667842865,
			-0.024864476174116135, 0.024941710755228996, 0.16704736649990082, -0.1074438989162445,
			-0.2401408702135086, -0.24005676805973053, -0.1608097404241562, -0.44333574175834656,
			0.1139553114771843, -0.00032296404242515564, -0.2977955639362335, 0.0306259598582983,
			0.24683062732219696, 0.1461935192346573, 0.027894148603081703, -0.07300642132759094,
			-0.04829268157482147, 0.03271966055035591, -0.036127638071775436,
			-0.00830212514847517, -0.08890374004840851, -0.151927649974823, -0.12458229064941406,
			-0.10005522519350052, -0.03453974425792694, 0.09980902075767517, 0.18318569660186768,
			0.04211066663265228, -0.031291235238313675, 0.23987944424152374, 0.1431722640991211,
			-0.009436000138521194, -0.025077739730477333, -0.5069583058357239,
			-0.11852984875440598, -0.12364153563976288, 0.048435524106025696, 0.01740926504135132,
			0.011302672326564789, -0.12374979257583618, -0.02460186555981636, 0.08044663071632385,
			-0.13105304539203644, 0.03648880496621132, -0.09555502235889435, -0.10590328276157379,
			-0.06962884962558746, -0.07973607629537582, -0.13622085750102997,
			-0.18532003462314606, -0.2359233945608139, -0.12247778475284576, -0.02019544504582882,
			0.16955922544002533, 0.16872236132621765, 0.2013436108827591, 0.16758963465690613,
			0.28253278136253357, 0.05859573185443878, -0.18878957629203796, -0.2542893588542938,
			-0.1034187376499176, 0.16156914830207825, 0.09753953665494919, 0.14696849882602692,
			0.025672439485788345, -0.030685463920235634, 0.0014528660103678703,
			-0.292403906583786, 0.12027148902416229, -0.10510573536157608, 0.07056818902492523,
			-0.012614686042070389, -0.15898124873638153, -0.12535962462425232,
			0.05034374073147774, -0.00836037378758192, -0.22228752076625824, -0.25979048013687134,
			-0.167894646525383, 0.08562933653593063, 0.17504671216011047, 0.13930101692676544,
			0.19192400574684143, 0.09760598838329315, 0.011493797414004803, -0.14132274687290192,
			-0.23453786969184875, -0.22728735208511353, -0.15307946503162384, 0.1393909901380539,
			-0.013982253149151802, -0.10442139953374863, -0.00023032352328300476,
			0.12994073331356049, -0.16157984733581543, -0.3470669984817505, -0.17641803622245789,
			-0.21940335631370544, 0.17675858736038208, -0.014630215242505074,
			-0.08166693150997162, -0.013554194010794163, 0.054956723004579544,
			-0.016439635306596756, -0.08444226533174515, -0.10701117664575577,
			-0.1037692278623581, 0.03691673278808594, 0.12991029024124146, 0.18559886515140533,
			0.15004631876945496, 0.021011509001255035, -0.13530834019184113, -0.2888440489768982,
			-0.3570253252983093, -0.40557700395584106, -0.3856251537799835, 0.19176778197288513,
			-0.015570578165352345, -0.16154171526432037, -0.12359577417373657,
			-0.0934470146894455, -0.21050363779067993, -0.28078123927116394, -0.22762778401374817,
			-0.22590675950050354, -0.027070432901382446, 0.0331217460334301, 0.12124088406562805,
			0.11524179577827454, 0.2276654839515686, 0.16620048880577087, 0.04280450940132141,
			0.023497451096773148, 0.014620009809732437, 0.0772816613316536, 0.17309854924678802,
			0.23764006793498993, 0.06653176248073578, -0.17400145530700684, -0.3109886348247528,
			-0.34136638045310974, -0.20556890964508057, -0.2693289518356323, -0.41170522570610046,
			0.08664974570274353, 0.24692510068416595, -0.1880350410938263, -0.17425669729709625,
			-0.21552295982837677, -0.2829461097717285, -0.2072729617357254, -0.38176846504211426,
			-0.3008384704589844, -0.18483470380306244, -0.01768396608531475, -0.11629548668861389,
			-0.11407621204853058, 0.1463737040758133, 0.21101132035255432, 0.15985947847366333,
			0.05649534612894058, 0.025647161528468132, 0.03351447731256485, 0.16905610263347626,
			0.02333875373005867, -0.06839530915021896, -0.17002476751804352, -0.28555598855018616,
			-0.3399496376514435, -0.31536662578582764, -0.1906748265028, -0.23490071296691895,
			-0.05160237103700638, -0.01453822385519743, -0.19018130004405975,
			0.017143361270427704, -0.0754745602607727, 0.02592083252966404, -0.18527951836585999,
			-0.2849389612674713, -0.29767534136772156, -0.222777858376503, -0.2107749730348587,
			-0.22371461987495422, -0.31935545802116394, -0.23238451778888702,
			-0.10640683025121689, 0.012554822489619255, 0.1035272404551506, 0.010367065668106079,
			0.008050807751715183, -0.0066983662545681, -0.09919886291027069, -0.23814143240451813,
			-0.34718140959739685, -0.3447369635105133, -0.4783202111721039, -0.3551461398601532,
			-0.10614600032567978, 0.07936814427375793, -0.0039161192253232, 0.012037171982228756,
			-0.006175236776471138, -0.016638258472085, 0.17258885502815247, 0.060440078377723694,
			-0.029085621237754822, 0.01486161258071661, -0.14176000654697418,
			-0.22038429975509644, -0.205344095826149, -0.20890450477600098, -0.35887017846107483,
			-0.31375858187675476, -0.19280537962913513, -0.027968043461441994,
			-0.023898420855402946, -0.05771750211715698, -0.07639060914516449,
			-0.07521311938762665, -0.2595381736755371, -0.4671979546546936, -0.4367366433143616,
			-0.3786263167858124, -0.3308953642845154, -0.35391324758529663, -0.11434066295623779,
			-0.06519781053066254, -0.1865181028842926, -0.08661369234323502, 0.02006618306040764,
			0.032158296555280685, 0.026949498802423477, 0.06372305750846863, 0.08371501415967941,
			0.20842508971691132, 0.005781762767583132, -0.3037715554237366, -0.3157259523868561,
			-0.2976655066013336, -0.3214133381843567, -0.2521303594112396, -0.2730861008167267,
			-0.17578130960464478, -0.10771494358778, -0.06129259243607521, -0.184933602809906,
			-0.24165752530097961, -0.4238516390323639, -0.4839628040790558, -0.39706239104270935,
			-0.2440587431192398, -0.3157104253768921, -0.14202693104743958, -0.10387568920850754,
			-0.15422476828098297, -0.13167022168636322, -0.12373936176300049,
			-0.012282295152544975, -0.016697842627763748, 0.018397588282823563,
			-0.1164604052901268, 0.0437326580286026, 0.24606798589229584, -0.055966153740882874,
			-0.28522902727127075, -0.2832113206386566, -0.3248652219772339, -0.2802942395210266,
			-0.13199110329151154, -0.17917600274085999, -0.24250851571559906,
			-0.30804938077926636, -0.21994523704051971, -0.3148282766342163, -0.3084985017776489,
			-0.3406280279159546, -0.2518526613712311, -0.1292053610086441, 0.03258004039525986,
			0.13148409128189087, 0.09604336321353912, -0.05415940657258034, 0.03873308375477791,
			-0.059024129062891006, 0.0321708582341671, -0.033297836780548096,
			-0.03092341125011444, -0.011136971414089203, 0.011027034372091293,
			-0.005386007484048605, 0.04430098459124565, -0.13332735002040863, -0.3385702073574066,
			-0.31471848487854004, -0.3638089597225189, -0.4071488380432129, -0.23680229485034943,
			-0.13135558366775513, -0.18960615992546082, -0.11300558596849442, -0.1067090854048729,
			-0.07466844469308853, -0.06313248723745346, -0.04821434244513512,
			-0.014881444163620472, 0.0641767829656601, 0.24992318451404572, 0.18278329074382782,
			0.07782341539859772, 0.08415021747350693, -0.010708844289183617,
			-0.062187422066926956, -0.03553631156682968, 0.014884565025568008,
			0.017679665237665176, 0.011300623416900635, 0.14178577065467834, 0.376379132270813,
			-0.09145715087652206, -0.0766611322760582, -0.10450118780136108, -0.06342041492462158,
			-0.10560473054647446, -0.06484398245811462, -0.021089904010295868,
			0.16708052158355713, 0.10942128300666809, 0.05572330206632614, 0.13916489481925964,
			0.22895358502864838, 0.336464524269104, 0.041968341916799545, -0.041297584772109985,
			0.040161848068237305, 0.42889833450317383, 0.304566353559494, -0.006173538044095039,
			-0.16172897815704346, -0.0731208547949791, -0.030181655660271645,
			0.020222894847393036, -8.128955960273743e-5, -0.017067331820726395,
			-0.00015413016080856323, -0.03364333510398865, -0.028893902897834778,
			-0.02186594530940056, -0.14744660258293152, -0.027659757062792778,
			0.025207243859767914, 0.13550586998462677, 0.2702735364437103, 0.44889527559280396,
			0.3565129339694977, 0.1068800687789917, 0.17307984828948975, 0.5532232522964478,
			0.2792307436466217, 0.35833898186683655, 0.15710356831550598, 0.03254649415612221,
			0.07571341097354889, 0.30222466588020325, 0.14180192351341248, 0.16544635593891144,
			0.26764798164367676, 0.057697732001543045, 0.018920838832855225, 0.008476898074150085,
			-0.023530837148427963, -0.03057182766497135, 0.015016421675682068,
			-0.031016862019896507, -0.03087799996137619, -0.03318672627210617,
			0.019412066787481308, 0.026204051449894905, -0.14769290387630463,
			-0.11741451919078827, -0.10432221740484238, 0.08532688021659851, 0.15869244933128357,
			0.10253939777612686, -0.028870781883597374, 0.16107752919197083, 0.24287965893745422,
			0.07330986857414246, 0.0365963913500309, 0.04805579036474228, 0.13001832365989685,
			0.06171926110982895, 0.19373396039009094, 0.2798314094543457, 0.13652507960796356,
			-0.015032155439257622, -0.03252030164003372, 0.01384039968252182, 0.008790303021669388
		],
		[
			-0.013707851991057396, 0.029728952795267105, 0.032705601304769516,
			-0.016918528825044632, -0.03272932022809982, 0.021445930004119873,
			-0.01189381442964077, 0.0285477377474308, 0.005941327661275864, -0.008020669221878052,
			-0.0002374313771724701, 0.026307161897420883, 0.022343192249536514,
			0.020099271088838577, -0.01189347729086876, 0.021137408912181854,
			-0.034374307841062546, -0.004675567150115967, 0.029017191380262375,
			0.0023768357932567596, 0.028697628527879715, 0.025693561881780624,
			0.020354777574539185, 0.030873876065015793, 0.02712959423661232,
			-0.0036200806498527527, 0.024729549884796143, 0.0170210599899292,
			0.012487698346376419, -0.0009272769093513489, 0.008911672979593277,
			-0.01654677838087082, 0.027821894735097885, -0.02177596651017666,
			0.0006676055490970612, 0.01951838657259941, -0.016112834215164185,
			-0.01871964894235134, 0.027662452310323715, 5.616992712020874e-5,
			-0.007454723119735718, -0.02818218804895878, 0.008327987045049667,
			0.01298542320728302, -0.020305916666984558, 0.021477174013853073, 0.0294661782681942,
			0.01678312197327614, -0.02277486026287079, -0.0033241771161556244,
			0.026214424520730972, 0.024491075426340103, -0.00535036064684391,
			-0.010635018348693848, -0.003381073474884033, 0.0035654641687870026,
			-0.02299884520471096, -0.0131148062646389, -0.011668337509036064,
			-0.03479863703250885, -0.011090802028775215, -0.026818791404366493,
			-0.005758579820394516, 0.020185183733701706, -0.016648460179567337,
			0.02314477041363716, -0.015884889289736748, -0.0045263636857271194,
			0.004448752850294113, -0.07584518939256668, -0.07449820637702942,
			-0.06483875960111618, -0.05940064415335655, -0.05034144967794418,
			-0.07718607038259506, -0.0007569827139377594, -0.009593317285180092,
			-0.012220919132232666, -0.017787396907806396, 0.020048748701810837,
			0.003673069179058075, -0.004325203597545624, 0.0124247707426548,
			-0.026292968541383743, -0.01680741272866726, -0.01881999336183071,
			0.033548418432474136, 0.026874657720327377, -0.006412021815776825,
			-0.026081617921590805, -0.033674947917461395, 0.029239904135465622,
			0.0011675544083118439, -0.08582901209592819, -0.08564747124910355,
			-0.046741265803575516, -0.08239562809467316, -0.07187025994062424,
			-0.09557314962148666, -0.06496421247720718, -0.036840468645095825,
			-0.029179124161601067, 0.0919833704829216, -0.09316938370466232, -0.07262656837701797,
			-0.02687194012105465, -0.04243761673569679, 0.02988133206963539, -0.0344473272562027,
			-0.007619854062795639, -0.004027154296636581, 0.03460307791829109,
			0.01681116595864296, 0.013803470879793167, 0.033403653651475906,
			0.00048591941595077515, 0.013812091201543808, 0.018896739929914474,
			-0.02310558408498764, 0.07612840831279755, 0.054686930030584335, -0.0743085965514183,
			-0.05272650346159935, -0.06714275479316711, -0.028203921392560005,
			-0.06589765846729279, -0.04582678899168968, -0.04679074138402939,
			-0.06396197527647018, 0.05094682797789574, 0.04369494318962097, -0.09350303560495377,
			-0.03183658793568611, -0.08002795279026031, -0.02600981667637825,
			-0.04808453097939491, 0.022227250039577484, -0.02715902402997017,
			-0.007185919210314751, -0.007886061444878578, 0.023892462253570557,
			-0.023075789213180542, 0.0009090602397918701, 0.0339541919529438, 0.03247540816664696,
			0.010201726108789444, -0.02785910665988922, 0.06640826165676117, 0.05110738426446915,
			0.033301640301942825, -0.025567086413502693, -0.08849270641803741,
			-0.0402350127696991, -0.05450433865189552, -0.058879222720861435, -0.0893910601735115,
			-0.04949045926332474, 0.06585825979709625, 0.05527084693312645, 0.06482283771038055,
			0.06331493705511093, 0.026868708431720734, -0.08540601283311844, 0.05187591165304184,
			-0.07850243896245956, -0.0015255026519298553, 0.023990482091903687,
			0.028908122330904007, 0.027435604482889175, -0.03254995495080948,
			0.030101504176855087, -0.013235505670309067, -0.08237127959728241,
			-0.034335795789957047, -0.07544232159852982, -0.054414767771959305,
			-0.06742043048143387, -0.045042309910058975, -0.0380760058760643,
			-0.07673141360282898, -0.04167928919196129, -0.07124555855989456,
			-0.037804193794727325, -0.09381274878978729, -0.07990887016057968,
			-0.06478921324014664, -0.03853509947657585, 0.08556103706359863, 0.03204768896102905,
			0.02902207151055336, 0.057905349880456924, 0.03432183340191841, -0.0486719124019146,
			-0.0015184469521045685, 0.01805533841252327, -0.030443375930190086,
			-0.030958227813243866, 0.012296922504901886, -0.0149735938757658,
			-0.03249296173453331, -0.05249979346990585, -0.046737417578697205,
			-0.03869488462805748, -0.03256630152463913, -0.04648672416806221,
			-0.07152052968740463, -0.09160347282886505, -0.030607853084802628,
			-0.0335376001894474, -0.08970223367214203, -0.09506618231534958,
			-0.030893448740243912, -0.04812678322196007, -0.0414288192987442,
			-0.09197460860013962, -0.04074260964989662, -0.06142914667725563, 0.0877332016825676,
			0.051066525280475616, 0.027785783633589745, 0.02989300712943077, -0.02108018845319748,
			0.026062414050102234, -0.01599680259823799, -0.029587307944893837,
			0.00036386772990226746, -0.02864859439432621, -0.009067684412002563,
			-0.09466181695461273, -0.04020227864384651, -0.03156985342502594,
			-0.044917624443769455, -0.0374583937227726, -0.03721891716122627,
			-0.05904592201113701, -0.050262756645679474, -0.08285805583000183,
			-0.05766014754772186, -0.09089318662881851, -0.04384788125753403,
			-0.05831107869744301, -0.04161319509148598, -0.06467199325561523,
			-0.06354551017284393, -0.025070495903491974, 0.07970645278692245,
			0.044937968254089355, 0.04897681251168251, 0.008640691637992859,
			-0.015651095658540726, -0.020252935588359833, -0.005626890808343887,
			-0.007840845733880997, -0.02699223719537258, -0.019234249368309975,
			0.019925758242607117, 0.0054695867002010345, -0.09447576850652695,
			-0.07632551342248917, -0.0521356500685215, -0.0703987181186676, -0.06802373379468918,
			-0.07144778966903687, -0.055924173444509506, -0.07091998308897018,
			-0.0940515398979187, -0.060450684279203415, -0.07378840446472168,
			-0.05945960059762001, -0.08839774131774902, -0.09037449210882187,
			-0.03880012780427933, -0.060562457889318466, -0.07715938240289688,
			-0.03239498287439346, -0.06198958680033684, -0.035377394407987595,
			-0.0269459281116724, -0.030229613184928894, 0.032467637211084366,
			0.003349948674440384, 0.00017632171511650085, 0.005486104637384415,
			-0.02004494145512581, 0.0014626644551753998, -0.05541311949491501,
			-0.07760182023048401, -0.03699653223156929, -0.029027331620454788,
			-0.07870379835367203, -0.03089519962668419, -0.08968379348516464,
			-0.04021758213639259, -0.04091094434261322, -0.033723775297403336,
			-0.07392387092113495, -0.08441520482301712, -0.05597635358572006,
			-0.06763596087694168, -0.06464933604001999, -0.02532286010682583, -0.0856005996465683,
			-0.09089532494544983, -0.07362325489521027, -0.031219758093357086,
			-0.003815446048974991, 0.01915215700864792, 0.012719802558422089,
			0.017899177968502045, -0.03051718696951866, 0.03523712232708931, -0.02668553590774536,
			0.011955026537179947, -0.06740665435791016, -0.0733162984251976, -0.0921149030327797,
			-0.03792564943432808, -0.0652565211057663, -0.0801173746585846, -0.027909021824598312,
			-0.06402303278446198, -0.03352369740605354, -0.04270249232649803,
			-0.09256265312433243, -0.06390143185853958, -0.06453686952590942,
			-0.06973520666360855, -0.05439462512731552, -0.09160737693309784,
			-0.03342830389738083, -0.066463403403759, -0.05919722095131874, -0.04109213128685951,
			-0.049854543060064316, -0.017928238958120346, -0.001601051539182663,
			-0.03366699814796448, 0.024375220760703087, 0.07183694839477539, 0.08472428470849991,
			0.027228450402617455, -0.06718197464942932, -0.04436759650707245,
			-0.06192905828356743, -0.028844524174928665, -0.0663854107260704, -0.0940869003534317,
			-0.06913824379444122, -0.029751859605312347, -0.04847797378897667,
			-0.08368867635726929, -0.08793415129184723, -0.03739456087350845,
			-0.043698087334632874, -0.07516244798898697, -0.08161963522434235,
			-0.07463010400533676, -0.04052557051181793, -0.033976972103118896,
			-0.08873457461595535, -0.06615270674228668, -0.07304402440786362,
			-0.0006835348904132843, -0.022130869328975677, -0.0075598955154418945,
			0.09100084751844406, 0.05407482013106346, 0.08795221149921417, 0.06797661632299423,
			-0.025727832689881325, -0.09288594871759415, -0.05391915887594223,
			-0.08225496858358383, -0.08777239918708801, -0.02893201820552349,
			-0.06367893517017365, -0.05965673550963402, -0.082526795566082, -0.08199083805084229,
			-0.047815728932619095, -0.09100829064846039, -0.06078052520751953,
			-0.08647088706493378, -0.06994481384754181, -0.06505098938941956,
			-0.06429779529571533, -0.035519789904356, -0.07451789826154709, -0.03260011598467827,
			-0.036888234317302704, 0.02930285409092903, -0.010545896366238594,
			0.024687785655260086, 0.004911459982395172, -0.023476162925362587,
			0.02788529545068741, 0.011052954941987991, -0.06569666415452957, -0.0788971409201622,
			-0.06574104726314545, -0.0911371186375618, -0.08163359761238098, -0.0872691422700882,
			-0.028185604140162468, -0.05905047804117203, -0.0670900046825409,
			-0.08351200819015503, 0.040217217057943344, -0.05263815447688103,
			-0.07681084424257278, -0.028683815151453018, -0.08075495064258575,
			-0.03234819695353508, -0.04962857440114021, -0.09456893801689148,
			-0.07559184730052948, -0.05912525951862335, -0.05491923913359642,
			-0.005939070135354996, 0.02153138816356659, -0.0025287531316280365,
			-0.020499195903539658, 0.01511252298951149, -0.03036298230290413,
			0.019368361681699753, -0.03182145208120346, -0.05540899932384491,
			-0.08623288571834564, -0.06346382200717926, -0.09425870329141617,
			-0.05261639878153801, -0.03028242476284504, -0.04640430957078934,
			-0.08314363658428192, 0.08945853263139725, 0.05889108031988144, -0.027820801362395287,
			-0.0705619677901268, -0.09465727210044861, -0.0667555183172226, -0.03647096827626228,
			-0.09026585519313812, -0.07674942165613174, -0.055255819112062454,
			-0.0810520127415657, -0.09421384334564209, 0.017717689275741577,
			-0.008852425962686539, -0.029025973752141, -0.022370725870132446,
			0.008737925440073013, 0.0237492136657238, -0.02671966888010502, -0.05931415408849716,
			-0.08554505556821823, -0.025897394865751266, -0.07634381949901581, -0.075196772813797,
			-0.030980728566646576, -0.04423841834068298, -0.06010470166802406,
			0.060954511165618896, 0.06676758080720901, 0.09006665647029877, -0.08140198886394501,
			-0.07625599205493927, -0.06256379932165146, -0.0865701213479042, -0.07077942043542862,
			-0.056907374411821365, -0.06917620450258255, -0.03249093517661095,
			-0.08751624077558517, -0.047102682292461395, -0.030347134917974472,
			0.021516110748052597, -0.0215236097574234, -0.035023320466279984, 0.03151706978678703,
			0.0061225853860378265, 0.019832152873277664, -0.08577622473239899,
			-0.059960197657346725, -0.07126922905445099, -0.06922046840190887,
			-0.05191870033740997, -0.0879562646150589, -0.025182105600833893, 0.06243930011987686,
			0.07007104158401489, 0.058009978383779526, 0.07529046386480331, -0.05405561253428459,
			-0.08240697532892227, -0.038840390741825104, -0.043465033173561096,
			-0.053769610822200775, -0.024817831814289093, -0.03792320564389229,
			-0.07217340916395187, -0.08105500787496567, -0.020167581737041473,
			-0.0178059171885252, -0.03413861244916916, -0.024419525638222694,
			-0.029700055718421936, -0.029998019337654114, -0.020474985241889954,
			-0.007966101169586182, -0.0493694432079792, -0.08627587556838989, -0.0354461595416069,
			-0.0761680081486702, -0.09100835770368576, -0.07366470247507095,
			-0.046303391456604004, -0.051692843437194824, 0.04442664980888367,
			0.07023107260465622, -0.09473336488008499, -0.053724776953458786,
			-0.03788112476468086, -0.07083301991224289, -0.041978321969509125,
			-0.046797797083854675, -0.09167047590017319, -0.04175303503870964,
			-0.026699461042881012, -0.02905585989356041, 0.0800992101430893, 0.005977120250463486,
			-0.02746480703353882, 0.03434944525361061, 0.021747995167970657, 0.017213262617588043,
			-0.022167112678289413, -0.028341298922896385, 0.063502237200737, -0.09497545659542084,
			-0.06790110468864441, -0.08771182596683502, -0.049566060304641724,
			-0.029836393892765045, -0.06837789714336395, 0.0773669183254242, 0.06303972750902176,
			-0.051475849002599716, -0.07614471018314362, -0.06730291992425919,
			-0.04056267440319061, -0.04509191960096359, -0.07235144823789597,
			-0.06781486421823502, -0.026013851165771484, -0.0441274456679821, 0.09297154098749161,
			0.035937707871198654, 0.058252736926078796, 0.09298929572105408, -0.03422335535287857,
			-0.016964305192232132, 0.035677749663591385, -0.031259454786777496,
			0.027998749166727066, -0.013542857021093369, 0.04809723421931267,
			-0.07545369118452072, -0.09558805823326111, -0.02992154471576214,
			-0.06161746755242348, -0.03607935830950737, -0.06893270462751389,
			-0.05383447930216789, -0.04012573882937431, -0.05479379743337631,
			-0.05181635543704033, -0.02987518347799778, -0.03777259588241577,
			-0.028199592605233192, -0.06375712901353836, -0.04933019354939461,
			-0.09263670444488525, -0.033161383122205734, -0.028691746294498444,
			0.03365938365459442, 0.031654585152864456, 0.057870227843523026, 0.027828779071569443,
			-0.03511827439069748, 0.02442723885178566, -0.012968745082616806,
			0.025781646370887756, 0.05681659281253815, 0.07230447977781296, -0.05237213894724846,
			-0.06676724553108215, -0.059274833649396896, -0.04917856305837631,
			-0.05394383892416954, -0.05963258445262909, -0.06320476531982422,
			-0.02891729585826397, -0.04130149632692337, -0.07283880561590195,
			-0.049092717468738556, -0.08441770821809769, -0.08170796930789948,
			-0.0319843590259552, -0.09533476829528809, -0.08859314769506454, -0.05059994384646416,
			-0.03615620732307434, 0.011819131672382355, 0.02731771394610405, 0.018190346658229828,
			0.013518482446670532, -0.004461672157049179, 0.016800012439489365,
			-0.02471037209033966, -0.09212812781333923, -0.052506085485219955,
			-0.08031048625707626, -0.03828807175159454, -0.04835754260420799,
			-0.04262429475784302, -0.06696651875972748, -0.07868467271327972,
			-0.07175233215093613, -0.025285935029387474, -0.04272117093205452,
			-0.07421178370714188, -0.07226384431123734, -0.07384324073791504,
			-0.06360745429992676, -0.07910792529582977, -0.07684418559074402,
			-0.027735110372304916, -0.06335622817277908, -0.04343876615166664,
			-0.0029652081429958344, 0.0021140314638614655, 0.014405425637960434,
			-0.025586027652025223, -0.002309035509824753, 0.024394899606704712,
			-0.021686231717467308, -0.021617507562041283, -0.06666358560323715,
			-0.09236689656972885, -0.06519071012735367, -0.08007240295410156, -0.094510018825531,
			-0.05325227230787277, -0.04082419350743294, -0.042983077466487885,
			-0.03099481388926506, -0.02923891879618168, -0.03892984986305237,
			-0.07355164736509323, -0.08398258686065674, -0.08047376573085785,
			-0.050176024436950684, -0.050636012107133865, -0.0819685161113739,
			0.07859023660421371, 0.08502034097909927, -0.005611339583992958, 0.003606945276260376,
			-0.031066061928868294, -0.015171563252806664, -0.029369909316301346,
			-0.022990738973021507, 0.03011789545416832, 0.022668730467557907,
			-0.024141278117895126, -0.02586948871612549, 0.054408833384513855, 0.0912427231669426,
			0.04995686560869217, -0.06473913043737411, -0.04736155644059181, -0.0955326035618782,
			-0.03676357865333557, 0.03322574123740196, -0.027001168578863144,
			-0.02816619724035263, -0.0451064296066761, -0.07282419502735138,
			-0.052591029554605484, -0.05465240776538849, 0.08471463620662689,
			0.038075197488069534, 0.025391895323991776, 0.08352965861558914,
			-0.002271033823490143, -0.03366170823574066, 0.014922995120286942,
			-0.0058258939534425735, 0.03460894152522087, 0.031275179237127304,
			0.019228901714086533, 0.026708804070949554, 0.024019166827201843, -0.0047171451151371,
			0.009022846817970276, -0.018484188243746758, -0.025911085307598114,
			-0.048105139285326004, -0.03501196205615997, -0.02891078032553196,
			-0.03785155341029167, -0.07399013638496399, -0.027125965803861618,
			-0.027030616998672485, -0.08088391274213791, -0.07554987072944641,
			-0.05703820288181305, -0.02717405930161476, 0.09466107934713364, -0.02285804972052574,
			0.007900048047304153, 0.0022967159748077393, 0.02005806192755699,
			-0.01387975923717022, -0.02755548059940338, 0.027019541710615158,
			-0.02968703582882881, -0.0001707896590232849, -0.010010963305830956,
			-0.01228635199368, 0.004109758883714676, 0.003961343318223953, 0.007942277938127518,
			-0.010601529851555824, -0.010957038030028343, 0.0914091020822525, 0.04292219504714012,
			-0.0663054808974266, -0.09350042045116425, -0.07311129570007324, 0.09453222900629044,
			0.03940555825829506, 0.034817952662706375, 0.0576513297855854, 0.06623969972133636,
			0.06904344260692596, 0.008095387369394302, -0.0040972232818603516,
			0.010065838694572449, 0.015508737415075302, 0.027127575129270554, 0.00905197486281395,
			0.025149226188659668, -0.01900709979236126, 0.0019859038293361664,
			0.012488637119531631, -0.003162998706102371, 0.010652933269739151,
			-0.02870042622089386, -0.026164954528212547, 0.010812316089868546,
			-0.0262506864964962, 0.03430475667119026, 0.015279605984687805, -0.026660367846488953,
			-0.011015348136425018, -0.02287476137280464, 0.02298716828227043,
			0.027440447360277176, 0.0035613365471363068, -0.026312079280614853,
			-0.02768821455538273, -0.029128748923540115, 0.020857807248830795,
			0.01521759107708931, -0.017105409875512123, 0.02415366843342781, 0.027678947895765305,
			-0.018245812505483627, 0.023914411664009094, -0.029560226947069168,
			0.03230270370841026, -0.007612185552716255, 0.03372592106461525
		],
		[
			-0.01732100360095501, -0.001007620245218277, 0.0035084374248981476,
			0.02735605463385582, 0.0077965594828128815, -0.00747356191277504,
			-0.02454093098640442, 0.021996185183525085, -0.006961295381188393,
			-0.01691916212439537, 0.02973930910229683, 0.023985467851161957, 0.1392126977443695,
			0.18249405920505524, 0.028057489544153214, 0.01854565739631653, 0.002067524939775467,
			0.03189271315932274, 0.004621177911758423, -0.012154754251241684,
			0.006167285144329071, 0.025673434138298035, -0.026805926114320755,
			-0.016470616683363914, -0.022825300693511963, -2.8915703296661377e-5,
			-0.030788589268922806, 0.032744985073804855, -0.03092404082417488,
			-0.0024715103209018707, 0.016653086990118027, 0.03167388215661049,
			0.038947299122810364, -0.03507276251912117, -0.09544190019369125,
			-0.06923473626375198, 0.22785302996635437, 0.27170440554618835, 0.21017517149448395,
			0.12012752145528793, -0.10877559334039688, 0.03087206929922104, 0.12056783586740494,
			-0.33856284618377686, -0.15660251677036285, -0.07926204800605774, 0.10980483144521713,
			0.1985313594341278, 0.15179991722106934, 0.010167485103011131, 0.10712675750255585,
			-0.24355456233024597, 0.022906046360731125, 0.021874509751796722,
			0.021045807749032974, 0.02159377932548523, 0.008371468633413315,
			-0.011435478925704956, 0.1265656054019928, -0.1487206220626831, -0.14924147725105286,
			0.1362536996603012, -0.016090242192149162, -0.06192371994256973, 0.12065993249416351,
			-0.10813508182764053, -0.06159167364239693, 0.11667434126138687, 0.08666139096021652,
			0.09368623048067093, 0.26359182596206665, 0.08730914443731308, -0.057786013931035995,
			-0.1871357262134552, -0.1725228726863861, 0.4745923578739166, 0.4458151161670685,
			0.2451261430978775, 0.29982367157936096, -0.17638355493545532, -0.10148217529058456,
			-0.2626653015613556, -0.0069025252014398575, -0.014362212270498276,
			-0.010586109012365341, 0.029968444257974625, 0.1910572350025177, 0.07519159466028214,
			0.011215168051421642, 0.15352284908294678, 0.23935329914093018, 0.21161887049674988,
			0.08688849210739136, -0.05463990941643715, 0.056544601917266846, 0.20586760342121124,
			-0.08305052667856216, -0.26456764340400696, -0.28440573811531067, -0.2143193483352661,
			-0.17717495560646057, -0.12202782928943634, -0.14621922373771667, 0.13982725143432617,
			0.457643985748291, 0.5991281270980835, 0.6228188872337341, 0.3581014573574066,
			0.0009863348677754402, -0.22267833352088928, 0.016148647293448448,
			-0.007222751155495644, -0.028832994401454926, -0.0070951711386442184,
			0.08964378386735916, 0.38084524869918823, -0.1258668303489685, -0.21381758153438568,
			-0.24118207395076752, 0.0590006522834301, 0.12548360228538513, 0.24645140767097473,
			0.11638182401657104, 0.07274118810892105, -0.03196372464299202, -0.04813770949840546,
			0.023351361975073814, 0.04872985929250717, 0.05140848457813263, 0.08432143181562424,
			-0.21725094318389893, -0.12938722968101501, 0.204447403550148, 0.29964280128479004,
			0.3051643669605255, 0.21179041266441345, 0.36523184180259705, 0.14014014601707458,
			0.0054706730879843235, 0.21083803474903107, 0.006467197090387344,
			-0.011991811916232109, 0.06866302341222763, -0.18248645961284637,
			-0.11976370960474014, -0.29483339190483093, -0.3413686156272888, -0.1554860770702362,
			-0.0029126082081347704, 0.11147856712341309, 0.15663711726665497, 0.174749493598938,
			0.14340461790561676, 0.1436992585659027, 0.16599944233894348, -0.0037931210827082396,
			-0.012420814484357834, -0.004581174813210964, -0.24698476493358612,
			-0.25074905157089233, -0.1703074872493744, 0.009085064753890038, 0.25387489795684814,
			0.3257013261318207, 0.24055929481983185, 0.36857834458351135, 0.30087003111839294,
			0.34671536087989807, -0.02481614053249359, 0.003954935818910599, 0.2681925594806671,
			-0.3795473277568817, -0.18466712534427643, -0.07375723123550415, -0.356284499168396,
			-0.029722584411501884, 0.06743913143873215, 0.0808490514755249, 0.06491287052631378,
			0.08371556550264359, 0.10104557126760483, 0.040513619780540466, -0.08501890301704407,
			-0.1542421579360962, -0.15332835912704468, -0.2257826328277588, -0.3950563073158264,
			-0.3027392625808716, -0.25631433725357056, -0.1574820578098297, 0.17036639153957367,
			0.5705248117446899, 0.4566246569156647, 0.3827987611293793, 0.30308225750923157,
			0.41321811079978943, 0.0035673901438713074, -0.2226276397705078, 0.08344504237174988,
			-0.22809824347496033, -0.205239400267601, 0.07378802448511124, -0.04965522885322571,
			0.20799830555915833, 0.30994895100593567, 0.2537180185317993, 0.19637073576450348,
			0.015611831098794937, -0.06418276578187943, -0.14422491192817688, -0.2470608949661255,
			-0.22220130264759064, -0.1304774284362793, -0.06281787902116776, -0.11438047140836716,
			-0.09505072236061096, -0.1110505685210228, 0.0774545893073082, 0.3325505256652832,
			0.5922936797142029, 0.6106550693511963, 0.6689906120300293, 0.3980180025100708,
			0.2672264575958252, 0.20348846912384033, -0.424334317445755, 0.2400471419095993,
			-0.07884257286787033, -0.15312209725379944, 0.1795952022075653, 0.09758645296096802,
			0.20972861349582672, 0.3111438453197479, 0.3177761435508728, 0.11525164544582367,
			0.06249487027525902, -0.10203683376312256, -0.2923036217689514, -0.3326683044433594,
			-0.2512916326522827, -0.005497729405760765, 0.02212005853652954, 0.004862284753471613,
			-0.012981072068214417, 0.05575140565633774, 0.09088189154863358, 0.10061505436897278,
			0.3098403513431549, 0.5247109532356262, 0.7140944600105286, 0.7262549996376038,
			0.20733819901943207, -0.140610471367836, -0.2567431926727295, -0.1587447226047516,
			-0.26648032665252686, -0.16715610027313232, 0.09886147826910019, -0.03665591776371002,
			0.1419861614704132, 0.25189298391342163, 0.30495989322662354, 0.23873965442180634,
			0.1617838591337204, -0.24405412375926971, -0.5056655406951904, -0.5296313166618347,
			-0.24672117829322815, 0.04703519865870476, -0.012190060690045357, 0.01651192270219326,
			0.03954572230577469, 0.013217480853199959, 0.05341171845793724, -0.15585973858833313,
			-0.060840800404548645, 0.36796095967292786, 0.3918437659740448, 0.19994622468948364,
			-0.209934800863266, -0.10768072307109833, -0.1901530623435974, -0.3502378463745117,
			-0.5130965709686279, -0.18447832763195038, -0.19720135629177094, -0.05275639891624451,
			0.15452876687049866, 0.3782195746898651, 0.5356997847557068, 0.4796636402606964,
			0.15579058229923248, -0.14231128990650177, -0.536898136138916, -0.5109226107597351,
			-0.06322801858186722, 0.04938513785600662, -0.15656274557113647, -0.1670815348625183,
			-0.16267845034599304, -0.2636966407299042, -0.31556588411331177, -0.3194388747215271,
			-0.2038716971874237, 0.20922666788101196, 0.07035265117883682, -0.2707771062850952,
			-0.40562698245048523, -0.09087785333395004, 0.004197903908789158, -0.6949617862701416,
			-0.3629697561264038, -0.23804637789726257, 0.006740609649568796, 0.08988483250141144,
			0.304804265499115, 0.3796306848526001, 0.48099371790885925, 0.48495739698410034,
			0.34194719791412354, 0.10233559459447861, -0.31736186146736145, -0.27081766724586487,
			-0.061327673494815826, 0.06675602495670319, -0.12737521529197693,
			-0.20970749855041504, -0.2346682995557785, -0.44918426871299744, -0.3276352286338806,
			-0.22104287147521973, -0.025759581476449966, 0.3108123540878296, -0.09467184543609619,
			-0.19123177230358124, -0.13623648881912231, -0.020741518586874008,
			-0.2089148610830307, -0.5384522676467896, -0.1442621946334839, -0.2937129735946655,
			0.088624969124794, 0.3068615794181824, 0.3497040569782257, 0.30931153893470764,
			0.3972325623035431, 0.4668351411819458, 0.45173314213752747, 0.1821737438440323,
			-0.21276773512363434, -0.3337826430797577, -0.10130459815263748, 0.003834659466519952,
			-0.16680170595645905, -0.2123098373413086, -0.25262200832366943, -0.32483670115470886,
			-0.11353977769613266, 0.05497487634420395, 0.34162014722824097, 0.4926779270172119,
			-0.4081660509109497, -0.4430635869503021, -0.15059944987297058, 0.014519825577735901,
			-0.14577072858810425, -0.46936744451522827, -0.28764793276786804,
			-0.17798888683319092, 0.18883422017097473, 0.4190974533557892, 0.34349438548088074,
			0.2596029043197632, 0.37591254711151123, 0.3736008107662201, 0.44002559781074524,
			0.057885996997356415, -0.3487515449523926, -0.29110187292099, -0.0755016952753067,
			-0.032218705862760544, -0.23967619240283966, -0.1579703390598297,
			-0.10229940712451935, -0.013223670423030853, 0.00445290794596076, 0.32249096035957336,
			0.2573423981666565, 0.1314389556646347, -0.3101135492324829, -0.5127258896827698,
			-0.0643443614244461, 0.12504343688488007, -0.17061838507652283, -0.15340448915958405,
			-0.20228400826454163, -0.04620407521724701, 0.21498358249664307, 0.24509888887405396,
			0.33424797654151917, 0.25227025151252747, 0.36061087250709534, 0.37065353989601135,
			0.3770929276943207, -0.024003269150853157, -0.20096153020858765, -0.21948228776454926,
			-0.10264149308204651, -0.13346759974956512, -0.03799596056342125,
			-0.09476694464683533, -0.07656925916671753, -0.15269868075847626, -0.1400928795337677,
			0.18104098737239838, 0.11174905300140381, 0.09997080266475677, -0.19695916771888733,
			-0.5308495163917542, -0.10266589373350143, 0.11970161646604538, 0.012976519763469696,
			-0.04959159716963768, -0.11527155339717865, -0.30862855911254883,
			-0.054875776171684265, 0.134041428565979, 0.2790524959564209, 0.26709145307540894,
			0.3478320837020874, 0.2892424166202545, 0.24157361686229706, 0.15991200506687164,
			-0.0580168142914772, -0.15508504211902618, -0.18078215420246124, -0.11726857721805573,
			0.009483490139245987, -0.08881127834320068, -0.12937338650226593,
			-0.10155321657657623, -0.018742341548204422, 0.17464248836040497, 0.19432374835014343,
			-0.1364402025938034, 0.06880124658346176, -0.27609217166900635, -0.4211501479148865,
			-0.09340915083885193, -0.08675753325223923, -0.16995321214199066,
			-0.17939339578151703, -0.6802374720573425, -0.11235678941011429, 0.09224839508533478,
			0.18771271407604218, 0.2873762249946594, 0.16647081077098846, 0.1462036520242691,
			0.128077432513237, 0.2096269279718399, 0.0974944680929184, 0.02975081466138363,
			0.034182555973529816, 0.03896110877394676, 0.0810348242521286, 0.04338637739419937,
			-0.024967335164546967, 0.046859826892614365, 0.06452936679124832,
			-0.07399152964353561, 0.10814610868692398, -0.05971439182758331, -0.17197847366333008,
			-0.5044680833816528, -0.3380741775035858, -0.03177061676979065, -0.11102495342493057,
			0.10032786428928375, -0.49057602882385254, -0.6979113221168518, -0.1965826004743576,
			-0.06981273740530014, 0.09110749512910843, 0.15901833772659302, 0.22330781817436218,
			0.24638547003269196, 0.31624284386634827, 0.2249537855386734, 0.24225635826587677,
			0.11423499882221222, 0.10482437163591385, -0.0045551154762506485, 0.1255953460931778,
			0.06285544484853745, -0.011174718849360943, 0.08260270953178406, 0.00195663352496922,
			-0.05037804692983627, 0.06262899935245514, 0.19712793827056885, -0.2593943476676941,
			-0.4130372405052185, -0.42680713534355164, -0.16776710748672485, -0.19261382520198822,
			0.017251862213015556, -0.46671244502067566, -0.6395228505134583, -0.2531055808067322,
			-0.11811148375272751, -0.10178856551647186, 0.0557367205619812, 0.14912629127502441,
			0.2354997843503952, 0.3064610958099365, 0.36815255880355835, 0.3079129755496979,
			0.1397370994091034, -0.07071421295404434, -0.17901161313056946, -0.2141423225402832,
			-0.1155465692281723, -0.03391757607460022, 0.06608637422323227, -0.14160041511058807,
			-0.2471228986978531, -0.12886783480644226, -0.06740569323301315, -0.4551151394844055,
			-0.37923845648765564, 0.011171295307576656, -0.1659000664949417, -0.43328040838241577,
			-0.09435904026031494, -0.2132706344127655, -0.4462619423866272, -0.23643198609352112,
			-0.1525639146566391, -0.21032050251960754, -0.11283700913190842,
			-0.017515767365694046, 0.024607256054878235, 0.16199353337287903, 0.3213125765323639,
			0.17135252058506012, 0.16353805363178253, -0.09978818893432617, -0.3307926654815674,
			-0.33659011125564575, -0.1448369324207306, 0.08696554601192474, 0.06910981982946396,
			-0.12548764050006866, -0.15254703164100647, -0.14647822082042694,
			-0.24588517844676971, -0.4622790217399597, -0.13546313345432281,
			-0.021682672202587128, -0.029097668826580048, -0.09715408831834793,
			-0.03812823444604874, -0.1574658453464508, -0.4180145561695099, -0.31458133459091187,
			-0.19491034746170044, -0.08585993945598602, -0.11819992959499359,
			-0.01225762814283371, 0.1273471862077713, 0.12841284275054932, 0.2671876847743988,
			0.10309509932994843, 0.06340577453374863, 0.06834045797586441, -0.2055445909500122,
			-0.24606944620609283, -0.0229385644197464, 0.10701492428779602, 0.058854762464761734,
			0.012747397646307945, 0.02352956496179104, 0.026121029630303383, -0.4964284598827362,
			-0.528912365436554, -0.22416453063488007, 0.0840994268655777, -0.0005375184118747711,
			-0.12386119365692139, -0.1291227489709854, -0.14518870413303375, -0.26523908972740173,
			-0.3410871624946594, -0.28926268219947815, -0.11353901773691177, 0.01131986454129219,
			0.04485570266842842, -0.030909577384591103, 0.13247902691364288, 0.18319745361804962,
			0.08036308735609055, 0.11889887601137161, 0.08449716120958328, -0.04550377279520035,
			-0.040326379239559174, 0.098704494535923, 0.037514060735702515, 0.09230142831802368,
			0.04321264103055, 0.20577692985534668, 0.10624503344297409, -0.3886581361293793,
			-0.6805194616317749, -0.16001251339912415, 0.053534600883722305, -0.01814461685717106,
			0.004907470196485519, -0.22775107622146606, -0.07976098358631134,
			-0.07617568969726562, -0.34855222702026367, -0.5470232367515564, -0.40548399090766907,
			-0.25635772943496704, -0.16682542860507965, -0.19405239820480347,
			-0.03131001070141792, 0.16958682239055634, 0.10841745138168335, 0.16138730943202972,
			0.23750123381614685, 0.1915840208530426, 0.14093457162380219, 0.07488572597503662,
			0.08462190628051758, 0.049489833414554596, 0.0645751953125, 0.026513511314988136,
			0.07667528837919235, -0.19330158829689026, -0.3574460446834564, -0.10604581236839294,
			0.03859826922416687, 0.03252200409770012, 0.02730247750878334, -0.03985905647277832,
			0.03854427859187126, -0.0027619649190455675, -0.1565954089164734,
			-0.29396936297416687, -0.4600052237510681, -0.2719644606113434, -0.1395837366580963,
			-0.16066822409629822, -0.09582961350679398, 0.08208450675010681, 0.16330863535404205,
			0.29365596175193787, 0.3400350511074066, 0.27492785453796387, 0.180411696434021,
			0.17505086958408356, 0.19555948674678802, 0.2338436394929886, 0.2737267315387726,
			0.0856345072388649, -0.01854625903069973, -0.21887710690498352, -0.20312835276126862,
			-0.1979445368051529, -0.02538277581334114, 0.0011052526533603668,
			0.0006706714630126953, -0.04045004025101662, -0.08329900354146957,
			-0.25344914197921753, -0.3096957206726074, -0.33823588490486145, -0.3193505108356476,
			-0.16644321382045746, -0.0031148670241236687, -0.025988470762968063, 0.13787741959095,
			0.13248059153556824, 0.041946131736040115, 0.15476678311824799, 0.14320415258407593,
			0.17634142935276031, -0.048458829522132874, 0.14814089238643646, 0.2213348001241684,
			0.11808358132839203, -0.29721978306770325, -0.070736363530159, 0.03162694722414017,
			-0.08949050307273865, -0.29869765043258667, -0.19812124967575073,
			0.012052476406097412, 0.022555343806743622, 0.02298516407608986, 0.14340108633041382,
			-0.029774747788906097, -0.1789017617702484, -0.6996662616729736, -0.4074499309062958,
			-0.45324039459228516, -0.5639699697494507, -0.386971652507782, -0.24328017234802246,
			-0.27243879437446594, -0.3831053674221039, -0.2791042625904083, -0.17957064509391785,
			-0.0514790378510952, 0.05952480062842369, 0.07925877720117569, 0.025050342082977295,
			-0.12350872904062271, -0.08033355325460434, -0.27930328249931335,
			-0.018113143742084503, -0.11003389954566956, -0.08549921214580536, -0.440298467874527,
			-0.22184154391288757, -0.0046355463564395905, 0.007477257400751114,
			-0.014959625899791718, -0.015253705903887749, -2.0269304513931274e-5,
			-0.14439690113067627, -0.3333348035812378, -0.0883176252245903, -0.23558631539344788,
			-0.3772827684879303, -0.5682936310768127, -0.7468857169151306, -0.5605247616767883,
			-0.3993915915489197, -0.3751084804534912, -0.6956969499588013, -0.5723915100097656,
			-0.46970218420028687, -0.34430548548698425, -0.33021238446235657, -0.2832868993282318,
			-0.04783030226826668, -0.37467581033706665, -0.25307217240333557,
			-0.20314285159111023, -0.012524347752332687, 0.016897637397050858,
			0.008996352553367615, 0.03570182994008064, -0.01997866854071617,
			-0.008241603150963783, -0.029992543160915375, -0.02969343028962612,
			-0.001916639506816864, -0.03257225453853607, -0.34628063440322876,
			-0.2670273780822754, -0.35037440061569214, -0.08931870758533478, -0.2133796662092209,
			-0.1962004452943802, -0.1121520921587944, -0.15711289644241333, -0.35357826948165894,
			-0.19956952333450317, -0.04255339875817299, -0.2784951329231262, -0.19600090384483337,
			-0.33043336868286133, -0.13208183646202087, -0.5987656116485596, -0.480373352766037,
			-0.12843887507915497, -0.017556965351104736, 0.010362282395362854,
			-0.03316810727119446, -0.03002312406897545
		],
		[
			0.007991738617420197, 0.0004150383174419403, -0.006553927436470985,
			-0.023621201515197754, 0.02533895894885063, 0.010378427803516388,
			-0.030603358522057533, -0.008057776838541031, -0.02669616788625717,
			-0.027176067233085632, -0.031176790595054626, -0.012933429330587387,
			0.10362105071544647, 0.12383459508419037, 0.15525121986865997, 0.08844009041786194,
			-0.0103510282933712, -0.01005556806921959, -0.02859497256577015, 0.006437212228775024,
			0.0012980177998542786, 0.014593366533517838, -0.008168203756213188,
			-0.005156133323907852, 0.024926889687776566, -0.034966014325618744,
			-0.022780705243349075, -0.021854380145668983, -0.008465869352221489,
			-0.02489478886127472, -0.01585308648645878, -0.027023285627365112,
			0.00038235634565353394, -0.031079987064003944, 0.03207813575863838,
			-0.026667525991797447, -0.015619119629263878, 0.09642281383275986, 0.0583171583712101,
			-0.025955604389309883, -0.017565086483955383, -0.06857975572347641,
			0.2787401080131531, 0.3016357719898224, 0.09043017774820328, 0.049986064434051514,
			0.07637332379817963, 0.054434310644865036, 0.01077088713645935, -0.014973023906350136,
			0.028742041438817978, -0.0011849813163280487, -0.00345650315284729,
			-0.016064828261733055, -0.031434230506420135, -0.02244843915104866,
			0.010657206177711487, -0.003988198935985565, -0.0009875595569610596,
			-0.02495374158024788, -0.08429006487131119, -0.02681504562497139, 0.05114821344614029,
			0.011293123476207256, 0.1238895133137703, 0.08601553738117218, 0.11901292949914932,
			0.2125590741634369, 0.11881419271230698, 0.1630493551492691, 0.46278390288352966,
			0.3373181223869324, 0.20151636004447937, 0.03873097151517868, 0.19539816677570343,
			-0.0741967037320137, -0.01067829504609108, 0.029490699991583824,
			-0.053621698170900345, -0.059221893548965454, 0.2918822169303894,
			-0.03373134881258011, 0.003543764352798462, 0.014104701578617096,
			0.026152148842811584, -0.030978664755821228, 0.12752118706703186, 0.099480539560318,
			-0.017651434987783432, -0.011210811324417591, -0.07886117696762085,
			0.11998263001441956, 0.2926287055015564, 0.1214023157954216, -0.06405862420797348,
			0.12159563601016998, 0.12995362281799316, 0.105682373046875, -0.027395371347665787,
			-0.12339641153812408, 0.11621145904064178, -0.04251587390899658, -0.07051819562911987,
			-0.20963932573795319, -0.35108819603919983, -0.48351287841796875,
			-0.18375129997730255, -0.07993075251579285, 0.1495751142501831, 0.3156929314136505,
			0.02790137752890587, 0.030989598482847214, 0.01700356975197792, -0.002784967888146639,
			0.16580544412136078, -0.05633106455206871, -0.1784270703792572, -0.08435536921024323,
			0.22059893608093262, 0.23985658586025238, 0.07413221150636673, -0.30934903025627136,
			-0.23664921522140503, -0.12749195098876953, -0.13442924618721008,
			-0.05644688382744789, 0.030457714572548866, 0.19054511189460754, 0.16032356023788452,
			-0.0033827859442681074, 0.0912872701883316, 0.10981015861034393, 0.06648765504360199,
			0.044384412467479706, -0.10642603784799576, -0.066998690366745, -0.2832460105419159,
			-0.31768837571144104, -0.2026006281375885, -0.23054729402065277, -0.02123178541660309,
			0.020253710448741913, 0.33118101954460144, 0.23879240453243256, -0.017228100448846817,
			0.1465650200843811, 0.06542112678289413, 0.033062614500522614, -0.19269384443759918,
			-0.14686354994773865, -0.22611461579799652, -0.1909768432378769, -0.16947825253009796,
			-0.03257414698600769, 0.06668451428413391, 0.1710464060306549, 0.25544410943984985,
			-0.0514335036277771, -0.01124178059399128, 0.028438132256269455, 0.04944577440619469,
			0.20254790782928467, 0.11915558576583862, 0.003238268429413438, 0.019655663520097733,
			-0.3332447111606598, -0.16535048186779022, -0.07583838701248169,
			-0.015805773437023163, 0.009237372316420078, 0.008361469022929668,
			0.17401060461997986, -0.027698053047060966, -0.0029737045988440514,
			-0.024190766736865044, 0.020634973421692848, 0.03070630133152008, 0.1311647742986679,
			0.23759664595127106, 0.14332644641399384, 0.0044942377135157585, -0.051658995449543,
			-0.006891969591379166, 0.06521094590425491, 0.3322547972202301, 0.27688777446746826,
			0.08210953325033188, -0.02111656777560711, 0.08089545369148254, 0.12385918945074081,
			0.21174094080924988, 0.08515080064535141, -0.04826163128018379, -0.381359726190567,
			-0.37509453296661377, -0.18385647237300873, 0.001785702770575881, 0.4265952706336975,
			0.05240156501531601, 0.26643308997154236, -0.024410806596279144, -0.03500393405556679,
			0.12710684537887573, 0.3210397958755493, 0.3636271357536316, 0.3266075551509857,
			0.4346444308757782, 0.24908378720283508, 0.1015382632613182, 0.1489473283290863,
			0.1421905905008316, 0.1254802942276001, 0.1633526086807251, 0.2703884541988373,
			0.23113450407981873, 0.02860035002231598, 0.003675490617752075, 0.12302703410387039,
			0.3150840401649475, 0.18032234907150269, 0.05034990981221199, -0.6598677039146423,
			-0.19161145389080048, -0.08947589993476868, 0.02607802115380764, 0.4951123297214508,
			0.021718814969062805, -0.0932387039065361, 0.036535874009132385, -0.08581442385911942,
			0.1776099056005478, 0.6093231439590454, 0.5461858510971069, 0.3663991093635559,
			0.31257644295692444, 0.258610337972641, 0.276737242937088, 0.23815196752548218,
			0.4035351574420929, 0.31976211071014404, 0.24629057943820953, 0.3908657729625702,
			0.14466100931167603, 0.06021949276328087, -0.21471582353115082, -0.2303502857685089,
			0.15531989932060242, 0.239399254322052, -0.303128719329834, -0.5478212237358093,
			0.04180031642317772, 0.1457451432943344, -0.031351566314697266, 0.2579990327358246,
			0.06437738239765167, -0.1355060189962387, 0.11193857342004776, -0.046025004237890244,
			0.2270778864622116, 0.437573105096817, 0.43021371960639954, 0.3190456032752991,
			0.24855919182300568, 0.22281032800674438, 0.0986255407333374, -0.07742568850517273,
			0.12352108210325241, 0.17782531678676605, 0.329947829246521, 0.3869081437587738,
			0.022644177079200745, -0.10657104104757309, -0.3798414468765259, -0.18119552731513977,
			0.08121739327907562, 0.2747398614883423, -0.08885172754526138, -0.08115188777446747,
			0.4532414674758911, 0.09387895464897156, 0.02700595185160637, 0.13709789514541626,
			0.1264280080795288, -0.18144844472408295, -0.08177199214696884, 0.09213382005691528,
			0.01604112982749939, 0.3003343939781189, 0.24912536144256592, 0.21333345770835876,
			0.1804203987121582, -0.28807780146598816, -0.7577375769615173, -0.8263177871704102,
			-0.4299011528491974, 0.027016865089535713, 0.29668989777565, 0.0664878562092781,
			-0.051331840455532074, -0.0494658537209034, -0.23253242671489716,
			-0.07809406518936157, -0.03217180445790291, -0.17960125207901, 0.09794729948043823,
			0.1036682054400444, 0.6129400730133057, 0.20316623151302338, -0.017247561365365982,
			0.25403982400894165, 0.2921433746814728, -0.21183250844478607, -0.1481262743473053,
			0.085416279733181, -0.11631153523921967, 0.0600346140563488, -0.17743295431137085,
			-0.3368672728538513, -0.4896562397480011, -0.6729094386100769, -1.1091322898864746,
			-1.1055713891983032, -0.361958771944046, 0.14323323965072632, 0.1252453327178955,
			-0.2058822363615036, -0.20125184953212738, -0.005876867100596428,
			-0.08272247016429901, -0.19406582415103912, -0.10461311042308807,
			-0.23289835453033447, 0.12218739092350006, 0.26124274730682373, 0.33470627665519714,
			0.20320671796798706, 0.025038782507181168, 0.17127317190170288, -0.0922565758228302,
			-0.3046155869960785, -0.2895258367061615, -0.230361208319664, -0.5631074905395508,
			-0.6153219938278198, -0.6362804174423218, -0.9085564017295837, -1.040014624595642,
			-1.0480200052261353, -0.8171600699424744, -0.7679420113563538, -0.026493273675441742,
			0.22012953460216522, 0.09996496140956879, -0.15962481498718262, -0.12794218957424164,
			-0.028302200138568878, -0.08352083712816238, -0.2293950766324997,
			-0.27147015929222107, -0.3768027126789093, -0.15156131982803345, 0.3195068836212158,
			0.29951465129852295, 0.08856537193059921, -0.1321755349636078, 0.263349711894989,
			0.565189778804779, -0.47228100895881653, -0.699558436870575, -0.5213136076927185,
			-0.8722518682479858, -1.1457910537719727, -1.2191436290740967, -0.9394506812095642,
			-0.877691388130188, -0.6193545460700989, -0.3156575560569763, 0.025710398331284523,
			0.23751263320446014, 0.20805130898952484, 0.11122108995914459, 0.08016786724328995,
			0.006675177253782749, -0.0220330823212862, -0.16926155984401703, -0.22535398602485657,
			-0.263995498418808, -0.13702736794948578, -0.1304752379655838, 0.038500651717185974,
			0.29214227199554443, 0.018420802429318428, 0.025095265358686447, -0.12598560750484467,
			0.37667763233184814, -0.48184120655059814, -0.7342925071716309, -0.8616648316383362,
			-1.0647708177566528, -1.206961989402771, -1.175279974937439, -0.6712630987167358,
			-0.30336087942123413, 0.11785335093736649, 0.29325059056282043, 0.2502063810825348,
			0.23323945701122284, 0.060923490673303604, -0.021535899490118027, 0.06242199242115021,
			0.17301370203495026, 0.10806972533464432, -0.030451996251940727,
			-0.056762609630823135, -0.1253131926059723, -0.017398150637745857,
			-0.1261402666568756, -0.27736929059028625, 0.20813144743442535, 0.14102356135845184,
			0.0183996744453907, -0.008482120931148529, 0.10229653120040894, -0.45838919281959534,
			-0.49241065979003906, -0.7321581244468689, -0.9144972562789917, -0.7618662118911743,
			-0.5856961011886597, -0.2930320203304291, 0.11584950238466263, 0.40110501646995544,
			0.4126526713371277, 0.358114093542099, 0.2530238628387451, 0.06637505441904068,
			-0.1415235549211502, -0.09687313437461853, 0.03127210959792137, -0.029348095878958702,
			-0.11653049290180206, -0.07222593575716019, -0.1901443600654602, -0.04969572275876999,
			-0.020038535818457603, -0.11982227116823196, 0.26476025581359863, 0.46994760632514954,
			0.0008403994143009186, 0.33655768632888794, 0.11259008198976517, -0.41096124053001404,
			-0.2882828712463379, -0.4478939473628998, -0.39424094557762146, -0.3137103021144867,
			-0.008891175501048565, 0.1766519546508789, 0.21979796886444092, 0.30534040927886963,
			0.39446642994880676, 0.35940879583358765, 0.2205919474363327, 0.009442402049899101,
			-0.19899095594882965, -0.23558001220226288, -0.1984906792640686, 0.003123051021248102,
			-0.23290066421031952, -0.3183387815952301, 0.023323019966483116, -0.02541465498507023,
			-0.09420299530029297, 0.04351204261183739, 0.2701347768306732, 0.003985526040196419,
			0.03343610092997551, 0.34572210907936096, 0.05402902141213417, -0.281255841255188,
			0.06162598729133606, -0.2591252028942108, -0.044048141688108444, 0.08984203636646271,
			0.21134598553180695, 0.3638271391391754, 0.24541516602039337, 0.40196043252944946,
			0.49230578541755676, 0.35165658593177795, 0.18922151625156403, -0.17918485403060913,
			-0.2324216663837433, -0.1622338443994522, -0.20111213624477386, -0.04864824563264847,
			-0.12870170176029205, -0.20322860777378082, 0.0009907016064971685,
			-0.006249969359487295, 0.10272949934005737, 0.27896058559417725, 0.2980402708053589,
			-0.12068010121583939, 0.13392946124076843, 0.18381747603416443, -0.16112034022808075,
			-0.06503165513277054, 0.08337897807359695, 0.05970250070095062, -0.036047231405973434,
			0.25528284907341003, 0.28989794850349426, 0.28011396527290344, 0.17727182805538177,
			0.2431580126285553, 0.3412734568119049, 0.2761111557483673, 0.0670190304517746,
			-0.2348802089691162, -0.15826977789402008, 0.08943013101816177, -0.04988657310605049,
			0.0017093840287998319, -0.2245841920375824, -0.2057850956916809, 0.02041521668434143,
			0.1666555404663086, 0.12000838667154312, 0.22443558275699615, 0.323213666677475,
			0.3842531144618988, 0.12571300566196442, 0.026311034336686134, -0.19956807792186737,
			0.06017613783478737, 0.20295166969299316, 0.14352284371852875, 0.2347324639558792,
			0.26876169443130493, 0.37709808349609375, 0.2626514136791229, 0.14993546903133392,
			0.17582732439041138, 0.13571982085704803, 0.16930797696113586, -0.08624684065580368,
			-0.07948896288871765, -0.02675679884850979, -0.04136710986495018,
			-0.12689222395420074, -0.1061495915055275, -0.2981500029563904, -0.09088359773159027,
			0.05489387363195419, 0.3750150799751282, 0.15707699954509735, 0.1913193166255951,
			0.22891347110271454, 0.367188960313797, 0.033881012350320816, 0.043203458189964294,
			-0.1723019927740097, 0.32120031118392944, 0.3799802362918854, 0.037276558578014374,
			0.3067922294139862, 0.4285435974597931, 0.2732201814651489, 0.14917397499084473,
			0.17871315777301788, 0.19252727925777435, 0.19382613897323608, 0.19328133761882782,
			0.09318900853395462, 0.07866410166025162, 0.037674181163311005, -0.1303902268409729,
			-0.010563536547124386, -0.06407271325588226, -0.09822860360145569,
			0.11003261059522629, 0.19363944232463837, 0.16321967542171478, 0.05828029289841652,
			0.06660791486501694, 0.2386225014925003, 0.1412082016468048, -0.006662573665380478,
			0.26515230536460876, -0.03319760411977768, 0.41005557775497437, 0.2798827588558197,
			0.30433759093284607, 0.2584942877292633, -0.01085150521248579, -0.08233654499053955,
			0.02899201400578022, 0.16560333967208862, 0.06856509298086166, 0.1623116433620453,
			0.2169979214668274, 0.18196551501750946, 0.018754547461867332, 0.06934626400470734,
			0.025086458772420883, 0.1517677754163742, 0.16443480551242828, 0.15169939398765564,
			0.21120266616344452, 0.11725693196058273, 0.0016964183887466788, -0.10594652593135834,
			-0.06616201996803284, 0.14982786774635315, 0.02207832783460617, -0.001966948388144374,
			0.011005285196006298, 0.2081093192100525, 0.06932638585567474, 0.169419527053833,
			0.7093040347099304, 0.47308334708213806, 0.12759080529212952, -0.12267741560935974,
			-0.10561336576938629, -0.0430917963385582, 0.04991203919053078, 0.06762967258691788,
			0.08689194172620773, 0.10295171290636063, 0.05809750035405159, 0.14176729321479797,
			0.13108457624912262, 0.12803873419761658, 0.15208247303962708, 0.029802920296788216,
			0.02803860977292061, -0.013538872823119164, 0.09684611856937408, 0.04154234752058983,
			-0.05288586765527725, 0.1928449422121048, 0.015230514109134674, 0.008590098470449448,
			0.005092911422252655, 0.12683330476284027, -0.25521937012672424, -0.04350278526544571,
			0.3339017629623413, 0.4768819808959961, 0.3212431073188782, -0.16129657626152039,
			-0.19770389795303345, -0.0032418454065918922, 0.16133242845535278,
			0.17095814645290375, 0.17908911406993866, 0.03720717504620552, 0.1274903416633606,
			0.2163100391626358, 0.18029342591762543, 0.17483831942081451, -0.08985186368227005,
			-0.2704440951347351, -0.29050108790397644, -0.29281291365623474, 0.023294037207961082,
			-0.012553741224110126, 0.011824875138700008, 0.1782456934452057,
			0.0018830038607120514, -0.03259693458676338, -0.029512198641896248,
			0.0551874041557312, -0.14833907783031464, 0.19767963886260986, 0.2740594744682312,
			0.1101076528429985, -0.11096052080392838, -0.14005661010742188, -0.08980272710323334,
			-0.07561025768518448, 0.17387671768665314, 0.18542775511741638, 0.1367338001728058,
			0.2588701844215393, -0.0013001080369576812, -0.18763355910778046,
			-0.009478463791310787, -0.03245530277490616, -0.20138432085514069,
			-0.3267316222190857, -0.27543309330940247, -0.4395539164543152, -0.3068270683288574,
			0.0413493812084198, 0.16707856953144073, 0.2144390344619751, 0.021912042051553726,
			-0.010025357827544212, 0.02909257635474205, -0.14972123503684998, 0.2462734878063202,
			0.03250502049922943, -0.10902579873800278, -0.24777017533779144, -0.08712705224752426,
			0.18382778763771057, 0.24551182985305786, 0.018240436911582947, 0.09617777913808823,
			0.0246173907071352, -0.2286001443862915, 0.03479939326643944, -0.20836247503757477,
			-0.09650765359401703, 0.1084584966301918, -0.05364074930548668, -0.31073668599128723,
			-0.5303812623023987, -0.6540858149528503, -0.6632018089294434, -0.4356197416782379,
			-0.15694746375083923, 0.24724221229553223, 0.20659522712230682, -0.022152787074446678,
			0.016124479472637177, 0.02436273917555809, -0.02616412378847599, -0.02563769556581974,
			-0.3817829489707947, -0.6550934910774231, -0.4210541844367981, 0.08339478075504303,
			0.31527915596961975, 0.26185089349746704, 0.09180687367916107, -0.3041318655014038,
			-0.36656123399734497, -0.17604687809944153, -0.09315299242734909, -0.1869206428527832,
			-0.3486112058162689, -0.006035139784216881, -0.08566755801439285,
			-0.40695974230766296, -0.27886340022087097, -0.407168447971344, -0.22208163142204285,
			0.03507987782359123, -0.027483928948640823, 0.1682673543691635, 0.021366044878959656,
			0.014556892216205597, 0.006635546684265137, 0.017699051648378372,
			0.018841996788978577, -0.009793946519494057, 0.24074465036392212, 0.39040789008140564,
			0.5750908851623535, 0.4531489312648773, 0.3682398200035095, 0.8617873787879944,
			0.45242875814437866, 0.3816063404083252, 0.0005112228100188076, 0.08014681935310364,
			0.17181919515132904, 0.22453364729881287, 0.29786747694015503, 0.7447497248649597,
			0.4030097424983978, 0.14694876968860626, 0.04750731587409973, -0.21677149832248688,
			-0.2193155288696289, -0.015711581334471703, -0.03098423220217228,
			-0.035411883145570755, 0.016974616795778275, 0.012520033866167068
		],
		[
			-0.012517878785729408, 0.01616711914539337, 0.016897685825824738,
			-0.008518848568201065, 0.02448117360472679, -0.02818901836872101, 0.03142882511019707,
			-0.005119793117046356, 0.02140796184539795, -0.01321444846689701,
			0.028377775102853775, -0.03411231189966202, -0.016365183517336845,
			0.03284728154540062, -0.02901354990899563, 0.016794294118881226, -0.03386538103222847,
			0.0254361554980278, 0.015265066176652908, -0.010071022436022758,
			-0.010737858712673187, 0.012936800718307495, 0.020145200192928314,
			-0.03098227083683014, -0.02080867625772953, 0.020386267453432083, -0.016995869576931,
			-0.01167108304798603, -0.019155507907271385, 0.004200734198093414,
			0.02225286141037941, 0.02689458057284355, -0.024815723299980164,
			0.0038627199828624725, 0.022480666637420654, -0.12839780747890472,
			-0.08385959267616272, -0.13958647847175598, -0.020026205107569695,
			-0.09685266762971878, -0.17440001666545868, -0.13314008712768555,
			-0.09416622668504715, -0.0552000068128109, -0.04040684551000595, -0.00676063634455204,
			0.010949667543172836, -0.02196335792541504, -0.02795940823853016,
			-0.007197916507720947, 0.031413640826940536, 0.009301479905843735,
			-0.0010192766785621643, -0.008820049464702606, 0.011127620935440063,
			-0.015489617362618446, -0.015680361539125443, 0.02817196026444435,
			-0.017252573743462563, -0.03537444397807121, -0.0834645926952362,
			-0.05990466848015785, -0.0225492175668478, -0.07514774054288864, -0.08278827369213104,
			-0.13966631889343262, -0.04933658614754677, -0.14105187356472015,
			-0.26759693026542664, -0.2489222139120102, -0.15564419329166412, -0.09680823981761932,
			-0.0812297910451889, -0.3070168197154999, -0.28998303413391113, -0.05217534303665161,
			0.08783280104398727, -0.061932820826768875, -0.0582922101020813, -0.04817814752459526,
			0.01393619179725647, 0.03108438476920128, 0.010546885430812836, 2.0314007997512817e-5,
			-0.0327303409576416, -0.013652287423610687, 0.0199902281165123, -0.002385322004556656,
			0.06560246646404266, 0.18507063388824463, 0.099143385887146, 0.10046016424894333,
			-0.021472422406077385, -0.20134355127811432, -0.09476079791784286,
			0.023267587646842003, 0.053838152438402176, -0.19509752094745636,
			-0.11017632484436035, 0.05318399891257286, 0.01839936338365078, -0.22497224807739258,
			-0.033057305961847305, -0.2176397293806076, -0.2201395034790039, -0.33993297815322876,
			-0.26956871151924133, -0.2210785448551178, -0.22889462113380432, 0.0300217904150486,
			-0.006347957998514175, 0.009721018373966217, -0.03260444104671478,
			-0.031451042741537094, -0.05237889662384987, 0.142517551779747, 0.13393159210681915,
			-0.21313594281673431, -0.3980836570262909, -0.10048366338014603, 0.12230289727449417,
			-0.167899951338768, 0.03435176610946655, -0.06778914481401443, -0.19893436133861542,
			-0.2953827679157257, -0.0439983569085598, -0.08924692124128342, -0.04413904994726181,
			-0.13942477107048035, 0.0765182375907898, -0.0843527615070343, -0.2348441183567047,
			-0.4302748143672943, -0.36827123165130615, -0.2360709309577942, -0.027478717267513275,
			0.04336583986878395, 0.0046690842136740685, 0.005025539547204971,
			-0.03433145210146904, 0.017115190625190735, -0.13260014355182648, 0.02940077893435955,
			-0.13586582243442535, -0.1344699263572693, -0.2257332056760788, -0.1346331089735031,
			-0.11311770230531693, -0.05771477520465851, -0.09640459716320038,
			-0.18910953402519226, -0.14568400382995605, -0.04354902729392052,
			-0.02417925000190735, -0.14854367077350616, -0.14969705045223236,
			-0.017720280215144157, -0.08400072902441025, -0.18160149455070496,
			-0.2412751019001007, -0.36519351601600647, -0.4117922782897949, -0.4054959714412689,
			-0.133283331990242, -0.08494610339403152, -0.007652528118342161, 0.017873555421829224,
			-0.0038427449762821198, 0.17162443697452545, 0.07880310714244843, 0.10649540275335312,
			0.023659009486436844, -0.03710005432367325, -0.1992475688457489, -0.32688969373703003,
			-0.005090754944831133, 0.0734640583395958, 0.05996992811560631, 0.16278839111328125,
			0.25465402007102966, 0.32880327105522156, 0.3705214560031891, 0.4954916536808014,
			0.419671893119812, 0.40408656001091003, 0.16914090514183044, -0.30804938077926636,
			-0.4923596680164337, -0.5072302222251892, -0.5367237329483032, -0.5719549059867859,
			-0.22528330981731415, -0.10122019052505493, -0.09555921703577042, 0.09329009056091309,
			0.016183722764253616, 0.2888203561306, 0.11567158997058868, 0.0279798936098814,
			-0.240818053483963, -0.2980988025665283, -0.18971876800060272, -0.07501617819070816,
			-0.030881009995937347, 0.10815542936325073, 0.2617024779319763, 0.19236119091510773,
			0.43162786960601807, 0.543745219707489, 0.6969464421272278, 0.5693514943122864,
			0.4727942943572998, 0.36594316363334656, 0.08286279439926147, -0.32799723744392395,
			-0.2736184000968933, -0.47265174984931946, -0.6898304224014282, -0.49291494488716125,
			-0.3579549789428711, -0.09447892010211945, -0.03783769533038139, -0.12647002935409546,
			0.029274078086018562, -0.0903540775179863, 0.12660886347293854, 0.17550420761108398,
			-0.0997101441025734, -0.14179465174674988, -0.084234818816185, -0.0987890362739563,
			0.017098765820264816, 0.3126847743988037, 0.25375503301620483, 0.30843162536621094,
			0.452800452709198, 0.4657861292362213, 0.39701056480407715, 0.261565625667572,
			0.1907731145620346, 0.1731366515159607, 0.19006849825382233, -0.15718495845794678,
			-0.07919106632471085, -0.3205002546310425, -0.37181541323661804, -0.4912765622138977,
			-0.30440160632133484, -0.17252042889595032, -0.027034951373934746,
			-0.0826072171330452, 0.138680562376976, 0.006255819462239742, 0.5407019257545471,
			0.2393515706062317, 0.14198996126651764, -0.1302337795495987, 0.024190230295062065,
			0.08130008727312088, 0.37309086322784424, 0.3341465890407562, 0.2677456736564636,
			0.16336606442928314, 0.2196599245071411, -0.06610492616891861, -0.05946642905473709,
			-0.10276105254888535, -0.10881844907999039, 0.012654781341552734, 0.11574862152338028,
			0.04507240653038025, 0.15036709606647491, 0.01223814394325018, 0.004682726692408323,
			-0.08696812391281128, -0.26188957691192627, -0.10928837209939957,
			-0.11145712435245514, 0.11033855378627777, 0.14675049483776093, -0.050552841275930405,
			0.44695186614990234, 0.40555107593536377, 0.2346728891134262, 0.06913570314645767,
			0.12413032352924347, 0.24179647862911224, 0.21731796860694885, 0.11704327166080475,
			-0.13198652863502502, -0.2314777374267578, -0.31099024415016174, -0.42344921827316284,
			-0.40295594930648804, -0.427308052778244, -0.1444675326347351, 0.08649924397468567,
			0.2271801233291626, 0.21932826936244965, 0.41663503646850586, 0.19965621829032898,
			0.2728099822998047, 0.19292882084846497, -0.2961733043193817, -0.1900048404932022,
			-0.059119585901498795, 0.015227135270833969, 0.08075564354658127, -0.1689663827419281,
			0.26787126064300537, 0.2924090027809143, 0.10532694309949875, -8.276079461211339e-5,
			-0.06840259581804276, 0.11930978298187256, 0.12834274768829346, -0.1288367062807083,
			-0.4605865180492401, -0.527169942855835, -0.4925001859664917, -0.31688445806503296,
			-0.2680680751800537, -0.0678582414984703, 0.2161913961172104, 0.3212811052799225,
			0.26156795024871826, 0.3023902177810669, 0.38175252079963684, 0.13059142231941223,
			0.15380723774433136, -0.05426202714443207, 0.07659702003002167, 0.3064935505390167,
			0.24137996137142181, -0.16904054582118988, -0.10760751366615295, -0.4849748909473419,
			0.18440695106983185, 0.2164156585931778, -0.050132546573877335, -0.22472459077835083,
			-0.3900013267993927, -0.0815826803445816, -0.11459309607744217, -0.2954530119895935,
			-0.4349544644355774, -0.46627265214920044, -0.5276814103126526, -0.0471072755753994,
			0.08884356170892715, 0.17489293217658997, 0.28914961218833923, 0.355088472366333,
			0.1445925086736679, 0.07590828835964203, 0.08031567931175232, 0.01680786907672882,
			0.10604577511548996, -0.17739886045455933, -0.28668805956840515, 0.04232200235128403,
			0.035476669669151306, -0.08009028434753418, -0.17521227896213531, -0.4406966269016266,
			0.017492711544036865, 0.10343807190656662, -0.41600486636161804, -0.49567243456840515,
			-0.4776492118835449, -0.13965032994747162, -0.14085432887077332, -0.3527085781097412,
			-0.31145405769348145, -0.2617040276527405, -0.065016970038414, 0.2669215500354767,
			0.1953554004430771, 0.18684600293636322, 0.2234267294406891, 0.19566352665424347,
			0.02984176017343998, -0.05560578405857086, -0.05546242743730545, 0.10861644893884659,
			-0.14653807878494263, -0.5871472954750061, -0.4157699942588806, -0.061406172811985016,
			0.07684776932001114, 0.28541603684425354, -0.1348561942577362, 0.34909218549728394,
			0.01352647040039301, -0.03104090504348278, -0.35999277234077454, -0.614174485206604,
			-0.49508190155029297, -0.29351842403411865, -0.22176504135131836,
			-0.17610469460487366, -0.2685711681842804, -0.27245283126831055, -0.09655286371707916,
			0.17893891036510468, 0.09493245929479599, 0.19376404583454132, 0.18754200637340546,
			0.07881835103034973, -0.08424337953329086, -0.16298356652259827, -0.1187993735074997,
			-0.11685728281736374, -0.3225184679031372, -0.4969267249107361, -0.4187484681606293,
			-0.12056277692317963, 0.11496053636074066, 0.1567915976047516, -0.1433458924293518,
			0.23909054696559906, 0.02021627128124237, 0.009478067979216576, 0.0054420107044279575,
			-0.3557738661766052, -0.5318628549575806, -0.27557045221328735, -0.1696290671825409,
			-0.1511404663324356, -0.04308633506298065, -0.05299918353557587, -0.07436411827802658,
			-0.025036970153450966, 0.07157198339700699, 0.15397122502326965, 0.04481952264904976,
			0.08414222300052643, -0.14020581543445587, -0.07415680587291718, -0.00702609634026885,
			-0.32272398471832275, -0.2321256548166275, -0.22875887155532837, -0.0967506542801857,
			0.1034621149301529, 0.20279988646507263, 0.011877037584781647, 0.00783565640449524,
			0.1945761740207672, 0.3634037971496582, 0.17857767641544342, 0.33883798122406006,
			-0.12417365610599518, -0.3799761235713959, -0.15617458522319794, -0.09076139330863953,
			-0.06766387075185776, 0.10148204863071442, 0.16050125658512115, 0.10973575711250305,
			0.07880794256925583, -0.011169304139912128, 0.13546259701251984, -0.03812497854232788,
			-0.009842795319855213, 0.04574005678296089, -0.015345566906034946,
			-0.1733720749616623, -0.42074599862098694, -0.44716915488243103, -0.3014124929904938,
			-0.22970642149448395, -0.06351641565561295, -0.006736908107995987,
			-0.053821783512830734, -0.008742967620491982, 0.102555051445961, 0.14739692211151123,
			0.3775795102119446, 0.3057771325111389, 0.02808510512113571, -0.151234969496727,
			-0.18282349407672882, -0.1995433121919632, -0.21615052223205566, -0.09205915033817291,
			0.14742785692214966, 0.21935220062732697, 0.13969919085502625, -0.09977296739816666,
			0.027336910367012024, 0.004290975630283356, 0.030749520286917686, 0.11401217430830002,
			0.11576342582702637, -0.22833982110023499, -0.5416082143783569, -0.5482096076011658,
			-0.4814862310886383, -0.24251550436019897, -0.2958994507789612, -0.03611774370074272,
			-0.05569123476743698, 0.11475040018558502, 0.22794494032859802, 0.3136870563030243,
			0.1897253543138504, 0.12952320277690887, 0.08344082534313202, 0.04550787806510925,
			-0.1602914184331894, -0.3908335268497467, -0.3762625753879547, -0.05804169923067093,
			-0.08306466788053513, -0.18252287805080414, -0.23180624842643738,
			-0.25812241435050964, -0.08627694845199585, 0.007332409732043743, 0.15922480821609497,
			0.25412577390670776, 0.24727576971054077, -0.1491047888994217, -0.491426020860672,
			-0.5787643790245056, -0.5006670355796814, -0.3098611533641815, -0.16071957349777222,
			-0.17693385481834412, -0.027586260810494423, -0.15506456792354584,
			0.14271239936351776, 0.6544345617294312, 0.028883613646030426, 0.056250229477882385,
			0.2913097143173218, 0.16732381284236908, -0.10731322318315506, -0.26406705379486084,
			-0.27937400341033936, -0.34462836384773254, -0.5487803220748901, -0.3865721821784973,
			-0.3382106423377991, -0.3690756559371948, -0.18697018921375275, 0.014920955523848534,
			0.11021214723587036, 0.2892323136329651, 0.29711970686912537, -0.14191442728042603,
			-0.45042818784713745, -0.4173549711704254, -0.5574259757995605, -0.1080705001950264,
			0.05680365115404129, -0.22699971497058868, 0.017823778092861176, 0.025371573865413666,
			0.17959770560264587, 0.04317650571465492, -0.1937878429889679, -0.28432363271713257,
			-0.06929852813482285, 0.034002356231212616, -0.047593485563993454,
			-0.37298697233200073, -0.4823110103607178, -0.2962067723274231, -0.39600229263305664,
			-0.2478819489479065, -0.17337153851985931, -0.19521503150463104, -0.13671952486038208,
			-0.07530063390731812, 0.007984833791851997, 0.12415342777967453, 0.2029731571674347,
			-0.07330839335918427, -0.4648236334323883, -0.610755443572998, -0.9073960185050964,
			-0.2166718989610672, -0.10886041820049286, -0.09935063123703003,
			-0.003526400774717331, -0.012701690196990967, 0.04197521135210991,
			-0.23889930546283722, -0.11490623652935028, -0.11532138288021088,
			-0.12325075268745422, -0.01887635327875614, -0.18924356997013092, -0.5225606560707092,
			-0.5527364015579224, -0.2597506642341614, -0.09127412736415863, -0.05172060802578926,
			-0.2235424965620041, -0.20879748463630676, -0.037630029022693634, 0.084884412586689,
			-0.12872453033924103, -0.10239563137292862, -0.043971605598926544,
			-0.15391895174980164, -0.37564802169799805, -0.6436645984649658, -0.7004384398460388,
			-0.2252965122461319, -0.10552818328142166, -0.10592549294233322,
			-0.028887052088975906, -0.0562344565987587, 0.0922839418053627, -0.18028269708156586,
			-0.2366914451122284, -0.05529513955116272, -0.16975300014019012, -0.19316881895065308,
			-0.286834180355072, -0.4310557544231415, -0.23955239355564117, -0.12150581926107407,
			0.004993405658751726, -0.040996648371219635, -0.2093295305967331,
			-0.052594006061553955, 0.06886511296033859, -0.029996365308761597,
			-0.09901364147663116, -0.4288904070854187, -0.12492966651916504, -0.29740822315216064,
			-0.3807432949542999, -0.4913451671600342, -0.5924216508865356, -0.2944255471229553,
			-0.15015752613544464, -0.2928040027618408, -0.006577309221029282,
			-0.020008360967040062, -0.017440222203731537, 0.030125116929411888,
			0.012337141670286655, 0.1439388394355774, -0.09133193641901016, 0.081336110830307,
			-0.1206875815987587, -0.26462551951408386, -0.11572057753801346, -0.00929997581988573,
			-0.020675240084528923, -0.1654372662305832, -0.08068272471427917, -0.0776139348745346,
			-0.04391084983944893, -0.060731686651706696, -0.1139160692691803, -0.2906077206134796,
			-0.1355534791946411, -0.22883571684360504, -0.15581893920898438, -0.03546827659010887,
			-0.35494112968444824, -0.10433701425790787, 0.04961704462766647, -0.32574427127838135,
			0.02761003002524376, 0.030091699212789536, 0.03495245799422264, 0.44071492552757263,
			0.20277205109596252, 0.47117987275123596, 0.39455240964889526, 0.29992181062698364,
			0.3667779266834259, 0.2527000308036804, 0.0830681174993515, 0.3489983379840851,
			0.1560036689043045, -0.016948888078331947, 0.13590550422668457, -0.012255873531103134,
			0.006537245586514473, 0.026386072859168053, -0.026145117357373238, -0.313082754611969,
			-0.21767985820770264, -0.26831674575805664, -0.2549371123313904, 0.00524121755734086,
			-0.2295384705066681, -0.3462260365486145, -0.10058743506669998, -0.2453645020723343,
			0.014186002314090729, -0.023592805489897728, 0.007073208689689636,
			0.17016670107841492, 0.1723308265209198, 0.11975627392530441, 0.43288668990135193,
			0.38202592730522156, 0.6116430163383484, 0.9402257800102234, 0.7747334837913513,
			0.7554538249969482, 0.6051015853881836, 0.5623877644538879, 0.4284830689430237,
			0.22429493069648743, 0.4750095307826996, 0.43432095646858215, 0.10616528987884521,
			0.10381226986646652, 0.2750491797924042, 0.09547719359397888, 0.10396765917539597,
			0.18915951251983643, 0.15785616636276245, -0.04813772067427635, 0.009474393911659718,
			-0.2499733567237854, 0.02364742010831833, -0.02245202660560608, 0.03442254289984703,
			-0.005698131397366524, 0.012719828635454178, -0.04179221764206886,
			0.24646379053592682, 0.2912757098674774, 0.5204014182090759, 0.7081134915351868,
			0.7053084373474121, 0.9831618070602417, 0.9984312057495117, 0.910038948059082,
			1.0918368101119995, 1.1076762676239014, 0.6396074891090393, 0.7563309073448181,
			0.5031616687774658, 0.29948824644088745, 0.11622412502765656, 0.8891140222549438,
			0.6817929148674011, 0.5323198437690735, -0.022018728777766228, -0.15907591581344604,
			0.009066857397556305, 0.02300265058875084, -0.013733124360442162,
			0.022827986627817154, 0.013790249824523926, 0.022779308259487152,
			-0.019167926162481308, -0.24143865704536438, -0.2042948305606842,
			-0.03029218502342701, 0.036596350371837616, 0.1009293794631958, 0.029029831290245056,
			0.29016533493995667, 0.4063618779182434, 0.2069474309682846, -0.16658174991607666,
			0.17743510007858276, 0.2628304660320282, 0.3738197386264801, -0.03420444205403328,
			0.06721672415733337, -0.022021472454071045, 0.08338943868875504, 0.37898725271224976,
			0.3602089285850525, 0.00419757142663002, 0.01657562330365181, 0.006520621478557587,
			-0.009429527446627617, -0.0013718977570533752
		],
		[
			0.02972620353102684, 0.028698880225419998, 0.013778585940599442, 0.012697570025920868,
			0.02108195424079895, 0.01569773629307747, 0.004310552030801773, -0.03212691470980644,
			0.015104539692401886, -0.012886963784694672, 0.031073104590177536,
			-0.0182856023311615, 0.030812736600637436, 0.031183209270238876, 0.013287879526615143,
			0.032397087663412094, -0.02279761992394924, 0.010922107845544815,
			-0.02512257918715477, -0.013899620622396469, 0.008081130683422089,
			-0.032647088170051575, 0.03430117294192314, -0.012720968574285507,
			0.005942601710557938, 0.018967360258102417, 0.027220260351896286, 0.00568583607673645,
			-0.011471744626760483, 0.014015913009643555, 0.018534015864133835,
			-0.008045235648751259, -0.015036417171359062, -0.023817455396056175,
			-0.12704616785049438, -0.131636381149292, -0.16591203212738037, -0.14438217878341675,
			-0.09685271978378296, -0.2172907292842865, -0.2981835603713989, -0.4907057583332062,
			-0.14505243301391602, -0.03377397730946541, -0.2884179353713989, -0.41556066274642944,
			-0.2528955042362213, -0.1968286633491516, -0.16940541565418243, -0.18176889419555664,
			-0.009474806487560272, -0.0003816559910774231, -0.009755829349160194,
			-0.01973043754696846, 0.026188254356384277, 0.024052541702985764,
			0.007599785923957825, 0.012610722333192825, 0.020064353942871094, 0.03254039213061333,
			-0.013499140739440918, -0.22533190250396729, -0.2950010597705841,
			-0.17179162800312042, -0.06125093996524811, 0.2035854160785675, 0.04030754044651985,
			-0.35410037636756897, -0.7140545845031738, -0.4272960424423218, -0.3244873583316803,
			-0.05455802381038666, -0.2605685591697693, -0.3103978931903839, -0.555082380771637,
			-0.3273898661136627, -0.35741356015205383, -0.1749795526266098, -0.015948275104165077,
			0.2340225726366043, 0.2289309948682785, 0.2045992612838745, -0.018037576228380203,
			-0.016840139403939247, -0.0108571145683527, -0.021337667480111122,
			-0.0035093165934085846, -0.020026689395308495, 0.14501680433750153,
			0.2011297643184662, 0.0204013679176569, -0.0295540913939476, 0.09575224667787552,
			0.16341307759284973, -0.09145338833332062, -0.18540775775909424, 0.03881199657917023,
			-0.11556506156921387, -0.6524034142494202, -1.0284723043441772, -0.8227739930152893,
			-0.6878184676170349, -0.4524167776107788, -0.4257928133010864, -0.2871803641319275,
			-0.27465537190437317, 0.01938088983297348, 0.23561595380306244, 0.2676408886909485,
			0.24847382307052612, -0.013502739369869232, 0.004683192819356918,
			-0.00885842926800251, -0.027835149317979813, 0.018526777625083923, 0.3003796935081482,
			0.3584505617618561, 0.26790758967399597, 0.2037215381860733, -0.14326965808868408,
			0.0642431452870369, 0.011613668873906136, 0.12479044497013092, 0.37498927116394043,
			0.38044947385787964, 0.11516141891479492, -0.41714543104171753, -0.562767744064331,
			-0.6219227313995361, -0.9277393221855164, -1.1313170194625854, -0.7018470168113708,
			-0.5636072158813477, -0.3972831070423126, -0.3061250150203705, 0.09058564901351929,
			0.17831870913505554, 0.2356783002614975, -0.006983600556850433, 0.025825411081314087,
			-0.0023054219782352448, -0.033911481499671936, 0.008041657507419586,
			0.20408415794372559, 0.2690694034099579, 0.37235018610954285, 0.3898274004459381,
			0.24745020270347595, 0.14792191982269287, 0.2480202317237854, 0.2900271713733673,
			0.38502469658851624, 0.23562246561050415, 0.07809922099113464, -0.1826782375574112,
			-0.07515918463468552, -0.23793531954288483, -0.5706228613853455, -0.9857603311538696,
			-0.9206706285476685, -0.833054780960083, -0.43896108865737915, -0.3998574912548065,
			-0.22171427309513092, -0.016114668920636177, 0.341648668050766, 0.03638163581490517,
			-0.028565727174282074, -0.026832692325115204, 0.0017814263701438904,
			0.09510642290115356, 0.28844255208969116, 0.23628152906894684, 0.1253339797258377,
			0.4869938790798187, 0.2999570965766907, 0.30859851837158203, 0.3251468539237976,
			0.30121827125549316, 0.32652753591537476, 0.22080521285533905, 0.11657685786485672,
			0.023540008813142776, 0.10950709879398346, -0.014345129020512104, -0.3182371258735657,
			-0.7197704911231995, -1.1252344846725464, -0.9381444454193115, -0.43365678191185,
			-0.4124058485031128, -0.18057502806186676, -0.13790740072727203, -0.05695556104183197,
			0.0237452182918787, -0.016642171889543533, -0.022318286821246147, 0.25380009412765503,
			0.2444896548986435, 0.34279170632362366, 0.4246692657470703, 0.013037537224590778,
			0.1858009248971939, -0.0808621495962143, -0.06375627964735031, 0.05809560790657997,
			0.0948091521859169, 0.19956588745117188, 0.24050778150558472, 0.3478310704231262,
			0.2554348409175873, 0.27315041422843933, -0.02999841421842575, -0.3305923640727997,
			-0.891496479511261, -1.1917998790740967, -1.1974701881408691, -0.7103269100189209,
			-0.6512648463249207, -0.35482028126716614, -0.06553253531455994, -0.16924352943897247,
			-0.09208347648382187, -0.10815829783678055, -0.01172669231891632, 0.1638960987329483,
			0.2106318324804306, 0.282314270734787, 0.5786910653114319, 0.0348711758852005,
			-0.03814924880862236, -0.05426839739084244, -0.14672979712486267, -0.102826789021492,
			0.16815584897994995, -0.03084585629403591, 0.1771990954875946, 0.4206724464893341,
			0.6111621260643005, 0.5607926249504089, 0.018829362466931343, -0.3347397744655609,
			-0.8132295608520508, -1.178054928779602, -1.2012938261032104, -0.9056556820869446,
			-0.7521911859512329, -0.6293550729751587, -0.3476620614528656, -0.26179227232933044,
			-0.2588527798652649, -0.01582982763648033, 0.12216489017009735, 0.18242968618869781,
			0.33066636323928833, 0.31592780351638794, 0.3537605106830597, 0.024304136633872986,
			0.05759775638580322, 0.02438904531300068, 0.01697300747036934, -0.04604708030819893,
			0.06071857362985611, 0.10460813343524933, 0.33064860105514526, 0.6912969946861267,
			0.8749403953552246, 0.6088845133781433, 0.06932076811790466, -0.24145673215389252,
			-0.7202265858650208, -0.8933489918708801, -0.935624897480011, -0.8033750057220459,
			-0.7752581834793091, -0.6869505643844604, -0.21691417694091797, -0.3053186535835266,
			-0.30330604314804077, -0.03372140973806381, 0.1502709835767746, 0.2928816080093384,
			0.28862595558166504, 0.34689512848854065, 0.1933153122663498, 0.08432657271623611,
			-0.02568996138870716, 0.13535597920417786, -0.17672087252140045, -0.10985780507326126,
			0.055962663143873215, 0.23682112991809845, 0.30243009328842163, 0.7558726072311401,
			0.8133179545402527, 0.3405609428882599, -0.03636275976896286, -0.06425316631793976,
			-0.407768189907074, -0.7048193216323853, -0.6327376365661621, -0.5294770002365112,
			-0.40190359950065613, -0.22585737705230713, -0.2575746476650238, -0.16015274822711945,
			0.18384864926338196, 0.2305837720632553, 0.1292794793844223, 0.46255820989608765,
			0.4490523934364319, 0.3186759352684021, 0.14729894697666168, -0.09493310749530792,
			-0.12939275801181793, 0.01581580378115177, -0.22672995924949646,
			-0.017560377717018127, 0.04939592257142067, 0.19861721992492676, 0.328610360622406,
			0.645231306552887, 0.6150134205818176, 0.2665187418460846, -0.10785944759845734,
			-0.09978120774030685, -0.30200499296188354, -0.7029922008514404, -0.5720906853675842,
			-0.5752912163734436, -0.2841320037841797, -0.44374096393585205, -0.559577226638794,
			-0.10109896957874298, 0.4566281735897064, 0.3178933262825012, 0.14435800909996033,
			0.17642389237880707, 0.4024428725242615, 0.09300576150417328, 0.09799645841121674,
			-0.18601486086845398, -0.5612937211990356, -0.3380886912345886, -0.20050357282161713,
			-0.08024489134550095, -0.0757468193769455, -0.030274730175733566, 0.15455269813537598,
			0.31239578127861023, 0.46361300349235535, 0.26111793518066406, -0.08799993991851807,
			-0.03853926435112953, -0.07852569967508316, -0.42074471712112427,
			-0.44967684149742126, -0.4431886672973633, -0.19809281826019287, 0.011018182151019573,
			0.010325204581022263, 0.43948954343795776, 0.532944917678833, 0.1677408516407013,
			0.1453167051076889, 0.1900479644536972, 0.2850700616836548, -0.10679832845926285,
			0.1419205367565155, -0.1860375851392746, -0.46355390548706055, -0.5569087266921997,
			-0.17239008843898773, -0.027732571586966515, -0.11197599768638611,
			-0.17585454881191254, -0.05133290961384773, 0.07694552093744278, 0.23462267220020294,
			-0.05369819328188896, -0.02108902670443058, 0.16404595971107483, -0.01823846809566021,
			-0.38622719049453735, -0.2539339065551758, -0.26971006393432617, 0.07145856320858002,
			0.08970650285482407, 0.262490451335907, 0.6781671047210693, 0.6440374255180359,
			-0.14745204150676727, -0.14553146064281464, 0.1671438068151474, 0.43773332238197327,
			-0.03600237891077995, -0.06910509616136551, -0.3083851635456085, -0.48943397402763367,
			-0.5987282991409302, -0.1835818886756897, 0.02942267432808876, -0.037867382168769836,
			-0.14940762519836426, -0.19138167798519135, -0.07513301074504852, 0.15860861539840698,
			-0.07478205114603043, -0.1961321234703064, 0.010137411765754223, 0.05950241908431053,
			0.020199764519929886, -0.12010502815246582, 0.2244017869234085, 0.14079178869724274,
			0.1251097023487091, 0.22828546166419983, 0.7174562811851501, 0.4786975681781769,
			-0.2288394570350647, -0.1322958618402481, -0.025642365217208862, 0.2920059561729431,
			-0.03133661299943924, -0.10886530578136444, -0.19345642626285553, -0.4124314785003662,
			-0.4390695095062256, -0.27789899706840515, -0.1013493612408638, 0.12318051606416702,
			-0.015193878673017025, -0.12768638134002686, 0.11417728662490845, 0.2314184308052063,
			0.005220661871135235, -0.20009145140647888, -0.029150668531656265,
			0.13822706043720245, 0.10501249134540558, 0.18264055252075195, 0.2901638150215149,
			0.3141934275627136, 0.3301599323749542, 0.3060692846775055, 0.0999041199684143,
			0.3646179139614105, 0.32752808928489685, 0.17779453098773956, 0.10438647121191025,
			0.01484401524066925, -0.020158102735877037, -0.10483334958553314,
			-0.20419053733348846, -0.13720360398292542, 0.02954445779323578, -0.08641806989908218,
			0.15060639381408691, 0.003962224815040827, 0.053958773612976074, 0.02206007018685341,
			0.10767608135938644, 0.3533874750137329, 0.07442078739404678, 0.01701783575117588,
			-0.04874846711754799, 0.19307725131511688, 0.17316322028636932, 0.27701470255851746,
			0.3723776638507843, 0.3138512670993805, 0.10466288775205612, 0.0032891526352614164,
			0.08465719223022461, 0.47399288415908813, 0.2764352858066559, -0.02592048980295658,
			-0.06982553750276566, -0.02933375909924507, -0.05333622545003891,
			0.016562968492507935, -0.16860246658325195, 0.12104571610689163, 0.015917036682367325,
			-0.03921835124492645, -0.04170668125152588, -0.1856827288866043, -0.3534550666809082,
			-0.1079692468047142, 0.11041510105133057, 0.2958909273147583, 0.0803847461938858,
			-0.10685384273529053, -0.05983857437968254, 0.04278966784477234, 0.18895384669303894,
			0.28379756212234497, 0.45355719327926636, 0.43344438076019287, 0.10563725978136063,
			-0.2150544822216034, 0.19659455120563507, 0.3712460696697235, 0.586674690246582,
			0.20615467429161072, -0.11344590783119202, -0.03355766460299492, 0.057031482458114624,
			0.1476452499628067, -0.18271341919898987, -0.08078687638044357, -0.1005527451634407,
			-0.03067094273865223, -0.019441593438386917, -0.20463912189006805,
			-0.49217453598976135, -0.46989062428474426, -0.2632770240306854, 0.1029818058013916,
			0.12653771042823792, -0.023591388016939163, 0.06837751716375351, 0.1086188554763794,
			0.06837431341409683, 0.1332295835018158, 0.4859762489795685, 0.3685462176799774,
			-0.11000195145606995, -0.22675266861915588, 0.4710140526294708, 0.630996823310852,
			0.39556917548179626, -0.030823567882180214, 0.1857055127620697, 0.17207711935043335,
			-0.008445782586932182, -0.07869568467140198, -0.5045096278190613,
			-0.25610822439193726, 0.17731675505638123, -0.032233092933893204, -0.1700722724199295,
			-0.3176884651184082, -0.3953949511051178, -0.4832902252674103, -0.30910035967826843,
			0.07364741712808609, 0.15338687598705292, 0.058181703090667725, 0.05130841210484505,
